{"learner":{"attributes":{"scikit_learn":"{\"_estimator_type\": \"classifier\"}"},"feature_names":[],"feature_types":[],"gradient_booster":{"model":{"gbtree_model_param":{"num_parallel_tree":"1","num_trees":"100"},"iteration_indptr":[0,1,2,3,4,5,6,7,8,9,10,11,12,13,14,15,16,17,18,19,20,21,22,23,24,25,26,27,28,29,30,31,32,33,34,35,36,37,38,39,40,41,42,43,44,45,46,47,48,49,50,51,52,53,54,55,56,57,58,59,60,61,62,63,64,65,66,67,68,69,70,71,72,73,74,75,76,77,78,79,80,81,82,83,84,85,86,87,88,89,90,91,92,93,94,95,96,97,98,99,100],"tree_info":[0,0,0,0,0,0,0,0,0,0,0,0,0,0,0,0,0,0,0,0,0,0,0,0,0,0,0,0,0,0,0,0,0,0,0,0,0,0,0,0,0,0,0,0,0,0,0,0,0,0,0,0,0,0,0,0,0,0,0,0,0,0,0,0,0,0,0,0,0,0,0,0,0,0,0,0,0,0,0,0,0,0,0,0,0,0,0,0,0,0,0,0,0,0,0,0,0,0,0,0],"trees":[{"base_weights":[-5.62581E-1,-9.145765E-1,5.8397305E-1,-1.0276517E0,1.1750283E-1,-3.635062E-1,2.0954442E0,-1.1171161E0,6.1081618E-2,1.3262436E-1,-9.910296E-2,-1.864947E-3,3.510144E-1,-1.2703528E-2,-1.1478611E-1],"categories":[],"categories_nodes":[],"categories_segments":[],"categories_sizes":[],"default_left":[0,0,0,0,0,0,0,0,0,0,0,0,0,0,0],"id":0,"left_children":[1,3,5,7,-1,9,11,13,-1,-1,-1,-1,-1,-1,-1],"loss_changes":[1.8097439E1,9.166985E0,1.6274715E1,5.4449387E0,0E0,9.278344E0,1.2991056E1,8.027458E-1,0E0,0E0,0E0,0E0,0E0,0E0,0E0],"parents":[2147483647,0,0,1,1,2,2,3,3,5,5,6,6,7,7],"right_children":[2,4,6,8,-1,10,12,14,-1,-1,-1,-1,-1,-1,-1],"split_conditions":[5.006481E-1,8.09642E-1,3.9403138E-1,1.0138482E0,1.1750283E-1,2.5817096E-1,4.246658E-1,9.834643E-2,6.1081618E-2,1.3262436E-1,-9.910296E-2,-1.864947E-3,3.510144E-1,-1.2703528E-2,-1.1478611E-1],"split_indices":[2038,714,358,1097,0,487,1796,20,0,0,0,0,0,0,0],"split_type":[0,0,0,0,0,0,0,0,0,0,0,0,0,0,0],"sum_hessian":[4.2518684E1,3.2686237E1,9.832445E0,3.1490398E1,1.195838E0,6.510673E0,3.321772E0,3.016169E1,1.3287089E0,1.4615797E0,5.0490937E0,1.7273215E0,1.5944506E0,1.0629671E0,2.9098722E1],"tree_param":{"num_deleted":"0","num_feature":"2048","num_nodes":"15","size_leaf_vector":"1"}},{"base_weights":[-5.2467555E-1,-7.4352884E-1,1.1840774E0,-8.611146E-1,1.0537683E-1,-5.4078245E-1,2.9306358E-1,-9.636514E-1,9.135758E-2,-6.920369E-2,-8.878611E-3,8.3836466E-2,-1.0466102E0,-1.13387756E-1,2.3111392E-2],"categories":[],"categories_nodes":[],"categories_segments":[],"categories_sizes":[],"default_left":[0,0,0,0,0,0,0,0,0,0,0,0,0,0,0],"id":1,"left_children":[1,3,5,7,-1,9,-1,11,-1,-1,-1,-1,13,-1,-1],"loss_changes":[1.6441778E1,8.832867E0,1.6979572E1,7.3856583E0,0E0,1.720469E-1,0E0,6.0025215E0,0E0,0E0,0E0,0E0,3.9660873E0,0E0,0E0],"parents":[2147483647,0,0,1,1,2,2,3,3,5,5,7,7,12,12],"right_children":[2,4,6,8,-1,10,-1,12,-1,-1,-1,-1,14,-1,-1],"split_conditions":[9.1184336E-1,7.580244E-1,4.8336986E-1,4.244534E-1,1.0537683E-1,4.7634763E-1,2.9306358E-1,6.50684E-2,9.135758E-2,-6.920369E-2,-8.878611E-3,8.3836466E-2,4.641428E-1,-1.13387756E-1,2.3111392E-2],"split_indices":[24,654,338,707,0,7,0,1895,0,0,0,0,728,0,0],"split_type":[0,0,0,0,0,0,0,0,0,0,0,0,0,0,0],"sum_hessian":[4.0611732E1,3.6501564E1,4.11017E0,3.474904E1,1.7525257E0,2.4152744E0,1.6948954E0,3.3283035E1,1.4660006E0,1.4117757E0,1.0034987E0,1.0640543E0,3.2218983E1,3.0264526E1,1.954457E0],"tree_param":{"num_deleted":"0","num_feature":"2048","num_nodes":"15","size_leaf_vector":"1"}},{"base_weights":[-4.8874134E-1,-8.516795E-1,5.411773E-1,-9.7451115E-1,1.0121808E-1,1.2695756E0,-8.944276E-2,-1.0742395E0,5.910919E-2,-1.7643599E-1,2.3004498E0,-1.0105134E-2,-1.1093078E-1,8.8593446E-2,-8.000403E-2,2.6136467E-2,2.9431984E-1],"categories":[],"categories_nodes":[],"categories_segments":[],"categories_sizes":[],"default_left":[0,0,0,0,0,0,0,0,0,0,0,0,0,0,0,0,0],"id":2,"left_children":[1,3,5,7,-1,9,-1,11,-1,13,15,-1,-1,-1,-1,-1,-1],"loss_changes":[1.5329491E1,7.80904E0,1.2613317E1,5.079811E0,0E0,1.1876462E1,0E0,8.133888E-1,0E0,3.4458325E0,5.211876E0,0E0,0E0,0E0,0E0,0E0,0E0],"parents":[2147483647,0,0,1,1,2,2,3,3,5,5,7,7,9,9,10,10],"right_children":[2,4,6,8,-1,10,-1,12,-1,14,16,-1,-1,-1,-1,-1,-1],"split_conditions":[5.006481E-1,8.09642E-1,3.8354483E-1,1.0138482E0,1.0121808E-1,3.8633183E-1,-8.944276E-2,1.6527657E-1,5.910919E-2,2.5537112E-1,3.6966315E-1,-1.0105134E-2,-1.1093078E-1,8.8593446E-2,-8.000403E-2,2.6136467E-2,2.9431984E-1],"split_indices":[2038,714,1550,1097,0,1371,0,37,0,1954,586,0,0,0,0,0,0],"split_type":[0,0,0,0,0,0,0,0,0,0,0,0,0,0,0,0,0],"sum_hessian":[3.8777184E1,2.8800938E1,9.976245E0,2.7467909E1,1.333029E0,6.694988E0,3.281257E0,2.6118048E1,1.3498603E0,3.1314034E0,3.5635843E0,1.0434208E0,2.5074627E1,1.0026405E0,2.128763E0,1.1912007E0,2.3723836E0],"tree_param":{"num_deleted":"0","num_feature":"2048","num_nodes":"17","size_leaf_vector":"1"}},{"base_weights":[-4.5756614E-1,-8.203412E-1,4.9658117E-1,-9.5107454E-1,9.7491324E-2,1.128425E0,-8.698979E-2,-1.0561855E0,5.4387044E-2,1.7677608E0,-4.8431915E-1,-1.093035E-1,-8.940919E-3,2.6531014E-1,3.0501345E-1,-6.049123E-2,-1.2263067E-2,-6.753885E-2,1.2989114E-1],"categories":[],"categories_nodes":[],"categories_segments":[],"categories_sizes":[],"default_left":[0,0,0,0,0,0,0,0,0,0,0,0,0,0,0,0,0,0,0],"id":3,"left_children":[1,3,5,7,-1,9,-1,11,-1,13,15,-1,-1,-1,17,-1,-1,-1,-1],"loss_changes":[1.3575764E1,7.4848747E0,1.0567812E1,4.7464046E0,0E0,9.133268E0,0E0,7.9810333E-1,0E0,6.9139404E0,5.9456408E-2,0E0,0E0,0E0,4.1693444E0,0E0,0E0,0E0,0E0],"parents":[2147483647,0,0,1,1,2,2,3,3,5,5,7,7,9,9,10,10,14,14],"right_children":[2,4,6,8,-1,10,-1,12,-1,14,16,-1,-1,-1,18,-1,-1,-1,-1],"split_conditions":[5.006481E-1,9.483749E-1,3.8354483E-1,1.0138482E0,9.7491324E-2,5.705532E-1,-8.698979E-2,1.1084031E0,5.4387044E-2,3.5704014E-1,5.108514E-1,-1.093035E-1,-8.940919E-3,2.6531014E-1,7.051588E-1,-6.049123E-2,-1.2263067E-2,-6.753885E-2,1.2989114E-1],"split_indices":[2038,668,1550,1097,0,1369,0,47,0,1271,1764,0,0,0,690,0,0,0,0],"split_type":[0,0,0,0,0,0,0,0,0,0,0,0,0,0,0,0,0,0,0],"sum_hessian":[3.704347E1,2.694064E1,1.0102828E1,2.5550257E1,1.3903828E0,7.0275717E0,3.0752568E0,2.4146025E1,1.404233E0,4.963704E0,2.0638673E0,2.3133667E1,1.0123568E0,2.585206E0,2.3784983E0,1.0434841E0,1.0203832E0,1.3587064E0,1.019792E0],"tree_param":{"num_deleted":"0","num_feature":"2048","num_nodes":"19","size_leaf_vector":"1"}},{"base_weights":[-4.2949468E-1,-7.8961E-1,4.5362237E-1,6.567651E-1,-9.6023345E-1,1.1009957E0,-7.062498E-1,-6.4734735E-2,1.8321913E-1,-1.0770648E-1,2.021115E-1,-6.9888644E-2,1.6678861E0,-1.1867086E-2,-8.361459E-2,-5.8261316E-2,8.89995E-2,2.2008598E0,-2.1539176E-2,2.495513E-1,6.560883E-2],"categories":[],"categories_nodes":[],"categories_segments":[],"categories_sizes":[],"default_left":[0,0,0,0,0,0,0,0,0,0,0,0,0,0,0,0,0,0,0,0,0],"id":4,"left_children":[1,3,5,7,9,11,13,-1,-1,-1,15,-1,17,-1,-1,-1,-1,19,-1,-1,-1],"loss_changes":[1.1933636E1,7.101324E0,9.170959E0,6.3373604E0,3.4577427E0,8.884347E0,2.5288463E-1,0E0,0E0,0E0,2.1493363E0,0E0,6.544855E0,0E0,0E0,0E0,0E0,5.490246E-1,0E0,0E0,0E0],"parents":[2147483647,0,0,1,1,2,2,3,3,4,4,5,5,6,6,10,10,12,12,17,17],"right_children":[2,4,6,8,10,12,14,-1,-1,-1,16,-1,18,-1,-1,-1,-1,20,-1,-1,-1],"split_conditions":[5.006481E-1,1.5809242E-1,4.0968737E-1,5.467335E-1,8.151519E-1,2.676898E-1,4.0990266E-1,-6.4734735E-2,1.8321913E-1,-1.0770648E-1,4.8804063E-1,-6.9888644E-2,6.3493466E-1,-1.1867086E-2,-8.361459E-2,-5.8261316E-2,8.89995E-2,6.309644E-1,-2.1539176E-2,2.495513E-1,6.560883E-2],"split_indices":[2038,757,2044,741,1153,1353,1179,0,0,0,14,0,435,0,0,0,0,117,0,0,0],"split_type":[0,0,0,0,0,0,0,0,0,0,0,0,0,0,0,0,0,0,0,0,0],"sum_hessian":[3.5398045E1,2.5219841E1,1.0178204E1,2.3605168E0,2.2859324E1,6.564848E0,3.6133559E0,1.3319786E0,1.0285382E0,2.0838175E1,2.0211487E0,1.5166448E0,5.048203E0,1.0006312E0,2.6127248E0,1.015603E0,1.0055456E0,3.803241E0,1.244962E0,2.6771398E0,1.1261014E0],"tree_param":{"num_deleted":"0","num_feature":"2048","num_nodes":"21","size_leaf_vector":"1"}},{"base_weights":[-4.0373385E-1,-6.9126135E-1,6.706992E-1,-8.648548E-1,9.131239E-1,1.8045216E0,-2.1767122E-1,-9.9538094E-1,4.8956003E-2,-1.8075962E-2,1.5667608E-1,2.1427353E-1,6.1064858E-2,-8.648073E-2,1.2282591E-1,3.5178266E-2,-1.0725794E-1],"categories":[],"categories_nodes":[],"categories_segments":[],"categories_sizes":[],"default_left":[0,0,0,0,0,0,0,0,0,0,0,0,0,0,0,0,0],"id":5,"left_children":[1,3,5,7,9,11,13,15,-1,-1,-1,-1,-1,-1,-1,-1,-1],"loss_changes":[1.1214675E1,8.573127E0,8.304266E0,5.036289E0,2.5819352E0,1.2828827E-1,6.018021E0,2.8524303E0,0E0,0E0,0E0,0E0,0E0,0E0,0E0,0E0,0E0],"parents":[2147483647,0,0,1,1,2,2,3,3,4,4,5,5,6,6,7,7],"right_children":[2,4,6,8,10,12,14,16,-1,-1,-1,-1,-1,-1,-1,-1,-1],"split_conditions":[5.9007514E-1,7.580244E-1,2.6620826E-1,7.288151E-1,5.810118E-1,4.655609E-1,8.429932E-1,1.8615259E-1,4.8956003E-2,-1.8075962E-2,1.5667608E-1,2.1427353E-1,6.1064858E-2,-8.648073E-2,1.2282591E-1,3.5178266E-2,-1.0725794E-1],"split_indices":[741,654,318,661,767,197,760,1800,0,0,0,0,0,0,0,0,0],"split_type":[0,0,0,0,0,0,0,0,0,0,0,0,0,0,0,0,0],"sum_hessian":[3.380102E1,2.6946527E1,6.8544955E0,2.4731535E1,2.2149928E0,2.558203E0,4.2962923E0,2.279942E1,1.9321159E0,1.0990877E0,1.1159049E0,1.3741435E0,1.1840595E0,3.2456028E0,1.0506895E0,1.0429204E0,2.1756498E1],"tree_param":{"num_deleted":"0","num_feature":"2048","num_nodes":"17","size_leaf_vector":"1"}},{"base_weights":[-3.7254632E-1,-6.6089E-1,6.397349E-1,-8.384042E-1,8.5315156E-1,-7.370253E-2,1.1996406E0,-9.7462124E-1,4.4883966E-2,-1.7237905E-2,1.4467002E-1,-3.3635747E-2,1.7936411E0,3.7339564E-2,-1.0572306E-1,2.1361867E-1,3.1181185E-2],"categories":[],"categories_nodes":[],"categories_segments":[],"categories_sizes":[],"default_left":[0,0,0,0,0,0,0,0,0,0,0,0,0,0,0,0,0],"id":6,"left_children":[1,3,5,7,9,-1,11,13,-1,-1,-1,-1,15,-1,-1,-1,-1],"loss_changes":[1.0096878E1,7.7804356E0,6.9399457E0,4.651554E0,2.2302778E0,0E0,6.045923E0,2.8500862E0,0E0,0E0,0E0,0E0,1.5975943E0,0E0,0E0,0E0,0E0],"parents":[2147483647,0,0,1,1,2,2,3,3,4,4,6,6,7,7,12,12],"right_children":[2,4,6,8,10,-1,12,14,-1,-1,-1,-1,16,-1,-1,-1,-1],"split_conditions":[5.9007514E-1,7.580244E-1,4.5391905E-1,7.288151E-1,5.810118E-1,-7.370253E-2,3.5822302E-1,1.3419214E-1,4.4883966E-2,-1.7237905E-2,1.4467002E-1,-3.3635747E-2,3.686317E-1,3.7339564E-2,-1.0572306E-1,2.1361867E-1,3.1181185E-2],"split_indices":[741,654,559,661,767,0,935,921,0,0,0,0,1984,0,0,0,0],"split_type":[0,0,0,0,0,0,0,0,0,0,0,0,0,0,0,0,0],"sum_hessian":[3.214349E1,2.5287569E1,6.85592E0,2.3033274E1,2.254295E0,1.8906457E0,4.9652743E0,2.1048742E1,1.9845309E0,1.0865455E0,1.1677495E0,1.5056434E0,3.4596307E0,1.0121697E0,2.0036573E1,2.4513738E0,1.008257E0],"tree_param":{"num_deleted":"0","num_feature":"2048","num_nodes":"17","size_leaf_vector":"1"}},{"base_weights":[-3.472241E-1,-7.1301E-1,4.3189058E-1,5.853436E-1,-9.000347E-1,8.893222E-1,-7.924468E-2,-6.0105074E-2,1.5113476E-1,-1.03827074E-1,2.5989925E-2,1.2451894E0,-6.287778E-2,-3.0263668E-2,1.6773916E0,1.9700462E-1,2.380258E-2],"categories":[],"categories_nodes":[],"categories_segments":[],"categories_sizes":[],"default_left":[0,0,0,0,0,0,0,0,0,0,0,0,0,0,0,0,0],"id":7,"left_children":[1,3,5,7,9,11,-1,-1,-1,-1,-1,13,-1,-1,15,-1,-1],"loss_changes":[9.326291E0,5.847499E0,6.7157235E0,4.6050196E0,3.4040642E0,5.2587595E0,0E0,0E0,0E0,0E0,0E0,5.221945E0,0E0,0E0,1.915987E0,0E0,0E0],"parents":[2147483647,0,0,1,1,2,2,3,3,4,4,5,5,11,11,14,14],"right_children":[2,4,6,8,10,12,-1,-1,-1,-1,-1,14,-1,-1,16,-1,-1],"split_conditions":[5.006481E-1,1.5809242E-1,3.8354483E-1,1.497884E-1,4.8618546E-1,6.273198E-1,-7.924468E-2,-6.0105074E-2,1.5113476E-1,-1.03827074E-1,2.5989925E-2,2.9418865E-1,-6.287778E-2,-3.0263668E-2,6.416512E-1,1.9700462E-1,2.380258E-2],"split_indices":[2038,757,1550,757,946,1740,0,0,0,0,0,1286,0,0,936,0,0],"split_type":[0,0,0,0,0,0,0,0,0,0,0,0,0,0,0,0,0],"sum_hessian":[3.0644533E1,2.0911606E1,9.732926E0,2.3648312E0,1.8546774E1,7.2848296E0,2.448097E0,1.1904933E0,1.1743379E0,1.6665535E1,1.8812387E0,6.04707E0,1.2377597E0,1.3853955E0,4.6616745E0,3.5676105E0,1.0940638E0],"tree_param":{"num_deleted":"0","num_feature":"2048","num_nodes":"17","size_leaf_vector":"1"}},{"base_weights":[-3.2868803E-1,-5.6255025E-1,8.186424E-1,-7.524286E-1,6.515924E-1,-6.603165E-2,1.5368845E0,7.3913686E-2,-8.9308465E-1,1.3104515E-1,-5.7036486E-2,5.090627E-2,1.7882091E-1,-1.0005623E0,1.37337E-2,-1.0399886E-1,-1.4050382E-2],"categories":[],"categories_nodes":[],"categories_segments":[],"categories_sizes":[],"default_left":[0,0,0,0,0,0,0,0,0,0,0,0,0,0,0,0,0],"id":8,"left_children":[1,3,5,7,9,-1,11,-1,13,-1,-1,-1,-1,15,-1,-1,-1],"loss_changes":[8.563648E0,6.4103184E0,6.8791876E0,5.4163036E0,3.974849E0,0E0,1.2723446E-1,0E0,2.4818878E0,0E0,0E0,0E0,0E0,5.0800896E-1,0E0,0E0,0E0],"parents":[2147483647,0,0,1,1,2,2,3,3,4,4,6,6,8,8,13,13],"right_children":[2,4,6,8,10,-1,12,-1,14,-1,-1,-1,-1,16,-1,-1,-1],"split_conditions":[9.1783017E-1,8.230692E-1,5.1023495E-1,2.1269296E-1,3.9954218E-1,-6.603165E-2,3.9423513E-1,7.3913686E-2,8.313346E-1,1.3104515E-1,-5.7036486E-2,5.090627E-2,1.7882091E-1,9.702934E-1,1.37337E-2,-1.0399886E-1,-1.4050382E-2],"split_indices":[1794,1230,1273,1814,6,0,471,0,1013,0,0,0,0,1639,0,0,0],"split_type":[0,0,0,0,0,0,0,0,0,0,0,0,0,0,0,0,0],"sum_hessian":[2.919978E1,2.4679089E1,4.520691E0,2.1670364E1,3.0087233E0,1.5041301E0,3.0165606E0,1.5007691E0,2.0169596E1,1.907702E0,1.1010213E0,1.187138E0,1.8294227E0,1.8290764E1,1.8788319E0,1.7289003E1,1.001761E0],"tree_param":{"num_deleted":"0","num_feature":"2048","num_nodes":"17","size_leaf_vector":"1"}},{"base_weights":[-3.0570343E-1,-6.6728854E-1,4.067988E-1,-8.276808E-1,7.8944415E-2,8.0739796E-1,-7.593494E-2,-9.683558E-1,5.073271E-2,-6.431493E-2,1.1898515E0,-1.0137086E-1,-1.2860306E-2,-1.7808415E-2,1.4843718E0,1.6716795E-1,4.594509E-2],"categories":[],"categories_nodes":[],"categories_segments":[],"categories_sizes":[],"default_left":[0,0,0,0,0,0,0,0,0,0,0,0,0,0,0,0,0],"id":9,"left_children":[1,3,5,7,-1,9,-1,11,-1,-1,13,-1,-1,-1,15,-1,-1],"loss_changes":[7.7032223E0,5.212907E0,5.4399204E0,3.8842964E0,0E0,5.300544E0,0E0,5.0521946E-1,0E0,0E0,3.012126E0,0E0,0E0,0E0,3.29875E-1,0E0,0E0],"parents":[2147483647,0,0,1,1,2,2,3,3,5,5,7,7,10,10,14,14],"right_children":[2,4,6,8,-1,10,-1,12,-1,-1,14,-1,-1,-1,16,-1,-1],"split_conditions":[5.006481E-1,9.483749E-1,4.4520852E-1,1.0138482E0,7.8944415E-2,2.7050066E-1,-7.593494E-2,1.0501981E0,5.073271E-2,-6.431493E-2,3.0395856E-1,-1.0137086E-1,-1.2860306E-2,-1.7808415E-2,5.161448E-1,1.6716795E-1,4.594509E-2],"split_indices":[2038,668,2044,1097,0,353,0,45,0,0,650,0,0,0,1388,0,0],"split_type":[0,0,0,0,0,0,0,0,0,0,0,0,0,0,0,0,0],"sum_hessian":[2.7846653E1,1.8514338E1,9.3323145E0,1.7067013E1,1.4473246E0,7.175128E0,2.157187E0,1.56884985E1,1.3785142E0,1.3548589E0,5.820269E0,1.4688083E1,1.0004162E0,1.1011561E0,4.719113E0,3.4564102E0,1.2627028E0],"tree_param":{"num_deleted":"0","num_feature":"2048","num_nodes":"17","size_leaf_vector":"1"}},{"base_weights":[-2.883827E-1,-5.2097285E-1,7.5905025E-1,-6.9419706E-1,7.2902983E-1,-6.1642785E-2,1.3515711E0,-8.2671887E-1,5.416323E-2,1.2255883E-1,-1.5639568E-2,4.4411264E-2,1.5649751E-1,-9.4011986E-1,5.9597123E-2,2.409465E-2,-1.0233017E-1],"categories":[],"categories_nodes":[],"categories_segments":[],"categories_sizes":[],"default_left":[0,0,0,0,0,0,0,0,0,0,0,0,0,0,0,0,0],"id":10,"left_children":[1,3,5,7,9,-1,11,13,-1,-1,-1,-1,-1,15,-1,-1,-1],"loss_changes":[7.104094E0,5.5136576E0,5.2428637E0,3.8581858E0,1.6436836E0,0E0,9.796953E-2,3.6583776E0,0E0,0E0,0E0,0E0,0E0,2.0319633E0,0E0,0E0,0E0],"parents":[2147483647,0,0,1,1,2,2,3,3,4,4,6,6,7,7,13,13],"right_children":[2,4,6,8,10,-1,12,14,-1,-1,-1,-1,-1,16,-1,-1,-1],"split_conditions":[9.1783017E-1,1.1976213E0,5.1023495E-1,7.8284746E-1,3.7403557E-1,-6.1642785E-2,3.9423513E-1,1.0926602E0,5.416323E-2,1.2255883E-1,-1.5639568E-2,4.4411264E-2,1.5649751E-1,1.3267362E-1,5.9597123E-2,2.409465E-2,-1.0233017E-1],"split_indices":[1794,1807,1273,616,522,0,471,588,0,0,0,0,0,1065,0,0,0],"split_type":[0,0,0,0,0,0,0,0,0,0,0,0,0,0,0,0,0],"sum_hessian":[2.653706E1,2.212636E1,4.4107E0,1.9823833E1,2.302525E0,1.315816E0,3.094884E0,1.820292E1,1.6209137E0,1.2290674E0,1.0734576E0,1.1758598E0,1.9190242E0,1.7173256E1,1.0296654E0,1.0051343E0,1.6168121E1],"tree_param":{"num_deleted":"0","num_feature":"2048","num_nodes":"17","size_leaf_vector":"1"}},{"base_weights":[-2.64681E-1,-6.217963E-1,3.9441547E-1,-8.317384E-1,5.490483E-1,7.526508E-1,-7.135799E-2,2.9883673E-2,-9.9217825E-2,-2.412275E-2,1.13524035E-1,1.0835983E0,-3.825262E-2,1.109322E-3,1.3684073E-1],"categories":[],"categories_nodes":[],"categories_segments":[],"categories_sizes":[],"default_left":[0,0,0,0,0,0,0,0,0,0,0,0,0,0,0],"id":11,"left_children":[1,3,5,7,9,11,-1,-1,-1,-1,-1,13,-1,-1,-1],"loss_changes":[6.4188843E0,4.7337146E0,4.438539E0,3.0448952E0,1.7784657E0,3.387824E0,0E0,0E0,0E0,0E0,0E0,1.9363394E0,0E0,0E0,0E0],"parents":[2147483647,0,0,1,1,2,2,3,3,4,4,5,5,11,11],"right_children":[2,4,6,8,10,12,-1,-1,-1,-1,-1,14,-1,-1,-1],"split_conditions":[5.006481E-1,8.151519E-1,3.8354483E-1,1.5809242E-1,4.739854E-1,5.705532E-1,-7.135799E-2,2.9883673E-2,-9.9217825E-2,-2.412275E-2,1.13524035E-1,3.6306283E-1,-3.825262E-2,1.109322E-3,1.3684073E-1],"split_indices":[2038,1153,1550,757,254,1369,0,0,0,0,0,1614,0,0,0],"split_type":[0,0,0,0,0,0,0,0,0,0,0,0,0,0,0],"sum_hessian":[2.5229118E1,1.6399853E1,8.829267E0,1.4151921E1,2.247931E0,6.9144173E0,1.914849E0,1.6515176E0,1.2500403E1,1.2079349E0,1.039996E0,5.3888097E0,1.5256075E0,1.3487545E0,4.0400553E0],"tree_param":{"num_deleted":"0","num_feature":"2048","num_nodes":"15","size_leaf_vector":"1"}},{"base_weights":[-2.494937E-1,-5.342898E-1,5.4239E-1,-8.092834E-1,3.4910345E-1,-6.2395025E-2,9.2378604E-1,-9.4757503E-1,5.213898E-2,1.0715873E0,-6.834292E-2,-2.613294E-2,1.2541903E0,-2.105127E-2,-9.890955E-2,1.2889686E-1,2.718233E-2,1.4369741E-1,3.877395E-2],"categories":[],"categories_nodes":[],"categories_segments":[],"categories_sizes":[],"default_left":[0,0,0,0,0,0,0,0,0,0,0,0,0,0,0,0,0,0,0],"id":12,"left_children":[1,3,5,7,9,-1,11,13,-1,15,-1,-1,17,-1,-1,-1,-1,-1,-1],"loss_changes":[5.9483075E0,4.887796E0,3.7494104E0,3.2099113E0,4.610741E0,0E0,2.5903845E0,2.117796E-1,0E0,2.4910116E-1,0E0,0E0,1.8576527E-1,0E0,0E0,0E0,0E0,0E0,0E0],"parents":[2147483647,0,0,1,1,2,2,3,3,4,4,6,6,7,7,9,9,12,12],"right_children":[2,4,6,8,10,-1,12,14,-1,16,-1,-1,18,-1,-1,-1,-1,-1,-1],"split_conditions":[5.9007514E-1,7.7825993E-1,2.9576367E-1,1.144976E0,5.171908E-1,-6.2395025E-2,3.7489662E-1,4.31462E-1,5.213898E-2,3.376898E-1,-6.834292E-2,-2.613294E-2,4.1024125E-1,-2.105127E-2,-9.890955E-2,1.2889686E-1,2.718233E-2,1.4369741E-1,3.877395E-2],"split_indices":[741,466,650,575,1231,0,935,1556,0,1108,0,0,1898,0,0,0,0,0,0],"split_type":[0,0,0,0,0,0,0,0,0,0,0,0,0,0,0,0,0,0,0],"sum_hessian":[2.4090364E1,1.7957392E1,6.132972E0,1.3758399E1,4.198993E0,1.3545829E0,4.778389E0,1.2723947E1,1.0344524E0,2.4481492E0,1.7508439E0,1.0873332E0,3.6910558E0,1.0022539E0,1.1721693E1,1.44398E0,1.0041692E0,2.504297E0,1.1867588E0],"tree_param":{"num_deleted":"0","num_feature":"2048","num_nodes":"19","size_leaf_vector":"1"}},{"base_weights":[-2.3269238E-1,2.3911664E-1,-6.986193E-1,-4.4030505E-1,9.020006E-1,2.5349343E-1,-9.573005E-2,-8.591353E-2,4.1724216E-2,-2.9020337E-2,1.2591609E0,-3.413373E-2,8.109312E-2,1.4929335E-1,1.5453703E-2],"categories":[],"categories_nodes":[],"categories_segments":[],"categories_sizes":[],"default_left":[0,0,0,0,0,0,0,0,0,0,0,0,0,0,0],"id":13,"left_children":[1,3,5,7,9,11,-1,-1,-1,-1,13,-1,-1,-1,-1],"loss_changes":[5.4344997E0,6.0947347E0,3.2747793E0,2.8436792E0,3.2316484E0,1.4110817E0,0E0,0E0,0E0,0E0,1.1551819E0,0E0,0E0,0E0,0E0],"parents":[2147483647,0,0,1,1,2,2,3,3,4,4,5,5,10,10],"right_children":[2,4,6,8,10,12,-1,-1,-1,-1,14,-1,-1,-1,-1],"split_conditions":[2.9063708E-1,4.746184E-1,2.6296192E-1,4.2814925E-1,3.7920448E-1,8.022072E-1,-9.573005E-2,-8.591353E-2,4.1724216E-2,-2.9020337E-2,6.792643E-1,-3.413373E-2,8.109312E-2,1.4929335E-1,1.5453703E-2],"split_indices":[1563,1480,2032,358,840,243,0,0,0,0,1242,0,0,0,0],"split_type":[0,0,0,0,0,0,0,0,0,0,0,0,0,0,0],"sum_hessian":[2.2961626E1,1.1650668E1,1.1310959E1,5.919382E0,5.731286E0,2.4208248E0,8.890134E0,3.9757528E0,1.9436293E0,1.364395E0,4.366891E0,1.3586761E0,1.0621487E0,3.3140125E0,1.0528785E0],"tree_param":{"num_deleted":"0","num_feature":"2048","num_nodes":"15","size_leaf_vector":"1"}},{"base_weights":[-2.191697E-1,-7.1380514E-1,2.077001E-1,2.9694257E-2,-8.900637E-1,-6.6029876E-1,6.448689E-1,-2.2611553E-2,-9.4175465E-2,-7.893779E-2,-8.100866E-3,9.230837E-1,-6.004578E-2,1.1832614E0,-2.7648319E-2,1.3557771E-1,1.556048E-2],"categories":[],"categories_nodes":[],"categories_segments":[],"categories_sizes":[],"default_left":[0,0,0,0,0,0,0,0,0,0,0,0,0,0,0,0,0],"id":14,"left_children":[1,3,5,-1,7,9,11,-1,-1,-1,-1,13,-1,15,-1,-1,-1],"loss_changes":[4.989396E0,2.19661E0,5.389802E0,0E0,1.12614155E-1,3.006394E-1,3.7438061E0,0E0,0E0,0E0,0E0,2.7986374E0,0E0,9.763012E-1,0E0,0E0,0E0],"parents":[2147483647,0,0,1,1,2,2,4,4,5,5,6,6,11,11,13,13],"right_children":[2,4,6,-1,8,10,12,-1,-1,-1,-1,14,-1,16,-1,-1,-1],"split_conditions":[3.8821787E-1,1.7508523E-1,3.8546473E-1,2.9694257E-2,1.867991E-1,6.6758233E-1,5.752213E-1,-2.2611553E-2,-9.4175465E-2,-7.893779E-2,-8.100866E-3,4.8293254E-1,-6.004578E-2,4.2995661E-1,-2.7648319E-2,1.3557771E-1,1.556048E-2],"split_indices":[1371,1202,505,0,207,120,1699,0,0,0,0,1166,0,318,0,0,0],"split_type":[0,0,0,0,0,0,0,0,0,0,0,0,0,0,0,0,0],"sum_hessian":[2.1928036E1,9.84637E0,1.2081666E1,1.3604164E0,8.485953E0,3.8758223E0,8.205844E0,1.0011382E0,7.484815E0,2.87299E0,1.0028323E0,6.918879E0,1.2869648E0,5.6968627E0,1.2220166E0,4.604587E0,1.0922755E0],"tree_param":{"num_deleted":"0","num_feature":"2048","num_nodes":"17","size_leaf_vector":"1"}},{"base_weights":[-2.1229267E-1,-5.393823E-1,3.9977795E-1,2.2589368E-1,-8.898425E-1,-5.4297388E-2,8.679472E-1,-6.487728E-2,7.535688E-1,-9.481912E-2,-1.7305318E-2,-2.5575131E-2,1.1886678E0,1.07784204E-1,2.0381585E-3,1.3746886E-1,3.1125704E-2],"categories":[],"categories_nodes":[],"categories_segments":[],"categories_sizes":[],"default_left":[0,0,0,0,0,0,0,0,0,0,0,0,0,0,0,0,0],"id":15,"left_children":[1,3,5,7,9,-1,11,-1,13,-1,-1,-1,15,-1,-1,-1,-1],"loss_changes":[4.617983E0,4.158747E0,4.10497E0,2.9963143E0,2.677002E-1,0E0,2.4252257E0,0E0,8.9364886E-1,0E0,0E0,0E0,3.483796E-1,0E0,0E0,0E0,0E0],"parents":[2147483647,0,0,1,1,2,2,3,3,4,4,6,6,8,8,12,12],"right_children":[2,4,6,8,10,-1,12,-1,14,-1,-1,-1,16,-1,-1,-1,-1],"split_conditions":[6.621323E-1,2.2067988E-1,4.1502264E-1,2.8230283E-1,8.096766E-1,-5.4297388E-2,3.8028514E-1,-6.487728E-2,2.0331204E-1,-9.481912E-2,-1.7305318E-2,-2.5575131E-2,5.908959E-1,1.07784204E-1,2.0381585E-3,1.3746886E-1,3.1125704E-2],"split_indices":[466,2019,214,1951,1477,0,684,0,1834,0,0,0,1492,0,0,0,0],"split_type":[0,0,0,0,0,0,0,0,0,0,0,0,0,0,0,0,0],"sum_hessian":[2.0989548E1,1.3756731E1,7.232817E0,4.432727E0,9.324003E0,2.3469622E0,4.885855E0,1.5815991E0,2.8511279E0,8.323607E0,1.0003961E0,1.1298404E0,3.7560148E0,1.6508948E0,1.2002331E0,2.6313772E0,1.1246377E0],"tree_param":{"num_deleted":"0","num_feature":"2048","num_nodes":"17","size_leaf_vector":"1"}},{"base_weights":[-2.0036647E-1,2.2782578E-1,-6.5645653E-1,-4.0881765E-1,7.9807395E-1,2.3487912E-1,-9.240597E-2,-8.1637405E-2,3.664255E-2,-2.5757367E-2,1.0907965E0,-3.2660063E-2,7.234791E-2,1.283222E-1,2.4152461E-2],"categories":[],"categories_nodes":[],"categories_segments":[],"categories_sizes":[],"default_left":[0,0,0,0,0,0,0,0,0,0,0,0,0,0,0],"id":16,"left_children":[1,3,5,7,9,11,-1,-1,-1,-1,13,-1,-1,-1,-1],"loss_changes":[4.256416E0,4.5334544E0,2.7073445E0,2.2380981E0,2.2746463E0,1.1163882E0,0E0,0E0,0E0,0E0,5.467572E-1,0E0,0E0,0E0,0E0],"parents":[2147483647,0,0,1,1,2,2,3,3,4,4,5,5,10,10],"right_children":[2,4,6,8,10,12,-1,-1,-1,-1,14,-1,-1,-1,-1],"split_conditions":[2.9063708E-1,4.746184E-1,2.6296192E-1,4.2814925E-1,3.7920448E-1,4.6184233E-1,-9.240597E-2,-8.1637405E-2,3.664255E-2,-2.5757367E-2,5.306528E-1,-3.2660063E-2,7.234791E-2,1.283222E-1,2.4152461E-2],"split_indices":[1563,1480,2032,358,840,1092,0,0,0,0,1756,0,0,0,0],"split_type":[0,0,0,0,0,0,0,0,0,0,0,0,0,0,0],"sum_hessian":[2.0029083E1,1.0588621E1,9.440462E0,5.13681E0,5.4518113E0,2.2080724E0,7.2323895E0,3.3320487E0,1.8047609E0,1.2096207E0,4.2421904E0,1.181685E0,1.0263875E0,3.0419803E0,1.2002101E0],"tree_param":{"num_deleted":"0","num_feature":"2048","num_nodes":"15","size_leaf_vector":"1"}},{"base_weights":[-1.8858452E-1,-7.0899403E-1,1.7947076E-1,-9.109453E-2,3.7555244E-2,7.579596E-1,-4.4014E-1,-3.2110374E-2,1.0306058E0,5.6059618E-2,-7.55261E-1,1.22645356E-1,9.5545845E-3,-8.243425E-2,-2.216678E-2],"categories":[],"categories_nodes":[],"categories_segments":[],"categories_sizes":[],"default_left":[0,0,0,0,0,0,0,0,0,0,0,0,0,0,0],"id":17,"left_children":[1,3,5,-1,-1,7,9,-1,11,-1,13,-1,-1,-1,-1],"loss_changes":[3.9855142E0,2.2140388E0,4.848794E0,0E0,0E0,2.355623E0,2.5409532E0,0E0,9.3240404E-1,0E0,2.1217585E-2,0E0,0E0,0E0,0E0],"parents":[2147483647,0,0,1,1,2,2,5,5,6,6,8,8,10,10],"right_children":[2,4,6,-1,-1,8,10,-1,12,-1,14,-1,-1,-1,-1],"split_conditions":[4.4656906E-1,7.2220516E-1,4.8519328E-1,-9.109453E-2,3.7555244E-2,2.9103422E-1,1.6576183E-1,-3.2110374E-2,5.149702E-1,5.6059618E-2,6.167092E-1,1.22645356E-1,9.5545845E-3,-8.243425E-2,-2.216678E-2],"split_indices":[1273,2038,1231,0,0,204,530,0,437,0,961,0,0,0,0],"split_type":[0,0,0,0,0,0,0,0,0,0,0,0,0,0,0],"sum_hessian":[1.9143475E1,7.5466332E0,1.1596841E1,6.4969225E0,1.0497111E0,5.881964E0,5.714877E0,1.1505709E0,4.7313933E0,1.1820451E0,4.532832E0,3.654359E0,1.0770341E0,3.5308254E0,1.0020068E0],"tree_param":{"num_deleted":"0","num_feature":"2048","num_nodes":"15","size_leaf_vector":"1"}},{"base_weights":[-1.7909865E-1,-4.8393854E-1,4.2997646E-1,-7.6392704E-1,2.4491373E-1,-6.0045537E-2,7.8085923E-1,-9.3082786E-2,2.6565475E-2,7.031712E-1,-5.6551106E-2,1.0807747E-1,-1.1103576E-2,8.610508E-2,2.1204833E-2],"categories":[],"categories_nodes":[],"categories_segments":[],"categories_sizes":[],"default_left":[0,0,0,0,0,0,0,0,0,0,0,0,0,0,0],"id":18,"left_children":[1,3,5,7,9,-1,11,-1,-1,13,-1,-1,-1,-1,-1],"loss_changes":[3.7857928E0,2.903746E0,2.9841843E0,1.9416814E0,2.0509999E0,0E0,1.6244776E0,0E0,0E0,7.248294E-2,0E0,0E0,0E0,0E0,0E0],"parents":[2147483647,0,0,1,1,2,2,3,3,4,4,6,6,9,9],"right_children":[2,4,6,8,10,-1,12,-1,-1,14,-1,-1,-1,-1,-1],"split_conditions":[1.0281101E0,5.5540925E-1,3.725201E-1,6.526322E-1,4.023781E-1,-6.0045537E-2,2.9063708E-1,-9.3082786E-2,2.6565475E-2,4.4788176E-1,-5.6551106E-2,1.0807747E-1,-1.1103576E-2,8.610508E-2,2.1204833E-2],"split_indices":[431,1371,1614,1217,1055,0,1563,0,0,1918,0,0,0,0,0],"split_type":[0,0,0,0,0,0,0,0,0,0,0,0,0,0,0],"sum_hessian":[1.826915E1,1.2312327E1,5.956822E0,8.86046E0,3.4518678E0,1.3324796E0,4.6243424E0,7.7070255E0,1.1534343E0,2.2895668E0,1.162301E0,3.3021595E0,1.3221829E0,1.1626005E0,1.1269662E0],"tree_param":{"num_deleted":"0","num_feature":"2048","num_nodes":"15","size_leaf_vector":"1"}},{"base_weights":[-1.6884753E-1,-5.095925E-1,3.631032E-1,3.128902E-1,-7.93121E-1,6.3151926E-1,-5.8532078E-2,-5.5196196E-2,9.014228E-2,7.567168E-3,-9.119991E-2,-2.6925365E-2,8.495539E-1,-2.4978705E-3,1.0726615E-1],"categories":[],"categories_nodes":[],"categories_segments":[],"categories_sizes":[],"default_left":[0,0,0,0,0,0,0,0,0,0,0,0,0,0,0],"id":19,"left_children":[1,3,5,7,9,11,-1,-1,-1,-1,-1,-1,13,-1,-1],"loss_changes":[3.5284956E0,2.967154E0,2.35176E0,2.3839195E0,9.9374104E-1,1.5150862E0,0E0,0E0,0E0,0E0,0E0,0E0,1.1026318E0,0E0,0E0],"parents":[2147483647,0,0,1,1,2,2,3,3,4,4,5,5,12,12],"right_children":[2,4,6,8,10,12,-1,-1,-1,-1,-1,-1,14,-1,-1],"split_conditions":[5.006481E-1,2.2069423E-1,4.4520852E-1,4.2176336E-1,2.3762271E-1,2.8393456E-1,-5.8532078E-2,-5.5196196E-2,9.014228E-2,7.567168E-3,-9.119991E-2,-2.6925365E-2,4.2244798E-1,-2.4978705E-3,1.0726615E-1],"split_indices":[2038,763,2044,132,1715,1865,0,0,0,0,0,0,722,0,0],"split_type":[0,0,0,0,0,0,0,0,0,0,0,0,0,0,0],"sum_hessian":[1.744571E1,1.0659634E1,6.786076E0,2.706074E0,7.9535594E0,5.5496054E0,1.2364706E0,1.1209581E0,1.5851159E0,1.0010527E0,6.9525065E0,1.0357342E0,4.513871E0,1.0979992E0,3.415872E0],"tree_param":{"num_deleted":"0","num_feature":"2048","num_nodes":"15","size_leaf_vector":"1"}},{"base_weights":[-1.6196424E-1,-4.8400456E-1,3.8555458E-1,2.1585621E-1,-8.360489E-1,-4.5672633E-2,7.5784564E-1,-5.654176E-2,6.441235E-1,-2.1916779E-2,-8.9385256E-2,-8.216352E-3,1.0114788E-1,8.188488E-2,1.5188281E-2],"categories":[],"categories_nodes":[],"categories_segments":[],"categories_sizes":[],"default_left":[0,0,0,0,0,0,0,0,0,0,0,0,0,0,0],"id":20,"left_children":[1,3,5,7,9,-1,11,-1,13,-1,-1,-1,-1,-1,-1],"loss_changes":[3.2954988E0,3.0250096E0,2.5682728E0,1.9229658E0,8.531523E-2,0E0,1.2102473E0,0E0,1.7464483E-1,0E0,0E0,0E0,0E0,0E0,0E0],"parents":[2147483647,0,0,1,1,2,2,3,3,4,4,6,6,8,8],"right_children":[2,4,6,8,10,-1,12,-1,14,-1,-1,-1,-1,-1,-1],"split_conditions":[6.621323E-1,2.2067988E-1,4.1502264E-1,2.8230283E-1,2.5511634E-1,-4.5672633E-2,4.7158235E-1,-5.654176E-2,3.2463357E-1,-2.1916779E-2,-8.9385256E-2,-8.216352E-3,1.0114788E-1,8.188488E-2,1.5188281E-2],"split_indices":[466,2019,214,1951,1120,0,1485,0,1414,0,0,0,0,0,0],"split_type":[0,0,0,0,0,0,0,0,0,0,0,0,0,0,0],"sum_hessian":[1.663177E1,1.0545253E1,6.0865164E0,3.6586807E0,6.8865724E0,1.7961228E0,4.290394E0,1.182054E0,2.4766266E0,1.0005267E0,5.8860455E0,1.1517985E0,3.138595E0,1.3381318E0,1.138495E0],"tree_param":{"num_deleted":"0","num_feature":"2048","num_nodes":"15","size_leaf_vector":"1"}},{"base_weights":[-1.5433346E-1,-6.6048604E-1,1.806823E-1,2.802789E-2,-8.65896E-2,6.5599257E-1,-3.7819904E-1,-1.6085593E-2,9.048535E-1,4.90546E-2,-6.890296E-2,1.046538E-1,1.890699E-2],"categories":[],"categories_nodes":[],"categories_segments":[],"categories_sizes":[],"default_left":[0,0,0,0,0,0,0,0,0,0,0,0,0],"id":21,"left_children":[1,3,5,-1,-1,7,9,-1,11,-1,-1,-1,-1],"loss_changes":[2.9905715E0,1.5873873E0,3.1632347E0,0E0,0E0,1.4254239E0,1.8712137E0,0E0,3.068509E-1,0E0,0E0,0E0,0E0],"parents":[2147483647,0,0,1,1,2,2,5,5,6,6,8,8],"right_children":[2,4,6,-1,-1,8,10,-1,12,-1,-1,-1,-1],"split_conditions":[4.4656906E-1,4.3108797E-1,4.8519328E-1,2.802789E-2,-8.65896E-2,3.8360822E-1,1.6576183E-1,-1.6085593E-2,5.822783E-1,4.90546E-2,-6.890296E-2,1.046538E-1,1.890699E-2],"split_indices":[1273,1556,1231,0,0,644,530,0,1523,0,0,0,0],"split_type":[0,0,0,0,0,0,0,0,0,0,0,0,0],"sum_hessian":[1.5932527E1,5.9585896E0,9.973936E0,1.0025387E0,4.956051E0,5.296055E0,4.6778817E0,1.319296E0,3.976759E0,1.0803149E0,3.5975666E0,2.933922E0,1.0428369E0],"tree_param":{"num_deleted":"0","num_feature":"2048","num_nodes":"13","size_leaf_vector":"1"}},{"base_weights":[-1.4412133E-1,-6.10454E-1,2.0814587E-1,1.394575E-2,-8.5365094E-2,-5.458628E-1,5.428124E-1,-6.365835E-2,-1.5635744E-2,8.061259E-1,-2.6699582E-2,9.627926E-2,9.591881E-3],"categories":[],"categories_nodes":[],"categories_segments":[],"categories_sizes":[],"default_left":[0,0,0,0,0,0,0,0,0,0,0,0,0],"id":22,"left_children":[1,3,5,-1,-1,7,9,-1,-1,11,-1,-1,-1],"loss_changes":[2.7967777E0,1.4408762E0,2.8206768E0,0E0,0E0,2.675116E-2,1.7995491E0,0E0,0E0,5.5918646E-1,0E0,0E0,0E0],"parents":[2147483647,0,0,1,1,2,2,5,5,6,6,9,9],"right_children":[2,4,6,-1,-1,8,10,-1,-1,12,-1,-1,-1],"split_conditions":[3.8821787E-1,2.5537112E-1,3.8546473E-1,1.394575E-2,-8.5365094E-2,4.3072876E-1,5.072247E-1,-6.365835E-2,-1.5635744E-2,4.4548988E-1,-2.6699582E-2,9.627926E-2,9.591881E-3],"split_indices":[1371,1954,505,0,0,19,13,0,0,850,0,0,0],"split_type":[0,0,0,0,0,0,0,0,0,0,0,0,0],"sum_hessian":[1.5251621E1,6.2478127E0,9.003808E0,1.6344521E0,4.613361E0,2.573841E0,6.429967E0,1.5731069E0,1.0007343E0,4.855668E0,1.574299E0,3.6867466E0,1.1689214E0],"tree_param":{"num_deleted":"0","num_feature":"2048","num_nodes":"13","size_leaf_vector":"1"}},{"base_weights":[-1.3981748E-1,-4.3206972E-1,4.003899E-1,1.8687235E-1,-7.531074E-1,-5.2463736E-2,6.9323874E-1,-5.3913113E-2,5.769131E-1,-1.1524457E-3,-8.706878E-2,-5.6242514E-3,9.231335E-2,1.0293867E-2,7.729714E-2],"categories":[],"categories_nodes":[],"categories_segments":[],"categories_sizes":[],"default_left":[0,0,0,0,0,0,0,0,0,0,0,0,0,0,0],"id":23,"left_children":[1,3,5,7,9,-1,11,-1,13,-1,-1,-1,-1,-1,-1],"loss_changes":[2.6497958E0,2.259213E0,1.9962876E0,1.5690151E0,6.19431E-1,0E0,9.1485834E-1,0E0,2.3387086E-1,0E0,0E0,0E0,0E0,0E0,0E0],"parents":[2147483647,0,0,1,1,2,2,3,3,4,4,6,6,8,8],"right_children":[2,4,6,8,10,-1,12,-1,14,-1,-1,-1,-1,-1,-1],"split_conditions":[1.0281101E0,2.4088071E-1,3.725201E-1,4.293973E-1,2.6998663E-1,-5.2463736E-2,4.495609E-1,-5.3913113E-2,6.186158E-1,-1.1524457E-3,-8.706878E-2,-5.6242514E-3,9.231335E-2,1.0293867E-2,7.729714E-2],"split_indices":[431,277,1614,586,402,0,619,0,870,0,0,0,0,0,0],"split_type":[0,0,0,0,0,0,0,0,0,0,0,0,0,0,0],"sum_hessian":[1.4688179E1,9.66149E0,5.026689E0,3.4424868E0,6.219003E0,1.0183889E0,4.0083E0,1.0695095E0,2.3729773E0,1.0013667E0,5.2176366E0,1.1182013E0,2.8900988E0,1.1405994E0,1.2323779E0],"tree_param":{"num_deleted":"0","num_feature":"2048","num_nodes":"15","size_leaf_vector":"1"}},{"base_weights":[-1.3341454E-1,-4.4639888E-1,3.6129513E-1,2.6774082E-1,-7.6050633E-1,-4.1529033E-2,6.886E-1,6.8133995E-2,-3.223539E-2,-7.2787516E-3,-8.635392E-2,-7.561145E-3,9.224584E-2],"categories":[],"categories_nodes":[],"categories_segments":[],"categories_sizes":[],"default_left":[0,0,0,0,0,0,0,0,0,0,0,0,0],"id":24,"left_children":[1,3,5,7,9,-1,11,-1,-1,-1,-1,-1,-1],"loss_changes":[2.4940975E0,2.3739688E0,1.910419E0,1.121502E0,4.317422E-1,0E0,9.4049907E-1,0E0,0E0,0E0,0E0,0E0,0E0],"parents":[2147483647,0,0,1,1,2,2,3,3,4,4,6,6],"right_children":[2,4,6,8,10,-1,12,-1,-1,-1,-1,-1,-1],"split_conditions":[6.621323E-1,2.99094E-1,4.1502264E-1,2.2067988E-1,1.463557E-1,-4.1529033E-2,4.2251375E-1,6.8133995E-2,-3.223539E-2,-7.2787516E-3,-8.635392E-2,-7.561145E-3,9.224584E-2],"split_indices":[466,1284,214,2019,2045,0,1695,0,0,0,0,0,0],"split_type":[0,0,0,0,0,0,0,0,0,0,0,0,0],"sum_hessian":[1.4066328E1,8.675388E0,5.3909397E0,2.6952379E0,5.98015E0,1.5187154E0,3.8722243E0,1.493683E0,1.2015549E0,1.0015435E0,4.9786067E0,1.0658562E0,2.806368E0],"tree_param":{"num_deleted":"0","num_feature":"2048","num_nodes":"13","size_leaf_vector":"1"}},{"base_weights":[-1.26806E-1,2.2168376E-1,-5.5406046E-1,-3.2329005E-1,6.3721055E-1,2.2535896E-2,-8.3268166E-2,-6.987303E-2,3.0158613E-2,-1.2723267E-2,8.4735733E-1,9.741642E-2,2.1958131E-2],"categories":[],"categories_nodes":[],"categories_segments":[],"categories_sizes":[],"default_left":[0,0,0,0,0,0,0,0,0,0,0,0,0],"id":25,"left_children":[1,3,5,7,9,-1,-1,-1,-1,-1,11,-1,-1],"loss_changes":[2.279766E0,2.1745176E0,1.6629586E0,1.2486339E0,9.5421886E-1,0E0,0E0,0E0,0E0,0E0,1.2547421E-1,0E0,0E0],"parents":[2147483647,0,0,1,1,2,2,3,3,4,4,10,10],"right_children":[2,4,6,8,10,-1,-1,-1,-1,-1,12,-1,-1],"split_conditions":[2.9063708E-1,4.746184E-1,2.6296192E-1,4.2814925E-1,3.5284126E-1,2.2535896E-2,-8.3268166E-2,-6.987303E-2,3.0158613E-2,-1.2723267E-2,5.9064627E-1,9.741642E-2,2.1958131E-2],"split_indices":[1563,1480,2032,358,1327,0,0,0,0,0,1089,0,0],"split_type":[0,0,0,0,0,0,0,0,0,0,0,0,0],"sum_hessian":[1.3486433E1,7.6928825E0,5.793551E0,3.4240847E0,4.268798E0,1.5759968E0,4.217554E0,2.0651214E0,1.3589634E0,1.0055391E0,3.2632587E0,2.2558255E0,1.0074333E0],"tree_param":{"num_deleted":"0","num_feature":"2048","num_nodes":"13","size_leaf_vector":"1"}},{"base_weights":[-1.1906773E-1,-4.3859753E-1,3.379544E-1,1.3400365E-1,-8.34159E-2,5.798633E-1,-3.8406473E-2,-5.77299E-2,6.132845E-1,8.264566E-2,-8.582483E-3,1.6435126E-2,7.513273E-2],"categories":[],"categories_nodes":[],"categories_segments":[],"categories_sizes":[],"default_left":[0,0,0,0,0,0,0,0,0,0,0,0,0],"id":26,"left_children":[1,3,5,7,-1,9,-1,-1,11,-1,-1,-1,-1],"loss_changes":[2.1853209E0,2.06985E0,1.3239002E0,1.8519026E0,0E0,9.115466E-1,0E0,0E0,6.924069E-2,0E0,0E0,0E0,0E0],"parents":[2147483647,0,0,1,1,2,2,3,3,5,5,8,8],"right_children":[2,4,6,8,-1,10,-1,-1,12,-1,-1,-1,-1],"split_conditions":[5.006481E-1,3.3667135E-1,4.0968737E-1,5.0313944E-1,-8.34159E-2,3.5704014E-1,-3.8406473E-2,-5.77299E-2,5.9412533E-1,8.264566E-2,-8.582483E-3,1.6435126E-2,7.513273E-2],"split_indices":[2038,1309,2044,1870,0,1271,0,0,540,0,0,0,0],"split_type":[0,0,0,0,0,0,0,0,0,0,0,0,0],"sum_hessian":[1.2949629E1,7.644938E0,5.3046904E0,3.3936455E0,4.2512927E0,4.1208925E0,1.1837978E0,1.2838168E0,2.1098287E0,2.8307722E0,1.2901204E0,1.0113541E0,1.0984746E0],"tree_param":{"num_deleted":"0","num_feature":"2048","num_nodes":"13","size_leaf_vector":"1"}},{"base_weights":[-1.13355294E-1,-5.661844E-1,2.119502E-1,-8.00853E-2,1.0687824E-2,-4.852487E-2,5.050943E-1,-2.8354296E-2,7.053277E-1,8.476239E-2,4.6368367E-3],"categories":[],"categories_nodes":[],"categories_segments":[],"categories_sizes":[],"default_left":[0,0,0,0,0,0,0,0,0,0,0],"id":27,"left_children":[1,3,5,-1,-1,-1,7,-1,9,-1,-1],"loss_changes":[2.095837E0,1.0142857E0,1.9891064E0,0E0,0E0,0E0,1.2259923E0,0E0,4.734571E-1,0E0,0E0],"parents":[2147483647,0,0,1,1,2,2,6,6,8,8],"right_children":[2,4,6,-1,-1,-1,8,-1,10,-1,-1],"split_conditions":[3.8821787E-1,5.3943616E-1,3.8546473E-1,-8.00853E-2,1.0687824E-2,-4.852487E-2,3.5419554E-1,-2.8354296E-2,5.345295E-1,8.476239E-2,4.6368367E-3],"split_indices":[1371,688,505,0,0,0,1286,0,1718,0,0],"split_type":[0,0,0,0,0,0,0,0,0,0,0],"sum_hessian":[1.2412967E1,4.879782E0,7.533184E0,3.4774709E0,1.4023114E0,2.0358644E0,5.49732E0,1.0288881E0,4.468432E0,3.4394152E0,1.0290165E0],"tree_param":{"num_deleted":"0","num_feature":"2048","num_nodes":"11","size_leaf_vector":"1"}},{"base_weights":[-1.1057503E-1,-5.0286716E-1,2.4122491E-1,3.127663E-2,-7.637615E-2,-3.9407413E-2,5.398083E-1,7.256486E-1,-1.3490102E-2,8.6422764E-2,1.4376315E-2],"categories":[],"categories_nodes":[],"categories_segments":[],"categories_sizes":[],"default_left":[0,0,0,0,0,0,0,0,0,0,0],"id":28,"left_children":[1,3,5,-1,-1,-1,7,9,-1,-1,-1],"loss_changes":[1.9101073E0,1.6118888E0,1.6371546E0,0E0,0E0,0E0,7.913321E-1,2.3804283E-1,0E0,0E0,0E0],"parents":[2147483647,0,0,1,1,2,2,6,6,7,7],"right_children":[2,4,6,-1,-1,-1,8,10,-1,-1,-1],"split_conditions":[3.790105E-1,1.8829584E-1,3.5326475E-1,3.127663E-2,-7.637615E-2,-3.9407413E-2,6.0761654E-1,5.1136637E-1,-1.3490102E-2,8.6422764E-2,1.4376315E-2],"split_indices":[385,528,1031,0,0,0,1089,285,0,0,0],"split_type":[0,0,0,0,0,0,0,0,0,0,0],"sum_hessian":[1.1961558E1,5.4522934E0,6.5092645E0,1.2731677E0,4.179126E0,1.978908E0,4.530357E0,3.4928076E0,1.037549E0,2.4290884E0,1.0637193E0],"tree_param":{"num_deleted":"0","num_feature":"2048","num_nodes":"11","size_leaf_vector":"1"}},{"base_weights":[-1.0320434E-1,-3.7989292E-1,3.7691784E-1,1.8193352E-1,-7.000203E-1,6.487176E-1,-3.166681E-2,-3.6052797E-2,5.167803E-2,-1.0991391E-2,-8.049591E-2,1.6540004E-2,8.005285E-2],"categories":[],"categories_nodes":[],"categories_segments":[],"categories_sizes":[],"default_left":[0,0,0,0,0,0,0,0,0,0,0,0,0],"id":29,"left_children":[1,3,5,7,9,11,-1,-1,-1,-1,-1,-1,-1],"loss_changes":[1.8103492E0,1.648869E0,1.1650003E0,8.88239E-1,2.5801086E-1,1.5998697E-1,0E0,0E0,0E0,0E0,0E0,0E0,0E0],"parents":[2147483647,0,0,1,1,2,2,3,3,4,4,5,5],"right_children":[2,4,6,8,10,12,-1,-1,-1,-1,-1,-1,-1],"split_conditions":[1.0281101E0,2.4088071E-1,5.355533E-1,3.5885713E-1,2.8204623E-1,4.565604E-1,-3.166681E-2,-3.6052797E-2,5.167803E-2,-1.0991391E-2,-8.049591E-2,1.6540004E-2,8.005285E-2],"split_indices":[431,277,87,1041,761,1012,0,0,0,0,0,0,0],"split_type":[0,0,0,0,0,0,0,0,0,0,0,0,0],"sum_hessian":[1.1549734E1,7.4596095E0,4.090124E0,2.8643441E0,4.5952654E0,2.9850464E0,1.1050777E0,1.0639765E0,1.8003677E0,1.0029192E0,3.5923462E0,1.2129416E0,1.7721049E0],"tree_param":{"num_deleted":"0","num_feature":"2048","num_nodes":"13","size_leaf_vector":"1"}},{"base_weights":[-9.7576216E-2,-5.6820273E-1,1.8679267E-1,7.5172647E-3,-7.574942E-2,5.629261E-1,-3.123299E-1,-9.505155E-3,7.6559E-2,2.6790753E-2,-6.719656E-2],"categories":[],"categories_nodes":[],"categories_segments":[],"categories_sizes":[],"default_left":[0,0,0,0,0,0,0,0,0,0,0],"id":30,"left_children":[1,3,5,-1,-1,7,9,-1,-1,-1,-1],"loss_changes":[1.7312558E0,6.440799E-1,1.7381535E0,0E0,0E0,7.5318134E-1,1.0605121E0,0E0,0E0,0E0,0E0],"parents":[2147483647,0,0,1,1,2,2,5,5,6,6],"right_children":[2,4,6,-1,-1,8,10,-1,-1,-1,-1],"split_conditions":[4.4656906E-1,1.9061153E-1,4.8519328E-1,7.5172647E-3,-7.574942E-2,4.3058392E-1,1.8227232E-1,-9.505155E-3,7.6559E-2,2.6790753E-2,-6.719656E-2],"split_indices":[1273,1883,1231,0,0,24,1950,0,0,0,0],"split_type":[0,0,0,0,0,0,0,0,0,0,0],"sum_hessian":[1.1143024E1,3.8210769E0,7.321947E0,1.0057032E0,2.8153737E0,4.1025085E0,3.2194386E0,1.0910959E0,3.0114129E0,1.3294914E0,1.8899473E0],"tree_param":{"num_deleted":"0","num_feature":"2048","num_nodes":"11","size_leaf_vector":"1"}},{"base_weights":[-9.5063046E-2,-3.9030254E-1,3.3675146E-1,2.1506555E-1,-7.361288E-2,-3.4517746E-2,6.098468E-1,5.7701148E-2,-2.3481144E-2,3.7342273E-3,8.088484E-2],"categories":[],"categories_nodes":[],"categories_segments":[],"categories_sizes":[],"default_left":[0,0,0,0,0,0,0,0,0,0,0],"id":31,"left_children":[1,3,5,7,-1,-1,9,-1,-1,-1,-1],"loss_changes":[1.6282552E0,1.715125E0,1.1983695E0,7.0173824E-1,0E0,0E0,4.4249666E-1,0E0,0E0,0E0,0E0],"parents":[2147483647,0,0,1,1,2,2,3,3,6,6],"right_children":[2,4,6,8,-1,-1,10,-1,-1,-1,-1],"split_conditions":[6.621323E-1,2.2067988E-1,4.1502264E-1,2.99094E-1,-7.361288E-2,-3.4517746E-2,9.6278614E-1,5.7701148E-2,-2.3481144E-2,3.7342273E-3,8.088484E-2],"split_indices":[466,2019,214,1284,0,0,431,0,0,0,0],"split_type":[0,0,0,0,0,0,0,0,0,0,0],"sum_hessian":[1.07408085E1,6.4363155E0,4.304493E0,2.4775248E0,3.9587905E0,1.1554207E0,3.1490722E0,1.2163329E0,1.2611918E0,1.1186097E0,2.0304625E0],"tree_param":{"num_deleted":"0","num_feature":"2048","num_nodes":"11","size_leaf_vector":"1"}},{"base_weights":[-8.817843E-2,-5.111695E-1,2.046512E-1,1.1632101E-2,-7.475728E-2,4.8179686E-1,-4.323348E-2,7.210456E-1,-1.8757654E-2,1.9185916E-2,8.4033E-2],"categories":[],"categories_nodes":[],"categories_segments":[],"categories_sizes":[],"default_left":[0,0,0,0,0,0,0,0,0,0,0],"id":32,"left_children":[1,3,5,-1,-1,7,-1,9,-1,-1,-1],"loss_changes":[1.508563E0,8.171929E-1,1.5167812E0,0E0,0E0,1.0381144E0,0E0,1.1397457E-1,0E0,0E0,0E0],"parents":[2147483647,0,0,1,1,2,2,5,5,7,7],"right_children":[2,4,6,-1,-1,8,-1,10,-1,-1,-1],"split_conditions":[3.8821787E-1,2.5537112E-1,5.072247E-1,1.1632101E-2,-7.475728E-2,3.4281152E-1,-4.323348E-2,2.592813E-1,-1.8757654E-2,1.9185916E-2,8.4033E-2],"split_indices":[1371,1954,13,0,0,1646,0,1646,0,0,0],"split_type":[0,0,0,0,0,0,0,0,0,0,0],"sum_hessian":[1.0334593E1,3.92268E0,6.4119134E0,1.2124372E0,2.7102427E0,4.6377215E0,1.7741916E0,3.359697E0,1.2780247E0,1.0978174E0,2.2618797E0],"tree_param":{"num_deleted":"0","num_feature":"2048","num_nodes":"11","size_leaf_vector":"1"}},{"base_weights":[-8.419065E-2,-3.851104E-1,3.1440604E-1,1.4978893E-1,-7.708801E-2,-2.5786573E-2,5.554884E-1,-3.4904856E-2,5.3640246E-2,7.4750446E-2,9.024913E-3],"categories":[],"categories_nodes":[],"categories_segments":[],"categories_sizes":[],"default_left":[0,0,0,0,0,0,0,0,0,0,0],"id":33,"left_children":[1,3,5,7,-1,-1,9,-1,-1,-1,-1],"loss_changes":[1.4405794E0,1.5016966E0,8.7209356E-1,8.9157975E-1,0E0,0E0,2.9291403E-1,0E0,0E0,0E0,0E0],"parents":[2147483647,0,0,1,1,2,2,3,3,6,6],"right_children":[2,4,6,8,-1,-1,10,-1,-1,-1,-1],"split_conditions":[5.006481E-1,3.3667135E-1,4.3523574E-1,4.5029548E-1,-7.708801E-2,-2.5786573E-2,2.7841163E-1,-3.4904856E-2,5.3640246E-2,7.4750446E-2,9.024913E-3],"split_indices":[2038,1309,722,132,0,0,487,0,0,0,0],"split_type":[0,0,0,0,0,0,0,0,0,0,0],"sum_hessian":[1.0000804E1,5.717912E0,4.2828918E0,2.6521778E0,3.0657346E0,1.2488364E0,3.0340555E0,1.2004423E0,1.4517355E0,1.7182008E0,1.3158545E0],"tree_param":{"num_deleted":"0","num_feature":"2048","num_nodes":"11","size_leaf_vector":"1"}},{"base_weights":[-7.892103E-2,-4.5426923E-1,2.3714717E-1,2.6273996E-2,-7.024499E-2,4.660388E-1,-4.125415E-2,6.755293E-2,-1.0612494E-2],"categories":[],"categories_nodes":[],"categories_segments":[],"categories_sizes":[],"default_left":[0,0,0,0,0,0,0,0,0],"id":34,"left_children":[1,3,5,-1,-1,7,-1,-1,-1],"loss_changes":[1.370244E0,1.1112715E0,1.1490786E0,0E0,0E0,6.9827175E-1,0E0,0E0,0E0],"parents":[2147483647,0,0,1,1,2,2,5,5],"right_children":[2,4,6,-1,-1,8,-1,-1,-1],"split_conditions":[3.790105E-1,1.8829584E-1,4.4595203E-1,2.6273996E-2,-7.024499E-2,4.236701E-1,-4.125415E-2,6.755293E-2,-1.0612494E-2],"split_indices":[385,528,990,0,0,2036,0,0,0],"split_type":[0,0,0,0,0,0,0,0,0],"sum_hessian":[9.641956E0,4.2077603E0,5.434196E0,1.0668631E0,3.1408975E0,4.227485E0,1.2067105E0,2.9622412E0,1.2652444E0],"tree_param":{"num_deleted":"0","num_feature":"2048","num_nodes":"9","size_leaf_vector":"1"}},{"base_weights":[-7.633375E-2,-3.6377627E-1,3.2338363E-1,1.9947596E-1,-6.969061E-2,-3.0882144E-2,5.690836E-1,5.2198946E-2,-2.1187028E-2,4.260806E-3,7.438634E-2],"categories":[],"categories_nodes":[],"categories_segments":[],"categories_sizes":[],"default_left":[0,0,0,0,0,0,0,0,0,0,0],"id":35,"left_children":[1,3,5,7,-1,-1,9,-1,-1,-1,-1],"loss_changes":[1.3056347E0,1.3558733E0,9.298186E-1,5.334777E-1,0E0,0E0,3.2235944E-1,0E0,0E0,0E0,0E0],"parents":[2147483647,0,0,1,1,2,2,3,3,6,6],"right_children":[2,4,6,8,-1,-1,10,-1,-1,-1,-1],"split_conditions":[6.621323E-1,2.2067988E-1,4.1502264E-1,2.99094E-1,-6.969061E-2,-3.0882144E-2,9.6278614E-1,5.2198946E-2,-2.1187028E-2,4.260806E-3,7.438634E-2],"split_indices":[466,2019,214,1284,0,0,431,0,0,0,0],"split_type":[0,0,0,0,0,0,0,0,0,0,0],"sum_hessian":[9.3397665E0,5.485198E0,3.8545682E0,2.1876128E0,3.2975852E0,1.0068808E0,2.8476875E0,1.0754412E0,1.1121715E0,1.0197517E0,1.8279359E0],"tree_param":{"num_deleted":"0","num_feature":"2048","num_nodes":"11","size_leaf_vector":"1"}},{"base_weights":[-7.04511E-2,-5.1081645E-1,1.8441051E-1,-6.723862E-2,-1.8457816E-3,5.0045717E-1,-2.5423083E-1,4.3502613E-3,7.2260246E-2,-6.1046988E-2,2.7672095E-2],"categories":[],"categories_nodes":[],"categories_segments":[],"categories_sizes":[],"default_left":[0,0,0,0,0,0,0,0,0,0,0],"id":36,"left_children":[1,3,5,-1,-1,7,9,-1,-1,-1,-1],"loss_changes":[1.2173724E0,3.0053258E-1,1.1078627E0,0E0,0E0,4.2010713E-1,8.54664E-1,0E0,0E0,0E0,0E0],"parents":[2147483647,0,0,1,1,2,2,5,5,6,6],"right_children":[2,4,6,-1,-1,8,10,-1,-1,-1,-1],"split_conditions":[4.4656906E-1,3.7930956E-1,4.8519328E-1,-6.723862E-2,-1.8457816E-3,4.8592797E-1,8.472477E-1,4.3502613E-3,7.2260246E-2,-6.1046988E-2,2.7672095E-2],"split_indices":[1273,17,1231,0,0,833,1624,0,0,0,0],"split_type":[0,0,0,0,0,0,0,0,0,0,0],"sum_hessian":[9.007577E0,2.9339063E0,6.0736704E0,1.9337076E0,1.0001986E0,3.4482422E0,2.6254282E0,1.519156E0,1.9290863E0,1.4815952E0,1.1438329E0],"tree_param":{"num_deleted":"0","num_feature":"2048","num_nodes":"11","size_leaf_vector":"1"}},{"base_weights":[-6.831858E-2,1.8250483E-1,-5.1331586E-1,4.13696E-1,-4.408874E-2,-6.5311E-2,-6.330824E-3,-1.6608955E-2,6.0310364E-1,1.0792877E-2,7.4718855E-2],"categories":[],"categories_nodes":[],"categories_segments":[],"categories_sizes":[],"default_left":[0,0,0,0,0,0,0,0,0,0,0],"id":37,"left_children":[1,3,5,7,-1,-1,-1,-1,9,-1,-1],"loss_changes":[1.1789057E0,1.1848761E0,1.9563478E-1,7.140305E-1,0E0,0E0,0E0,0E0,2.3538029E-1,0E0,0E0],"parents":[2147483647,0,0,1,1,2,2,3,3,8,8],"right_children":[2,4,6,8,-1,-1,-1,-1,10,-1,-1],"split_conditions":[6.0772103E-1,4.7251287E-1,3.9567178E-1,4.150499E-1,-4.408874E-2,-6.5311E-2,-6.330824E-3,-1.6608955E-2,4.6041527E-1,1.0792877E-2,7.4718855E-2],"split_indices":[1089,1166,206,586,0,0,0,0,1079,0,0],"split_type":[0,0,0,0,0,0,0,0,0,0,0],"sum_hessian":[8.722851E0,5.9557543E0,2.7670963E0,4.589917E0,1.365837E0,1.7668852E0,1.0002111E0,1.1605452E0,3.429372E0,1.1671851E0,2.262187E0],"tree_param":{"num_deleted":"0","num_feature":"2048","num_nodes":"11","size_leaf_vector":"1"}},{"base_weights":[-6.817676E-2,-3.573262E-1,2.9708013E-1,1.4193068E-1,-7.249646E-2,-2.2842405E-2,5.1494807E-1,-3.0017389E-2,4.6866905E-2,6.8277955E-2,7.916407E-3],"categories":[],"categories_nodes":[],"categories_segments":[],"categories_sizes":[],"default_left":[0,0,0,0,0,0,0,0,0,0,0],"id":38,"left_children":[1,3,5,7,-1,-1,9,-1,-1,-1,-1],"loss_changes":[1.1071938E0,1.1572344E0,6.596267E-1,6.133811E-1,0E0,0E0,2.1318465E-1,0E0,0E0,0E0,0E0],"parents":[2147483647,0,0,1,1,2,2,3,3,6,6],"right_children":[2,4,6,8,-1,-1,10,-1,-1,-1,-1],"split_conditions":[5.006481E-1,3.3667135E-1,4.3523574E-1,5.324954E-1,-7.249646E-2,-2.2842405E-2,2.7841163E-1,-3.0017389E-2,4.6866905E-2,6.8277955E-2,7.916407E-3],"split_indices":[2038,1309,722,1870,0,0,487,0,0,0,0],"split_type":[0,0,0,0,0,0,0,0,0,0,0],"sum_hessian":[8.478298E0,4.7442813E0,3.7340171E0,2.2723477E0,2.4719334E0,1.0801677E0,2.6538494E0,1.0002402E0,1.2721075E0,1.50677E0,1.1470795E0],"tree_param":{"num_deleted":"0","num_feature":"2048","num_nodes":"11","size_leaf_vector":"1"}},{"base_weights":[-6.392533E-2,-3.4185207E-1,3.0960587E-1,2.358365E-2,-6.259834E-2,5.7369985E-2,-2.003484E-2],"categories":[],"categories_nodes":[],"categories_segments":[],"categories_sizes":[],"default_left":[0,0,0,0,0,0,0],"id":39,"left_children":[1,3,5,-1,-1,-1,-1],"loss_changes":[1.060465E0,1.0910618E0,7.1394604E-1,0E0,0E0,0E0,0E0],"parents":[2147483647,0,0,1,1,2,2],"right_children":[2,4,6,-1,-1,-1,-1],"split_conditions":[6.621323E-1,2.99094E-1,3.5104755E-1,2.358365E-2,-6.259834E-2,5.7369985E-2,-2.003484E-2],"split_indices":[466,1284,407,0,0,0,0],"split_type":[0,0,0,0,0,0,0],"sum_hessian":[8.195512E0,4.747749E0,3.4477632E0,1.6213119E0,3.1264367E0,2.1890833E0,1.25868E0],"tree_param":{"num_deleted":"0","num_feature":"2048","num_nodes":"7","size_leaf_vector":"1"}},{"base_weights":[-5.9513364E-2,-5.20882E-2,1.6149916E-1,4.7182664E-1,-2.4703193E-1,6.516008E-2,2.9210272E-4,2.5331361E-2,-5.372202E-2],"categories":[],"categories_nodes":[],"categories_segments":[],"categories_sizes":[],"default_left":[0,0,0,0,0,0,0,0,0],"id":40,"left_children":[1,-1,3,5,7,-1,-1,-1,-1],"loss_changes":[9.997788E-1,0E0,9.8305243E-1,3.5449278E-1,6.597828E-1,0E0,0E0,0E0,0E0],"parents":[2147483647,0,0,2,2,3,3,4,4],"right_children":[2,-1,4,6,8,-1,-1,-1,-1],"split_conditions":[3.1590387E-1,-5.20882E-2,3.056382E-1,5.3205526E-1,1.9848673E-1,6.516008E-2,2.9210272E-4,2.5331361E-2,-5.372202E-2],"split_indices":[385,0,1899,1377,530,0,0,0,0],"split_type":[0,0,0,0,0,0,0,0,0],"sum_hessian":[7.9798226E0,2.1450932E0,5.8347297E0,3.227857E0,2.6068723E0,2.0516522E0,1.176205E0,1.0035731E0,1.6032993E0],"tree_param":{"num_deleted":"0","num_feature":"2048","num_nodes":"9","size_leaf_vector":"1"}},{"base_weights":[-5.687191E-2,-3.4550008E-1,2.8300387E-1,-6.910956E-2,1.1371791E-1,5.248511E-1,-2.7563125E-2,4.4674154E-2,-2.6905952E-2,6.45068E-2,1.3354634E-2],"categories":[],"categories_nodes":[],"categories_segments":[],"categories_sizes":[],"default_left":[0,0,0,0,0,0,0,0,0,0,0],"id":41,"left_children":[1,3,5,-1,7,9,-1,-1,-1,-1,-1],"loss_changes":[9.566116E-1,9.014134E-1,7.621227E-1,0E0,5.1346326E-1,8.0087125E-2,0E0,0E0,0E0,0E0,0E0],"parents":[2147483647,0,0,1,1,2,2,4,4,5,5],"right_children":[2,4,6,-1,8,10,-1,-1,-1,-1,-1],"split_conditions":[5.014066E-1,6.1594474E-1,3.2234234E-1,-6.910956E-2,3.293203E-1,3.868326E-1,-2.7563125E-2,4.4674154E-2,-2.6905952E-2,6.45068E-2,1.3354634E-2],"split_indices":[833,479,691,0,472,1580,0,0,0,0,0],"split_type":[0,0,0,0,0,0,0,0,0,0,0],"sum_hessian":[7.754879E0,4.1846533E0,3.5702255E0,2.099605E0,2.0850482E0,2.5337691E0,1.0364563E0,1.0256275E0,1.0594207E0,1.4421923E0,1.0915767E0],"tree_param":{"num_deleted":"0","num_feature":"2048","num_nodes":"11","size_leaf_vector":"1"}},{"base_weights":[-5.3108003E-2,3.6010092E-1,-2.855281E-1,-6.4368206E-3,5.742091E-2,3.5491884E-2,-4.899555E-1,-6.9507405E-2,1.621536E-2],"categories":[],"categories_nodes":[],"categories_segments":[],"categories_sizes":[],"default_left":[0,0,0,0,0,0,0,0,0],"id":42,"left_children":[1,3,5,-1,-1,-1,7,-1,-1],"loss_changes":[9.20357E-1,3.556593E-1,9.6022034E-1,0E0,0E0,0E0,7.778698E-1,0E0,0E0],"parents":[2147483647,0,0,1,1,2,2,6,6],"right_children":[2,4,6,-1,-1,-1,8,-1,-1],"split_conditions":[2.5044402E-1,5.276246E-1,1.20050676E-1,-6.4368206E-3,5.742091E-2,3.5491884E-2,7.935058E-1,-6.9507405E-2,1.621536E-2],"split_indices":[1389,1852,2004,0,0,0,1153,0,0],"split_type":[0,0,0,0,0,0,0,0,0],"sum_hessian":[7.5126476E0,2.5067172E0,5.0059304E0,1.0749655E0,1.4317517E0,1.0331217E0,3.9728088E0,2.9720693E0,1.0007395E0],"tree_param":{"num_deleted":"0","num_feature":"2048","num_nodes":"9","size_leaf_vector":"1"}},{"base_weights":[-4.5742437E-2,1.8510863E-1,-4.65651E-1,-3.0532349E-2,4.3254012E-1,-1.2814777E-2,-5.601666E-2,5.7935562E-2,-2.667148E-3],"categories":[],"categories_nodes":[],"categories_segments":[],"categories_sizes":[],"default_left":[0,0,0,0,0,0,0,0,0],"id":43,"left_children":[1,3,5,-1,7,-1,-1,-1,-1],"loss_changes":[8.8839364E-1,8.6687726E-1,3.0935347E-2,0E0,3.1470013E-1,0E0,0E0,0E0,0E0],"parents":[2147483647,0,0,1,1,2,2,4,4],"right_children":[2,4,6,-1,8,-1,-1,-1,-1],"split_conditions":[6.0772103E-1,3.1551135E-1,4.104022E-1,-3.0532349E-2,3.516059E-1,-1.2814777E-2,-5.601666E-2,5.7935562E-2,-2.667148E-3],"split_indices":[1089,1053,1508,0,318,0,0,0,0],"split_type":[0,0,0,0,0,0,0,0,0],"sum_hessian":[7.27551E0,5.055398E0,2.220112E0,1.6167929E0,3.438605E0,1.0011104E0,1.2190015E0,2.4073236E0,1.0312815E0],"tree_param":{"num_deleted":"0","num_feature":"2048","num_nodes":"9","size_leaf_vector":"1"}},{"base_weights":[-4.7459017E-2,-3.8602737E-1,2.2766098E-1,-6.6093355E-2,1.5937563E-2,-2.8547628E-2,4.7731802E-1,6.2382936E-2,4.0897243E-3],"categories":[],"categories_nodes":[],"categories_segments":[],"categories_sizes":[],"default_left":[0,0,0,0,0,0,0,0,0],"id":44,"left_children":[1,3,5,-1,-1,-1,7,-1,-1],"loss_changes":[8.441131E-1,7.066677E-1,7.906474E-1,0E0,0E0,0E0,2.181313E-1,0E0,0E0],"parents":[2147483647,0,0,1,1,2,2,6,6],"right_children":[2,4,6,-1,-1,-1,8,-1,-1],"split_conditions":[5.086297E-1,5.9007514E-1,4.1858438E-1,-6.6093355E-2,1.5937563E-2,-2.8547628E-2,4.2695302E-1,6.2382936E-2,4.0897243E-3],"split_indices":[1941,741,1762,0,0,0,306,0,0],"split_type":[0,0,0,0,0,0,0,0,0],"sum_hessian":[7.1186767E0,3.0106208E0,4.1080556E0,1.8608484E0,1.1497723E0,1.2975789E0,2.8104768E0,1.7826122E0,1.0278646E0],"tree_param":{"num_deleted":"0","num_feature":"2048","num_nodes":"9","size_leaf_vector":"1"}},{"base_weights":[-4.5608252E-2,-2.2937888E-1,4.3633416E-2,2.037902E-1,-5.156461E-1,-2.066855E-2,4.7743518E-2,1.8554099E-3,-6.9296524E-2],"categories":[],"categories_nodes":[],"categories_segments":[],"categories_sizes":[],"default_left":[0,0,0,0,0,0,0,0,0],"id":45,"left_children":[1,3,-1,5,7,-1,-1,-1,-1],"loss_changes":[8.017708E-1,8.975861E-1,0E0,4.6483043E-1,4.041884E-1,0E0,0E0,0E0,0E0],"parents":[2147483647,0,0,1,1,3,3,4,4],"right_children":[2,4,-1,6,8,-1,-1,-1,-1],"split_conditions":[9.1783017E-1,2.6591757E-1,4.3633416E-2,7.463598E-1,2.6249212E-1,-2.066855E-2,4.7743518E-2,1.8554099E-3,-6.9296524E-2],"split_indices":[1794,789,0,1807,455,0,0,0,0],"split_type":[0,0,0,0,0,0,0,0,0],"sum_hessian":[6.9226584E0,5.391041E0,1.5316174E0,2.2597625E0,3.1312783E0,1.0017709E0,1.2579918E0,1.0034873E0,2.127791E0],"tree_param":{"num_deleted":"0","num_feature":"2048","num_nodes":"9","size_leaf_vector":"1"}},{"base_weights":[-4.2171344E-2,-3.7436306E-1,2.2273801E-1,-6.348168E-2,1.2784808E-2,4.36725E-1,-2.673665E-2,6.0367286E-2,1.5230846E-3],"categories":[],"categories_nodes":[],"categories_segments":[],"categories_sizes":[],"default_left":[0,0,0,0,0,0,0,0,0],"id":46,"left_children":[1,3,5,-1,-1,7,-1,-1,-1],"loss_changes":[7.629321E-1,5.7807964E-1,6.330773E-1,0E0,0E0,2.5866574E-1,0E0,0E0,0E0],"parents":[2147483647,0,0,1,1,2,2,5,5],"right_children":[2,4,6,-1,-1,8,-1,-1,-1],"split_conditions":[3.790105E-1,7.434632E-1,5.072247E-1,-6.348168E-2,1.2784808E-2,3.028394E-1,-2.673665E-2,6.0367286E-2,1.5230846E-3],"split_indices":[385,503,13,0,0,1899,0,0,0],"split_type":[0,0,0,0,0,0,0,0,0],"sum_hessian":[6.7220674E0,2.7989984E0,3.923069E0,1.6692553E0,1.129743E0,2.806586E0,1.1164829E0,1.7007297E0,1.1058563E0],"tree_param":{"num_deleted":"0","num_feature":"2048","num_nodes":"9","size_leaf_vector":"1"}},{"base_weights":[-4.1112114E-2,-3.0057782E-1,2.8964084E-1,1.9119067E-2,-6.084617E-2,5.1441427E-2,-1.7117245E-2],"categories":[],"categories_nodes":[],"categories_segments":[],"categories_sizes":[],"default_left":[0,0,0,0,0,0,0],"id":47,"left_children":[1,3,5,-1,-1,-1,-1],"loss_changes":[7.349547E-1,8.311926E-1,4.8456454E-1,0E0,0E0,0E0,0E0],"parents":[2147483647,0,0,1,1,2,2],"right_children":[2,4,6,-1,-1,-1,-1],"split_conditions":[6.621323E-1,2.2067988E-1,3.5104755E-1,1.9119067E-2,-6.084617E-2,5.1441427E-2,-1.7117245E-2],"split_indices":[466,2019,407,0,0,0,0],"split_type":[0,0,0,0,0,0,0],"sum_hessian":[6.549548E0,3.7214303E0,2.8281178E0,1.578763E0,2.1426673E0,1.822721E0,1.0053967E0],"tree_param":{"num_deleted":"0","num_feature":"2048","num_nodes":"7","size_leaf_vector":"1"}},{"base_weights":[-3.9127894E-2,1.7810069E-1,-4.3396965E-2,3.7414244E-1,-3.1210933E-2,5.611808E-2,-8.114644E-3],"categories":[],"categories_nodes":[],"categories_segments":[],"categories_sizes":[],"default_left":[0,0,0,0,0,0,0],"id":48,"left_children":[1,3,-1,5,-1,-1,-1],"loss_changes":[7.1119535E-1,6.4309186E-1,0E0,4.1741276E-1,0E0,0E0,0E0],"parents":[2147483647,0,0,1,1,3,3],"right_children":[2,4,-1,6,-1,-1,-1],"split_conditions":[6.0772103E-1,3.8220406E-1,-4.3396965E-2,4.2695302E-1,-3.1210933E-2,5.611808E-2,-8.114644E-3],"split_indices":[1089,1563,0,306,0,0,0],"split_type":[0,0,0,0,0,0,0],"sum_hessian":[6.3906765E0,4.4766865E0,1.9139899E0,3.3669627E0,1.1097238E0,2.2216852E0,1.1452775E0],"tree_param":{"num_deleted":"0","num_feature":"2048","num_nodes":"7","size_leaf_vector":"1"}},{"base_weights":[-3.9538465E-2,-2.209219E-1,4.1381907E-2,-4.7022435E-1,2.2696393E-2,7.912832E-3,-6.822497E-2],"categories":[],"categories_nodes":[],"categories_segments":[],"categories_sizes":[],"default_left":[0,0,0,0,0,0,0],"id":49,"left_children":[1,3,-1,5,-1,-1,-1],"loss_changes":[6.879699E-1,7.580757E-1,0E0,5.28397E-1,0E0,0E0,0E0],"parents":[2147483647,0,0,1,1,3,3],"right_children":[2,4,-1,6,-1,-1,-1],"split_conditions":[9.1783017E-1,3.8450813E-1,4.1381907E-2,2.505192E-1,2.2696393E-2,7.912832E-3,-6.822497E-2],"split_indices":[1794,1344,0,1291,0,0,0],"split_type":[0,0,0,0,0,0,0],"sum_hessian":[6.2544928E0,4.8334E0,1.4210929E0,3.073019E0,1.7603809E0,1.0303094E0,2.0427096E0],"tree_param":{"num_deleted":"0","num_feature":"2048","num_nodes":"7","size_leaf_vector":"1"}},{"base_weights":[-3.6403216E-2,2.1277028E-1,-3.696825E-1,4.175004E-1,-2.4893051E-2,7.9504205E-3,-5.9130367E-2,5.452172E-2,4.700887E-3],"categories":[],"categories_nodes":[],"categories_segments":[],"categories_sizes":[],"default_left":[0,0,0,0,0,0,0,0,0],"id":50,"left_children":[1,3,5,7,-1,-1,-1,-1,-1],"loss_changes":[6.680525E-1,5.4779476E-1,3.85633E-1,1.4598107E-1,0E0,0E0,0E0,0E0,0E0],"parents":[2147483647,0,0,1,1,2,2,3,3],"right_children":[2,4,6,8,-1,-1,-1,-1,-1],"split_conditions":[3.062536E-1,4.7383136E-1,2.7599692E-1,4.047364E-1,-2.4893051E-2,7.9504205E-3,-5.9130367E-2,5.452172E-2,4.700887E-3],"split_indices":[691,590,68,1441,0,0,0,0,0],"split_type":[0,0,0,0,0,0,0,0,0],"sum_hessian":[6.0973516E0,3.6958015E0,2.4015498E0,2.6267612E0,1.0690403E0,1.0052822E0,1.3962678E0,1.6026771E0,1.0240841E0],"tree_param":{"num_deleted":"0","num_feature":"2048","num_nodes":"9","size_leaf_vector":"1"}},{"base_weights":[-3.6015306E-2,-3.5352352E-1,2.1513635E-1,-5.9940338E-2,1.2367762E-2,-2.3959992E-2,4.331834E-1,6.937145E-3,5.644684E-2],"categories":[],"categories_nodes":[],"categories_segments":[],"categories_sizes":[],"default_left":[0,0,0,0,0,0,0,0,0],"id":51,"left_children":[1,3,5,-1,-1,-1,7,-1,-1],"loss_changes":[6.310269E-1,4.79174E-1,5.50726E-1,0E0,0E0,0E0,1.23368084E-1,0E0,0E0],"parents":[2147483647,0,0,1,1,2,2,6,6],"right_children":[2,4,6,-1,-1,-1,8,-1,-1],"split_conditions":[5.086297E-1,5.8567303E-1,4.1858438E-1,-5.9940338E-2,1.2367762E-2,-2.3959992E-2,3.7680042E-1,6.937145E-3,5.644684E-2],"split_indices":[1941,741,1762,0,0,0,1879,0,0],"split_type":[0,0,0,0,0,0,0,0,0],"sum_hessian":[5.959522E0,2.4520314E0,3.5074904E0,1.449229E0,1.0028025E0,1.1047318E0,2.4027588E0,1.0424272E0,1.3603315E0],"tree_param":{"num_deleted":"0","num_feature":"2048","num_nodes":"9","size_leaf_vector":"1"}},{"base_weights":[-3.44896E-2,-4.141964E-2,1.718953E-1,-2.5115738E-2,3.9301735E-1,5.531584E-2,4.202015E-3],"categories":[],"categories_nodes":[],"categories_segments":[],"categories_sizes":[],"default_left":[0,0,0,0,0,0,0],"id":52,"left_children":[1,-1,3,-1,5,-1,-1],"loss_changes":[6.0533774E-1,0E0,5.7790256E-1,0E0,1.8776709E-1,0E0,0E0],"parents":[2147483647,0,0,2,2,4,4],"right_children":[2,-1,4,-1,6,-1,-1],"split_conditions":[4.1773278E-1,-4.141964E-2,3.8821787E-1,-2.5115738E-2,3.5258764E-1,5.531584E-2,4.202015E-3],"split_indices":[586,0,1371,0,1267,0,0],"split_type":[0,0,0,0,0,0,0],"sum_hessian":[5.8159795E0,1.6934531E0,4.1225266E0,1.3684893E0,2.7540371E0,1.4956777E0,1.2583594E0],"tree_param":{"num_deleted":"0","num_feature":"2048","num_nodes":"7","size_leaf_vector":"1"}},{"base_weights":[-3.2584418E-2,-2.8923148E-1,2.6687247E-1,1.4610353E-2,-6.1315823E-2,-1.1325321E-2,4.7248166E-2],"categories":[],"categories_nodes":[],"categories_segments":[],"categories_sizes":[],"default_left":[0,0,0,0,0,0,0],"id":53,"left_children":[1,3,5,-1,-1,-1,-1],"loss_changes":[5.9249926E-1,6.664104E-1,3.360116E-1,0E0,0E0,0E0,0E0],"parents":[2147483647,0,0,1,1,2,2],"right_children":[2,4,6,-1,-1,-1,-1],"split_conditions":[5.006481E-1,3.3667135E-1,2.6762536E-1,1.4610353E-2,-6.1315823E-2,-1.1325321E-2,4.7248166E-2],"split_indices":[2038,1309,17,0,0,0,0],"split_type":[0,0,0,0,0,0,0],"sum_hessian":[5.7050047E0,3.0904803E0,2.6145241E0,1.5527089E0,1.5377716E0,1.0754458E0,1.5390784E0],"tree_param":{"num_deleted":"0","num_feature":"2048","num_nodes":"7","size_leaf_vector":"1"}},{"base_weights":[-3.183154E-2,-2.8046304E-1,2.7341354E-1,1.6863627E-2,-5.6217708E-2,-1.0697599E-2,4.8843075E-2],"categories":[],"categories_nodes":[],"categories_segments":[],"categories_sizes":[],"default_left":[0,0,0,0,0,0,0],"id":54,"left_children":[1,3,5,-1,-1,-1,-1],"loss_changes":[5.758909E-1,6.1588824E-1,3.3516875E-1,0E0,0E0,0E0,0E0],"parents":[2147483647,0,0,1,1,2,2],"right_children":[2,4,6,-1,-1,-1,-1],"split_conditions":[6.621323E-1,2.2067988E-1,4.7227445E-1,1.6863627E-2,-5.6217708E-2,-1.0697599E-2,4.8843075E-2],"split_indices":[466,2019,500,0,0,0,0],"split_type":[0,0,0,0,0,0,0],"sum_hessian":[5.5777464E0,3.1186762E0,2.4590702E0,1.3569163E0,1.7617599E0,1.0694935E0,1.3895768E0],"tree_param":{"num_deleted":"0","num_feature":"2048","num_nodes":"7","size_leaf_vector":"1"}},{"base_weights":[-2.9621383E-2,2.0155255E-1,-3.4999877E-1,-2.1305082E-2,4.5688827E-2,4.559853E-4,-5.2369487E-2],"categories":[],"categories_nodes":[],"categories_segments":[],"categories_sizes":[],"default_left":[0,0,0,0,0,0,0],"id":55,"left_children":[1,3,5,-1,-1,-1,-1],"loss_changes":[5.4858804E-1,5.6142473E-1,1.9150233E-1,0E0,0E0,0E0,0E0],"parents":[2147483647,0,0,1,1,2,2],"right_children":[2,4,6,-1,-1,-1,-1],"split_conditions":[2.9063708E-1,4.746184E-1,3.945488E-1,-2.1305082E-2,4.5688827E-2,4.559853E-4,-5.2369487E-2],"split_indices":[1563,1480,393,0,0,0,0],"split_type":[0,0,0,0,0,0,0],"sum_hessian":[5.45458E0,3.3838172E0,2.0707626E0,1.3528011E0,2.031016E0,1.0010694E0,1.0696931E0],"tree_param":{"num_deleted":"0","num_feature":"2048","num_nodes":"7","size_leaf_vector":"1"}},{"base_weights":[-3.152695E-2,1.9979295E-1,-3.4710586E-1,-1.3222443E-2,4.484909E-2,3.2793928E-4,-5.194038E-2],"categories":[],"categories_nodes":[],"categories_segments":[],"categories_sizes":[],"default_left":[0,0,0,0,0,0,0],"id":56,"left_children":[1,3,5,-1,-1,-1,-1],"loss_changes":[5.3319323E-1,4.144587E-1,1.8600714E-1,0E0,0E0,0E0,0E0],"parents":[2147483647,0,0,1,1,2,2],"right_children":[2,4,6,-1,-1,-1,-1],"split_conditions":[3.062536E-1,5.014066E-1,2.9814437E-1,-1.3222443E-2,4.484909E-2,3.2793928E-4,-5.194038E-2],"split_indices":[691,833,68,0,0,0,0],"split_type":[0,0,0,0,0,0,0],"sum_hessian":[5.3540535E0,3.3011816E0,2.0528717E0,1.6143376E0,1.686844E0,1.0000783E0,1.0527934E0],"tree_param":{"num_deleted":"0","num_feature":"2048","num_nodes":"7","size_leaf_vector":"1"}},{"base_weights":[-3.208921E-2,-2.0563647E-1,3.753744E-2,9.6640125E-2,-5.5652704E-2,-2.4084864E-2,3.3616863E-2],"categories":[],"categories_nodes":[],"categories_segments":[],"categories_sizes":[],"default_left":[0,0,0,0,0,0,0],"id":57,"left_children":[1,3,-1,5,-1,-1,-1],"loss_changes":[5.1997554E-1,5.880742E-1,0E0,3.686023E-1,0E0,0E0,0E0],"parents":[2147483647,0,0,1,1,3,3],"right_children":[2,4,-1,6,-1,-1,-1],"split_conditions":[9.1783017E-1,2.8792325E-1,3.753744E-2,5.3916496E-1,-5.5652704E-2,-2.4084864E-2,3.3616863E-2],"split_indices":[1794,1834,0,1097,0,0,0],"split_type":[0,0,0,0,0,0,0],"sum_hessian":[5.261612E0,4.0373473E0,1.2242647E0,2.5581775E0,1.4791698E0,1.0596498E0,1.4985275E0],"tree_param":{"num_deleted":"0","num_feature":"2048","num_nodes":"7","size_leaf_vector":"1"}},{"base_weights":[-3.1093476E-2,-2.4708849E-1,2.9391048E-2,1.646883E-2,-5.118633E-2],"categories":[],"categories_nodes":[],"categories_segments":[],"categories_sizes":[],"default_left":[0,0,0,0,0],"id":58,"left_children":[1,3,-1,-1,-1],"loss_changes":[5.038297E-1,5.4586244E-1,0E0,0E0,0E0],"parents":[2147483647,0,0,1,1],"right_children":[2,4,-1,-1,-1],"split_conditions":[1.0281101E0,2.4088071E-1,2.9391048E-2,1.646883E-2,-5.118633E-2],"split_indices":[431,277,0,0,0],"split_type":[0,0,0,0,0],"sum_hessian":[5.1426287E0,3.2334445E0,1.9091843E0,1.413375E0,1.8200694E0],"tree_param":{"num_deleted":"0","num_feature":"2048","num_nodes":"5","size_leaf_vector":"1"}},{"base_weights":[-2.9537406E-2,-2.3792413E-1,3.013348E-2,-5.186173E-2,1.0170422E-2],"categories":[],"categories_nodes":[],"categories_segments":[],"categories_sizes":[],"default_left":[0,0,0,0,0],"id":59,"left_children":[1,3,-1,-1,-1],"loss_changes":[4.8924083E-1,4.6023577E-1,0E0,0E0,0E0],"parents":[2147483647,0,0,1,1],"right_children":[2,4,-1,-1,-1],"split_conditions":[4.7719523E-1,4.2503956E-1,3.013348E-2,-5.186173E-2,1.0170422E-2],"split_indices":[1308,1371,0,0,0],"split_type":[0,0,0,0,0],"sum_hessian":[5.0558343E0,3.2744625E0,1.781372E0,1.5042382E0,1.7702241E0],"tree_param":{"num_deleted":"0","num_feature":"2048","num_nodes":"5","size_leaf_vector":"1"}},{"base_weights":[-2.911059E-2,-3.2770348E-1,2.0355459E-1,-5.071623E-2,1.5528107E-3,-1.7080262E-2,4.362331E-2],"categories":[],"categories_nodes":[],"categories_segments":[],"categories_sizes":[],"default_left":[0,0,0,0,0,0,0],"id":60,"left_children":[1,3,5,-1,-1,-1,-1],"loss_changes":[4.8207307E-1,1.9276318E-1,4.2095026E-1,0E0,0E0,0E0,0E0],"parents":[2147483647,0,0,1,1,2,2],"right_children":[2,4,6,-1,-1,-1,-1],"split_conditions":[3.790105E-1,4.911714E-1,2.7850607E-1,-5.071623E-2,1.5528107E-3,-1.7080262E-2,4.362331E-2],"split_indices":[385,708,1951,0,0,0,0],"split_type":[0,0,0,0,0,0,0],"sum_hessian":[4.9789057E0,2.0016255E0,2.9772801E0,1.0007653E0,1.0008602E0,1.2431313E0,1.734149E0],"tree_param":{"num_deleted":"0","num_feature":"2048","num_nodes":"7","size_leaf_vector":"1"}},{"base_weights":[-3.0530348E-2,-3.2428395E-2,2.0175947E-1,-1.2637854E-2,4.6398085E-2],"categories":[],"categories_nodes":[],"categories_segments":[],"categories_sizes":[],"default_left":[0,0,0,0,0],"id":61,"left_children":[1,-1,3,-1,-1],"loss_changes":[4.6746767E-1,0E0,3.94782E-1,0E0,0E0],"parents":[2147483647,0,0,2,2],"right_children":[2,-1,4,-1,-1],"split_conditions":[5.086297E-1,-3.2428395E-2,6.1181635E-1,-1.2637854E-2,4.6398085E-2],"split_indices":[1941,0,479,0,0],"split_type":[0,0,0,0,0],"sum_hessian":[4.8919115E0,1.9852868E0,2.9066246E0,1.5211446E0,1.38548E0],"tree_param":{"num_deleted":"0","num_feature":"2048","num_nodes":"5","size_leaf_vector":"1"}},{"base_weights":[-2.7555747E-2,1.6596033E-1,-3.724597E-2,-2.2507789E-2,3.5229155E-1,4.779574E-2,3.2126014E-3],"categories":[],"categories_nodes":[],"categories_segments":[],"categories_sizes":[],"default_left":[0,0,0,0,0,0,0],"id":62,"left_children":[1,3,-1,-1,5,-1,-1],"loss_changes":[4.5030278E-1,4.0136927E-1,0E0,0E0,1.20780736E-1,0E0,0E0],"parents":[2147483647,0,0,1,1,4,4],"right_children":[2,4,-1,-1,6,-1,-1],"split_conditions":[6.0772103E-1,3.1551135E-1,-3.724597E-2,-2.2507789E-2,3.1875384E-1,4.779574E-2,3.2126014E-3],"split_indices":[1089,1053,0,0,1904,0,0],"split_type":[0,0,0,0,0,0,0],"sum_hessian":[4.8205466E0,3.420321E0,1.4002259E0,1.0367123E0,2.3836086E0,1.3578172E0,1.0257915E0],"tree_param":{"num_deleted":"0","num_feature":"2048","num_nodes":"7","size_leaf_vector":"1"}},{"base_weights":[-2.6654894E-2,2.7412703E-2,-2.4246173E-1,-4.370978E-2,1.5096863E-2],"categories":[],"categories_nodes":[],"categories_segments":[],"categories_sizes":[],"default_left":[0,0,0,0,0],"id":63,"left_children":[1,-1,3,-1,-1],"loss_changes":[4.3913865E-1,0E0,3.6260486E-1,0E0,0E0],"parents":[2147483647,0,0,2,2],"right_children":[2,-1,4,-1,-1],"split_conditions":[2.1724619E-1,2.7412703E-2,5.778172E-1,-4.370978E-2,1.5096863E-2],"split_indices":[2004,0,940,0,0],"split_type":[0,0,0,0,0],"sum_hessian":[4.7413154E0,1.8678069E0,2.8735085E0,1.8481891E0,1.0253192E0],"tree_param":{"num_deleted":"0","num_feature":"2048","num_nodes":"5","size_leaf_vector":"1"}},{"base_weights":[-2.4664575E-2,-2.648226E-1,2.4394754E-1,1.2480408E-2,-5.493122E-2,4.4027064E-2,-7.598252E-3],"categories":[],"categories_nodes":[],"categories_segments":[],"categories_sizes":[],"default_left":[0,0,0,0,0,0,0],"id":64,"left_children":[1,3,5,-1,-1,-1,-1],"loss_changes":[4.306408E-1,4.5376927E-1,2.3437698E-1,0E0,0E0,0E0,0E0],"parents":[2147483647,0,0,1,1,2,2],"right_children":[2,4,6,-1,-1,-1,-1],"split_conditions":[5.006481E-1,3.3667135E-1,2.6808587E-1,1.2480408E-2,-5.493122E-2,4.4027064E-2,-7.598252E-3],"split_indices":[2038,1309,43,0,0,0,0],"split_type":[0,0,0,0,0,0,0],"sum_hessian":[4.674184E0,2.4752474E0,2.1989367E0,1.2814815E0,1.1937658E0,1.1296113E0,1.0693256E0],"tree_param":{"num_deleted":"0","num_feature":"2048","num_nodes":"7","size_leaf_vector":"1"}},{"base_weights":[-2.3847325E-2,-2.6509583E-1,2.3993292E-1,-5.3526074E-2,1.0430853E-2,4.3794975E-2,-9.294353E-3],"categories":[],"categories_nodes":[],"categories_segments":[],"categories_sizes":[],"default_left":[0,0,0,0,0,0,0],"id":65,"left_children":[1,3,5,-1,-1,-1,-1],"loss_changes":[4.1875982E-1,3.9416206E-1,2.510336E-1,0E0,0E0,0E0,0E0],"parents":[2147483647,0,0,1,1,2,2],"right_children":[2,4,6,-1,-1,-1,-1],"split_conditions":[5.014066E-1,6.1594474E-1,4.8519328E-1,-5.3526074E-2,1.0430853E-2,4.3794975E-2,-9.294353E-3],"split_indices":[833,479,1231,0,0,0,0],"split_type":[0,0,0,0,0,0,0],"sum_hessian":[4.5809813E0,2.3900754E0,2.1909058E0,1.1211419E0,1.2689334E0,1.1758064E0,1.0150994E0],"tree_param":{"num_deleted":"0","num_feature":"2048","num_nodes":"7","size_leaf_vector":"1"}},{"base_weights":[-2.3539875E-2,-2.2553693E-1,2.8899524E-2,-5.0043114E-2,1.5706476E-2],"categories":[],"categories_nodes":[],"categories_segments":[],"categories_sizes":[],"default_left":[0,0,0,0,0],"id":66,"left_children":[1,3,-1,-1,-1],"loss_changes":[4.1190985E-1,4.885441E-1,0E0,0E0,0E0],"parents":[2147483647,0,0,1,1],"right_children":[2,4,-1,-1,-1],"split_conditions":[7.965318E-1,5.8947253E-1,2.8899524E-2,-5.0043114E-2,1.5706476E-2],"split_indices":[1624,15,0,0,0],"split_type":[0,0,0,0,0],"sum_hessian":[4.492227E0,2.897733E0,1.594494E0,1.5070027E0,1.3907303E0],"tree_param":{"num_deleted":"0","num_feature":"2048","num_nodes":"5","size_leaf_vector":"1"}},{"base_weights":[-2.2723705E-2,-2.521533E-1,2.5136266E-2,1.4285139E-2,-4.9737256E-2],"categories":[],"categories_nodes":[],"categories_segments":[],"categories_sizes":[],"default_left":[0,0,0,0,0],"id":67,"left_children":[1,3,-1,-1,-1],"loss_changes":[4.0407664E-1,4.0507233E-1,0E0,0E0,0E0],"parents":[2147483647,0,0,1,1],"right_children":[2,4,-1,-1,-1],"split_conditions":[6.621323E-1,2.2067988E-1,2.5136266E-2,1.4285139E-2,-4.9737256E-2],"split_indices":[466,2019,0,0,0],"split_type":[0,0,0,0,0],"sum_hessian":[4.4178696E0,2.4484048E0,1.9694649E0,1.0976845E0,1.3507203E0],"tree_param":{"num_deleted":"0","num_feature":"2048","num_nodes":"5","size_leaf_vector":"1"}},{"base_weights":[-2.2875715E-2,-3.5224807E-2,1.6259125E-1,-1.8369336E-2,3.5307385E-2],"categories":[],"categories_nodes":[],"categories_segments":[],"categories_sizes":[],"default_left":[0,0,0,0,0],"id":68,"left_children":[1,-1,3,-1,-1],"loss_changes":[3.8411528E-1,0E0,3.357692E-1,0E0,0E0],"parents":[2147483647,0,0,2,2],"right_children":[2,-1,4,-1,-1],"split_conditions":[4.1773278E-1,-3.5224807E-2,3.9922956E-1,-1.8369336E-2,3.5307385E-2],"split_indices":[586,0,1371,0,0],"split_type":[0,0,0,0,0],"sum_hessian":[4.3503876E0,1.2432463E0,3.1071413E0,1.1152797E0,1.9918617E0],"tree_param":{"num_deleted":"0","num_feature":"2048","num_nodes":"5","size_leaf_vector":"1"}},{"base_weights":[-2.4307095E-2,-2.2835821E-1,2.6730126E-2,1.39135895E-2,-4.6527263E-2],"categories":[],"categories_nodes":[],"categories_segments":[],"categories_sizes":[],"default_left":[0,0,0,0,0],"id":69,"left_children":[1,3,-1,-1,-1],"loss_changes":[3.758555E-1,3.826923E-1,0E0,0E0,0E0],"parents":[2147483647,0,0,1,1],"right_children":[2,4,-1,-1,-1],"split_conditions":[1.0281101E0,2.4088071E-1,2.6730126E-2,1.39135895E-2,-4.6527263E-2],"split_indices":[431,277,0,0,0],"split_type":[0,0,0,0,0],"sum_hessian":[4.2907424E0,2.6519547E0,1.6387875E0,1.2012814E0,1.4506732E0],"tree_param":{"num_deleted":"0","num_feature":"2048","num_nodes":"5","size_leaf_vector":"1"}},{"base_weights":[-2.3472885E-2,2.781522E-2,-2.1633156E-1,1.4434375E-2,-4.319993E-2],"categories":[],"categories_nodes":[],"categories_segments":[],"categories_sizes":[],"default_left":[0,0,0,0,0],"id":70,"left_children":[1,-1,3,-1,-1],"loss_changes":[3.6420593E-1,0E0,3.5409993E-1,0E0,0E0],"parents":[2147483647,0,0,2,2],"right_children":[2,-1,4,-1,-1],"split_conditions":[2.5044402E-1,2.781522E-2,3.0462334E-1,1.4434375E-2,-4.319993E-2],"split_indices":[1389,0,53,0,0],"split_type":[0,0,0,0,0],"sum_hessian":[4.2265353E0,1.4759442E0,2.750591E0,1.1530246E0,1.5975664E0],"tree_param":{"num_deleted":"0","num_feature":"2048","num_nodes":"5","size_leaf_vector":"1"}},{"base_weights":[-2.172071E-2,-2.763472E-2,2.0452268E-1,-1.578235E-2,4.301857E-2],"categories":[],"categories_nodes":[],"categories_segments":[],"categories_sizes":[],"default_left":[0,0,0,0,0],"id":71,"left_children":[1,-1,3,-1,-1],"loss_changes":[3.5415828E-1,0E0,3.385864E-1,0E0,0E0],"parents":[2147483647,0,0,2,2],"right_children":[2,-1,4,-1,-1],"split_conditions":[3.9261594E-1,-2.763472E-2,5.400706E-1,-1.578235E-2,4.301857E-2],"split_indices":[669,0,1354,0,0],"split_type":[0,0,0,0,0],"sum_hessian":[4.166666E0,1.8561714E0,2.3104947E0,1.0020807E0,1.3084141E0],"tree_param":{"num_deleted":"0","num_feature":"2048","num_nodes":"5","size_leaf_vector":"1"}},{"base_weights":[-1.9800378E-2,-2.4768472E-1,2.2568436E-2,-4.640883E-2,9.291667E-3],"categories":[],"categories_nodes":[],"categories_segments":[],"categories_sizes":[],"default_left":[0,0,0,0,0],"id":72,"left_children":[1,3,-1,-1,-1],"loss_changes":[3.4168246E-1,2.735318E-1,0E0,0E0,0E0],"parents":[2147483647,0,0,1,1],"right_children":[2,4,-1,-1,-1],"split_conditions":[5.014066E-1,7.468628E-1,2.2568436E-2,-4.640883E-2,9.291667E-3],"split_indices":[833,205,0,0,0],"split_type":[0,0,0,0,0],"sum_hessian":[4.108563E0,2.1260145E0,1.9825485E0,1.0783327E0,1.0476818E0],"tree_param":{"num_deleted":"0","num_feature":"2048","num_nodes":"5","size_leaf_vector":"1"}},{"base_weights":[-2.1055607E-2,-1.9957611E-1,2.8941518E-2,-4.249521E-2,2.0990623E-2],"categories":[],"categories_nodes":[],"categories_segments":[],"categories_sizes":[],"default_left":[0,0,0,0,0],"id":73,"left_children":[1,3,-1,-1,-1],"loss_changes":[3.3807114E-1,4.4016364E-1,0E0,0E0,0E0],"parents":[2147483647,0,0,1,1],"right_children":[2,4,-1,-1,-1],"split_conditions":[9.592744E-1,4.9602428E-1,2.8941518E-2,-4.249521E-2,2.0990623E-2],"split_indices":[1587,1974,0,0,0],"split_type":[0,0,0,0,0],"sum_hessian":[4.057442E0,2.8029373E0,1.2545049E0,1.7835218E0,1.0194155E0],"tree_param":{"num_deleted":"0","num_feature":"2048","num_nodes":"5","size_leaf_vector":"1"}},{"base_weights":[-1.7877003E-2,1.6062124E-1,-3.3202987E-2,3.4161445E-2,-1.3914256E-2],"categories":[],"categories_nodes":[],"categories_segments":[],"categories_sizes":[],"default_left":[0,0,0,0,0],"id":74,"left_children":[1,3,-1,-1,-1],"loss_changes":[3.3323357E-1,2.567923E-1,0E0,0E0,0E0],"parents":[2147483647,0,0,1,1],"right_children":[2,4,-1,-1,-1],"split_conditions":[6.0772103E-1,2.884516E-1,-3.3202987E-2,3.4161445E-2,-1.3914256E-2],"split_indices":[1089,1653,0,0,0],"split_type":[0,0,0,0,0],"sum_hessian":[3.9915085E0,2.8569417E0,1.1345668E0,1.6943218E0,1.16262E0],"tree_param":{"num_deleted":"0","num_feature":"2048","num_nodes":"5","size_leaf_vector":"1"}},{"base_weights":[-1.8887354E-2,2.0279494E-1,-2.6821813E-2,-1.0148563E-2,3.9185967E-2],"categories":[],"categories_nodes":[],"categories_segments":[],"categories_sizes":[],"default_left":[0,0,0,0,0],"id":75,"left_children":[1,3,-1,-1,-1],"loss_changes":[3.2757896E-1,2.2304243E-1,0E0,0E0,0E0],"parents":[2147483647,0,0,1,1],"right_children":[2,4,-1,-1,-1],"split_conditions":[3.572489E-1,6.738482E-1,-2.6821813E-2,-1.0148563E-2,3.9185967E-2],"split_indices":[407,466,0,0,0],"split_type":[0,0,0,0,0],"sum_hessian":[3.9425495E0,2.1857882E0,1.7567613E0,1.0151805E0,1.1706077E0],"tree_param":{"num_deleted":"0","num_feature":"2048","num_nodes":"5","size_leaf_vector":"1"}},{"base_weights":[-1.667925E-2,-2.8243184E-2,1.8852612E-1,4.1101716E-2,-1.1667716E-2],"categories":[],"categories_nodes":[],"categories_segments":[],"categories_sizes":[],"default_left":[0,0,0,0,0],"id":76,"left_children":[1,-1,3,-1,-1],"loss_changes":[3.2021376E-1,0E0,2.762602E-1,0E0,0E0],"parents":[2147483647,0,0,2,2],"right_children":[2,-1,4,-1,-1],"split_conditions":[3.790105E-1,-2.8243184E-2,4.7422028E-1,4.1101716E-2,-1.1667716E-2],"split_indices":[385,0,1377,0,0],"split_type":[0,0,0,0,0],"sum_hessian":[3.8954535E0,1.5333459E0,2.3621075E0,1.1656542E0,1.1964533E0],"tree_param":{"num_deleted":"0","num_feature":"2048","num_nodes":"5","size_leaf_vector":"1"}},{"base_weights":[-1.4880781E-2,-2.9505631E-2,1.7610723E-1,-1.1916305E-2,3.5352476E-2],"categories":[],"categories_nodes":[],"categories_segments":[],"categories_sizes":[],"default_left":[0,0,0,0,0],"id":77,"left_children":[1,-1,3,-1,-1],"loss_changes":[3.112079E-1,0E0,2.2585432E-1,0E0,0E0],"parents":[2147483647,0,0,2,2],"right_children":[2,-1,4,-1,-1],"split_conditions":[3.8821787E-1,-2.9505631E-2,4.522529E-1,-1.1916305E-2,3.5352476E-2],"split_indices":[1371,0,1114,0,0],"split_type":[0,0,0,0,0],"sum_hessian":[3.8448055E0,1.337632E0,2.5071735E0,1.0642774E0,1.442896E0],"tree_param":{"num_deleted":"0","num_feature":"2048","num_nodes":"5","size_leaf_vector":"1"}},{"base_weights":[-1.4780173E-2,-2.3441875E-2,2.2299508E-2],"categories":[],"categories_nodes":[],"categories_segments":[],"categories_sizes":[],"default_left":[0,0,0],"id":78,"left_children":[1,-1,-1],"loss_changes":[3.028813E-1,0E0,0E0],"parents":[2147483647,0,0],"right_children":[2,-1,-1],"split_conditions":[5.006481E-1,-2.3441875E-2,2.2299508E-2],"split_indices":[2038,0,0],"split_type":[0,0,0],"sum_hessian":[3.7986386E0,1.9819661E0,1.8166724E0],"tree_param":{"num_deleted":"0","num_feature":"2048","num_nodes":"3","size_leaf_vector":"1"}},{"base_weights":[-1.3646207E-2,-3.1627983E-2,1.5919143E-1,3.749692E-2,-8.227257E-3],"categories":[],"categories_nodes":[],"categories_segments":[],"categories_sizes":[],"default_left":[0,0,0,0,0],"id":79,"left_children":[1,-1,3,-1,-1],"loss_changes":[2.999042E-1,0E0,2.2372854E-1,0E0,0E0],"parents":[2147483647,0,0,2,2],"right_children":[2,-1,4,-1,-1],"split_conditions":[4.1773278E-1,-3.1627983E-2,2.5044402E-1,3.749692E-2,-8.227257E-3],"split_indices":[586,0,1389,0,0],"split_type":[0,0,0,0,0],"sum_hessian":[3.7710185E0,1.0691113E0,2.7019072E0,1.1348659E0,1.5670413E0],"tree_param":{"num_deleted":"0","num_feature":"2048","num_nodes":"5","size_leaf_vector":"1"}},{"base_weights":[-1.2884894E-2,2.1494785E-2,-2.3874654E-2],"categories":[],"categories_nodes":[],"categories_segments":[],"categories_sizes":[],"default_left":[0,0,0],"id":80,"left_children":[1,-1,-1],"loss_changes":[2.9454926E-1,0E0,0E0],"parents":[2147483647,0,0],"right_children":[2,-1,-1],"split_conditions":[3.056382E-1,2.1494785E-2,-2.3874654E-2],"split_indices":[1899,0,0],"split_type":[0,0,0],"sum_hessian":[3.7267282E0,1.879324E0,1.8474041E0],"tree_param":{"num_deleted":"0","num_feature":"2048","num_nodes":"3","size_leaf_vector":"1"}},{"base_weights":[-1.2195842E-2,1.5704885E-1,-3.1300507E-2,3.2354474E-2,-1.2506944E-2],"categories":[],"categories_nodes":[],"categories_segments":[],"categories_sizes":[],"default_left":[0,0,0,0,0],"id":81,"left_children":[1,3,-1,-1,-1],"loss_changes":[2.8848496E-1,2.1305105E-1,0E0,0E0,0E0],"parents":[2147483647,0,0,1,1],"right_children":[2,4,-1,-1,-1],"split_conditions":[6.0772103E-1,2.884516E-1,-3.1300507E-2,3.2354474E-2,-1.2506944E-2],"split_indices":[1089,1653,0,0,0],"split_type":[0,0,0,0,0],"sum_hessian":[3.7009661E0,2.6742573E0,1.026709E0,1.5894068E0,1.0848504E0],"tree_param":{"num_deleted":"0","num_feature":"2048","num_nodes":"5","size_leaf_vector":"1"}},{"base_weights":[-1.3543823E-2,-2.026398E-1,2.4817048E-2,-4.207119E-2,1.2964437E-2],"categories":[],"categories_nodes":[],"categories_segments":[],"categories_sizes":[],"default_left":[0,0,0,0,0],"id":82,"left_children":[1,3,-1,-1,-1],"loss_changes":[2.808614E-1,2.9042614E-1,0E0,0E0,0E0],"parents":[2147483647,0,0,1,1],"right_children":[2,4,-1,-1,-1],"split_conditions":[1.0281101E0,4.1941765E-1,2.4817048E-2,-4.207119E-2,1.2964437E-2],"split_indices":[431,2008,0,0,0],"split_type":[0,0,0,0,0],"sum_hessian":[3.6590474E0,2.2552714E0,1.403776E0,1.2009734E0,1.0542979E0],"tree_param":{"num_deleted":"0","num_feature":"2048","num_nodes":"5","size_leaf_vector":"1"}},{"base_weights":[-1.3396783E-2,-2.7603641E-2,1.7246397E-1,-9.354039E-3,3.428439E-2],"categories":[],"categories_nodes":[],"categories_segments":[],"categories_sizes":[],"default_left":[0,0,0,0,0],"id":83,"left_children":[1,-1,3,-1,-1],"loss_changes":[2.7264073E-1,0E0,1.8231417E-1,0E0,0E0],"parents":[2147483647,0,0,2,2],"right_children":[2,-1,4,-1,-1],"split_conditions":[3.9315426E-1,-2.7603641E-2,5.1388305E-1,-9.354039E-3,3.428439E-2],"split_indices":[1783,0,840,0,0],"split_type":[0,0,0,0,0],"sum_hessian":[3.6100004E0,1.2949414E0,2.315059E0,1.0799636E0,1.2350955E0],"tree_param":{"num_deleted":"0","num_feature":"2048","num_nodes":"5","size_leaf_vector":"1"}},{"base_weights":[-1.2732291E-2,-1.96837E-1,2.5407124E-2,-4.3103803E-2,1.3297078E-2],"categories":[],"categories_nodes":[],"categories_segments":[],"categories_sizes":[],"default_left":[0,0,0,0,0],"id":84,"left_children":[1,3,-1,-1,-1],"loss_changes":[2.7455425E-1,3.097666E-1,0E0,0E0,0E0],"parents":[2147483647,0,0,1,1],"right_children":[2,4,-1,-1,-1],"split_conditions":[7.965318E-1,5.8947253E-1,2.5407124E-2,-4.3103803E-2,1.3297078E-2],"split_indices":[1624,15,0,0,0],"split_type":[0,0,0,0,0],"sum_hessian":[3.5713475E0,2.2683432E0,1.3030043E0,1.1469449E0,1.1213983E0],"tree_param":{"num_deleted":"0","num_feature":"2048","num_nodes":"5","size_leaf_vector":"1"}},{"base_weights":[-1.2713635E-2,-2.6834128E-2,1.7776679E-1,-7.5477506E-3,3.399784E-2],"categories":[],"categories_nodes":[],"categories_segments":[],"categories_sizes":[],"default_left":[0,0,0,0,0],"id":85,"left_children":[1,-1,3,-1,-1],"loss_changes":[2.6786637E-1,0E0,1.5680394E-1,0E0,0E0],"parents":[2147483647,0,0,2,2],"right_children":[2,-1,4,-1,-1],"split_conditions":[3.9922956E-1,-2.6834128E-2,5.4546773E-1,-7.5477506E-3,3.399784E-2],"split_indices":[1371,0,1667,0,0],"split_type":[0,0,0,0,0],"sum_hessian":[3.5215628E0,1.3291128E0,2.19245E0,1.0647941E0,1.127656E0],"tree_param":{"num_deleted":"0","num_feature":"2048","num_nodes":"5","size_leaf_vector":"1"}},{"base_weights":[-1.1610972E-2,1.9510284E-2,-2.456942E-2],"categories":[],"categories_nodes":[],"categories_segments":[],"categories_sizes":[],"default_left":[0,0,0],"id":86,"left_children":[1,-1,-1],"loss_changes":[2.649488E-1,0E0,0E0],"parents":[2147483647,0,0],"right_children":[2,-1,-1],"split_conditions":[3.572489E-1,1.9510284E-2,-2.456942E-2],"split_indices":[407,0,0],"split_type":[0,0,0],"sum_hessian":[3.4848328E0,1.9390359E0,1.545797E0],"tree_param":{"num_deleted":"0","num_feature":"2048","num_nodes":"3","size_leaf_vector":"1"}},{"base_weights":[-1.1669115E-2,-2.6007464E-2,1.8219885E-1,-9.526333E-3,3.7544228E-2],"categories":[],"categories_nodes":[],"categories_segments":[],"categories_sizes":[],"default_left":[0,0,0,0,0],"id":87,"left_children":[1,-1,3,-1,-1],"loss_changes":[2.622785E-1,0E0,2.0167512E-1,0E0,0E0],"parents":[2147483647,0,0,2,2],"right_children":[2,-1,4,-1,-1],"split_conditions":[5.086297E-1,-2.6007464E-2,4.9001697E-1,-9.526333E-3,3.7544228E-2],"split_indices":[1941,0,1339,0,0],"split_type":[0,0,0,0,0],"sum_hessian":[3.4622643E0,1.3679668E0,2.0942974E0,1.0679485E0,1.0263491E0],"tree_param":{"num_deleted":"0","num_feature":"2048","num_nodes":"5","size_leaf_vector":"1"}},{"base_weights":[-1.0107039E-2,2.3474118E-2,-2.0218964E-1,5.455558E-3,-3.581117E-2],"categories":[],"categories_nodes":[],"categories_segments":[],"categories_sizes":[],"default_left":[0,0,0,0,0],"id":88,"left_children":[1,-1,3,-1,-1],"loss_changes":[2.5543788E-1,0E0,1.4024666E-1,0E0,0E0],"parents":[2147483647,0,0,2,2],"right_children":[2,-1,4,-1,-1],"split_conditions":[2.1724619E-1,2.3474118E-2,4.551596E-1,5.455558E-3,-3.581117E-2],"split_indices":[2004,0,368,0,0],"split_type":[0,0,0,0,0],"sum_hessian":[3.4220893E0,1.4067794E0,2.01531E0,1.0071013E0,1.0082086E0],"tree_param":{"num_deleted":"0","num_feature":"2048","num_nodes":"5","size_leaf_vector":"1"}},{"base_weights":[-1.0814441E-2,-2.1147048E-2,2.18251E-2],"categories":[],"categories_nodes":[],"categories_segments":[],"categories_sizes":[],"default_left":[0,0,0],"id":89,"left_children":[1,-1,-1],"loss_changes":[2.4786039E-1,0E0,0E0],"parents":[2147483647,0,0],"right_children":[2,-1,-1],"split_conditions":[6.621323E-1,-2.1147048E-2,2.18251E-2],"split_indices":[466,0,0],"split_type":[0,0,0],"sum_hessian":[3.3884244E0,1.8471636E0,1.5412608E0],"tree_param":{"num_deleted":"0","num_feature":"2048","num_nodes":"3","size_leaf_vector":"1"}},{"base_weights":[-9.642315E-3,-2.8141767E-2,1.5842447E-1,-9.986232E-3,3.2493163E-2],"categories":[],"categories_nodes":[],"categories_segments":[],"categories_sizes":[],"default_left":[0,0,0,0,0],"id":90,"left_children":[1,-1,3,-1,-1],"loss_changes":[2.4404404E-1,0E0,1.7600623E-1,0E0,0E0],"parents":[2147483647,0,0,2,2],"right_children":[2,-1,4,-1,-1],"split_conditions":[3.8546473E-1,-2.8141767E-2,3.6745578E-1,-9.986232E-3,3.2493163E-2],"split_indices":[505,0,1969,0,0],"split_type":[0,0,0,0,0],"sum_hessian":[3.3668184E0,1.028777E0,2.3380415E0,1.0733334E0,1.2647082E0],"tree_param":{"num_deleted":"0","num_feature":"2048","num_nodes":"5","size_leaf_vector":"1"}},{"base_weights":[-1.0046131E-2,-1.8921897E-1,2.452691E-2,-3.9768662E-2,1.0965788E-2],"categories":[],"categories_nodes":[],"categories_segments":[],"categories_sizes":[],"default_left":[0,0,0,0,0],"id":91,"left_children":[1,3,-1,-1,-1],"loss_changes":[2.4448581E-1,2.3731202E-1,0E0,0E0,0E0],"parents":[2147483647,0,0,1,1],"right_children":[2,4,-1,-1,-1],"split_conditions":[4.7719523E-1,3.757212E-1,2.452691E-2,-3.9768662E-2,1.0965788E-2],"split_indices":[1308,1969,0,0,0],"split_type":[0,0,0,0,0],"sum_hessian":[3.3299563E0,2.1088839E0,1.2210726E0,1.0475857E0,1.061298E0],"tree_param":{"num_deleted":"0","num_feature":"2048","num_nodes":"5","size_leaf_vector":"1"}},{"base_weights":[-1.0246707E-2,-1.865211E-1,2.4361946E-2,-3.8452487E-2,1.0932929E-2],"categories":[],"categories_nodes":[],"categories_segments":[],"categories_sizes":[],"default_left":[0,0,0,0,0],"id":92,"left_children":[1,3,-1,-1,-1],"loss_changes":[2.3735537E-1,2.2348836E-1,0E0,0E0,0E0],"parents":[2147483647,0,0,1,1],"right_children":[2,4,-1,-1,-1],"split_conditions":[5.9007514E-1,5.006481E-1,2.4361946E-2,-3.8452487E-2,1.0932929E-2],"split_indices":[741,2038,0,0,0],"split_type":[0,0,0,0,0],"sum_hessian":[3.288598E0,2.0974746E0,1.1911235E0,1.0769659E0,1.0205086E0],"tree_param":{"num_deleted":"0","num_feature":"2048","num_nodes":"5","size_leaf_vector":"1"}},{"base_weights":[-1.0165062E-2,-1.924299E-2,2.3500321E-2],"categories":[],"categories_nodes":[],"categories_segments":[],"categories_sizes":[],"default_left":[0,0,0],"id":93,"left_children":[1,-1,-1],"loss_changes":[2.3505084E-1,0E0,0E0],"parents":[2147483647,0,0],"right_children":[2,-1,-1],"split_conditions":[1.0281101E0,-1.924299E-2,2.3500321E-2],"split_indices":[431,0,0],"split_type":[0,0,0],"sum_hessian":[3.2481108E0,1.9864444E0,1.2616664E0],"tree_param":{"num_deleted":"0","num_feature":"2048","num_nodes":"3","size_leaf_vector":"1"}},{"base_weights":[-8.193631E-3,-2.4847018E-2,1.7683282E-2],"categories":[],"categories_nodes":[],"categories_segments":[],"categories_sizes":[],"default_left":[0,0,0],"id":94,"left_children":[1,-1,-1],"loss_changes":[2.3184758E-1,0E0,0E0],"parents":[2147483647,0,0],"right_children":[2,-1,-1],"split_conditions":[3.790105E-1,-2.4847018E-2,1.7683282E-2],"split_indices":[385,0,0],"split_type":[0,0,0],"sum_hessian":[3.2267292E0,1.2546033E0,1.9721258E0],"tree_param":{"num_deleted":"0","num_feature":"2048","num_nodes":"3","size_leaf_vector":"1"}},{"base_weights":[-9.14417E-3,1.9831877E-2,-2.179333E-2],"categories":[],"categories_nodes":[],"categories_segments":[],"categories_sizes":[],"default_left":[0,0,0],"id":95,"left_children":[1,-1,-1],"loss_changes":[2.2545722E-1,0E0,0E0],"parents":[2147483647,0,0],"right_children":[2,-1,-1],"split_conditions":[3.056382E-1,1.9831877E-2,-2.179333E-2],"split_indices":[1899,0,0],"split_type":[0,0,0],"sum_hessian":[3.2071507E0,1.6338383E0,1.5733124E0],"tree_param":{"num_deleted":"0","num_feature":"2048","num_nodes":"3","size_leaf_vector":"1"}},{"base_weights":[-8.757874E-3,-2.5385816E-2,1.6567665E-1,3.299771E-2,-7.562812E-3],"categories":[],"categories_nodes":[],"categories_segments":[],"categories_sizes":[],"default_left":[0,0,0,0,0],"id":96,"left_children":[1,-1,3,-1,-1],"loss_changes":[2.2107676E-1,0E0,1.4592977E-1,0E0,0E0],"parents":[2147483647,0,0,2,2],"right_children":[2,-1,4,-1,-1],"split_conditions":[3.9315426E-1,-2.5385816E-2,3.227694E-1,3.299771E-2,-7.562812E-3],"split_indices":[1783,0,1945,0,0],"split_type":[0,0,0,0,0],"sum_hessian":[3.187178E0,1.135854E0,2.051324E0,1.0017673E0,1.0495566E0],"tree_param":{"num_deleted":"0","num_feature":"2048","num_nodes":"5","size_leaf_vector":"1"}},{"base_weights":[-7.911594E-3,-2.3857418E-2,1.7952394E-2],"categories":[],"categories_nodes":[],"categories_segments":[],"categories_sizes":[],"default_left":[0,0,0],"id":97,"left_children":[1,-1,-1],"loss_changes":[2.2249106E-1,0E0,0E0],"parents":[2147483647,0,0],"right_children":[2,-1,-1],"split_conditions":[5.14086E-1,-2.3857418E-2,1.7952394E-2],"split_indices":[1852,0,0],"split_type":[0,0,0],"sum_hessian":[3.1555207E0,1.2923236E0,1.8631971E0],"tree_param":{"num_deleted":"0","num_feature":"2048","num_nodes":"3","size_leaf_vector":"1"}},{"base_weights":[-8.609447E-3,-2.4272379E-2,1.7393064E-2],"categories":[],"categories_nodes":[],"categories_segments":[],"categories_sizes":[],"default_left":[0,0,0],"id":98,"left_children":[1,-1,-1],"loss_changes":[2.1899271E-1,0E0,0E0],"parents":[2147483647,0,0],"right_children":[2,-1,-1],"split_conditions":[5.086297E-1,-2.4272379E-2,1.7393064E-2],"split_indices":[1941,0,0],"split_type":[0,0,0],"sum_hessian":[3.1365287E0,1.2296966E0,1.9068322E0],"tree_param":{"num_deleted":"0","num_feature":"2048","num_nodes":"3","size_leaf_vector":"1"}},{"base_weights":[-9.485142E-3,-1.8331295E-2,2.3448288E-2],"categories":[],"categories_nodes":[],"categories_segments":[],"categories_sizes":[],"default_left":[0,0,0],"id":99,"left_children":[1,-1,-1],"loss_changes":[2.1761371E-1,0E0,0E0],"parents":[2147483647,0,0],"right_children":[2,-1,-1],"split_conditions":[7.965318E-1,-1.8331295E-2,2.3448288E-2],"split_indices":[1624,0,0],"split_type":[0,0,0],"sum_hessian":[3.1178129E0,1.965797E0,1.1520159E0],"tree_param":{"num_deleted":"0","num_feature":"2048","num_nodes":"3","size_leaf_vector":"1"}}]},"name":"gbtree"},"learner_model_param":{"base_score":"1.577587E-1","boost_from_average":"1","num_class":"0","num_feature":"2048","num_target":"1"},"objective":{"name":"binary:logistic","reg_loss_param":{"scale_pos_weight":"1"}}},"version":[2,0,1]}