{"learner":{"attributes":{"scikit_learn":"{\"_estimator_type\": \"classifier\"}"},"feature_names":[],"feature_types":[],"gradient_booster":{"model":{"gbtree_model_param":{"num_parallel_tree":"1","num_trees":"100"},"iteration_indptr":[0,1,2,3,4,5,6,7,8,9,10,11,12,13,14,15,16,17,18,19,20,21,22,23,24,25,26,27,28,29,30,31,32,33,34,35,36,37,38,39,40,41,42,43,44,45,46,47,48,49,50,51,52,53,54,55,56,57,58,59,60,61,62,63,64,65,66,67,68,69,70,71,72,73,74,75,76,77,78,79,80,81,82,83,84,85,86,87,88,89,90,91,92,93,94,95,96,97,98,99,100],"tree_info":[0,0,0,0,0,0,0,0,0,0,0,0,0,0,0,0,0,0,0,0,0,0,0,0,0,0,0,0,0,0,0,0,0,0,0,0,0,0,0,0,0,0,0,0,0,0,0,0,0,0,0,0,0,0,0,0,0,0,0,0,0,0,0,0,0,0,0,0,0,0,0,0,0,0,0,0,0,0,0,0,0,0,0,0,0,0,0,0,0,0,0,0,0,0,0,0,0,0,0,0],"trees":[{"base_weights":[-6.979581E-1,-8.321784E-1,1.5764439E-1,1.5857422E-1,-9.5338273E-1,-1.0554537E0,1.1391529E-1,3.2889605E-2,-1.1082844E0,-1.4385591E-2,-1.1354219E-1],"categories":[],"categories_nodes":[],"categories_segments":[],"categories_sizes":[],"default_left":[0,0,0,0,0,0,0,0,0,0,0],"id":0,"left_children":[1,3,-1,-1,5,7,-1,-1,9,-1,-1],"loss_changes":[1.3722424E1,1.2953924E1,0E0,0E0,9.276779E0,3.038723E0,0E0,0E0,7.644539E-1,0E0,0E0],"parents":[2147483647,0,0,1,1,4,4,5,5,8,8],"right_children":[2,4,-1,-1,6,8,-1,-1,10,-1,-1],"split_conditions":[9.536236E-1,1.332561E-1,1.5764439E-1,1.5857422E-1,1.36262E0,9.26005E-2,1.1391529E-1,3.2889605E-2,1.4316358E-1,-1.4385591E-2,-1.1354219E-1],"split_indices":[996,0,0,0,1281,35,0,0,5,0,0],"split_type":[0,0,0,0,0,0,0,0,0,0,0],"sum_hessian":[3.965419E1,3.804324E1,1.6109515E0,1.2391934E0,3.6804047E1,3.5564854E1,1.2391934E0,1.1152741E0,3.4449577E1,1.1152741E0,3.3334305E1],"tree_param":{"num_deleted":"0","num_feature":"2048","num_nodes":"11","size_leaf_vector":"1"}},{"base_weights":[-6.5986925E-1,-7.789394E-1,1.8509118E-1,1.7038468E-1,-9.0413034E-1,9.053368E-2,-9.8141366E-1,6.368431E-2,-1.0627365E0,-1.1204102E-1,3.7450325E-2],"categories":[],"categories_nodes":[],"categories_segments":[],"categories_sizes":[],"default_left":[0,0,0,0,0,0,0,0,0,0,0],"id":1,"left_children":[1,3,-1,-1,5,-1,7,-1,9,-1,-1],"loss_changes":[1.29425335E1,1.3175037E1,0E0,0E0,5.9630756E0,0E0,5.3198814E0,0E0,3.2352295E0,0E0,0E0],"parents":[2147483647,0,0,1,1,4,4,6,6,8,8],"right_children":[2,4,-1,-1,6,-1,8,-1,10,-1,-1],"split_conditions":[2.1222146E0,1.1897984E-1,1.8509118E-1,1.7038468E-1,1.2489303E-1,9.053368E-2,1.04136124E-1,6.368431E-2,1.338772E0,-1.1204102E-1,3.7450325E-2],"split_indices":[329,1710,0,0,1232,0,494,0,1847,0,0],"split_type":[0,0,0,0,0,0,0,0,0,0,0],"sum_hessian":[3.746943E1,3.643148E1,1.0379481E0,1.1435049E0,3.5287975E1,1.0065547E0,3.428142E1,1.3134683E0,3.2967953E1,3.190799E1,1.0599636E0],"tree_param":{"num_deleted":"0","num_feature":"2048","num_nodes":"11","size_leaf_vector":"1"}},{"base_weights":[-6.2133753E-1,-8.321955E-1,8.680103E-1,1.1279445E-1,-9.4684523E-1,2.4525785E-1,-5.2705973E-1,-1.0665958E0,1.3875985E-1,-6.7764945E-2,-7.775397E-3,-7.49361E-3,-1.100445E-1,1.3826954E-1,-7.5684264E-2],"categories":[],"categories_nodes":[],"categories_segments":[],"categories_sizes":[],"default_left":[0,0,0,0,0,0,0,0,0,0,0,0,0,0,0],"id":2,"left_children":[1,3,5,-1,7,-1,9,11,13,-1,-1,-1,-1,-1,-1],"loss_changes":[1.213742E1,8.338333E0,1.2339905E1,0E0,4.19203E0,0E0,1.8282008E-1,8.618469E-1,5.4753313E0,0E0,0E0,0E0,0E0,0E0,0E0],"parents":[2147483647,0,0,1,1,2,2,4,4,6,6,7,7,8,8],"right_children":[2,4,6,-1,8,-1,10,12,14,-1,-1,-1,-1,-1,-1],"split_conditions":[8.3640003E-1,1.15231395E-1,3.6867723E-1,1.1279445E-1,6.993099E-1,2.4525785E-1,4.571171E-1,1.5725848E-1,3.7456042E-1,-6.7764945E-2,-7.775397E-3,-7.49361E-3,-1.100445E-1,1.3826954E-1,-7.5684264E-2],"split_indices":[1552,193,240,0,1721,0,16,1864,685,0,0,0,0,0,0],"split_type":[0,0,0,0,0,0,0,0,0,0,0,0,0,0,0],"sum_hessian":[3.5348976E1,3.1351542E1,3.997435E0,1.244054E0,3.0107487E1,1.5166918E0,2.4807432E0,2.7132116E1,2.9753711E0,1.4773713E0,1.0033718E0,1.0016338E0,2.6130482E1,1.0178162E0,1.9575548E0],"tree_param":{"num_deleted":"0","num_feature":"2048","num_nodes":"15","size_leaf_vector":"1"}},{"base_weights":[-5.8740306E-1,8.0349267E-1,-8.0315495E-1,-7.616945E-2,2.0876284E-1,-9.501237E-1,6.077968E-1,8.820392E-2,-1.0512763E0,-6.5303616E-2,1.7525704E-1,-1.086896E-1,-6.4741233E-3],"categories":[],"categories_nodes":[],"categories_segments":[],"categories_sizes":[],"default_left":[0,0,0,0,0,0,0,0,0,0,0,0,0],"id":3,"left_children":[1,3,5,-1,-1,7,9,-1,11,-1,-1,-1,-1],"loss_changes":[1.09983635E1,1.1906593E1,6.87459E0,0E0,0E0,6.0965385E0,6.159616E0,0E0,8.745289E-1,0E0,0E0,0E0,0E0],"parents":[2147483647,0,0,1,1,2,2,5,5,6,6,8,8],"right_children":[2,4,6,-1,-1,8,10,-1,12,-1,-1,-1,-1],"split_conditions":[1.7775267E-1,3.32752E-1,8.9395E-1,-7.616945E-2,2.0876284E-1,1.1897984E-1,6.772755E-1,8.820392E-2,1.2769474E0,-6.5303616E-2,1.7525704E-1,-1.086896E-1,-6.4741233E-3],"split_indices":[277,1921,1480,0,0,1710,2,0,1082,0,0,0,0],"split_type":[0,0,0,0,0,0,0,0,0,0,0,0,0],"sum_hessian":[3.349995E1,4.132789E0,2.9367159E1,2.045926E0,2.0868633E0,2.6892563E1,2.4745977E0,1.0031295E0,2.5889433E1,1.3820181E0,1.0925797E0,2.4889063E1,1.0003705E0],"tree_param":{"num_deleted":"0","num_feature":"2048","num_nodes":"13","size_leaf_vector":"1"}},{"base_weights":[-5.552436E-1,-7.7457416E-1,7.651945E-1,9.638413E-2,-8.986259E-1,1.9719575E-1,-5.025946E-1,-9.991383E-1,4.2973734E-2,-8.683784E-3,-6.445529E-2,3.5467234E-2,-1.0729227E-1],"categories":[],"categories_nodes":[],"categories_segments":[],"categories_sizes":[],"default_left":[0,0,0,0,0,0,0,0,0,0,0,0,0],"id":4,"left_children":[1,3,5,-1,7,-1,9,11,-1,-1,-1,-1,-1],"loss_changes":[1.0077246E1,7.0297565E0,8.897657E0,0E0,4.060362E0,0E0,1.3980687E-1,2.935997E0,0E0,0E0,0E0,0E0,0E0],"parents":[2147483647,0,0,1,1,2,2,4,4,6,6,7,7],"right_children":[2,4,6,-1,8,-1,10,12,-1,-1,-1,-1,-1],"split_conditions":[8.3640003E-1,1.15231395E-1,3.5351363E-1,9.638413E-2,9.752969E-1,1.9719575E-1,5.274451E-1,9.854902E-2,4.2973734E-2,-8.683784E-3,-6.445529E-2,3.5467234E-2,-1.0729227E-1],"split_indices":[1552,193,1069,0,295,0,805,1275,0,0,0,0,0],"split_type":[0,0,0,0,0,0,0,0,0,0,0,0,0],"sum_hessian":[3.1749107E1,2.7581154E1,4.167954E0,1.3861724E0,2.619498E1,1.8508067E0,2.317147E0,2.4582737E1,1.612244E0,1.0000345E0,1.3171126E0,1.0737876E0,2.350895E1],"tree_param":{"num_deleted":"0","num_feature":"2048","num_nodes":"13","size_leaf_vector":"1"}},{"base_weights":[-5.240197E-1,-6.803013E-1,1.2345469E-1,1.4559153E-1,-8.302864E-1,-9.57889E-1,9.344306E-2,-1.06444634E-1,6.287227E-2,-6.5493844E-2,9.119605E-2],"categories":[],"categories_nodes":[],"categories_segments":[],"categories_sizes":[],"default_left":[0,0,0,0,0,0,0,0,0,0,0],"id":5,"left_children":[1,3,-1,-1,5,7,-1,-1,9,-1,-1],"loss_changes":[9.392034E0,1.0571852E1,0E0,0E0,7.187256E0,2.9549847E0,0E0,0E0,2.7024438E0,0E0,0E0],"parents":[2147483647,0,0,1,1,4,4,5,5,8,8],"right_children":[2,4,-1,-1,6,8,-1,-1,10,-1,-1],"split_conditions":[9.536236E-1,1.23762004E-1,1.2345469E-1,1.4559153E-1,1.36262E0,8.453195E-1,9.344306E-2,-1.06444634E-1,4.639091E-1,-6.5493844E-2,9.119605E-2],"split_indices":[996,0,0,0,1281,1712,0,0,1743,0,0],"split_type":[0,0,0,0,0,0,0,0,0,0,0],"sum_hessian":[3.0117853E1,2.8222872E1,1.8949813E0,1.2803242E0,2.6942547E1,2.5552132E1,1.3904163E0,2.3098122E1,2.4540095E0,1.4537125E0,1.0002972E0],"tree_param":{"num_deleted":"0","num_feature":"2048","num_nodes":"11","size_leaf_vector":"1"}},{"base_weights":[-4.9209276E-1,7.209787E-1,-7.220703E-1,-7.107373E-2,1.6461328E0,-8.883442E-1,6.134919E-1,3.3117257E-2,2.0795374E-1,7.840834E-2,-1.0053339E0,1.710928E-1,-6.2782876E-2,-1.0483094E-1,-5.5324654E-3],"categories":[],"categories_nodes":[],"categories_segments":[],"categories_sizes":[],"default_left":[0,0,0,0,0,0,0,0,0,0,0,0,0,0,0],"id":6,"left_children":[1,3,5,-1,7,9,11,-1,-1,-1,13,-1,-1,-1,-1],"loss_changes":[8.753086E0,8.061982E0,6.164693E0,0E0,1.284545E0,5.2713184E0,5.6966743E0,0E0,0E0,0E0,8.34198E-1,0E0,0E0,0E0,0E0],"parents":[2147483647,0,0,1,1,2,2,4,4,5,5,6,6,10,10],"right_children":[2,4,6,-1,8,10,12,-1,-1,-1,14,-1,-1,-1,-1],"split_conditions":[1.7775267E-1,3.4487048E-1,8.9395E-1,-7.107373E-2,3.7672997E-1,1.1897984E-1,2.733739E-1,3.3117257E-2,2.0795374E-1,7.840834E-2,9.6756613E-1,1.710928E-1,-6.2782876E-2,-1.0483094E-1,-5.5324654E-3],"split_indices":[277,553,1480,0,926,1710,378,0,0,0,1375,0,0,0,0],"split_type":[0,0,0,0,0,0,0,0,0,0,0,0,0,0,0],"sum_hessian":[2.8509335E1,4.2032566E0,2.4306078E1,1.7409008E0,2.4623559E0,2.191284E1,2.3932366E0,1.0477068E0,1.414649E0,1.0598329E0,2.0853008E1,1.0694429E0,1.3237938E0,1.9851515E1,1.0014938E0],"tree_param":{"num_deleted":"0","num_feature":"2048","num_nodes":"15","size_leaf_vector":"1"}},{"base_weights":[-4.6259624E-1,8.361839E-1,-6.7659163E-1,1.6512352E-1,-6.251067E-2,3.8177037E-1,-9.444113E-1,-7.748934E-2,1.4528267E-1,-1.03576384E-1,3.471333E-2],"categories":[],"categories_nodes":[],"categories_segments":[],"categories_sizes":[],"default_left":[0,0,0,0,0,0,0,0,0,0,0],"id":7,"left_children":[1,3,5,-1,-1,7,9,-1,-1,-1,-1],"loss_changes":[8.3388405E0,6.276883E0,7.3232136E0,0E0,0E0,8.153513E0,2.7064323E0,0E0,0E0,0E0,0E0],"parents":[2147483647,0,0,1,1,2,2,5,5,6,6],"right_children":[2,4,6,-1,-1,8,10,-1,-1,-1,-1],"split_conditions":[2.5454587E-1,5.539573E-1,1.8239726E-1,1.6512352E-1,-6.251067E-2,4.3437293E-1,1.3108977E0,-7.748934E-2,1.4528267E-1,-1.03576384E-1,3.471333E-2],"split_indices":[14,1510,1488,0,0,649,1391,0,0,0,0],"split_type":[0,0,0,0,0,0,0,0,0,0,0],"sum_hessian":[2.6967482E1,3.4034982E0,2.3563984E1,2.101422E0,1.3020761E0,4.672774E0,1.889121E1,2.379548E0,2.2932255E0,1.7828238E1,1.0629724E0],"tree_param":{"num_deleted":"0","num_feature":"2048","num_nodes":"11","size_leaf_vector":"1"}},{"base_weights":[-4.3785498E-1,-7.5917566E-1,4.2678618E-1,-9.334805E-1,9.699886E-2,1.062152E0,-7.6150596E-2,3.3441737E-2,-1.02538906E-1,1.5836011E0,-2.66344E-2,2.9531265E-2,1.9463646E-1],"categories":[],"categories_nodes":[],"categories_segments":[],"categories_sizes":[],"default_left":[0,0,0,0,0,0,0,0,0,0,0,0,0],"id":8,"left_children":[1,3,5,7,-1,9,-1,-1,-1,11,-1,-1,-1],"loss_changes":[7.7177944E0,6.8618727E0,6.7360044E0,2.4943256E0,0E0,4.254713E0,0E0,0E0,0E0,1.3494339E0,0E0,0E0,0E0],"parents":[2147483647,0,0,1,1,2,2,3,3,5,5,9,9],"right_children":[2,4,6,8,-1,10,-1,-1,-1,12,-1,-1,-1],"split_conditions":[5.63274E-1,9.249908E-1,4.7171926E-1,6.1036337E-2,9.699886E-2,8.8843155E-1,-7.6150596E-2,3.3441737E-2,-1.02538906E-1,2.356952E-1,-2.66344E-2,2.9531265E-2,1.9463646E-1],"split_indices":[214,48,1385,1733,0,267,0,0,0,1924,0,0,0],"split_type":[0,0,0,0,0,0,0,0,0,0,0,0,0],"sum_hessian":[2.561291E1,1.8762358E1,6.8505516E0,1.7462265E1,1.3000927E0,4.532975E0,2.3175762E0,1.0019237E0,1.6460342E1,3.1173546E0,1.4156207E0,1.0835146E0,2.0338402E0],"tree_param":{"num_deleted":"0","num_feature":"2048","num_nodes":"13","size_leaf_vector":"1"}},{"base_weights":[-4.1241258E-1,6.629039E-1,-6.525522E-1,-6.488283E-2,1.3692472E0,5.446607E-1,-8.348336E-1,1.6802499E-1,2.8675286E-2,1.4073686E-1,-5.894133E-2,-1.0128903E-1,3.7334627E-1,1.1964669E-1,-5.7715267E-2],"categories":[],"categories_nodes":[],"categories_segments":[],"categories_sizes":[],"default_left":[0,0,0,0,0,0,0,0,0,0,0,0,0,0,0],"id":9,"left_children":[1,3,5,-1,7,9,11,-1,-1,-1,-1,-1,13,-1,-1],"loss_changes":[6.963461E0,5.625825E0,5.0764294E0,0E0,7.452884E-1,4.1595125E0,4.417053E0,0E0,0E0,0E0,0E0,0E0,3.1489325E0,0E0,0E0],"parents":[2147483647,0,0,1,1,2,2,4,4,5,5,6,6,12,12],"right_children":[2,4,6,-1,8,10,12,-1,-1,-1,-1,-1,14,-1,-1],"split_conditions":[1.7775267E-1,3.32752E-1,2.5159463E-1,-6.488283E-2,4.3196124E-1,5.336708E-1,8.9395E-1,1.6802499E-1,2.8675286E-2,1.4073686E-1,-5.894133E-2,-1.0128903E-1,2.733739E-1,1.1964669E-1,-5.7715267E-2],"split_indices":[277,1921,14,0,1149,655,1480,0,0,0,0,0,378,0,0],"split_type":[0,0,0,0,0,0,0,0,0,0,0,0,0,0,0],"sum_hessian":[2.4291336E1,4.113058E0,2.0178278E1,1.4681047E0,2.6449533E0,2.4035952E0,1.7774683E1,1.6256882E0,1.0192652E0,1.2282563E0,1.1753387E0,1.5632471E1,2.142211E0,1.009349E0,1.1328619E0],"tree_param":{"num_deleted":"0","num_feature":"2048","num_nodes":"15","size_leaf_vector":"1"}},{"base_weights":[-3.880609E-1,-7.1439886E-1,4.0424433E-1,-9.0086025E-1,8.474078E-2,9.4278526E-1,-7.2268575E-2,3.0166343E-2,-1.0014236E-1,1.3671459E0,-2.4320493E-2,1.672856E-1,2.5039969E-2],"categories":[],"categories_nodes":[],"categories_segments":[],"categories_sizes":[],"default_left":[0,0,0,0,0,0,0,0,0,0,0,0,0],"id":10,"left_children":[1,3,5,7,-1,9,-1,-1,-1,11,-1,-1,-1],"loss_changes":[6.483676E0,5.8104877E0,5.3108625E0,2.2330208E0,0E0,3.1486316E0,0E0,0E0,0E0,1.0395751E0,0E0,0E0,0E0],"parents":[2147483647,0,0,1,1,2,2,3,3,5,5,9,9],"right_children":[2,4,6,8,-1,10,-1,-1,-1,12,-1,-1,-1],"split_conditions":[5.63274E-1,9.249908E-1,4.7171926E-1,1.0397144E-1,8.474078E-2,6.065273E-1,-7.2268575E-2,3.0166343E-2,-1.0014236E-1,3.8871294E-1,-2.4320493E-2,1.672856E-1,2.5039969E-2],"split_indices":[214,48,1385,1186,0,368,0,0,0,1550,0,0,0],"split_type":[0,0,0,0,0,0,0,0,0,0,0,0,0],"sum_hessian":[2.2959242E1,1.6331064E1,6.6281776E0,1.4967335E1,1.3637304E0,4.5954795E0,2.0326982E0,1.0007513E0,1.3966583E1,3.2719812E0,1.3234981E0,2.1778262E0,1.0941551E0],"tree_param":{"num_deleted":"0","num_feature":"2048","num_nodes":"13","size_leaf_vector":"1"}},{"base_weights":[-3.6551943E-1,6.30037E-1,-6.1108434E-1,-6.1433822E-2,1.2348875E-1,5.1789206E-1,-8.0325717E-1,1.2374772E-1,-5.4945856E-2,-9.910385E-2,3.323919E-1,-5.5360086E-2,1.0640111E-1],"categories":[],"categories_nodes":[],"categories_segments":[],"categories_sizes":[],"default_left":[0,0,0,0,0,0,0,0,0,0,0,0,0],"id":11,"left_children":[1,3,5,-1,-1,7,9,-1,-1,-1,11,-1,-1],"loss_changes":[5.955841E0,4.522657E0,4.4918046E0,0E0,0E0,3.2456913E0,3.8364763E0,0E0,0E0,0E0,2.5870063E0,0E0,0E0],"parents":[2147483647,0,0,1,1,2,2,5,5,6,6,10,10],"right_children":[2,4,6,-1,-1,8,10,-1,-1,-1,12,-1,-1],"split_conditions":[1.7775267E-1,3.4487048E-1,2.5159463E-1,-6.1433822E-2,1.2348875E-1,5.336708E-1,8.9395E-1,1.2374772E-1,-5.4945856E-2,-9.910385E-2,6.104372E-1,-5.5360086E-2,1.0640111E-1],"split_indices":[277,553,14,0,0,655,1480,0,0,0,1416,0,0],"split_type":[0,0,0,0,0,0,0,0,0,0,0,0,0],"sum_hessian":[2.1787048E1,4.0009484E0,1.7786098E1,1.3035117E0,2.6974366E0,2.3406022E0,1.54454975E1,1.3028542E0,1.0377481E0,1.3363207E1,2.08229E0,1.0518354E0,1.0304544E0],"tree_param":{"num_deleted":"0","num_feature":"2048","num_nodes":"13","size_leaf_vector":"1"}},{"base_weights":[-3.4581387E-1,-5.865955E-1,6.1147267E-1,-8.6694133E-1,3.9609763E-1,1.2232836E-1,-3.8547587E-2,2.8231934E-2,-9.813203E-2,1.11074865E-1,-6.426954E-2],"categories":[],"categories_nodes":[],"categories_segments":[],"categories_sizes":[],"default_left":[0,0,0,0,0,0,0,0,0,0,0],"id":12,"left_children":[1,3,5,7,9,-1,-1,-1,-1,-1,-1],"loss_changes":[5.34617E0,5.2470894E0,3.4226403E0,2.1387138E0,4.156433E0,0E0,0E0,0E0,0E0,0E0,0E0],"parents":[2147483647,0,0,1,1,2,2,3,3,4,4],"right_children":[2,4,6,8,10,-1,-1,-1,-1,-1,-1],"split_conditions":[8.3640003E-1,5.9876627E-1,3.9070162E-1,1.6096862E-1,4.0800413E-1,1.2232836E-1,-3.8547587E-2,2.8231934E-2,-9.813203E-2,1.11074865E-1,-6.426954E-2],"split_indices":[1552,889,1216,262,1684,0,0,0,0,0,0],"split_type":[0,0,0,0,0,0,0,0,0,0,0],"sum_hessian":[2.063795E1,1.6799648E1,3.8383029E0,1.3162421E1,3.6372278E0,2.2379074E0,1.6003953E0,1.0585008E0,1.210392E1,2.1137664E0,1.5234613E0],"tree_param":{"num_deleted":"0","num_feature":"2048","num_nodes":"11","size_leaf_vector":"1"}},{"base_weights":[-3.2665965E-1,-6.9433075E-1,3.0920953E-1,-9.012604E-1,3.764228E-2,-7.5418286E-2,8.8490844E-1,-1.528276E-2,-9.583216E-2,-2.2214552E-2,1.233415E0,1.4794397E-1,1.9276284E-2],"categories":[],"categories_nodes":[],"categories_segments":[],"categories_sizes":[],"default_left":[0,0,0,0,0,0,0,0,0,0,0,0,0],"id":13,"left_children":[1,3,5,7,-1,-1,9,-1,-1,-1,11,-1,-1],"loss_changes":[5.03378E0,3.3014193E0,5.7142367E0,3.4459686E-1,0E0,0E0,2.515009E0,0E0,0E0,0E0,8.8495636E-1,0E0,0E0],"parents":[2147483647,0,0,1,1,2,2,3,3,6,6,10,10],"right_children":[2,4,6,8,-1,-1,10,-1,-1,-1,12,-1,-1],"split_conditions":[5.7661355E-1,8.3817315E-1,4.94913E-1,2.9827508E-1,3.764228E-2,-7.5418286E-2,3.3139282E-1,-1.528276E-2,-9.583216E-2,-2.2214552E-2,4.1752127E-1,1.4794397E-1,1.9276284E-2],"split_indices":[1639,727,2040,380,0,0,582,0,0,0,1713,0,0],"split_type":[0,0,0,0,0,0,0,0,0,0,0,0,0],"sum_hessian":[1.9612823E1,1.2368939E1,7.243884E0,1.0498361E1,1.8705786E0,2.4353812E0,4.8085027E0,1.004276E0,9.494084E0,1.2381183E0,3.5703845E0,2.5466697E0,1.0237149E0],"tree_param":{"num_deleted":"0","num_feature":"2048","num_nodes":"13","size_leaf_vector":"1"}},{"base_weights":[-3.100255E-1,-6.385279E-1,3.7135357E-1,-8.454329E-1,7.053972E-2,7.9456973E-1,-6.577488E-2,2.2221139E-2,-9.599879E-2,1.1476027E0,-2.6553217E-2,1.4142309E-1,1.42815085E-2],"categories":[],"categories_nodes":[],"categories_segments":[],"categories_sizes":[],"default_left":[0,0,0,0,0,0,0,0,0,0,0,0,0],"id":14,"left_children":[1,3,5,7,-1,9,-1,-1,-1,11,-1,-1,-1],"loss_changes":[4.649111E0,4.3966556E0,3.5905254E0,1.7174625E0,0E0,2.3422348E0,0E0,0E0,0E0,9.4252586E-1,0E0,0E0,0E0],"parents":[2147483647,0,0,1,1,2,2,3,3,5,5,9,9],"right_children":[2,4,6,8,-1,10,-1,-1,-1,12,-1,-1,-1],"split_conditions":[5.63274E-1,9.249908E-1,4.611264E-1,1.9429646E-1,7.053972E-2,6.4854354E-1,-6.577488E-2,2.2221139E-2,-9.599879E-2,5.9289384E-1,-2.6553217E-2,1.4142309E-1,1.42815085E-2],"split_indices":[214,48,172,1675,0,237,0,0,0,473,0,0,0],"split_type":[0,0,0,0,0,0,0,0,0,0,0,0,0],"sum_hessian":[1.8710936E1,1.26669235E1,6.0440125E0,1.1298393E1,1.3685297E0,4.444232E0,1.5997806E0,1.0037487E0,1.0294645E1,3.272043E0,1.1721889E0,2.2638266E0,1.0082163E0],"tree_param":{"num_deleted":"0","num_feature":"2048","num_nodes":"13","size_leaf_vector":"1"}},{"base_weights":[-2.9195082E-1,4.3949836E-1,-5.985735E-1,-6.377748E-2,9.368421E-1,-7.810302E-1,5.5506557E-2,1.2686524E-1,2.4959915E-3,2.5891596E-2,-9.5412485E-2],"categories":[],"categories_nodes":[],"categories_segments":[],"categories_sizes":[],"default_left":[0,0,0,0,0,0,0,0,0,0,0],"id":15,"left_children":[1,3,5,-1,7,9,-1,-1,-1,-1,-1],"loss_changes":[4.4776125E0,3.8802967E0,3.3097115E0,0E0,1.3592443E0,2.4456263E0,0E0,0E0,0E0,0E0,0E0],"parents":[2147483647,0,0,1,1,2,2,4,4,5,5],"right_children":[2,4,6,-1,8,10,-1,-1,-1,-1,-1],"split_conditions":[2.8882474E-1,3.320444E-1,9.465828E-1,-6.377748E-2,2.8931496E-1,3.2147962E-1,5.5506557E-2,1.2686524E-1,2.4959915E-3,2.5891596E-2,-9.5412485E-2],"split_indices":[573,1897,600,0,1461,668,0,0,0,0,0],"split_type":[0,0,0,0,0,0,0,0,0,0,0],"sum_hessian":[1.7791513E1,5.127204E0,1.26643095E1,1.5302463E0,3.5969574E0,1.1213756E1,1.4505538E0,2.3504455E0,1.246512E0,1.5293962E0,9.68436E0],"tree_param":{"num_deleted":"0","num_feature":"2048","num_nodes":"11","size_leaf_vector":"1"}},{"base_weights":[-2.746542E-1,6.4082736E-1,-5.062001E-1,1.0389828E-1,-2.244608E-2,3.7499765E-1,-8.235047E-1,-5.987962E-2,9.455586E-2,-9.446981E-2,1.9684605E-2],"categories":[],"categories_nodes":[],"categories_segments":[],"categories_sizes":[],"default_left":[0,0,0,0,0,0,0,0,0,0,0],"id":16,"left_children":[1,3,5,-1,-1,7,9,-1,-1,-1,-1],"loss_changes":[4.128084E0,1.6331986E0,4.469493E0,0E0,0E0,3.1368387E0,1.5775886E0,0E0,0E0,0E0,0E0],"parents":[2147483647,0,0,1,1,2,2,5,5,6,6],"right_children":[2,4,6,-1,-1,8,10,-1,-1,-1,-1],"split_conditions":[2.5454587E-1,3.6131003E-1,1.8239726E-1,1.0389828E-1,-2.244608E-2,4.3437293E-1,9.513329E-1,-5.987962E-2,9.455586E-2,-9.446981E-2,1.9684605E-2],"split_indices":[14,822,1488,0,0,649,522,0,0,0,0],"split_type":[0,0,0,0,0,0,0,0,0,0,0],"sum_hessian":[1.6944004E1,3.0635996E0,1.3880404E1,1.9606746E0,1.1029248E0,3.6267123E0,1.0253693E1,1.3216039E0,2.3051085E0,9.231369E0,1.0223234E0],"tree_param":{"num_deleted":"0","num_feature":"2048","num_nodes":"11","size_leaf_vector":"1"}},{"base_weights":[-2.590502E-1,-5.9301865E-1,3.7497655E-1,4.4096082E-1,-8.557698E-1,7.483398E-1,-6.0450416E-2,8.40357E-2,-1.784292E-2,-9.227505E-2,-1.4027014E-2,1.0291759E0,-1.8114397E-2,3.2975193E-2,1.19543925E-1],"categories":[],"categories_nodes":[],"categories_segments":[],"categories_sizes":[],"default_left":[0,0,0,0,0,0,0,0,0,0,0,0,0,0,0],"id":17,"left_children":[1,3,5,7,9,11,-1,-1,-1,-1,-1,13,-1,-1,-1],"loss_changes":[3.8465867E0,3.528339E0,2.835952E0,8.9457136E-1,3.3007383E-1,1.5348818E0,0E0,0E0,0E0,0E0,0E0,8.454418E-2,0E0,0E0,0E0],"parents":[2147483647,0,0,1,1,2,2,3,3,4,4,5,5,11,11],"right_children":[2,4,6,8,10,12,-1,-1,-1,-1,-1,14,-1,-1,-1],"split_conditions":[5.63274E-1,1.8705106E-1,4.7171926E-1,1.8866904E-1,8.522677E-1,8.8843155E-1,-6.0450416E-2,8.40357E-2,-1.784292E-2,-9.227505E-2,-1.4027014E-2,4.33543E-1,-1.8114397E-2,3.2975193E-2,1.19543925E-1],"split_indices":[214,916,1385,1232,1994,267,0,0,0,0,0,225,0,0,0],"split_type":[0,0,0,0,0,0,0,0,0,0,0,0,0,0,0],"sum_hessian":[1.6115965E1,1.0598152E1,5.5178123E0,2.0100298E0,8.588122E0,4.16584E0,1.3519721E0,1.0051426E0,1.0048871E0,7.5881104E0,1.0000118E0,3.1168525E0,1.0489876E0,1.1715934E0,1.945259E0],"tree_param":{"num_deleted":"0","num_feature":"2048","num_nodes":"15","size_leaf_vector":"1"}},{"base_weights":[-2.4366993E-1,-4.9750882E-1,5.686911E-1,5.236133E-2,-7.0779926E-1,-3.0779297E-2,9.90886E-2,-8.7171745E-1,2.7486313E-2,-9.249405E-2,-2.0157743E-2],"categories":[],"categories_nodes":[],"categories_segments":[],"categories_sizes":[],"default_left":[0,0,0,0,0,0,0,0,0,0,0],"id":18,"left_children":[1,3,5,-1,7,-1,-1,9,-1,-1,-1],"loss_changes":[3.6559527E0,3.161355E0,1.9187405E0,0E0,2.0440078E0,0E0,0E0,1.6453028E-1,0E0,0E0,0E0],"parents":[2147483647,0,0,1,1,2,2,4,4,7,7],"right_children":[2,4,6,-1,8,-1,-1,10,-1,-1,-1],"split_conditions":[6.3015884E-1,1.138914E-1,6.092553E-1,5.236133E-2,7.0753723E-1,-3.0779297E-2,9.90886E-2,7.183256E-1,2.7486313E-2,-9.249405E-2,-2.0157743E-2],"split_indices":[121,1076,1750,0,477,0,0,1594,0,0,0],"split_type":[0,0,0,0,0,0,0,0,0,0,0],"sum_hessian":[1.5357321E1,1.1996381E1,3.3609393E0,1.7942007E0,1.020218E1,1.1807178E0,2.1802216E0,8.840411E0,1.3617692E0,7.8377147E0,1.0026964E0],"tree_param":{"num_deleted":"0","num_feature":"2048","num_nodes":"11","size_leaf_vector":"1"}},{"base_weights":[-2.2815414E-1,-5.976525E-1,3.244806E-1,-8.3581895E-1,3.8577564E-2,-6.485522E-2,7.490137E-1,-2.0493606E-2,-8.952606E-2,1.0414914E-1,-3.873214E-3],"categories":[],"categories_nodes":[],"categories_segments":[],"categories_sizes":[],"default_left":[0,0,0,0,0,0,0,0,0,0,0],"id":19,"left_children":[1,3,5,7,-1,-1,9,-1,-1,-1,-1],"loss_changes":[3.4002154E0,2.6088974E0,3.3525245E0,1.2308121E-1,0E0,0E0,1.2604868E0,0E0,0E0,0E0,0E0],"parents":[2147483647,0,0,1,1,2,2,3,3,6,6],"right_children":[2,4,6,8,-1,-1,10,-1,-1,-1,-1],"split_conditions":[5.7661355E-1,6.736217E-1,4.94913E-1,2.2588046E-1,3.8577564E-2,-6.485522E-2,3.808629E-1,-2.0493606E-2,-8.952606E-2,1.0414914E-1,-3.873214E-3],"split_indices":[1639,1962,2040,1546,0,0,1790,0,0,0,0],"split_type":[0,0,0,0,0,0,0,0,0,0,0],"sum_hessian":[1.4701891E1,8.76203E0,5.939861E0,7.174587E0,1.5874435E0,1.644036E0,4.295825E0,1.0007565E0,6.17383E0,2.8978012E0,1.3980236E0],"tree_param":{"num_deleted":"0","num_feature":"2048","num_nodes":"11","size_leaf_vector":"1"}},{"base_weights":[-2.1775118E-1,4.2561674E-1,-5.218063E-1,8.8620394E-1,-3.7666004E-2,2.8715846E-1,-8.241264E-1,1.0246494E-1,2.8274253E-2,-3.214896E-2,7.576644E-2,-8.913084E-2,-1.7616263E-2],"categories":[],"categories_nodes":[],"categories_segments":[],"categories_sizes":[],"default_left":[0,0,0,0,0,0,0,0,0,0,0,0,0],"id":20,"left_children":[1,3,5,7,-1,9,11,-1,-1,-1,-1,-1,-1],"loss_changes":[3.172769E0,2.3260865E0,2.8516083E0,2.1368265E-2,0E0,1.2889452E0,1.9305801E-1,0E0,0E0,0E0,0E0,0E0,0E0],"parents":[2147483647,0,0,1,1,2,2,3,3,5,5,6,6],"right_children":[2,4,6,8,-1,10,12,-1,-1,-1,-1,-1,-1],"split_conditions":[3.6860093E-1,5.795462E-1,2.042265E-1,2.9354352E-1,-3.7666004E-2,2.8534052E-1,8.236072E-1,1.0246494E-1,2.8274253E-2,-3.214896E-2,7.576644E-2,-8.913084E-2,-1.7616263E-2],"split_indices":[1016,655,1646,1570,0,1961,89,0,0,0,0,0,0],"split_type":[0,0,0,0,0,0,0,0,0,0,0,0,0],"sum_hessian":[1.4083786E1,4.3915815E0,9.692204E0,2.7234418E0,1.6681397E0,2.6503649E0,7.0418396E0,1.6475172E0,1.0759246E0,1.2936323E0,1.3567325E0,6.0400453E0,1.0017943E0],"tree_param":{"num_deleted":"0","num_feature":"2048","num_nodes":"13","size_leaf_vector":"1"}},{"base_weights":[-2.0363754E-1,-6.6145164E-1,2.2782344E-1,3.170189E-2,-8.690267E-2,5.378311E-1,-6.4248465E-2,8.813844E-1,-3.7984386E-2,6.5711694E-4,1.1204008E-1],"categories":[],"categories_nodes":[],"categories_segments":[],"categories_sizes":[],"default_left":[0,0,0,0,0,0,0,0,0,0,0],"id":21,"left_children":[1,3,5,-1,-1,7,-1,9,-1,-1,-1],"loss_changes":[3.009328E0,1.7536528E0,2.55637E0,0E0,0E0,2.411274E0,0E0,1.0576484E0,0E0,0E0,0E0],"parents":[2147483647,0,0,1,1,2,2,5,5,7,7],"right_children":[2,4,6,-1,-1,8,-1,10,-1,-1,-1],"split_conditions":[3.890701E-1,2.8275013E-1,3.881649E-1,3.170189E-2,-8.690267E-2,3.7559825E-1,-6.4248465E-2,3.423569E-1,-3.7984386E-2,6.5711694E-4,1.1204008E-1],"split_indices":[645,1229,1366,0,0,1656,0,1014,0,0,0],"split_type":[0,0,0,0,0,0,0,0,0,0,0],"sum_hessian":[1.3471978E1,6.2777452E0,7.1942325E0,1.00642E0,5.271325E0,5.586366E0,1.6078668E0,4.0934377E0,1.4929285E0,1.0988992E0,2.994538E0],"tree_param":{"num_deleted":"0","num_feature":"2048","num_nodes":"11","size_leaf_vector":"1"}},{"base_weights":[-1.9577095E-1,4.075433E-1,-4.9829784E-1,8.2950294E-2,-3.527151E-2,2.564945E-1,-7.979924E-1,6.8231605E-2,-3.3055484E-2,-8.662126E-2,-1.8844655E-2],"categories":[],"categories_nodes":[],"categories_segments":[],"categories_sizes":[],"default_left":[0,0,0,0,0,0,0,0,0,0,0],"id":22,"left_children":[1,3,5,-1,-1,7,9,-1,-1,-1,-1],"loss_changes":[2.7352767E0,1.9554425E0,2.396654E0,0E0,0E0,1.1031606E0,1.3530636E-1,0E0,0E0,0E0,0E0],"parents":[2147483647,0,0,1,1,2,2,5,5,6,6],"right_children":[2,4,6,-1,-1,8,10,-1,-1,-1,-1],"split_conditions":[3.6860093E-1,5.795462E-1,2.042265E-1,8.2950294E-2,-3.527151E-2,2.2795847E-1,9.276617E-1,6.8231605E-2,-3.3055484E-2,-8.662126E-2,-1.8844655E-2],"split_indices":[1016,655,1646,0,0,113,712,0,0,0,0],"split_type":[0,0,0,0,0,0,0,0,0,0,0],"sum_hessian":[1.2873632E1,4.183519E0,8.690114E0,2.6317573E0,1.5517616E0,2.5107756E0,6.179338E0,1.361163E0,1.1496127E0,5.1786647E0,1.0006734E0],"tree_param":{"num_deleted":"0","num_feature":"2048","num_nodes":"11","size_leaf_vector":"1"}},{"base_weights":[-1.8607187E-1,-5.887001E-1,2.7028596E-1,-8.592197E-2,3.4464676E-2,-4.8942413E-2,6.671603E-1,9.362576E-2,-1.9611675E-2],"categories":[],"categories_nodes":[],"categories_segments":[],"categories_sizes":[],"default_left":[0,0,0,0,0,0,0,0,0],"id":23,"left_children":[1,3,5,-1,-1,-1,7,-1,-1],"loss_changes":[2.612634E0,2.1667595E0,2.4202762E0,0E0,0E0,0E0,1.3415492E0,0E0,0E0],"parents":[2147483647,0,0,1,1,2,2,6,6],"right_children":[2,4,6,-1,-1,-1,8,-1,-1],"split_conditions":[4.9648485E-1,8.3640003E-1,6.781922E-1,-8.592197E-2,3.4464676E-2,-4.8942413E-2,3.2773286E-1,9.362576E-2,-1.9611675E-2],"split_indices":[2040,1552,1807,0,0,0,2033,0,0],"split_type":[0,0,0,0,0,0,0,0,0],"sum_hessian":[1.2353011E1,6.4087777E0,5.944233E0,5.030242E0,1.3785357E0,1.9597044E0,3.9845285E0,2.9731965E0,1.0113322E0],"tree_param":{"num_deleted":"0","num_feature":"2048","num_nodes":"9","size_leaf_vector":"1"}},{"base_weights":[-1.7769635E-1,-6.267441E-1,2.2260143E-1,2.3773815E-2,-8.3456926E-2,5.020704E-1,-5.9830446E-2,8.0256784E-1,-3.441182E-2,1.3448497E-3,1.0097851E-1],"categories":[],"categories_nodes":[],"categories_segments":[],"categories_sizes":[],"default_left":[0,0,0,0,0,0,0,0,0,0,0],"id":24,"left_children":[1,3,5,-1,-1,7,-1,9,-1,-1,-1],"loss_changes":[2.4451609E0,1.3315964E0,2.0254757E0,0E0,0E0,1.840845E0,0E0,7.7800655E-1,0E0,0E0,0E0],"parents":[2147483647,0,0,1,1,2,2,5,5,7,7],"right_children":[2,4,6,-1,-1,8,-1,10,-1,-1,-1],"split_conditions":[3.890701E-1,2.924081E-1,3.881649E-1,2.3773815E-2,-8.3456926E-2,3.7559825E-1,-5.9830446E-2,3.423569E-1,-3.441182E-2,1.3448497E-3,1.0097851E-1],"split_indices":[645,1229,1366,0,0,1656,0,1014,0,0,0],"split_type":[0,0,0,0,0,0,0,0,0,0,0],"sum_hessian":[1.1826762E1,5.3073573E0,6.519405E0,1.0007294E0,4.3066278E0,5.1533833E0,1.3660216E0,3.8409424E0,1.3124408E0,1.020313E0,2.8206294E0],"tree_param":{"num_deleted":"0","num_feature":"2048","num_nodes":"11","size_leaf_vector":"1"}},{"base_weights":[-1.7168526E-1,3.9614487E-1,-4.685995E-1,-3.2895952E-2,7.5551115E-2,-8.395858E-2,1.2802927E-1,-4.3503676E-2,6.526897E-2],"categories":[],"categories_nodes":[],"categories_segments":[],"categories_sizes":[],"default_left":[0,0,0,0,0,0,0,0,0],"id":25,"left_children":[1,3,5,-1,-1,-1,7,-1,-1],"loss_changes":[2.2636359E0,1.4924898E0,2.000276E0,0E0,0E0,0E0,1.5088465E0,0E0,0E0],"parents":[2147483647,0,0,1,1,2,2,6,6],"right_children":[2,4,6,-1,-1,-1,8,-1,-1],"split_conditions":[2.8882474E-1,5.005551E-1,6.0666907E-1,-3.2895952E-2,7.5551115E-2,-8.395858E-2,6.634157E-1,-4.3503676E-2,6.526897E-2],"split_indices":[573,24,2026,0,0,0,119,0,0],"split_type":[0,0,0,0,0,0,0,0,0],"sum_hessian":[1.1325274E1,3.7738376E0,7.5514374E0,1.2785928E0,2.4952447E0,4.405107E0,3.1463304E0,1.600015E0,1.5463153E0],"tree_param":{"num_deleted":"0","num_feature":"2048","num_nodes":"9","size_leaf_vector":"1"}},{"base_weights":[-1.6341259E-1,5.3684336E-1,-3.9467624E-1,7.650342E-2,3.9634373E-4,3.5032243E-1,-7.287765E-1,-3.0605722E-2,7.648147E-2,-2.7785162E-4,-8.52116E-2],"categories":[],"categories_nodes":[],"categories_segments":[],"categories_sizes":[],"default_left":[0,0,0,0,0,0,0,0,0,0,0],"id":26,"left_children":[1,3,5,-1,-1,7,9,-1,-1,-1,-1],"loss_changes":[2.1326947E0,4.0655518E-1,2.6180654E0,0E0,0E0,1.2174199E0,6.1354136E-1,0E0,0E0,0E0,0E0],"parents":[2147483647,0,0,1,1,2,2,5,5,6,6],"right_children":[2,4,6,-1,-1,8,10,-1,-1,-1,-1],"split_conditions":[2.5454587E-1,2.6885185E-1,1.8239726E-1,7.650342E-2,3.9634373E-4,6.345832E-1,3.3380938E-1,-3.0605722E-2,7.648147E-2,-2.7785162E-4,-8.52116E-2],"split_indices":[14,622,1488,0,0,754,592,0,0,0,0],"split_type":[0,0,0,0,0,0,0,0,0,0,0],"sum_hessian":[1.0861004E1,2.3683622E0,8.492641E0,1.3532228E0,1.0151393E0,2.614377E0,5.8782644E0,1.1131808E0,1.5011963E0,1.0021224E0,4.876142E0],"tree_param":{"num_deleted":"0","num_feature":"2048","num_nodes":"11","size_leaf_vector":"1"}},{"base_weights":[-1.5112582E-1,-3.9576122E-1,4.9459907E-1,-7.0541704E-1,3.5824165E-1,8.11357E-2,-1.1378489E-2,2.731847E-3,-8.416127E-2,-1.0611905E-2,6.898002E-2],"categories":[],"categories_nodes":[],"categories_segments":[],"categories_sizes":[],"default_left":[0,0,0,0,0,0,0,0,0,0,0],"id":27,"left_children":[1,3,5,7,9,-1,-1,-1,-1,-1,-1],"loss_changes":[1.9948542E0,2.3109336E0,7.810242E-1,6.8022466E-1,5.7043254E-1,0E0,0E0,0E0,0E0,0E0,0E0],"parents":[2147483647,0,0,1,1,2,2,3,3,4,4],"right_children":[2,4,6,8,10,-1,-1,-1,-1,-1,-1],"split_conditions":[8.3640003E-1,5.9876627E-1,2.0278756E-1,2.1062417E-1,1.2869579E0,8.11357E-2,-1.1378489E-2,2.731847E-3,-8.416127E-2,-1.0611905E-2,6.898002E-2],"split_indices":[1552,889,1453,1327,329,0,0,0,0,0,0],"split_type":[0,0,0,0,0,0,0,0,0,0,0],"sum_hessian":[1.0389144E1,7.815367E0,2.5737767E0,5.5858097E0,2.2295573E0,1.4731487E0,1.1006281E0,1.0008154E0,4.5849943E0,1.2120179E0,1.0175395E0],"tree_param":{"num_deleted":"0","num_feature":"2048","num_nodes":"11","size_leaf_vector":"1"}},{"base_weights":[-1.3830768E-1,3.8769662E-1,-4.3526694E-1,7.118019E-2,-3.3605594E-2,2.4525578E-1,-7.307069E-2,4.8604682E-2,-1.1722593E-2],"categories":[],"categories_nodes":[],"categories_segments":[],"categories_sizes":[],"default_left":[0,0,0,0,0,0,0,0,0],"id":28,"left_children":[1,3,5,-1,-1,7,-1,-1,-1],"loss_changes":[1.8794433E0,1.2902672E0,1.6812886E0,0E0,0E0,3.1972414E-1,0E0,0E0,0E0],"parents":[2147483647,0,0,1,1,2,2,5,5],"right_children":[2,4,6,-1,-1,8,-1,-1,-1],"split_conditions":[3.6860093E-1,3.7616575E-1,2.1700554E-1,7.118019E-2,-3.3605594E-2,2.4219325E-1,-7.307069E-2,4.8604682E-2,-1.1722593E-2],"split_indices":[1016,1570,277,0,0,1694,0,0,0],"split_type":[0,0,0,0,0,0,0,0,0],"sum_hessian":[9.951801E0,3.4807644E0,6.4710364E0,2.4155595E0,1.065205E0,2.0103092E0,4.4607277E0,1.0030872E0,1.0072219E0],"tree_param":{"num_deleted":"0","num_feature":"2048","num_nodes":"9","size_leaf_vector":"1"}},{"base_weights":[-1.2937875E-1,-5.210679E-1,2.7851436E-1,-7.975053E-2,2.8964037E-2,-5.202974E-2,5.5848855E-1,8.050784E-2,-2.1427989E-3],"categories":[],"categories_nodes":[],"categories_segments":[],"categories_sizes":[],"default_left":[0,0,0,0,0,0,0,0,0],"id":29,"left_children":[1,3,5,-1,-1,-1,7,-1,-1],"loss_changes":[1.838516E0,1.5208058E0,1.5975333E0,0E0,0E0,0E0,7.050166E-1,0E0,0E0],"parents":[2147483647,0,0,1,1,2,2,6,6],"right_children":[2,4,6,-1,-1,-1,8,-1,-1],"split_conditions":[4.9648485E-1,8.3640003E-1,4.5597988E-1,-7.975053E-2,2.8964037E-2,-5.202974E-2,3.623803E-1,8.050784E-2,-2.1427989E-3],"split_indices":[2040,1552,1639,0,0,0,1223,0,0],"split_type":[0,0,0,0,0,0,0,0,0],"sum_hessian":[9.59911E0,4.7552776E0,4.843832E0,3.5582592E0,1.1970187E0,1.0343337E0,3.809498E0,2.4005008E0,1.4089974E0],"tree_param":{"num_deleted":"0","num_feature":"2048","num_nodes":"9","size_leaf_vector":"1"}},{"base_weights":[-1.2397593E-1,-4.383846E-1,3.5151488E-1,3.918914E-2,-7.231776E-2,6.5024965E-2,-2.3531973E-2],"categories":[],"categories_nodes":[],"categories_segments":[],"categories_sizes":[],"default_left":[0,0,0,0,0,0,0],"id":30,"left_children":[1,3,5,-1,-1,-1,-1],"loss_changes":[1.683443E0,1.8447315E0,9.64137E-1,0E0,0E0,0E0,0E0],"parents":[2147483647,0,0,1,1,2,2],"right_children":[2,4,6,-1,-1,-1,-1],"split_conditions":[5.63274E-1,1.8705106E-1,4.0930563E-1,3.918914E-2,-7.231776E-2,6.5024965E-2,-2.3531973E-2],"split_indices":[214,916,1848,0,0,0,0],"split_type":[0,0,0,0,0,0,0],"sum_hessian":[9.229836E0,5.603002E0,3.626834E0,1.3349822E0,4.26802E0,2.3317616E0,1.2950723E0],"tree_param":{"num_deleted":"0","num_feature":"2048","num_nodes":"7","size_leaf_vector":"1"}},{"base_weights":[-1.15194865E-1,-5.4921556E-1,2.3362727E-1,8.994966E-3,-7.4559785E-2,5.2120465E-1,-3.426888E-2,-1.0252101E-2,7.464658E-2],"categories":[],"categories_nodes":[],"categories_segments":[],"categories_sizes":[],"default_left":[0,0,0,0,0,0,0,0,0],"id":31,"left_children":[1,3,5,-1,-1,7,-1,-1,-1],"loss_changes":[1.6290346E0,6.589358E-1,1.2057152E0,0E0,0E0,7.1313286E-1,0E0,0E0,0E0],"parents":[2147483647,0,0,1,1,2,2,5,5],"right_children":[2,4,6,-1,-1,8,-1,-1,-1],"split_conditions":[3.890701E-1,2.5234014E-1,4.6627665E-1,8.994966E-3,-7.4559785E-2,4.4898093E-1,-3.426888E-2,-1.0252101E-2,7.464658E-2],"split_indices":[645,784,1460,0,0,551,0,0,0],"split_type":[0,0,0,0,0,0,0,0,0],"sum_hessian":[8.912564E0,3.7153132E0,5.1972513E0,1.0006067E0,2.7147067E0,3.5309572E0,1.666294E0,1.081439E0,2.4495182E0],"tree_param":{"num_deleted":"0","num_feature":"2048","num_nodes":"9","size_leaf_vector":"1"}},{"base_weights":[-1.10951364E-1,-4.9051526E-1,2.6498607E-1,-7.645919E-2,2.5518507E-2,5.609636E-1,-4.05734E-2,7.921744E-2,9.1254135E-4],"categories":[],"categories_nodes":[],"categories_segments":[],"categories_sizes":[],"default_left":[0,0,0,0,0,0,0,0,0],"id":32,"left_children":[1,3,5,-1,-1,7,-1,-1,-1],"loss_changes":[1.5048038E0,1.2466555E0,1.3174312E0,0E0,0E0,5.323143E-1,0E0,0E0,0E0],"parents":[2147483647,0,0,1,1,2,2,5,5],"right_children":[2,4,6,-1,-1,8,-1,-1,-1],"split_conditions":[4.9648485E-1,8.3640003E-1,3.9081895E-1,-7.645919E-2,2.5518507E-2,3.623803E-1,-4.05734E-2,7.921744E-2,9.1254135E-4],"split_indices":[2040,1552,1953,0,0,1223,0,0,0],"split_type":[0,0,0,0,0,0,0,0,0],"sum_hessian":[8.634887E0,4.1450615E0,4.4898252E0,3.0125039E0,1.1325577E0,3.2286956E0,1.2611296E0,1.9684355E0,1.2602602E0],"tree_param":{"num_deleted":"0","num_feature":"2048","num_nodes":"9","size_leaf_vector":"1"}},{"base_weights":[-1.0514304E-1,1.7156567E-1,-6.2549286E-2,-5.8414668E-2,4.5974916E-1,-2.8851995E-2,7.029133E-1,8.37689E-2,1.183205E-2],"categories":[],"categories_nodes":[],"categories_segments":[],"categories_sizes":[],"default_left":[0,0,0,0,0,0,0,0,0],"id":33,"left_children":[1,3,-1,-1,5,-1,7,-1,-1],"loss_changes":[1.4495227E0,1.7648243E0,0E0,0E0,1.2096019E0,0E0,2.5284958E-1,0E0,0E0],"parents":[2147483647,0,0,1,1,4,4,6,6],"right_children":[2,4,-1,-1,6,-1,8,-1,-1],"split_conditions":[5.3379405E-1,3.2050073E-1,-6.2549286E-2,-5.8414668E-2,3.8833392E-1,-2.8851995E-2,3.2773286E-1,8.37689E-2,1.183205E-2],"split_indices":[1086,1719,0,0,551,0,2033,0,0],"split_type":[0,0,0,0,0,0,0,0,0],"sum_hessian":[8.32185E0,5.870406E0,2.4514437E0,1.337098E0,4.533308E0,1.0661153E0,3.467193E0,2.4657738E0,1.001419E0],"tree_param":{"num_deleted":"0","num_feature":"2048","num_nodes":"9","size_leaf_vector":"1"}},{"base_weights":[-1.0418601E-1,-4.9685872E-1,2.4085489E-1,1.6043413E-2,-7.305923E-2,5.7119095E-1,-4.0570166E-2,7.611173E-2,2.5717167E-3],"categories":[],"categories_nodes":[],"categories_segments":[],"categories_sizes":[],"default_left":[0,0,0,0,0,0,0,0,0],"id":34,"left_children":[1,3,5,-1,-1,7,-1,-1,-1],"loss_changes":[1.3409665E0,8.150836E-1,1.4003488E0,0E0,0E0,3.9862096E-1,0E0,0E0,0E0],"parents":[2147483647,0,0,1,1,2,2,5,5],"right_children":[2,4,6,-1,-1,8,-1,-1,-1],"split_conditions":[4.3523574E-1,1.9057737E-1,3.566099E-1,1.6043413E-2,-7.305923E-2,2.853614E-1,-4.0570166E-2,7.611173E-2,2.5717167E-3],"split_indices":[722,1565,1488,0,0,56,0,0,0],"split_type":[0,0,0,0,0,0,0,0,0],"sum_hessian":[8.014041E0,3.542505E0,4.471536E0,1.0115322E0,2.5309727E0,3.0366352E0,1.4349008E0,1.959153E0,1.0774821E0],"tree_param":{"num_deleted":"0","num_feature":"2048","num_nodes":"9","size_leaf_vector":"1"}},{"base_weights":[-9.944588E-2,3.6855978E-1,-3.787377E-1,6.58978E-2,-1.6439063E-2,-7.4687414E-2,1.6270891E-1,-3.209985E-2,5.343322E-2],"categories":[],"categories_nodes":[],"categories_segments":[],"categories_sizes":[],"default_left":[0,0,0,0,0,0,0,0,0],"id":35,"left_children":[1,3,5,-1,-1,-1,7,-1,-1],"loss_changes":[1.2818747E0,6.9229645E-1,1.3107368E0,0E0,0E0,0E0,7.531792E-1,0E0,0E0],"parents":[2147483647,0,0,1,1,2,2,6,6],"right_children":[2,4,6,-1,-1,-1,8,-1,-1],"split_conditions":[2.8882474E-1,3.2234663E-1,6.0666907E-1,6.58978E-2,-1.6439063E-2,-7.4687414E-2,6.634157E-1,-3.209985E-2,5.343322E-2],"split_indices":[573,14,2026,0,0,0,119,0,0],"split_type":[0,0,0,0,0,0,0,0,0],"sum_hessian":[7.7390857E0,2.772919E0,4.966167E0,1.6417929E0,1.1311259E0,2.7303572E0,2.2358098E0,1.0306001E0,1.2052097E0],"tree_param":{"num_deleted":"0","num_feature":"2048","num_nodes":"9","size_leaf_vector":"1"}},{"base_weights":[-9.366897E-2,-5.9529223E-2,1.6485426E-1,5.1595926E-1,-3.367731E-1,7.2469495E-2,-2.1991779E-3,8.02121E-3,-5.6057014E-2],"categories":[],"categories_nodes":[],"categories_segments":[],"categories_sizes":[],"default_left":[0,0,0,0,0,0,0,0,0],"id":36,"left_children":[1,-1,3,5,7,-1,-1,-1,-1],"loss_changes":[1.1940582E0,0E0,1.293891E0,4.8038948E-1,3.458001E-1,0E0,0E0,0E0,0E0],"parents":[2147483647,0,0,2,2,3,3,4,4],"right_children":[2,-1,4,6,8,-1,-1,-1,-1],"split_conditions":[3.2031244E-1,-5.9529223E-2,4.7888878E-1,3.2694623E-1,4.1278166E-1,7.2469495E-2,-2.1991779E-3,8.02121E-3,-5.6057014E-2],"split_indices":[1487,0,1016,1437,1939,0,0,0,0],"split_type":[0,0,0,0,0,0,0,0,0],"sum_hessian":[7.450888E0,2.09099E0,5.359898E0,3.1362007E0,2.2236974E0,2.0093815E0,1.1268191E0,1.0007173E0,1.2229801E0],"tree_param":{"num_deleted":"0","num_feature":"2048","num_nodes":"9","size_leaf_vector":"1"}},{"base_weights":[-9.152029E-2,-3.9309883E-1,3.2539028E-1,3.2775763E-2,-6.629235E-2,-1.5235274E-2,6.2794656E-2],"categories":[],"categories_nodes":[],"categories_segments":[],"categories_sizes":[],"default_left":[0,0,0,0,0,0,0],"id":37,"left_children":[1,3,5,-1,-1,-1,-1],"loss_changes":[1.1616005E0,1.2332633E0,6.735537E-1,0E0,0E0,0E0,0E0],"parents":[2147483647,0,0,1,1,2,2],"right_children":[2,4,6,-1,-1,-1,-1],"split_conditions":[5.63274E-1,1.8705106E-1,5.275758E-1,3.2775763E-2,-6.629235E-2,-1.5235274E-2,6.2794656E-2],"split_indices":[214,916,1151,0,0,0,0],"split_type":[0,0,0,0,0,0,0],"sum_hessian":[7.2214217E0,4.223444E0,2.9979775E0,1.0918311E0,3.1316133E0,1.3549423E0,1.6430353E0],"tree_param":{"num_deleted":"0","num_feature":"2048","num_nodes":"7","size_leaf_vector":"1"}},{"base_weights":[-8.357944E-2,2.321478E-1,-4.758935E-1,-3.6626324E-2,4.9203375E-1,-6.652876E-2,3.5467625E-3,6.730302E-2,-5.396107E-5],"categories":[],"categories_nodes":[],"categories_segments":[],"categories_sizes":[],"default_left":[0,0,0,0,0,0,0,0,0],"id":38,"left_children":[1,3,5,-1,7,-1,-1,-1,-1],"loss_changes":[1.1000942E0,9.7320217E-1,4.0038967E-1,0E0,3.5535544E-1,0E0,0E0,0E0,0E0],"parents":[2147483647,0,0,1,1,2,2,4,4],"right_children":[2,4,6,-1,8,-1,-1,-1,-1],"split_conditions":[3.3269608E-1,4.6156076E-1,7.012278E-1,-3.6626324E-2,3.1517765E-1,-6.652876E-2,3.5467625E-3,6.730302E-2,-5.396107E-5],"split_indices":[1672,754,1225,0,1840,0,0,0,0],"split_type":[0,0,0,0,0,0,0,0,0],"sum_hessian":[6.989527E0,4.0989923E0,2.8905346E0,1.1172045E0,2.981788E0,1.8896477E0,1.0008868E0,1.9126341E0,1.0691538E0],"tree_param":{"num_deleted":"0","num_feature":"2048","num_nodes":"9","size_leaf_vector":"1"}},{"base_weights":[-8.166954E-2,1.72008E-1,-5.629886E-2,-5.1667012E-2,4.263796E-1,-1.7987499E-2,6.394789E-1,7.298304E-2,2.0144947E-2],"categories":[],"categories_nodes":[],"categories_segments":[],"categories_sizes":[],"default_left":[0,0,0,0,0,0,0,0,0],"id":39,"left_children":[1,3,-1,-1,5,-1,7,-1,-1],"loss_changes":[1.0476422E0,1.2478039E0,0E0,0E0,7.3918074E-1,0E0,3.1386614E-3,0E0,0E0],"parents":[2147483647,0,0,1,1,4,4,6,6],"right_children":[2,4,-1,-1,6,-1,8,-1,-1],"split_conditions":[5.3379405E-1,3.2050073E-1,-5.629886E-2,-5.1667012E-2,4.264394E-1,-1.7987499E-2,3.6278543E-1,7.298304E-2,2.0144947E-2],"split_indices":[1086,1719,0,0,1654,0,478,0,0],"split_type":[0,0,0,0,0,0,0,0,0],"sum_hessian":[6.787101E0,4.865427E0,1.9216741E0,1.0342275E0,3.8311994E0,1.0369761E0,2.794223E0,1.764165E0,1.0300581E0],"tree_param":{"num_deleted":"0","num_feature":"2048","num_nodes":"9","size_leaf_vector":"1"}},{"base_weights":[-8.013197E-2,3.4334773E-1,-3.5303655E-1,-7.886588E-3,5.7422247E-2,3.531648E-2,-6.2593326E-2],"categories":[],"categories_nodes":[],"categories_segments":[],"categories_sizes":[],"default_left":[0,0,0,0,0,0,0],"id":40,"left_children":[1,3,5,-1,-1,-1,-1],"loss_changes":[9.961505E-1,3.8390726E-1,1.2033213E0,0E0,0E0,0E0,0E0],"parents":[2147483647,0,0,1,1,2,2],"right_children":[2,4,6,-1,-1,-1,-1],"split_conditions":[2.1700554E-1,5.865678E-1,2.5159463E-1,-7.886588E-3,5.7422247E-2,3.531648E-2,-6.2593326E-2],"split_indices":[277,124,14,0,0,0,0],"split_type":[0,0,0,0,0,0,0],"sum_hessian":[6.5706453E0,2.473801E0,4.0968447E0,1.1072729E0,1.3665282E0,1.0599011E0,3.0369434E0],"tree_param":{"num_deleted":"0","num_feature":"2048","num_nodes":"7","size_leaf_vector":"1"}},{"base_weights":[-7.155481E-2,-4.4638395E-1,2.381374E-1,3.2304463E-3,-6.372893E-2,-2.783758E-2,4.7426084E-1,6.332046E-2,6.5515027E-3],"categories":[],"categories_nodes":[],"categories_segments":[],"categories_sizes":[],"default_left":[0,0,0,0,0,0,0,0,0],"id":41,"left_children":[1,3,5,-1,-1,-1,7,-1,-1],"loss_changes":[9.6202797E-1,3.5715854E-1,7.038646E-1,0E0,0E0,0E0,1.9159406E-1,0E0,0E0],"parents":[2147483647,0,0,1,1,2,2,6,6],"right_children":[2,4,6,-1,-1,-1,8,-1,-1],"split_conditions":[4.533806E-1,3.1101483E-1,3.6547184E-1,3.2304463E-3,-6.372893E-2,-2.783758E-2,3.7618744E-1,6.332046E-2,6.5515027E-3],"split_indices":[551,1955,168,0,0,0,1119,0,0],"split_type":[0,0,0,0,0,0,0,0,0],"sum_hessian":[6.371769E0,2.683036E0,3.6887329E0,1.0018116E0,1.6812243E0,1.1011208E0,2.5876122E0,1.4677333E0,1.1198788E0],"tree_param":{"num_deleted":"0","num_feature":"2048","num_nodes":"9","size_leaf_vector":"1"}},{"base_weights":[-6.869693E-2,-4.196448E-1,2.559771E-1,1.2794836E-2,-6.574371E-2,5.050461E-1,-2.7440563E-2,6.3463666E-2,1.3689506E-2],"categories":[],"categories_nodes":[],"categories_segments":[],"categories_sizes":[],"default_left":[0,0,0,0,0,0,0,0,0],"id":42,"left_children":[1,3,5,-1,-1,7,-1,-1,-1],"loss_changes":[9.288354E-1,5.845525E-1,7.1531534E-1,0E0,0E0,7.164711E-2,0E0,0E0,0E0],"parents":[2147483647,0,0,1,1,2,2,5,5],"right_children":[2,4,6,-1,-1,8,-1,-1,-1],"split_conditions":[4.9648485E-1,3.0706087E-1,4.0800413E-1,1.2794836E-2,-6.574371E-2,2.1700554E-1,-2.7440563E-2,6.3463666E-2,1.3689506E-2],"split_indices":[2040,969,1684,0,0,277,0,0,0],"split_type":[0,0,0,0,0,0,0,0,0],"sum_hessian":[6.208966E0,2.8431866E0,3.3657792E0,1.0006956E0,1.842491E0,2.3227706E0,1.0430086E0,1.1826316E0,1.140139E0],"tree_param":{"num_deleted":"0","num_feature":"2048","num_nodes":"9","size_leaf_vector":"1"}},{"base_weights":[-6.418309E-2,2.565521E-1,-4.0597388E-1,-2.8191214E-2,5.17116E-1,-6.514819E-2,1.3948741E-2,1.384262E-2,6.303119E-2],"categories":[],"categories_nodes":[],"categories_segments":[],"categories_sizes":[],"default_left":[0,0,0,0,0,0,0,0,0],"id":43,"left_children":[1,3,5,-1,7,-1,-1,-1,-1],"loss_changes":[8.754121E-1,7.409941E-1,5.9883654E-1,0E0,5.0421417E-2,0E0,0E0,0E0,0E0],"parents":[2147483647,0,0,1,1,2,2,4,4],"right_children":[2,4,6,-1,8,-1,-1,-1,-1],"split_conditions":[3.0512354E-1,4.2983538E-1,5.78318E-1,-2.8191214E-2,7.1846503E-1,-6.514819E-2,1.3948741E-2,1.384262E-2,6.303119E-2],"split_indices":[1488,722,1151,0,1777,0,0,0,0],"split_type":[0,0,0,0,0,0,0,0,0],"sum_hessian":[6.0354705E0,3.2422981E0,2.7931721E0,1.030599E0,2.2116992E0,1.7921638E0,1.0010082E0,1.020516E0,1.1911832E0],"tree_param":{"num_deleted":"0","num_feature":"2048","num_nodes":"9","size_leaf_vector":"1"}},{"base_weights":[-5.9922956E-2,3.2105342E-1,-3.4323695E-1,-1.1893739E-2,5.606982E-2,-7.03974E-2,3.603493E-2],"categories":[],"categories_nodes":[],"categories_segments":[],"categories_sizes":[],"default_left":[0,0,0,0,0,0,0],"id":44,"left_children":[1,3,5,-1,-1,-1,-1],"loss_changes":[8.512198E-1,4.2990503E-1,1.3756835E0,0E0,0E0,0E0,0E0],"parents":[2147483647,0,0,1,1,2,2],"right_children":[2,4,6,-1,-1,-1,-1],"split_conditions":[2.903099E-1,3.8771006E-1,5.861401E-1,-1.1893739E-2,5.606982E-2,-7.03974E-2,3.603493E-2],"split_indices":[574,1944,1804,0,0,0,0],"split_type":[0,0,0,0,0,0,0],"sum_hessian":[5.865391E0,2.4447258E0,3.420665E0,1.0396353E0,1.4050906E0,2.2609158E0,1.1597494E0],"tree_param":{"num_deleted":"0","num_feature":"2048","num_nodes":"7","size_leaf_vector":"1"}},{"base_weights":[-5.470112E-2,3.436042E-1,-3.1956258E-1,5.4181617E-2,-3.8149115E-3,-6.573625E-2,1.5800927E-2],"categories":[],"categories_nodes":[],"categories_segments":[],"categories_sizes":[],"default_left":[0,0,0,0,0,0,0],"id":45,"left_children":[1,3,5,-1,-1,-1,-1],"loss_changes":[8.1288886E-1,2.585428E-1,8.332062E-1,0E0,0E0,0E0,0E0],"parents":[2147483647,0,0,1,1,2,2],"right_children":[2,4,6,-1,-1,-1,-1],"split_conditions":[2.8882474E-1,2.295085E-1,6.0666907E-1,5.4181617E-2,-3.8149115E-3,-6.573625E-2,1.5800927E-2],"split_indices":[573,1300,2026,0,0,0,0],"split_type":[0,0,0,0,0,0,0],"sum_hessian":[5.6645904E0,2.1436372E0,3.520953E0,1.1350296E0,1.0086076E0,1.8417581E0,1.6791948E0],"tree_param":{"num_deleted":"0","num_feature":"2048","num_nodes":"7","size_leaf_vector":"1"}},{"base_weights":[-5.0723333E-2,-5.088494E-2,1.809397E-1,-3.1632695E-2,4.3403208E-1,5.8004636E-2,1.4638124E-3],"categories":[],"categories_nodes":[],"categories_segments":[],"categories_sizes":[],"default_left":[0,0,0,0,0,0,0],"id":46,"left_children":[1,-1,3,-1,5,-1,-1],"loss_changes":[7.837151E-1,0E0,7.748632E-1,0E0,2.2291178E-1,0E0,0E0],"parents":[2147483647,0,0,2,2,4,4],"right_children":[2,-1,4,-1,6,-1,-1],"split_conditions":[3.2031244E-1,-5.088494E-2,3.6547184E-1,-3.1632695E-2,4.1341478E-1,5.8004636E-2,1.4638124E-3],"split_indices":[1487,0,168,0,1164,0,0],"split_type":[0,0,0,0,0,0,0],"sum_hessian":[5.5168977E0,1.4509869E0,4.065911E0,1.2871392E0,2.7787719E0,1.7770305E0,1.0017414E0],"tree_param":{"num_deleted":"0","num_feature":"2048","num_nodes":"7","size_leaf_vector":"1"}},{"base_weights":[-5.0298717E-2,2.2219376E-1,-4.3015033E-1,4.9098287E-2,-2.0935774E-2,-5.0922733E-2,-1.3568512E-2],"categories":[],"categories_nodes":[],"categories_segments":[],"categories_sizes":[],"default_left":[0,0,0,0,0,0,0],"id":47,"left_children":[1,3,5,-1,-1,-1,-1],"loss_changes":[7.566454E-1,6.1065763E-1,9.5778704E-4,0E0,0E0,0E0,0E0],"parents":[2147483647,0,0,1,1,2,2],"right_children":[2,4,6,-1,-1,-1,-1],"split_conditions":[3.3524612E-1,3.151213E-1,4.3433636E-1,4.9098287E-2,-2.0935774E-2,-5.0922733E-2,-1.3568512E-2],"split_indices":[1821,1672,850,0,0,0,0],"split_type":[0,0,0,0,0,0,0],"sum_hessian":[5.3867226E0,3.3782988E0,2.008424E0,1.9968548E0,1.3814439E0,1.0083168E0,1.0001073E0],"tree_param":{"num_deleted":"0","num_feature":"2048","num_nodes":"7","size_leaf_vector":"1"}},{"base_weights":[-5.1869918E-2,-4.2460594E-1,2.2362363E-1,-5.1004022E-2,-1.2632747E-2,4.4130188E-1,-1.9567743E-2,5.516563E-2,1.2150099E-2],"categories":[],"categories_nodes":[],"categories_segments":[],"categories_sizes":[],"default_left":[0,0,0,0,0,0,0,0,0],"id":48,"left_children":[1,3,5,-1,-1,7,-1,-1,-1],"loss_changes":[7.404888E-1,1.2443006E-2,4.7606862E-1,0E0,0E0,4.300672E-2,0E0,0E0,0E0],"parents":[2147483647,0,0,1,1,2,2,5,5],"right_children":[2,4,6,-1,-1,8,-1,-1,-1],"split_conditions":[3.890701E-1,3.713784E-1,3.3524612E-1,-5.1004022E-2,-1.2632747E-2,2.0417228E-1,-1.9567743E-2,5.516563E-2,1.2150099E-2],"split_indices":[645,509,1821,0,0,986,0,0,0],"split_type":[0,0,0,0,0,0,0,0,0],"sum_hessian":[5.286491E0,2.0166957E0,3.269795E0,1.015799E0,1.0008966E0,2.1178517E0,1.1519433E0,1.0355223E0,1.0823294E0],"tree_param":{"num_deleted":"0","num_feature":"2048","num_nodes":"9","size_leaf_vector":"1"}},{"base_weights":[-5.0060295E-2,-4.7939733E-2,1.8611932E-1,4.2310065E-1,-2.7799336E-2,5.925851E-2,1.1567321E-3],"categories":[],"categories_nodes":[],"categories_segments":[],"categories_sizes":[],"default_left":[0,0,0,0,0,0,0],"id":49,"left_children":[1,-1,3,5,-1,-1,-1],"loss_changes":[7.16885E-1,0E0,6.360446E-1,2.384376E-1,0E0,0E0,0E0],"parents":[2147483647,0,0,2,2,3,3],"right_children":[2,-1,4,6,-1,-1,-1],"split_conditions":[4.0003407E-1,-4.7939733E-2,5.795462E-1,2.9279658E-1,-2.7799336E-2,5.925851E-2,1.1567321E-3],"split_indices":[551,0,655,125,0,0,0],"split_type":[0,0,0,0,0,0,0],"sum_hessian":[5.1899004E0,1.476343E0,3.7135572E0,2.5168107E0,1.1967463E0,1.471039E0,1.0457717E0],"tree_param":{"num_deleted":"0","num_feature":"2048","num_nodes":"7","size_leaf_vector":"1"}},{"base_weights":[-4.854047E-2,1.8195318E-1,-4.7797766E-2,4.5223844E-1,-2.2988936E-2,1.1462747E-2,5.7433333E-2],"categories":[],"categories_nodes":[],"categories_segments":[],"categories_sizes":[],"default_left":[0,0,0,0,0,0,0],"id":50,"left_children":[1,3,-1,5,-1,-1,-1],"loss_changes":[6.872788E-1,6.238987E-1,0E0,6.430262E-2,0E0,0E0,0E0],"parents":[2147483647,0,0,1,1,3,3],"right_children":[2,4,-1,6,-1,-1,-1],"split_conditions":[3.582939E-1,4.0800413E-1,-4.7797766E-2,8.360329E-1,-2.2988936E-2,1.1462747E-2,5.7433333E-2],"split_indices":[1342,1684,0,874,0,0,0],"split_type":[0,0,0,0,0,0,0],"sum_hessian":[5.0648003E0,3.6708355E0,1.3939646E0,2.1570888E0,1.5137466E0,1.0878518E0,1.069237E0],"tree_param":{"num_deleted":"0","num_feature":"2048","num_nodes":"7","size_leaf_vector":"1"}},{"base_weights":[-4.4858977E-2,-3.917114E-1,2.3011371E-1,-8.013056E-3,-5.072242E-2,-1.870785E-2,4.4468794E-2],"categories":[],"categories_nodes":[],"categories_segments":[],"categories_sizes":[],"default_left":[0,0,0,0,0,0,0],"id":51,"left_children":[1,3,5,-1,-1,-1,-1],"loss_changes":[6.5826154E-1,6.747976E-2,4.3702224E-1,0E0,0E0,0E0,0E0],"parents":[2147483647,0,0,1,1,2,2],"right_children":[2,4,6,-1,-1,-1,-1],"split_conditions":[4.533806E-1,2.874905E-1,4.3452033E-1,-8.013056E-3,-5.072242E-2,-1.870785E-2,4.4468794E-2],"split_indices":[551,1580,722,0,0,0,0],"split_type":[0,0,0,0,0,0,0],"sum_hessian":[4.956736E0,2.004146E0,2.9525902E0,1.0001268E0,1.0040191E0,1.0463448E0,1.9062455E0],"tree_param":{"num_deleted":"0","num_feature":"2048","num_nodes":"7","size_leaf_vector":"1"}},{"base_weights":[-4.671184E-2,3.1866424E-2,-3.0057144E-1,-6.0893513E-2,1.3506301E-2],"categories":[],"categories_nodes":[],"categories_segments":[],"categories_sizes":[],"default_left":[0,0,0,0,0],"id":52,"left_children":[1,-1,3,-1,-1],"loss_changes":[6.402399E-1,0E0,6.1663944E-1,0E0,0E0],"parents":[2147483647,0,0,2,2],"right_children":[2,-1,4,-1,-1],"split_conditions":[2.8882474E-1,3.1866424E-2,6.0666907E-1,-6.0893513E-2,1.3506301E-2],"split_indices":[573,0,2026,0,0],"split_type":[0,0,0,0,0],"sum_hessian":[4.8699055E0,1.8917962E0,2.9781094E0,1.5108457E0,1.4672636E0],"tree_param":{"num_deleted":"0","num_feature":"2048","num_nodes":"5","size_leaf_vector":"1"}},{"base_weights":[-4.587814E-2,-3.150371E-1,2.9220524E-1,-6.139027E-2,1.8681742E-2,-4.4989265E-3,4.921261E-2],"categories":[],"categories_nodes":[],"categories_segments":[],"categories_sizes":[],"default_left":[0,0,0,0,0,0,0],"id":53,"left_children":[1,3,5,-1,-1,-1,-1],"loss_changes":[6.172821E-1,6.688422E-1,2.2957817E-1,0E0,0E0,0E0,0E0],"parents":[2147483647,0,0,1,1,2,2],"right_children":[2,4,6,-1,-1,-1,-1],"split_conditions":[5.63274E-1,6.309914E-1,5.6119937E-1,-6.139027E-2,1.8681742E-2,-4.4989265E-3,4.921261E-2],"split_indices":[214,1799,1151,0,0,0,0],"split_type":[0,0,0,0,0,0,0],"sum_hessian":[4.7718363E0,2.694682E0,2.0771546E0,1.5489684E0,1.1457134E0,1.0615932E0,1.0155613E0],"tree_param":{"num_deleted":"0","num_feature":"2048","num_nodes":"7","size_leaf_vector":"1"}},{"base_weights":[-4.2194955E-2,2.9354176E-1,-3.0772302E-1,-9.0232346E-4,4.501414E-2,-6.28419E-2,2.6889933E-2],"categories":[],"categories_nodes":[],"categories_segments":[],"categories_sizes":[],"default_left":[0,0,0,0,0,0,0],"id":54,"left_children":[1,3,5,-1,-1,-1,-1],"loss_changes":[5.94015E-1,1.4653486E-1,8.426632E-1,0E0,0E0,0E0,0E0],"parents":[2147483647,0,0,1,1,2,2],"right_children":[2,4,6,-1,-1,-1,-1],"split_conditions":[2.903099E-1,5.519807E-1,5.5901307E-1,-9.0232346E-4,4.501414E-2,-6.28419E-2,2.6889933E-2],"split_indices":[574,214,1804,0,0,0,0],"split_type":[0,0,0,0,0,0,0],"sum_hessian":[4.650021E0,2.0069318E0,2.6430893E0,1.0058728E0,1.001059E0,1.6407418E0,1.0023475E0],"tree_param":{"num_deleted":"0","num_feature":"2048","num_nodes":"7","size_leaf_vector":"1"}},{"base_weights":[-3.7827007E-2,-3.8765796E-2,2.1551283E-1,4.1394528E-2,-1.5577922E-2],"categories":[],"categories_nodes":[],"categories_segments":[],"categories_sizes":[],"default_left":[0,0,0,0,0],"id":55,"left_children":[1,-1,3,-1,-1],"loss_changes":[5.7294124E-1,0E0,3.4779945E-1,0E0,0E0],"parents":[2147483647,0,0,2,2],"right_children":[2,-1,4,-1,-1],"split_conditions":[3.890701E-1,-3.8765796E-2,3.4221193E-1,4.1394528E-2,-1.5577922E-2],"split_indices":[645,0,2025,0,0],"split_type":[0,0,0,0,0],"sum_hessian":[4.522029E0,1.6766264E0,2.8454027E0,1.7794955E0,1.0659072E0],"tree_param":{"num_deleted":"0","num_feature":"2048","num_nodes":"5","size_leaf_vector":"1"}},{"base_weights":[-3.6944E-2,3.1368177E-2,-2.806443E-1,1.9266443E-2,-5.349801E-2],"categories":[],"categories_nodes":[],"categories_segments":[],"categories_sizes":[],"default_left":[0,0,0,0,0],"id":56,"left_children":[1,-1,3,-1,-1],"loss_changes":[5.53666E-1,0E0,5.536107E-1,0E0,0E0],"parents":[2147483647,0,0,2,2],"right_children":[2,-1,4,-1,-1],"split_conditions":[3.6860093E-1,3.1368177E-2,2.042265E-1,1.9266443E-2,-5.349801E-2],"split_indices":[1016,0,1646,0,0],"split_type":[0,0,0,0,0],"sum_hessian":[4.4493394E0,1.7066791E0,2.74266E0,1.0434053E0,1.6992548E0],"tree_param":{"num_deleted":"0","num_feature":"2048","num_nodes":"5","size_leaf_vector":"1"}},{"base_weights":[-3.4683548E-2,-3.2836732E-1,2.522271E-1,4.1315276E-3,-5.257017E-2,-1.3176954E-2,4.8155278E-2],"categories":[],"categories_nodes":[],"categories_segments":[],"categories_sizes":[],"default_left":[0,0,0,0,0,0,0],"id":57,"left_children":[1,3,5,-1,-1,-1,-1],"loss_changes":[5.344107E-1,2.4661773E-1,3.5198593E-1,0E0,0E0,0E0,0E0],"parents":[2147483647,0,0,1,1,2,2],"right_children":[2,4,6,-1,-1,-1,-1],"split_conditions":[5.4106724E-1,3.4459448E-1,4.495449E-1,4.1315276E-3,-5.257017E-2,-1.3176954E-2,4.8155278E-2],"split_indices":[1715,14,1554,0,0,0,0],"split_type":[0,0,0,0,0,0,0],"sum_hessian":[4.35939E0,2.082863E0,2.276527E0,1.0000399E0,1.0828232E0,1.0102717E0,1.2662551E0],"tree_param":{"num_deleted":"0","num_feature":"2048","num_nodes":"7","size_leaf_vector":"1"}},{"base_weights":[-3.4438875E-2,-3.2380658E-1,2.4895012E-1,3.4075608E-3,-5.1582333E-2,-9.217843E-3,4.715497E-2],"categories":[],"categories_nodes":[],"categories_segments":[],"categories_sizes":[],"default_left":[0,0,0,0,0,0,0],"id":58,"left_children":[1,3,5,-1,-1,-1,-1],"loss_changes":[5.127566E-1,2.2662562E-1,2.8856736E-1,0E0,0E0,0E0,0E0],"parents":[2147483647,0,0,1,1,2,2],"right_children":[2,4,6,-1,-1,-1,-1],"split_conditions":[2.7678666E-1,3.9262336E-1,4.676845E-1,3.4075608E-3,-5.1582333E-2,-9.217843E-3,4.715497E-2],"split_indices":[1296,129,1241,0,0,0,0],"split_type":[0,0,0,0,0,0,0],"sum_hessian":[4.2698274E0,2.0420618E0,2.2277658E0,1.0002769E0,1.0417849E0,1.1110336E0,1.1167322E0],"tree_param":{"num_deleted":"0","num_feature":"2048","num_nodes":"7","size_leaf_vector":"1"}},{"base_weights":[-3.3590876E-2,-3.5551097E-2,2.1982622E-1,4.4356655E-2,-1.1493676E-2],"categories":[],"categories_nodes":[],"categories_segments":[],"categories_sizes":[],"default_left":[0,0,0,0,0],"id":59,"left_children":[1,-1,3,-1,-1],"loss_changes":[5.013697E-1,0E0,3.1467867E-1,0E0,0E0],"parents":[2147483647,0,0,2,2],"right_children":[2,-1,4,-1,-1],"split_conditions":[4.533806E-1,-3.5551097E-2,3.898616E-1,4.4356655E-2,-1.1493676E-2],"split_indices":[551,0,1086,0,0],"split_type":[0,0,0,0,0],"sum_hessian":[4.1877766E0,1.6671273E0,2.5206494E0,1.3160467E0,1.2046026E0],"tree_param":{"num_deleted":"0","num_feature":"2048","num_nodes":"5","size_leaf_vector":"1"}},{"base_weights":[-3.1174652E-2,3.0122835E-2,-2.7327958E-1,-5.586326E-2,1.3270289E-2],"categories":[],"categories_nodes":[],"categories_segments":[],"categories_sizes":[],"default_left":[0,0,0,0,0],"id":60,"left_children":[1,-1,3,-1,-1],"loss_changes":[4.9429315E-1,0E0,4.780048E-1,0E0,0E0],"parents":[2147483647,0,0,2,2],"right_children":[2,-1,4,-1,-1],"split_conditions":[2.1700554E-1,3.0122835E-2,2.8022194E-1,-5.586326E-2,1.3270289E-2],"split_indices":[277,0,1296,0,0],"split_type":[0,0,0,0,0],"sum_hessian":[4.1191854E0,1.6329657E0,2.48622E0,1.2392124E0,1.2470074E0],"tree_param":{"num_deleted":"0","num_feature":"2048","num_nodes":"5","size_leaf_vector":"1"}},{"base_weights":[-3.129871E-2,-3.280994E-2,2.3331009E-1,-1.2393629E-2,4.559037E-2],"categories":[],"categories_nodes":[],"categories_segments":[],"categories_sizes":[],"default_left":[0,0,0,0,0],"id":61,"left_children":[1,-1,3,-1,-1],"loss_changes":[4.7248563E-1,0E0,3.149212E-1,0E0,0E0],"parents":[2147483647,0,0,2,2],"right_children":[2,-1,4,-1,-1],"split_conditions":[4.9648485E-1,-3.280994E-2,2.8508076E-1,-1.2393629E-2,4.559037E-2],"split_indices":[2040,0,1296,0,0],"split_type":[0,0,0,0,0],"sum_hessian":[4.041463E0,1.7917688E0,2.249694E0,1.0337764E0,1.2159177E0],"tree_param":{"num_deleted":"0","num_feature":"2048","num_nodes":"5","size_leaf_vector":"1"}},{"base_weights":[-2.844688E-2,-4.1340657E-2,1.7582545E-1,3.9134372E-2,-2.0048954E-2],"categories":[],"categories_nodes":[],"categories_segments":[],"categories_sizes":[],"default_left":[0,0,0,0,0],"id":62,"left_children":[1,-1,3,-1,-1],"loss_changes":[4.640319E-1,0E0,3.9905542E-1,0E0,0E0],"parents":[2147483647,0,0,2,2],"right_children":[2,-1,4,-1,-1],"split_conditions":[3.2050073E-1,-4.1340657E-2,3.0512354E-1,3.9134372E-2,-2.0048954E-2],"split_indices":[1719,0,1488,0,0],"split_type":[0,0,0,0,0],"sum_hessian":[3.97662E0,1.0236701E0,2.9529498E0,1.8522288E0,1.1007211E0],"tree_param":{"num_deleted":"0","num_feature":"2048","num_nodes":"5","size_leaf_vector":"1"}},{"base_weights":[-3.0560194E-2,2.8801633E-2,-2.7137786E-1,-5.4142743E-2,1.258973E-2],"categories":[],"categories_nodes":[],"categories_segments":[],"categories_sizes":[],"default_left":[0,0,0,0,0],"id":63,"left_children":[1,-1,3,-1,-1],"loss_changes":[4.547472E-1,0E0,4.2331296E-1,0E0,0E0],"parents":[2147483647,0,0,2,2],"right_children":[2,-1,4,-1,-1],"split_conditions":[3.2881764E-1,2.8801633E-2,5.7661355E-1,-5.4142743E-2,1.258973E-2],"split_indices":[1134,0,1639,0,0],"split_type":[0,0,0,0,0],"sum_hessian":[3.9086494E0,1.5982884E0,2.310361E0,1.1594006E0,1.1509603E0],"tree_param":{"num_deleted":"0","num_feature":"2048","num_nodes":"5","size_leaf_vector":"1"}},{"base_weights":[-3.0851105E-2,-3.673212E-2,1.937576E-1,4.085936E-2,-1.4417091E-2],"categories":[],"categories_nodes":[],"categories_segments":[],"categories_sizes":[],"default_left":[0,0,0,0,0],"id":64,"left_children":[1,-1,3,-1,-1],"loss_changes":[4.367781E-1,0E0,3.1705394E-1,0E0,0E0],"parents":[2147483647,0,0,2,2],"right_children":[2,-1,4,-1,-1],"split_conditions":[3.3772087E-1,-3.673212E-2,2.903099E-1,4.085936E-2,-1.4417091E-2],"split_indices":[582,0,574,0,0],"split_type":[0,0,0,0,0],"sum_hessian":[3.8377264E0,1.2819488E0,2.5557775E0,1.4346163E0,1.1211612E0],"tree_param":{"num_deleted":"0","num_feature":"2048","num_nodes":"5","size_leaf_vector":"1"}},{"base_weights":[-3.0309033E-2,-2.7952215E-1,2.6479194E-2,-5.2184004E-2,1.1135551E-2],"categories":[],"categories_nodes":[],"categories_segments":[],"categories_sizes":[],"default_left":[0,0,0,0,0],"id":65,"left_children":[1,3,-1,-1,-1],"loss_changes":[4.2523333E-1,3.4942162E-1,0E0,0E0,0E0],"parents":[2147483647,0,0,1,1],"right_children":[2,4,-1,-1,-1],"split_conditions":[5.63274E-1,4.8157254E-1,2.6479194E-2,-5.2184004E-2,1.1135551E-2],"split_indices":[214,1017,0,0,0],"split_type":[0,0,0,0,0],"sum_hessian":[3.775682E0,2.0756147E0,1.7000674E0,1.074469E0,1.0011456E0],"tree_param":{"num_deleted":"0","num_feature":"2048","num_nodes":"5","size_leaf_vector":"1"}},{"base_weights":[-3.100951E-2,2.971079E-2,-2.503656E-1,1.4022646E-2,-5.060808E-2],"categories":[],"categories_nodes":[],"categories_segments":[],"categories_sizes":[],"default_left":[0,0,0,0,0],"id":66,"left_children":[1,-1,3,-1,-1],"loss_changes":[4.135823E-1,0E0,4.0728003E-1,0E0,0E0],"parents":[2147483647,0,0,2,2],"right_children":[2,-1,4,-1,-1],"split_conditions":[2.9805246E-1,2.971079E-2,2.2664967E-1,1.4022646E-2,-5.060808E-2],"split_indices":[14,0,224,0,0],"split_type":[0,0,0,0,0],"sum_hessian":[3.7127302E0,1.3455596E0,2.3671706E0,1.1152747E0,1.2518958E0],"tree_param":{"num_deleted":"0","num_feature":"2048","num_nodes":"5","size_leaf_vector":"1"}},{"base_weights":[-3.0057559E-2,-2.2636591E-1,3.231586E-2,1.828905E-2,-4.61948E-2],"categories":[],"categories_nodes":[],"categories_segments":[],"categories_sizes":[],"default_left":[0,0,0,0,0],"id":67,"left_children":[1,3,-1,-1,-1],"loss_changes":[3.9527547E-1,4.2907864E-1,0E0,0E0,0E0],"parents":[2147483647,0,0,1,1],"right_children":[2,4,-1,-1,-1],"split_conditions":[6.3015884E-1,2.4650533E-1,3.231586E-2,1.828905E-2,-4.61948E-2],"split_indices":[121,574,0,0,0],"split_type":[0,0,0,0,0],"sum_hessian":[3.6456113E0,2.5741146E0,1.0714966E0,1.022127E0,1.5519876E0],"tree_param":{"num_deleted":"0","num_feature":"2048","num_nodes":"5","size_leaf_vector":"1"}},{"base_weights":[-2.6724884E-2,-2.9355684E-2,2.3405593E-2],"categories":[],"categories_nodes":[],"categories_segments":[],"categories_sizes":[],"default_left":[0,0,0],"id":68,"left_children":[1,-1,-1],"loss_changes":[3.871117E-1,0E0,0E0],"parents":[2147483647,0,0],"right_children":[2,-1,-1],"split_conditions":[5.4106724E-1,-2.9355684E-2,2.3405593E-2],"split_indices":[1715,0,0],"split_type":[0,0,0],"sum_hessian":[3.5757644E0,1.7052559E0,1.8705087E0],"tree_param":{"num_deleted":"0","num_feature":"2048","num_nodes":"3","size_leaf_vector":"1"}},{"base_weights":[-2.5598343E-2,2.0368788E-1,-3.2764707E-2,4.1531336E-2,-1.1262735E-2],"categories":[],"categories_nodes":[],"categories_segments":[],"categories_sizes":[],"default_left":[0,0,0,0,0],"id":69,"left_children":[1,3,-1,-1,-1],"loss_changes":[3.8141152E-1,2.6095724E-1,0E0,0E0,0E0],"parents":[2147483647,0,0,1,1],"right_children":[2,4,-1,-1,-1],"split_conditions":[3.3269608E-1,3.4349498E-1,-3.2764707E-2,4.1531336E-2,-1.1262735E-2],"split_indices":[1672,1066,0,0,0],"split_type":[0,0,0,0,0],"sum_hessian":[3.5436575E0,2.1995883E0,1.3440694E0,1.130364E0,1.0692242E0],"tree_param":{"num_deleted":"0","num_feature":"2048","num_nodes":"5","size_leaf_vector":"1"}},{"base_weights":[-2.3862848E-2,-3.1491335E-2,2.1190615E-1,4.0012777E-2,-7.1914294E-3],"categories":[],"categories_nodes":[],"categories_segments":[],"categories_sizes":[],"default_left":[0,0,0,0,0],"id":70,"left_children":[1,-1,3,-1,-1],"loss_changes":[3.748563E-1,0E0,1.9323087E-1,0E0,0E0],"parents":[2147483647,0,0,2,2],"right_children":[2,-1,4,-1,-1],"split_conditions":[4.3523574E-1,-3.1491335E-2,2.3593266E-1,4.0012777E-2,-7.1914294E-3],"split_indices":[722,0,392,0,0],"split_type":[0,0,0,0,0],"sum_hessian":[3.4902525E0,1.4117719E0,2.0784807E0,1.0033174E0,1.0751634E0],"tree_param":{"num_deleted":"0","num_feature":"2048","num_nodes":"5","size_leaf_vector":"1"}},{"base_weights":[-2.1405982E-2,-3.4118902E-2,1.8942693E-1,3.7746366E-2,-1.2033101E-2],"categories":[],"categories_nodes":[],"categories_segments":[],"categories_sizes":[],"default_left":[0,0,0,0,0],"id":71,"left_children":[1,-1,3,-1,-1],"loss_changes":[3.6415672E-1,0E0,2.388216E-1,0E0,0E0],"parents":[2147483647,0,0,2,2],"right_children":[2,-1,4,-1,-1],"split_conditions":[3.3772087E-1,-3.4118902E-2,2.903099E-1,3.7746366E-2,-1.2033101E-2],"split_indices":[582,0,574,0,0],"split_type":[0,0,0,0,0],"sum_hessian":[3.4426408E0,1.1222163E0,2.3204243E0,1.307897E0,1.0125273E0],"tree_param":{"num_deleted":"0","num_feature":"2048","num_nodes":"5","size_leaf_vector":"1"}},{"base_weights":[-2.1414975E-2,2.3891686E-2,-2.7268087E-2],"categories":[],"categories_nodes":[],"categories_segments":[],"categories_sizes":[],"default_left":[0,0,0],"id":72,"left_children":[1,-1,-1],"loss_changes":[3.5246146E-1,0E0,0E0],"parents":[2147483647,0,0],"right_children":[2,-1,-1],"split_conditions":[3.6867723E-1,2.3891686E-2,-2.7268087E-2],"split_indices":[240,0,0],"split_type":[0,0,0],"sum_hessian":[3.3923311E0,1.6902463E0,1.7020848E0],"tree_param":{"num_deleted":"0","num_feature":"2048","num_nodes":"3","size_leaf_vector":"1"}},{"base_weights":[-2.0232638E-2,-2.9391317E-2,2.1866055E-2],"categories":[],"categories_nodes":[],"categories_segments":[],"categories_sizes":[],"default_left":[0,0,0],"id":73,"left_children":[1,-1,-1],"loss_changes":[3.4945714E-1,0E0,0E0],"parents":[2147483647,0,0],"right_children":[2,-1,-1],"split_conditions":[4.9648485E-1,-2.9391317E-2,2.1866055E-2],"split_indices":[2040,0,0],"split_type":[0,0,0],"sum_hessian":[3.3620086E0,1.4595773E0,1.9024311E0],"tree_param":{"num_deleted":"0","num_feature":"2048","num_nodes":"3","size_leaf_vector":"1"}},{"base_weights":[-2.013204E-2,-3.0940084E-2,2.0649198E-1,3.9232757E-2,-8.071988E-3],"categories":[],"categories_nodes":[],"categories_segments":[],"categories_sizes":[],"default_left":[0,0,0,0,0],"id":74,"left_children":[1,-1,3,-1,-1],"loss_changes":[3.4793574E-1,0E0,1.9335413E-1,0E0,0E0],"parents":[2147483647,0,0,2,2],"right_children":[2,-1,4,-1,-1],"split_conditions":[4.533806E-1,-3.0940084E-2,3.7618744E-1,3.9232757E-2,-8.071988E-3],"split_indices":[551,0,1119,0,0],"split_type":[0,0,0,0,0],"sum_hessian":[3.3329399E0,1.3036573E0,2.0292826E0,1.0098739E0,1.0194087E0],"tree_param":{"num_deleted":"0","num_feature":"2048","num_nodes":"5","size_leaf_vector":"1"}},{"base_weights":[-1.8256182E-2,-2.543875E-2,2.482138E-2],"categories":[],"categories_nodes":[],"categories_segments":[],"categories_sizes":[],"default_left":[0,0,0],"id":75,"left_children":[1,-1,-1],"loss_changes":[3.3286604E-1,0E0,0E0],"parents":[2147483647,0,0],"right_children":[2,-1,-1],"split_conditions":[5.63274E-1,-2.543875E-2,2.482138E-2],"split_indices":[214,0,0],"split_type":[0,0,0],"sum_hessian":[3.2866404E0,1.7665564E0,1.5200841E0],"tree_param":{"num_deleted":"0","num_feature":"2048","num_nodes":"3","size_leaf_vector":"1"}},{"base_weights":[-1.6723685E-2,2.7111277E-2,-2.3729047E-2],"categories":[],"categories_nodes":[],"categories_segments":[],"categories_sizes":[],"default_left":[0,0,0],"id":76,"left_children":[1,-1,-1],"loss_changes":[3.346713E-1,0E0,0E0],"parents":[2147483647,0,0],"right_children":[2,-1,-1],"split_conditions":[2.8882474E-1,2.7111277E-2,-2.3729047E-2],"split_indices":[573,0,0],"split_type":[0,0,0],"sum_hessian":[3.258165E0,1.3141085E0,1.9440565E0],"tree_param":{"num_deleted":"0","num_feature":"2048","num_nodes":"3","size_leaf_vector":"1"}},{"base_weights":[-1.4379708E-2,-2.9377583E-2,2.0739377E-2],"categories":[],"categories_nodes":[],"categories_segments":[],"categories_sizes":[],"default_left":[0,0,0],"id":77,"left_children":[1,-1,-1],"loss_changes":[3.229677E-1,0E0,0E0],"parents":[2147483647,0,0],"right_children":[2,-1,-1],"split_conditions":[4.3523574E-1,-2.9377583E-2,2.0739377E-2],"split_indices":[722,0,0],"split_type":[0,0,0],"sum_hessian":[3.2290065E0,1.2852049E0,1.9438016E0],"tree_param":{"num_deleted":"0","num_feature":"2048","num_nodes":"3","size_leaf_vector":"1"}},{"base_weights":[-1.51375905E-2,2.7552834E-2,-2.2246432E-1,1.1380727E-2,-4.470144E-2],"categories":[],"categories_nodes":[],"categories_segments":[],"categories_sizes":[],"default_left":[0,0,0,0,0],"id":78,"left_children":[1,-1,3,-1,-1],"loss_changes":[3.1458107E-1,0E0,2.7789193E-1,0E0,0E0],"parents":[2147483647,0,0,2,2],"right_children":[2,-1,4,-1,-1],"split_conditions":[2.9805246E-1,2.7552834E-2,2.516394E-1,1.1380727E-2,-4.470144E-2],"split_indices":[14,0,224,0,0],"split_type":[0,0,0,0,0],"sum_hessian":[3.20302E0,1.1965439E0,2.0064762E0,1.0008478E0,1.0056285E0],"tree_param":{"num_deleted":"0","num_feature":"2048","num_nodes":"5","size_leaf_vector":"1"}},{"base_weights":[-1.5348798E-2,-3.0719606E-2,1.9074228E-1,3.5199124E-2,-6.3911243E-3],"categories":[],"categories_nodes":[],"categories_segments":[],"categories_sizes":[],"default_left":[0,0,0,0,0],"id":79,"left_children":[1,-1,3,-1,-1],"loss_changes":[3.0845207E-1,0E0,1.4780684E-1,0E0,0E0],"parents":[2147483647,0,0,2,2],"right_children":[2,-1,4,-1,-1],"split_conditions":[3.890701E-1,-3.0719606E-2,3.4461728E-1,3.5199124E-2,-6.3911243E-3],"split_indices":[645,0,70,0,0],"split_type":[0,0,0,0,0],"sum_hessian":[3.1540942E0,1.1023971E0,2.0516973E0,1.0221969E0,1.0295002E0],"tree_param":{"num_deleted":"0","num_feature":"2048","num_nodes":"5","size_leaf_vector":"1"}},{"base_weights":[-1.4415457E-2,2.6019052E-2,-2.2926098E-2],"categories":[],"categories_nodes":[],"categories_segments":[],"categories_sizes":[],"default_left":[0,0,0],"id":80,"left_children":[1,-1,-1],"loss_changes":[3.02457E-1,0E0,0E0],"parents":[2147483647,0,0],"right_children":[2,-1,-1],"split_conditions":[2.1700554E-1,2.6019052E-2,-2.2926098E-2],"split_indices":[277,0,0],"split_type":[0,0,0],"sum_hessian":[3.1154966E0,1.2749076E0,1.840589E0],"tree_param":{"num_deleted":"0","num_feature":"2048","num_nodes":"3","size_leaf_vector":"1"}},{"base_weights":[-1.2322655E-2,-2.6627624E-2,2.172505E-2],"categories":[],"categories_nodes":[],"categories_segments":[],"categories_sizes":[],"default_left":[0,0,0],"id":81,"left_children":[1,-1,-1],"loss_changes":[2.9623982E-1,0E0,0E0],"parents":[2147483647,0,0],"right_children":[2,-1,-1],"split_conditions":[2.7678666E-1,-2.6627624E-2,2.172505E-2],"split_indices":[1296,0,0],"split_type":[0,0,0],"sum_hessian":[3.0889778E0,1.3907053E0,1.6982725E0],"tree_param":{"num_deleted":"0","num_feature":"2048","num_nodes":"3","size_leaf_vector":"1"}},{"base_weights":[-1.2406818E-2,-2.8581051E-2,2.0063534E-2],"categories":[],"categories_nodes":[],"categories_segments":[],"categories_sizes":[],"default_left":[0,0,0],"id":82,"left_children":[1,-1,-1],"loss_changes":[2.9410544E-1,0E0,0E0],"parents":[2147483647,0,0],"right_children":[2,-1,-1],"split_conditions":[4.533806E-1,-2.8581051E-2,2.0063534E-2],"split_indices":[551,0,0],"split_type":[0,0,0],"sum_hessian":[3.0648224E0,1.1926674E0,1.8721552E0],"tree_param":{"num_deleted":"0","num_feature":"2048","num_nodes":"3","size_leaf_vector":"1"}},{"base_weights":[-1.3397705E-2,2.5279049E-2,-2.2919958E-2],"categories":[],"categories_nodes":[],"categories_segments":[],"categories_sizes":[],"default_left":[0,0,0],"id":83,"left_children":[1,-1,-1],"loss_changes":[2.9002452E-1,0E0,0E0],"parents":[2147483647,0,0],"right_children":[2,-1,-1],"split_conditions":[3.2881764E-1,2.5279049E-2,-2.2919958E-2],"split_indices":[1134,0,0],"split_type":[0,0,0],"sum_hessian":[3.040203E0,1.2844517E0,1.7557515E0],"tree_param":{"num_deleted":"0","num_feature":"2048","num_nodes":"3","size_leaf_vector":"1"}},{"base_weights":[-1.1567845E-2,-2.5679355E-2,2.1877043E-2],"categories":[],"categories_nodes":[],"categories_segments":[],"categories_sizes":[],"default_left":[0,0,0],"id":84,"left_children":[1,-1,-1],"loss_changes":[2.8296787E-1,0E0,0E0],"parents":[2147483647,0,0],"right_children":[2,-1,-1],"split_conditions":[5.4106724E-1,-2.5679355E-2,2.1877043E-2],"split_indices":[1715,0,0],"split_type":[0,0,0],"sum_hessian":[3.0150404E0,1.4046983E0,1.6103421E0],"tree_param":{"num_deleted":"0","num_feature":"2048","num_nodes":"3","size_leaf_vector":"1"}},{"base_weights":[-1.1464248E-2,2.0723606E-2,-2.6164308E-2],"categories":[],"categories_nodes":[],"categories_segments":[],"categories_sizes":[],"default_left":[0,0,0],"id":85,"left_children":[1,-1,-1],"loss_changes":[2.7261204E-1,0E0,0E0],"parents":[2147483647,0,0],"right_children":[2,-1,-1],"split_conditions":[3.0512354E-1,2.0723606E-2,-2.6164308E-2],"split_indices":[1488,0,0],"split_type":[0,0,0],"sum_hessian":[2.9914715E0,1.6877391E0,1.3037325E0],"tree_param":{"num_deleted":"0","num_feature":"2048","num_nodes":"3","size_leaf_vector":"1"}},{"base_weights":[-1.1791604E-2,2.6266528E-2,-2.135665E-2],"categories":[],"categories_nodes":[],"categories_segments":[],"categories_sizes":[],"default_left":[0,0,0],"id":86,"left_children":[1,-1,-1],"loss_changes":[2.7585745E-1,0E0,0E0],"parents":[2147483647,0,0],"right_children":[2,-1,-1],"split_conditions":[2.9805246E-1,2.6266528E-2,-2.135665E-2],"split_indices":[14,0,0],"split_type":[0,0,0],"sum_hessian":[2.9683433E0,1.1298002E0,1.838543E0],"tree_param":{"num_deleted":"0","num_feature":"2048","num_nodes":"3","size_leaf_vector":"1"}},{"base_weights":[-9.444606E-3,-2.6613852E-2,2.0805517E-2],"categories":[],"categories_nodes":[],"categories_segments":[],"categories_sizes":[],"default_left":[0,0,0],"id":87,"left_children":[1,-1,-1],"loss_changes":[2.755836E-1,0E0,0E0],"parents":[2147483647,0,0],"right_children":[2,-1,-1],"split_conditions":[4.9648485E-1,-2.6613852E-2,2.0805517E-2],"split_indices":[2040,0,0],"split_type":[0,0,0],"sum_hessian":[2.9442708E0,1.2478856E0,1.6963851E0],"tree_param":{"num_deleted":"0","num_feature":"2048","num_nodes":"3","size_leaf_vector":"1"}},{"base_weights":[-1.0074569E-2,1.9067356E-2,-2.801909E-2],"categories":[],"categories_nodes":[],"categories_segments":[],"categories_sizes":[],"default_left":[0,0,0],"id":88,"left_children":[1,-1,-1],"loss_changes":[2.660612E-1,0E0,0E0],"parents":[2147483647,0,0],"right_children":[2,-1,-1],"split_conditions":[3.3269608E-1,1.9067356E-2,-2.801909E-2],"split_indices":[1672,0,0],"split_type":[0,0,0],"sum_hessian":[2.9213433E0,1.844576E0,1.0767673E0],"tree_param":{"num_deleted":"0","num_feature":"2048","num_nodes":"3","size_leaf_vector":"1"}},{"base_weights":[-1.1464702E-2,-2.4084475E-2,2.2006642E-2],"categories":[],"categories_nodes":[],"categories_segments":[],"categories_sizes":[],"default_left":[0,0,0],"id":89,"left_children":[1,-1,-1],"loss_changes":[2.6009193E-1,0E0,0E0],"parents":[2147483647,0,0],"right_children":[2,-1,-1],"split_conditions":[6.3796246E-1,-2.4084475E-2,2.2006642E-2],"split_indices":[561,0,0],"split_type":[0,0,0],"sum_hessian":[2.899369E0,1.4362432E0,1.463126E0],"tree_param":{"num_deleted":"0","num_feature":"2048","num_nodes":"3","size_leaf_vector":"1"}},{"base_weights":[-1.0945717E-2,2.3178926E-2,-2.256545E-2],"categories":[],"categories_nodes":[],"categories_segments":[],"categories_sizes":[],"default_left":[0,0,0],"id":90,"left_children":[1,-1,-1],"loss_changes":[2.5434774E-1,0E0,0E0],"parents":[2147483647,0,0],"right_children":[2,-1,-1],"split_conditions":[2.903099E-1,2.3178926E-2,-2.256545E-2],"split_indices":[574,0,0],"split_type":[0,0,0],"sum_hessian":[2.876704E0,1.3128895E0,1.5638144E0],"tree_param":{"num_deleted":"0","num_feature":"2048","num_nodes":"3","size_leaf_vector":"1"}},{"base_weights":[-9.771554E-3,-2.2829143E-2,2.2710953E-2],"categories":[],"categories_nodes":[],"categories_segments":[],"categories_sizes":[],"default_left":[0,0,0],"id":91,"left_children":[1,-1,-1],"loss_changes":[2.513646E-1,0E0,0E0],"parents":[2147483647,0,0],"right_children":[2,-1,-1],"split_conditions":[5.63274E-1,-2.2829143E-2,2.2710953E-2],"split_indices":[214,0,0],"split_type":[0,0,0],"sum_hessian":[2.8544238E0,1.503617E0,1.3508067E0],"tree_param":{"num_deleted":"0","num_feature":"2048","num_nodes":"3","size_leaf_vector":"1"}},{"base_weights":[-8.899094E-3,2.0593395E-2,-2.5381876E-2],"categories":[],"categories_nodes":[],"categories_segments":[],"categories_sizes":[],"default_left":[0,0,0],"id":92,"left_children":[1,-1,-1],"loss_changes":[2.5393888E-1,0E0,0E0],"parents":[2147483647,0,0],"right_children":[2,-1,-1],"split_conditions":[3.4421244E-1,2.0593395E-2,-2.5381876E-2],"split_indices":[2025,0,0],"split_type":[0,0,0],"sum_hessian":[2.8327844E0,1.5938793E0,1.2389052E0],"tree_param":{"num_deleted":"0","num_feature":"2048","num_nodes":"3","size_leaf_vector":"1"}},{"base_weights":[-9.347935E-3,-2.653133E-2,1.9046409E-2],"categories":[],"categories_nodes":[],"categories_segments":[],"categories_sizes":[],"default_left":[0,0,0],"id":93,"left_children":[1,-1,-1],"loss_changes":[2.4545993E-1,0E0,0E0],"parents":[2147483647,0,0],"right_children":[2,-1,-1],"split_conditions":[4.3523574E-1,-2.653133E-2,1.9046409E-2],"split_indices":[722,0,0],"split_type":[0,0,0],"sum_hessian":[2.811271E0,1.088743E0,1.722528E0],"tree_param":{"num_deleted":"0","num_feature":"2048","num_nodes":"3","size_leaf_vector":"1"}},{"base_weights":[-1.0474719E-2,2.239163E-2,-2.252405E-2],"categories":[],"categories_nodes":[],"categories_segments":[],"categories_sizes":[],"default_left":[0,0,0],"id":94,"left_children":[1,-1,-1],"loss_changes":[2.4128291E-1,0E0,0E0],"parents":[2147483647,0,0],"right_children":[2,-1,-1],"split_conditions":[2.367854E-1,2.239163E-2,-2.252405E-2],"split_indices":[618,0,0],"split_type":[0,0,0],"sum_hessian":[2.7912407E0,1.314268E0,1.4769727E0],"tree_param":{"num_deleted":"0","num_feature":"2048","num_nodes":"3","size_leaf_vector":"1"}},{"base_weights":[-9.537487E-3,-2.6454076E-2,1.8628111E-2],"categories":[],"categories_nodes":[],"categories_segments":[],"categories_sizes":[],"default_left":[0,0,0],"id":95,"left_children":[1,-1,-1],"loss_changes":[2.3755166E-1,0E0,0E0],"parents":[2147483647,0,0],"right_children":[2,-1,-1],"split_conditions":[4.533806E-1,-2.6454076E-2,1.8628111E-2],"split_indices":[551,0,0],"split_type":[0,0,0],"sum_hessian":[2.7704015E0,1.0509118E0,1.7194898E0],"tree_param":{"num_deleted":"0","num_feature":"2048","num_nodes":"3","size_leaf_vector":"1"}},{"base_weights":[-1.0759321E-2,-2.4579046E-2,2.0019818E-2],"categories":[],"categories_nodes":[],"categories_segments":[],"categories_sizes":[],"default_left":[0,0,0],"id":96,"left_children":[1,-1,-1],"loss_changes":[2.351571E-1,0E0,0E0],"parents":[2147483647,0,0],"right_children":[2,-1,-1],"split_conditions":[2.7678666E-1,-2.4579046E-2,2.0019818E-2],"split_indices":[1296,0,0],"split_type":[0,0,0],"sum_hessian":[2.750391E0,1.2228621E0,1.5275289E0],"tree_param":{"num_deleted":"0","num_feature":"2048","num_nodes":"3","size_leaf_vector":"1"}},{"base_weights":[-1.0989918E-2,2.1072516E-2,-2.3224864E-2],"categories":[],"categories_nodes":[],"categories_segments":[],"categories_sizes":[],"default_left":[0,0,0],"id":97,"left_children":[1,-1,-1],"loss_changes":[2.3196419E-1,0E0,0E0],"parents":[2147483647,0,0],"right_children":[2,-1,-1],"split_conditions":[3.6867723E-1,2.1072516E-2,-2.3224864E-2],"split_indices":[240,0,0],"split_type":[0,0,0],"sum_hessian":[2.7308815E0,1.3878132E0,1.3430682E0],"tree_param":{"num_deleted":"0","num_feature":"2048","num_nodes":"3","size_leaf_vector":"1"}},{"base_weights":[-1.0552461E-2,-2.045253E-2,2.4412319E-2],"categories":[],"categories_nodes":[],"categories_segments":[],"categories_sizes":[],"default_left":[0,0,0],"id":98,"left_children":[1,-1,-1],"loss_changes":[2.3323521E-1,0E0,0E0],"parents":[2147483647,0,0],"right_children":[2,-1,-1],"split_conditions":[6.22378E-1,-2.045253E-2,2.4412319E-2],"split_indices":[2023,0,0],"split_type":[0,0,0],"sum_hessian":[2.7106326E0,1.6504737E0,1.060159E0],"tree_param":{"num_deleted":"0","num_feature":"2048","num_nodes":"3","size_leaf_vector":"1"}},{"base_weights":[-8.487244E-3,-2.419005E-2,2.0352863E-2],"categories":[],"categories_nodes":[],"categories_segments":[],"categories_sizes":[],"default_left":[0,0,0],"id":99,"left_children":[1,-1,-1],"loss_changes":[2.3185292E-1,0E0,0E0],"parents":[2147483647,0,0],"right_children":[2,-1,-1],"split_conditions":[2.7551955E-1,-2.419005E-2,2.0352863E-2],"split_indices":[1112,0,0],"split_type":[0,0,0],"sum_hessian":[2.6902237E0,1.213404E0,1.4768196E0],"tree_param":{"num_deleted":"0","num_feature":"2048","num_nodes":"3","size_leaf_vector":"1"}}]},"name":"gbtree"},"learner_model_param":{"base_score":"1.4492163E-1","boost_from_average":"1","num_class":"0","num_feature":"2048","num_target":"1"},"objective":{"name":"binary:logistic","reg_loss_param":{"scale_pos_weight":"1"}}},"version":[2,0,1]}