{"learner":{"attributes":{"scikit_learn":"{\"_estimator_type\": \"classifier\"}"},"feature_names":[],"feature_types":[],"gradient_booster":{"model":{"gbtree_model_param":{"num_parallel_tree":"1","num_trees":"100"},"iteration_indptr":[0,1,2,3,4,5,6,7,8,9,10,11,12,13,14,15,16,17,18,19,20,21,22,23,24,25,26,27,28,29,30,31,32,33,34,35,36,37,38,39,40,41,42,43,44,45,46,47,48,49,50,51,52,53,54,55,56,57,58,59,60,61,62,63,64,65,66,67,68,69,70,71,72,73,74,75,76,77,78,79,80,81,82,83,84,85,86,87,88,89,90,91,92,93,94,95,96,97,98,99,100],"tree_info":[0,0,0,0,0,0,0,0,0,0,0,0,0,0,0,0,0,0,0,0,0,0,0,0,0,0,0,0,0,0,0,0,0,0,0,0,0,0,0,0,0,0,0,0,0,0,0,0,0,0,0,0,0,0,0,0,0,0,0,0,0,0,0,0,0,0,0,0,0,0,0,0,0,0,0,0,0,0,0,0,0,0,0,0,0,0,0,0,0,0,0,0,0,0,0,0,0,0,0,0],"trees":[{"base_weights":[-9.037294E-1,-1.0334849E0,1.338782E-1,-1.0876709E0,4.106879E-2,-8.4699495E-3,-1.115466E-1],"categories":[],"categories_nodes":[],"categories_segments":[],"categories_sizes":[],"default_left":[0,0,0,0,0,0,0],"id":0,"left_children":[1,3,-1,5,-1,-1,-1],"loss_changes":[1.2213152E1,3.2439766E0,0E0,8.736534E-1,0E0,0E0,0E0],"parents":[2147483647,0,0,1,1,3,3],"right_children":[2,4,-1,6,-1,-1,-1],"split_conditions":[1.205299E0,9.078415E-1,1.338782E-1,1.4316358E-1,4.106879E-2,-8.4699495E-3,-1.115466E-1],"split_indices":[6,165,0,5,0,0,0],"split_type":[0,0,0,0,0,0,0],"sum_hessian":[3.621768E1,3.4746338E1,1.4713434E0,3.372772E1,1.0186223E0,1.0186223E0,3.2709095E1],"tree_param":{"num_deleted":"0","num_feature":"2048","num_nodes":"7","size_leaf_vector":"1"}},{"base_weights":[-8.738414E-1,-1.0101839E0,1.183336E-1,-1.0683111E0,3.841734E-2,-1.0982382E-1,-9.584109E-3],"categories":[],"categories_nodes":[],"categories_segments":[],"categories_sizes":[],"default_left":[0,0,0,0,0,0,0],"id":1,"left_children":[1,3,-1,5,-1,-1,-1],"loss_changes":[1.0944977E1,3.0963478E0,0E0,8.283043E-1,0E0,0E0,0E0],"parents":[2147483647,0,0,1,1,3,3],"right_children":[2,4,-1,6,-1,-1,-1],"split_conditions":[1.205299E0,1.0020669E0,1.183336E-1,9.249908E-1,3.841734E-2,-1.0982382E-1,-9.584109E-3],"split_indices":[6,969,0,48,0,0,0],"split_type":[0,0,0,0,0,0,0],"sum_hessian":[3.3760284E1,3.213916E1,1.6211247E0,3.1077456E1,1.0617046E0,3.0024149E1,1.0533051E0],"tree_param":{"num_deleted":"0","num_feature":"2048","num_nodes":"7","size_leaf_vector":"1"}},{"base_weights":[-8.450474E-1,-9.879204E-1,1.05148256E-1,-1.0504141E0,4.2857885E-2,-7.0512937E-3,-1.0824672E-1],"categories":[],"categories_nodes":[],"categories_segments":[],"categories_sizes":[],"default_left":[0,0,0,0,0,0,0],"id":2,"left_children":[1,3,-1,5,-1,-1,-1],"loss_changes":[9.838797E0,3.1693478E0,0E0,8.568001E-1,0E0,0E0,0E0],"parents":[2147483647,0,0,1,1,3,3],"right_children":[2,4,-1,6,-1,-1,-1],"split_conditions":[1.205299E0,9.880024E-1,1.05148256E-1,1.9826835E-1,4.2857885E-2,-7.0512937E-3,-1.0824672E-1],"split_indices":[6,328,0,205,0,0,0],"split_type":[0,0,0,0,0,0,0],"sum_hessian":[3.1476833E1,2.971721E1,1.7596219E0,2.8709055E1,1.0081552E0,1.0106984E0,2.7698357E1],"tree_param":{"num_deleted":"0","num_feature":"2048","num_nodes":"7","size_leaf_vector":"1"}},{"base_weights":[-8.1704956E-1,-9.6640354E-1,9.388329E-2,4.221837E-2,-1.0335943E0,-5.789068E-3,-1.06832705E-1],"categories":[],"categories_nodes":[],"categories_segments":[],"categories_sizes":[],"default_left":[0,0,0,0,0,0,0],"id":3,"left_children":[1,3,-1,-1,5,-1,-1],"loss_changes":[8.867119E0,3.0922222E0,0E0,0E0,8.681278E-1,0E0,0E0],"parents":[2147483647,0,0,1,1,4,4],"right_children":[2,4,-1,-1,6,-1,-1],"split_conditions":[1.205299E0,1.2545536E-1,9.388329E-2,4.221837E-2,1.3147934E-1,-5.789068E-3,-1.06832705E-1],"split_indices":[6,1449,0,0,106,0,0],"split_type":[0,0,0,0,0,0,0],"sum_hessian":[2.9352287E1,2.7465696E1,1.8865907E0,1.0238153E0,2.6441881E1,1.0005807E0,2.5441301E1],"tree_param":{"num_deleted":"0","num_feature":"2048","num_nodes":"7","size_leaf_vector":"1"}},{"base_weights":[-7.896498E-1,-9.4536585E-1,8.418642E-2,-1.0539367E-1,1.1197368E-1,9.3093075E-2,-6.3456774E-2],"categories":[],"categories_nodes":[],"categories_segments":[],"categories_sizes":[],"default_left":[0,0,0,0,0,0,0],"id":4,"left_children":[1,3,-1,-1,5,-1,-1],"loss_changes":[8.00774E0,3.1469135E0,0E0,0E0,2.6455817E0,0E0,0E0],"parents":[2147483647,0,0,1,1,4,4],"right_children":[2,4,-1,-1,6,-1,-1],"split_conditions":[1.205299E0,8.552163E-1,8.418642E-2,-1.0539367E-1,3.9715603E-1,9.3093075E-2,-6.3456774E-2],"split_indices":[6,1492,0,0,33,0,0],"split_type":[0,0,0,0,0,0,0],"sum_hessian":[2.7387274E1,2.538502E1,2.0022552E0,2.3024057E1,2.360962E0,1.0080919E0,1.35287E0],"tree_param":{"num_deleted":"0","num_feature":"2048","num_nodes":"7","size_leaf_vector":"1"}},{"base_weights":[-7.630055E-1,1.0930979E-1,-9.008776E-1,-1.0123465E0,7.7558085E-2,-5.4480904E-3,-1.0518278E-1],"categories":[],"categories_nodes":[],"categories_segments":[],"categories_sizes":[],"default_left":[0,0,0,0,0,0,0],"id":5,"left_children":[1,-1,3,5,-1,-1,-1],"loss_changes":[7.7859583E0,0E0,5.5107346E0,8.5580254E-1,0E0,0E0,0E0],"parents":[2147483647,0,0,2,2,3,3],"right_children":[2,-1,4,6,-1,-1,-1],"split_conditions":[1.0534159E-1,1.0930979E-1,1.4103574E0,2.3331876E-1,7.7558085E-2,-5.4480904E-3,-1.0518278E-1],"split_indices":[509,0,2000,89,0,0,0],"split_type":[0,0,0,0,0,0,0],"sum_hessian":[2.5577105E1,1.2894558E0,2.428765E1,2.314487E1,1.142779E0,1.0104325E0,2.2134438E1],"tree_param":{"num_deleted":"0","num_feature":"2048","num_nodes":"7","size_leaf_vector":"1"}},{"base_weights":[-7.343624E-1,-9.059154E-1,7.6901275E-1,-1.0303434E-1,1.8270549E-1,1.8492235E-1,-6.428718E-2,9.3340546E-2,-5.8745332E-2],"categories":[],"categories_nodes":[],"categories_segments":[],"categories_sizes":[],"default_left":[0,0,0,0,0,0,0,0,0],"id":6,"left_children":[1,3,5,-1,7,-1,-1,-1,-1],"loss_changes":[7.116932E0,3.277031E0,5.902347E0,0E0,2.3917294E0,0E0,0E0,0E0,0E0],"parents":[2147483647,0,0,1,1,2,2,4,4],"right_children":[2,4,6,-1,8,-1,-1,-1,-1],"split_conditions":[1.205299E0,8.3425325E-1,5.7113343E-1,-1.0303434E-1,4.4646403E-1,1.8492235E-1,-6.428718E-2,9.3340546E-2,-5.8745332E-2],"split_indices":[6,585,58,0,227,0,0,0,0],"split_type":[0,0,0,0,0,0,0,0,0],"sum_hessian":[2.3893602E1,2.180303E1,2.0905724E0,1.9614634E1,2.1883962E0,1.0089132E0,1.0816592E0,1.0008594E0,1.1875367E0],"tree_param":{"num_deleted":"0","num_feature":"2048","num_nodes":"9","size_leaf_vector":"1"}},{"base_weights":[-7.0767874E-1,9.537839E-2,-8.580769E-1,-9.8294646E-1,7.082697E-2,-4.861157E-3,-1.0283315E-1],"categories":[],"categories_nodes":[],"categories_segments":[],"categories_sizes":[],"default_left":[0,0,0,0,0,0,0],"id":7,"left_children":[1,-1,3,5,-1,-1,-1],"loss_changes":[6.645649E0,0E0,4.9816837E0,8.2828903E-1,0E0,0E0,0E0],"parents":[2147483647,0,0,2,2,3,3],"right_children":[2,-1,4,6,-1,-1,-1],"split_conditions":[1.0534159E-1,9.537839E-2,1.4103574E0,1.4205278E-1,7.082697E-2,-4.861157E-3,-1.0283315E-1],"split_indices":[509,0,2000,926,0,0,0],"split_type":[0,0,0,0,0,0,0],"sum_hessian":[2.2320024E1,1.4093268E0,2.0910698E1,1.9711731E1,1.1989655E0,1.009079E0,1.8702652E1],"tree_param":{"num_deleted":"0","num_feature":"2048","num_nodes":"7","size_leaf_vector":"1"}},{"base_weights":[-6.798234E-1,2.020157E-1,-1.01041414E-1,1.6457793E0,-8.458964E-2,2.2753735E-1,2.9012058E-2],"categories":[],"categories_nodes":[],"categories_segments":[],"categories_sizes":[],"default_left":[0,0,0,0,0,0,0],"id":8,"left_children":[1,3,-1,5,-1,-1,-1],"loss_changes":[6.5861874E0,1.1684025E1,0E0,2.0714693E0,0E0,0E0,0E0],"parents":[2147483647,0,0,1,1,3,3],"right_children":[2,4,-1,6,-1,-1,-1],"split_conditions":[1.9758272E-1,2.1059132E-1,-1.01041414E-1,5.334181E-1,-8.458964E-2,2.2753735E-1,2.9012058E-2],"split_indices":[1924,509,0,88,0,0,0],"split_type":[0,0,0,0,0,0,0],"sum_hessian":[2.0891808E1,5.8025727E0,1.5089234E1,2.2004144E0,3.6021585E0,1.0393114E0,1.161103E0],"tree_param":{"num_deleted":"0","num_feature":"2048","num_nodes":"7","size_leaf_vector":"1"}},{"base_weights":[-6.534992E-1,-9.449273E-1,3.660421E-1,-9.97588E-2,-7.224311E-3,1.6993389E-1,-7.836729E-2],"categories":[],"categories_nodes":[],"categories_segments":[],"categories_sizes":[],"default_left":[0,0,0,0,0,0,0],"id":9,"left_children":[1,3,5,-1,-1,-1,-1],"loss_changes":[6.4443913E0,6.7433643E-1,9.430909E0,0E0,0E0,0E0,0E0],"parents":[2147483647,0,0,1,1,2,2],"right_children":[2,4,6,-1,-1,-1,-1],"split_conditions":[5.9773153E-1,7.238936E-1,1.9758272E-1,-9.97588E-2,-7.224311E-3,1.6993389E-1,-7.836729E-2],"split_indices":[1224,1625,1924,0,0,0,0],"split_type":[0,0,0,0,0,0,0],"sum_hessian":[1.9525198E1,1.5241668E1,4.2835307E0,1.4239295E1,1.0023726E0,1.76206E0,2.5214705E0],"tree_param":{"num_deleted":"0","num_feature":"2048","num_nodes":"7","size_leaf_vector":"1"}},{"base_weights":[-6.296245E-1,2.244871E-1,-9.873125E-2,1.4127474E0,-8.111313E-2,2.4593515E-2,1.9223599E-1],"categories":[],"categories_nodes":[],"categories_segments":[],"categories_sizes":[],"default_left":[0,0,0,0,0,0,0],"id":10,"left_children":[1,3,-1,5,-1,-1,-1],"loss_changes":[6.1257496E0,9.168272E0,0E0,1.549283E0,0E0,0E0,0E0],"parents":[2147483647,0,0,1,1,3,3],"right_children":[2,4,-1,6,-1,-1,-1],"split_conditions":[2.1059132E-1,1.9758272E-1,-9.873125E-2,4.066904E-1,-8.111313E-2,2.4593515E-2,1.9223599E-1],"split_indices":[509,1924,0,1691,0,0,0],"split_type":[0,0,0,0,0,0,0],"sum_hessian":[1.8325716E1,5.519138E0,1.2806579E1,2.400577E0,3.1185608E0,1.1804358E0,1.2201412E0],"tree_param":{"num_deleted":"0","num_feature":"2048","num_nodes":"7","size_leaf_vector":"1"}},{"base_weights":[-6.05259E-1,2.253638E-1,-9.754954E-2,1.2906674E0,-7.921079E-2,2.2995079E-2,1.7419632E-1],"categories":[],"categories_nodes":[],"categories_segments":[],"categories_sizes":[],"default_left":[0,0,0,0,0,0,0],"id":11,"left_children":[1,3,-1,5,-1,-1,-1],"loss_changes":[5.801584E0,7.9683895E0,0E0,1.280076E0,0E0,0E0,0E0],"parents":[2147483647,0,0,1,1,3,3],"right_children":[2,4,-1,6,-1,-1,-1],"split_conditions":[1.9758272E-1,2.1059132E-1,-9.754954E-2,5.420566E-1,-7.921079E-2,2.2995079E-2,1.7419632E-1],"split_indices":[1924,509,0,242,0,0,0],"split_type":[0,0,0,0,0,0,0],"sum_hessian":[1.7150427E1,5.408282E0,1.1742145E1,2.5108697E0,2.897412E0,1.1999843E0,1.3108855E0],"tree_param":{"num_deleted":"0","num_feature":"2048","num_nodes":"7","size_leaf_vector":"1"}},{"base_weights":[-5.82028E-1,-9.0543544E-1,3.7409866E-1,-9.650027E-2,-9.413334E-3,1.334982E-1,-7.158392E-2],"categories":[],"categories_nodes":[],"categories_segments":[],"categories_sizes":[],"default_left":[0,0,0,0,0,0,0],"id":12,"left_children":[1,3,5,-1,-1,-1,-1],"loss_changes":[5.6140532E0,5.3937244E-1,6.2127438E0,0E0,0E0,0E0,0E0],"parents":[2147483647,0,0,1,1,2,2],"right_children":[2,4,6,-1,-1,-1,-1],"split_conditions":[5.9773153E-1,7.6428413E-1,1.9758272E-1,-9.650027E-2,-9.413334E-3,1.334982E-1,-7.158392E-2],"split_indices":[1224,194,1924,0,0,0,0],"split_type":[0,0,0,0,0,0,0],"sum_hessian":[1.6060205E1,1.204054E1,4.019666E0,1.1040479E1,1.0000612E0,2.0168223E0,2.0028439E0],"tree_param":{"num_deleted":"0","num_feature":"2048","num_nodes":"7","size_leaf_vector":"1"}},{"base_weights":[-5.6093574E-1,2.5074837E-1,-9.552825E-2,1.1393739E0,-7.4960425E-2,1.5406859E-1,1.8495386E-2],"categories":[],"categories_nodes":[],"categories_segments":[],"categories_sizes":[],"default_left":[0,0,0,0,0,0,0],"id":13,"left_children":[1,3,-1,5,-1,-1,-1],"loss_changes":[5.396306E0,6.240982E0,0E0,1.0962172E0,0E0,0E0,0E0],"parents":[2147483647,0,0,1,1,3,3],"right_children":[2,4,-1,6,-1,-1,-1],"split_conditions":[2.1059132E-1,1.9758272E-1,-9.552825E-2,5.334181E-1,-7.4960425E-2,1.5406859E-1,1.8495386E-2],"split_indices":[509,1924,0,88,0,0,0],"split_type":[0,0,0,0,0,0,0],"sum_hessian":[1.5110629E1,5.0599246E0,1.0050704E1,2.6060057E0,2.4539192E0,1.4021635E0,1.2038422E0],"tree_param":{"num_deleted":"0","num_feature":"2048","num_nodes":"7","size_leaf_vector":"1"}},{"base_weights":[-5.3932154E-1,2.444095E-1,-9.434578E-2,-7.405217E-2,1.0601349E0,1.8280232E-2,1.424599E-1],"categories":[],"categories_nodes":[],"categories_segments":[],"categories_sizes":[],"default_left":[0,0,0,0,0,0,0],"id":14,"left_children":[1,3,-1,-1,5,-1,-1],"loss_changes":[5.035355E0,5.5697265E0,0E0,0E0,9.126692E-1,0E0,0E0],"parents":[2147483647,0,0,1,1,4,4],"right_children":[2,4,-1,-1,6,-1,-1],"split_conditions":[2.1059132E-1,4.8090386E-1,-9.434578E-2,-7.405217E-2,6.17756E-1,1.8280232E-2,1.424599E-1],"split_indices":[509,1045,0,0,264,0,0],"split_type":[0,0,0,0,0,0,0],"sum_hessian":[1.4169712E1,4.9552846E0,9.214428E0,2.2865853E0,2.6686993E0,1.2239616E0,1.4447376E0],"tree_param":{"num_deleted":"0","num_feature":"2048","num_nodes":"7","size_leaf_vector":"1"}},{"base_weights":[-5.1849645E-1,2.480612E-1,-9.31861E-2,1.0297232E0,-7.2208546E-2,1.4548126E-2,1.387024E-1],"categories":[],"categories_nodes":[],"categories_segments":[],"categories_sizes":[],"default_left":[0,0,0,0,0,0,0],"id":15,"left_children":[1,3,-1,5,-1,-1,-1],"loss_changes":[4.7626286E0,5.1416936E0,0E0,9.4321585E-1,0E0,0E0,0E0],"parents":[2147483647,0,0,1,1,3,3],"right_children":[2,4,-1,6,-1,-1,-1],"split_conditions":[1.9758272E-1,3.308294E-1,-9.31861E-2,1.6107532E-1,-7.2208546E-2,1.4548126E-2,1.387024E-1],"split_indices":[1924,750,0,2015,0,0,0],"split_type":[0,0,0,0,0,0,0],"sum_hessian":[1.3300823E1,4.799802E0,8.501021E0,2.624108E0,2.175694E0,1.1601514E0,1.4639566E0],"tree_param":{"num_deleted":"0","num_feature":"2048","num_nodes":"7","size_leaf_vector":"1"}},{"base_weights":[-4.9847335E-1,-8.5528207E-1,3.7310338E-1,-9.211274E-2,-1.3543993E-2,1.0513721E-1,-6.298023E-2],"categories":[],"categories_nodes":[],"categories_segments":[],"categories_sizes":[],"default_left":[0,0,0,0,0,0,0],"id":16,"left_children":[1,3,5,-1,-1,-1,-1],"loss_changes":[4.5149302E0,3.4338236E-1,3.8016515E0,0E0,0E0,0E0,0E0],"parents":[2147483647,0,0,1,1,2,2],"right_children":[2,4,6,-1,-1,-1,-1],"split_conditions":[5.9773153E-1,7.824467E-1,1.9758272E-1,-9.211274E-2,-1.3543993E-2,1.0513721E-1,-6.298023E-2],"split_indices":[1224,242,1924,0,0,0,0],"split_type":[0,0,0,0,0,0,0],"sum_hessian":[1.249199E1,8.876711E0,3.6152787E0,7.8765993E0,1.0001115E0,2.127868E0,1.4874108E0],"tree_param":{"num_deleted":"0","num_feature":"2048","num_nodes":"7","size_leaf_vector":"1"}},{"base_weights":[-4.8071513E-1,2.6178426E-1,-9.1252655E-2,-6.8405755E-2,9.347808E-1,1.7989535E-2,1.2086123E-1],"categories":[],"categories_nodes":[],"categories_segments":[],"categories_sizes":[],"default_left":[0,0,0,0,0,0,0],"id":17,"left_children":[1,3,-1,-1,5,-1,-1],"loss_changes":[4.3417516E0,4.1293836E0,0E0,0E0,5.320897E-1,0E0,0E0],"parents":[2147483647,0,0,1,1,4,4],"right_children":[2,4,-1,-1,6,-1,-1],"split_conditions":[2.1059132E-1,4.8090386E-1,-9.1252655E-2,-6.8405755E-2,6.17756E-1,1.7989535E-2,1.2086123E-1],"split_indices":[509,1045,0,0,264,0,0],"split_type":[0,0,0,0,0,0,0],"sum_hessian":[1.1796674E1,4.4826E0,7.314074E0,1.85671E0,2.6258903E0,1.14004E0,1.4858501E0],"tree_param":{"num_deleted":"0","num_feature":"2048","num_nodes":"7","size_leaf_vector":"1"}},{"base_weights":[-4.6204725E-1,2.526139E-1,-9.001332E-2,9.049462E-1,-6.6874735E-2,1.1865806E-1,1.3324372E-2],"categories":[],"categories_nodes":[],"categories_segments":[],"categories_sizes":[],"default_left":[0,0,0,0,0,0,0],"id":18,"left_children":[1,3,-1,5,-1,-1,-1],"loss_changes":[4.0141726E0,3.8372145E0,0E0,6.185162E-1,0E0,0E0,0E0],"parents":[2147483647,0,0,1,1,3,3],"right_children":[2,4,-1,6,-1,-1,-1],"split_conditions":[2.1059132E-1,1.9758272E-1,-9.001332E-2,2.4840897E-1,-6.6874735E-2,1.1865806E-1,1.3324372E-2],"split_indices":[509,1924,0,105,0,0,0],"split_type":[0,0,0,0,0,0,0],"sum_hessian":[1.1095155E1,4.3774586E0,6.717696E0,2.5733318E0,1.8041266E0,1.4914207E0,1.0819111E0],"tree_param":{"num_deleted":"0","num_feature":"2048","num_nodes":"7","size_leaf_vector":"1"}},{"base_weights":[-4.442267E-1,-7.617119E-1,4.9916464E-1,-9.0532385E-2,1.8675184E-2,9.049581E-2,-2.151733E-2],"categories":[],"categories_nodes":[],"categories_segments":[],"categories_sizes":[],"default_left":[0,0,0,0,0,0,0],"id":19,"left_children":[1,3,5,-1,-1,-1,-1],"loss_changes":[3.807165E0,1.38906E0,1.204964E0,0E0,0E0,0E0,0E0],"parents":[2147483647,0,0,1,1,2,2],"right_children":[2,4,6,-1,-1,-1,-1],"split_conditions":[6.8546474E-1,6.528304E-1,2.6801533E-1,-9.0532385E-2,1.8675184E-2,9.049581E-2,-2.151733E-2],"split_indices":[604,1405,1640,0,0,0,0],"split_type":[0,0,0,0,0,0,0],"sum_hessian":[1.0441734E1,7.9566245E0,2.4851096E0,6.949802E0,1.0068227E0,1.4146446E0,1.0704648E0],"tree_param":{"num_deleted":"0","num_feature":"2048","num_nodes":"7","size_leaf_vector":"1"}},{"base_weights":[-4.2321673E-1,2.6934308E-1,-8.770935E-2,8.605047E-1,-6.366371E-2,1.3515524E-2,1.1021115E-1],"categories":[],"categories_nodes":[],"categories_segments":[],"categories_sizes":[],"default_left":[0,0,0,0,0,0,0],"id":20,"left_children":[1,3,-1,5,-1,-1,-1],"loss_changes":[3.6556675E0,3.264175E0,0E0,4.634297E-1,0E0,0E0,0E0],"parents":[2147483647,0,0,1,1,3,3],"right_children":[2,4,-1,6,-1,-1,-1],"split_conditions":[1.9758272E-1,3.308294E-1,-8.770935E-2,1.6107532E-1,-6.366371E-2,1.3515524E-2,1.1021115E-1],"split_indices":[1924,750,0,2015,0,0,0],"split_type":[0,0,0,0,0,0,0],"sum_hessian":[9.878232E0,4.0717764E0,5.806455E0,2.494369E0,1.5774075E0,1.0128881E0,1.4814811E0],"tree_param":{"num_deleted":"0","num_feature":"2048","num_nodes":"7","size_leaf_vector":"1"}},{"base_weights":[-4.0669683E-1,2.683095E-1,-8.662741E-2,-6.1863065E-2,8.1898063E-1,1.7227292E-2,1.0207923E-1],"categories":[],"categories_nodes":[],"categories_segments":[],"categories_sizes":[],"default_left":[0,0,0,0,0,0,0],"id":21,"left_children":[1,3,-1,-1,5,-1,-1],"loss_changes":[3.4312572E0,2.9195716E0,0E0,0E0,2.7810693E-1,0E0,0E0],"parents":[2147483647,0,0,1,1,4,4],"right_children":[2,4,-1,-1,6,-1,-1],"split_conditions":[2.1059132E-1,4.8090386E-1,-8.662741E-2,-6.1863065E-2,6.17756E-1,1.7227292E-2,1.0207923E-1],"split_indices":[509,1045,0,0,264,0,0],"split_type":[0,0,0,0,0,0,0],"sum_hessian":[9.3115635E0,3.9403448E0,5.3712187E0,1.4620605E0,2.4782844E0,1.030302E0,1.4479822E0],"tree_param":{"num_deleted":"0","num_feature":"2048","num_nodes":"7","size_leaf_vector":"1"}},{"base_weights":[-3.906699E-1,-7.829146E-1,3.7287727E-1,-8.4791E-2,-2.037418E-2,8.670005E-2,-5.330196E-2],"categories":[],"categories_nodes":[],"categories_segments":[],"categories_sizes":[],"default_left":[0,0,0,0,0,0,0],"id":22,"left_children":[1,3,5,-1,-1,-1,-1],"loss_changes":[3.223E0,8.276701E-2,2.2520463E0,0E0,0E0,0E0,0E0],"parents":[2147483647,0,0,1,1,2,2],"right_children":[2,4,6,-1,-1,-1,-1],"split_conditions":[5.9773153E-1,6.584654E-1,3.754424E-1,-8.4791E-2,-2.037418E-2,8.670005E-2,-5.330196E-2],"split_indices":[1224,1195,1875,0,0,0,0],"split_type":[0,0,0,0,0,0,0],"sum_hessian":[8.786631E0,5.7879276E0,2.9987028E0,4.7867517E0,1.0011756E0,1.968123E0,1.0305798E0],"tree_param":{"num_deleted":"0","num_feature":"2048","num_nodes":"7","size_leaf_vector":"1"}},{"base_weights":[-3.7760156E-1,2.7460882E-1,-8.434744E-2,7.8763045E-2,-5.8957662E-2],"categories":[],"categories_nodes":[],"categories_segments":[],"categories_sizes":[],"default_left":[0,0,0,0,0],"id":23,"left_children":[1,3,-1,-1,-1],"loss_changes":[3.0721655E0,2.525783E0,0E0,0E0,0E0],"parents":[2147483647,0,0,1,1],"right_children":[2,4,-1,-1,-1],"split_conditions":[1.9758272E-1,3.5834458E-1,-8.434744E-2,7.8763045E-2,-5.8957662E-2],"split_indices":[1924,319,0,0,0],"split_type":[0,0,0,0,0],"sum_hessian":[8.348582E0,3.649676E0,4.698906E0,2.345727E0,1.3039491E0],"tree_param":{"num_deleted":"0","num_feature":"2048","num_nodes":"5","size_leaf_vector":"1"}},{"base_weights":[-3.655685E-1,2.6531854E-1,-8.320991E-2,-5.6864124E-2,7.416823E-1,8.845883E-2,2.5341183E-2],"categories":[],"categories_nodes":[],"categories_segments":[],"categories_sizes":[],"default_left":[0,0,0,0,0,0,0],"id":24,"left_children":[1,3,-1,-1,5,-1,-1],"loss_changes":[2.8448591E0,2.228674E0,0E0,0E0,8.107305E-3,0E0,0E0],"parents":[2147483647,0,0,1,1,4,4],"right_children":[2,4,-1,-1,6,-1,-1],"split_conditions":[2.1059132E-1,4.8090386E-1,-8.320991E-2,-5.6864124E-2,2.6792875E-1,8.845883E-2,2.5341183E-2],"split_indices":[509,1045,0,0,1450,0,0],"split_type":[0,0,0,0,0,0,0],"sum_hessian":[7.915519E0,3.5483701E0,4.367149E0,1.2195746E0,2.3287954E0,1.1736249E0,1.1551706E0],"tree_param":{"num_deleted":"0","num_feature":"2048","num_nodes":"7","size_leaf_vector":"1"}},{"base_weights":[-3.49994E-1,2.6407227E-1,-8.18569E-2,8.485686E-2,-4.2100996E-2],"categories":[],"categories_nodes":[],"categories_segments":[],"categories_sizes":[],"default_left":[0,0,0,0,0],"id":25,"left_children":[1,3,-1,-1,-1],"loss_changes":[2.6615298E0,2.1328988E0,0E0,0E0,0E0],"parents":[2147483647,0,0,1,1],"right_children":[2,4,-1,-1,-1],"split_conditions":[1.9758272E-1,2.6087874E-1,-8.18569E-2,8.485686E-2,-4.2100996E-2],"split_indices":[1924,105,0,0,0],"split_type":[0,0,0,0,0],"sum_hessian":[7.49865E0,3.434363E0,4.0642877E0,1.7244577E0,1.709905E0],"tree_param":{"num_deleted":"0","num_feature":"2048","num_nodes":"5","size_leaf_vector":"1"}},{"base_weights":[-3.3662108E-1,2.621063E-1,-8.06695E-2,7.0504427E-1,-5.378812E-2,8.4624685E-2,2.1428978E-2],"categories":[],"categories_nodes":[],"categories_segments":[],"categories_sizes":[],"default_left":[0,0,0,0,0,0,0],"id":26,"left_children":[1,3,-1,5,-1,-1,-1],"loss_changes":[2.4929771E0,1.910039E0,0E0,4.1327357E-2,0E0,0E0,0E0],"parents":[2147483647,0,0,1,1,3,3],"right_children":[2,4,-1,6,-1,-1,-1],"split_conditions":[2.1059132E-1,1.9758272E-1,-8.06695E-2,2.2041076E-1,-5.378812E-2,8.4624685E-2,2.1428978E-2],"split_indices":[509,1924,0,160,0,0,0],"split_type":[0,0,0,0,0,0,0],"sum_hessian":[7.1064796E0,3.3201103E0,3.786369E0,2.2133186E0,1.1067919E0,1.1562555E0,1.0570631E0],"tree_param":{"num_deleted":"0","num_feature":"2048","num_nodes":"7","size_leaf_vector":"1"}},{"base_weights":[-3.2237962E-1,-7.198893E-2,3.572061E-1,7.822698E-2,-2.7480448E-2],"categories":[],"categories_nodes":[],"categories_segments":[],"categories_sizes":[],"default_left":[0,0,0,0,0],"id":27,"left_children":[1,-1,3,-1,-1],"loss_changes":[2.3489301E0,0E0,1.1622314E0,0E0,0E0],"parents":[2147483647,0,0,2,2],"right_children":[2,-1,4,-1,-1],"split_conditions":[5.9773153E-1,-7.198893E-2,3.4097525E-1,7.822698E-2,-2.7480448E-2],"split_indices":[1224,0,949,0,0],"split_type":[0,0,0,0,0],"sum_hessian":[6.7432685E0,4.217199E0,2.5260699E0,1.3681569E0,1.157913E0],"tree_param":{"num_deleted":"0","num_feature":"2048","num_nodes":"5","size_leaf_vector":"1"}},{"base_weights":[-3.0653384E-1,-6.4777905E-1,4.5382455E-2,-7.9609916E-2,1.2114405E-3],"categories":[],"categories_nodes":[],"categories_segments":[],"categories_sizes":[],"default_left":[0,0,0,0,0],"id":28,"left_children":[1,3,-1,-1,-1],"loss_changes":[2.2209704E0,5.516863E-1,0E0,0E0,0E0],"parents":[2147483647,0,0,1,1],"right_children":[2,4,-1,-1,-1],"split_conditions":[6.8546474E-1,5.774143E-1,4.5382455E-2,-7.9609916E-2,1.2114405E-3],"split_indices":[604,351,0,0,0],"split_type":[0,0,0,0,0],"sum_hessian":[6.4266872E0,4.5380797E0,1.8886074E0,3.536743E0,1.0013369E0],"tree_param":{"num_deleted":"0","num_feature":"2048","num_nodes":"5","size_leaf_vector":"1"}},{"base_weights":[-2.9175287E-1,2.7517796E-1,-7.715165E-2,-3.385557E-2,6.9031544E-2],"categories":[],"categories_nodes":[],"categories_segments":[],"categories_sizes":[],"default_left":[0,0,0,0,0],"id":29,"left_children":[1,3,-1,-1,-1],"loss_changes":[2.1630876E0,1.2590997E0,0E0,0E0,0E0],"parents":[2147483647,0,0,1,1],"right_children":[2,4,-1,-1,-1],"split_conditions":[2.1059132E-1,5.747355E-1,-7.715165E-2,-3.385557E-2,6.9031544E-2],"split_indices":[509,1224,0,0,0],"split_type":[0,0,0,0,0],"sum_hessian":[6.1721883E0,3.0245473E0,3.147641E0,1.2948024E0,1.729745E0],"tree_param":{"num_deleted":"0","num_feature":"2048","num_nodes":"5","size_leaf_vector":"1"}},{"base_weights":[-2.806474E-1,2.7703843E-1,-7.597243E-2,7.532295E-2,-3.561955E-2],"categories":[],"categories_nodes":[],"categories_segments":[],"categories_sizes":[],"default_left":[0,0,0,0,0],"id":30,"left_children":[1,3,-1,-1,-1],"loss_changes":[2.05146E0,1.4493846E0,0E0,0E0,0E0],"parents":[2147483647,0,0,1,1],"right_children":[2,4,-1,-1,-1],"split_conditions":[1.9758272E-1,2.6087874E-1,-7.597243E-2,7.532295E-2,-3.561955E-2],"split_indices":[1924,105,0,0,0],"split_type":[0,0,0,0,0],"sum_hessian":[5.890581E0,2.9168487E0,2.9737325E0,1.5567092E0,1.3601394E0],"tree_param":{"num_deleted":"0","num_feature":"2048","num_nodes":"5","size_leaf_vector":"1"}},{"base_weights":[-2.7000734E-1,2.6447958E-1,-7.445518E-2,7.132838E-2,-3.6109265E-2],"categories":[],"categories_nodes":[],"categories_segments":[],"categories_sizes":[],"default_left":[0,0,0,0,0],"id":31,"left_children":[1,3,-1,-1,-1],"loss_changes":[1.8728652E0,1.3372048E0,0E0,0E0,0E0],"parents":[2147483647,0,0,1,1],"right_children":[2,4,-1,-1,-1],"split_conditions":[1.9758272E-1,3.0571258E-1,-7.445518E-2,7.132838E-2,-3.6109265E-2],"split_indices":[1924,750,0,0,0],"split_type":[0,0,0,0,0],"sum_hessian":[5.607637E0,2.8454394E0,2.7621973E0,1.5751613E0,1.2702782E0],"tree_param":{"num_deleted":"0","num_feature":"2048","num_nodes":"5","size_leaf_vector":"1"}},{"base_weights":[-2.60112E-1,2.650897E-1,-7.329336E-2,-3.0181605E-2,6.4272255E-2],"categories":[],"categories_nodes":[],"categories_segments":[],"categories_sizes":[],"default_left":[0,0,0,0,0],"id":32,"left_children":[1,3,-1,-1,-1],"loss_changes":[1.7711276E0,9.952235E-1,0E0,0E0,0E0],"parents":[2147483647,0,0,1,1],"right_children":[2,4,-1,-1,-1],"split_conditions":[2.1059132E-1,4.9100843E-1,-7.329336E-2,-3.0181605E-2,6.4272255E-2],"split_indices":[509,1288,0,0,0],"split_type":[0,0,0,0,0],"sum_hessian":[5.349838E0,2.7426724E0,2.6071656E0,1.1768073E0,1.565865E0],"tree_param":{"num_deleted":"0","num_feature":"2048","num_nodes":"5","size_leaf_vector":"1"}},{"base_weights":[-2.5040147E-1,-7.192151E-2,2.544722E-1,6.2384237E-2,-3.1402666E-2],"categories":[],"categories_nodes":[],"categories_segments":[],"categories_sizes":[],"default_left":[0,0,0,0,0],"id":33,"left_children":[1,-1,3,-1,-1],"loss_changes":[1.6309975E0,0E0,9.695259E-1,0E0,0E0],"parents":[2147483647,0,0,2,2],"right_children":[2,-1,4,-1,-1],"split_conditions":[5.086622E-1,-7.192151E-2,3.0571258E-1,6.2384237E-2,-3.1402666E-2],"split_indices":[630,0,750,0,0],"split_type":[0,0,0,0,0],"sum_hessian":[5.117568E0,2.4334135E0,2.6841543E0,1.5680176E0,1.1161368E0],"tree_param":{"num_deleted":"0","num_feature":"2048","num_nodes":"5","size_leaf_vector":"1"}},{"base_weights":[-2.4140204E-1,2.572269E-1,-7.0717975E-2,-3.538553E-2,6.397949E-2],"categories":[],"categories_nodes":[],"categories_segments":[],"categories_sizes":[],"default_left":[0,0,0,0,0],"id":34,"left_children":[1,3,-1,-1,-1],"loss_changes":[1.5530562E0,1.0644066E0,0E0,0E0,0E0],"parents":[2147483647,0,0,1,1],"right_children":[2,4,-1,-1,-1],"split_conditions":[1.9758272E-1,1.7773138E-1,-7.0717975E-2,-3.538553E-2,6.397949E-2],"split_indices":[1924,1924,0,0,0],"split_type":[0,0,0,0,0],"sum_hessian":[4.9037642E0,2.5846095E0,2.3191545E0,1.0240036E0,1.5606059E0],"tree_param":{"num_deleted":"0","num_feature":"2048","num_nodes":"5","size_leaf_vector":"1"}},{"base_weights":[-2.3348825E-1,-6.1976563E-2,3.3400446E-2],"categories":[],"categories_nodes":[],"categories_segments":[],"categories_sizes":[],"default_left":[0,0,0],"id":35,"left_children":[1,-1,-1],"loss_changes":[1.4555743E0,0E0,0E0],"parents":[2147483647,0,0],"right_children":[2,-1,-1],"split_conditions":[5.9773153E-1,-6.1976563E-2,3.3400446E-2],"split_indices":[1224,0,0],"split_type":[0,0,0],"sum_hessian":[4.6957808E0,2.7391806E0,1.9566002E0],"tree_param":{"num_deleted":"0","num_feature":"2048","num_nodes":"3","size_leaf_vector":"1"}},{"base_weights":[-2.2152206E-1,2.6085386E-1,-6.858879E-2,-2.6306916E-2,5.8853146E-2],"categories":[],"categories_nodes":[],"categories_segments":[],"categories_sizes":[],"default_left":[0,0,0,0,0],"id":36,"left_children":[1,3,-1,-1,-1],"loss_changes":[1.4226602E0,7.467501E-1,0E0,0E0,0E0],"parents":[2147483647,0,0,1,1],"right_children":[2,4,-1,-1,-1],"split_conditions":[2.1059132E-1,4.9100843E-1,-6.858879E-2,-2.6306916E-2,5.8853146E-2],"split_indices":[509,1288,0,0,0],"split_type":[0,0,0,0,0],"sum_hessian":[4.552454E0,2.4478862E0,2.1045678E0,1.0177611E0,1.4301252E0],"tree_param":{"num_deleted":"0","num_feature":"2048","num_nodes":"5","size_leaf_vector":"1"}},{"base_weights":[-2.1362515E-1,2.5405663E-1,-6.722721E-2,6.2119324E-2,-2.9985217E-2],"categories":[],"categories_nodes":[],"categories_segments":[],"categories_sizes":[],"default_left":[0,0,0,0,0],"id":37,"left_children":[1,3,-1,-1,-1],"loss_changes":[1.3226799E0,8.74556E-1,0E0,0E0,0E0],"parents":[2147483647,0,0,1,1],"right_children":[2,4,-1,-1,-1],"split_conditions":[1.9758272E-1,3.0571258E-1,-6.722721E-2,6.2119324E-2,-2.9985217E-2],"split_indices":[1924,750,0,0,0],"split_type":[0,0,0,0,0],"sum_hessian":[4.3700705E0,2.3845851E0,1.9854854E0,1.361017E0,1.0235683E0],"tree_param":{"num_deleted":"0","num_feature":"2048","num_nodes":"5","size_leaf_vector":"1"}},{"base_weights":[-2.0636429E-1,2.4785489E-1,-6.589193E-2,-1.911461E-2,5.8885675E-2],"categories":[],"categories_nodes":[],"categories_segments":[],"categories_sizes":[],"default_left":[0,0,0,0,0],"id":38,"left_children":[1,3,-1,-1,-1],"loss_changes":[1.2303088E0,6.0914916E-1,0E0,0E0,0E0],"parents":[2147483647,0,0,1,1],"right_children":[2,4,-1,-1,-1],"split_conditions":[2.1059132E-1,6.8546474E-1,-6.589193E-2,-1.911461E-2,5.8885675E-2],"split_indices":[509,604,0,0,0],"split_type":[0,0,0,0,0],"sum_hessian":[4.190683E0,2.3172414E0,1.8734416E0,1.2051742E0,1.1120671E0],"tree_param":{"num_deleted":"0","num_feature":"2048","num_nodes":"5","size_leaf_vector":"1"}},{"base_weights":[-1.9733997E-1,-6.474547E-2,2.4724503E-1,-1.9703165E-2,5.7776745E-2],"categories":[],"categories_nodes":[],"categories_segments":[],"categories_sizes":[],"default_left":[0,0,0,0,0],"id":39,"left_children":[1,-1,3,-1,-1],"loss_changes":[1.1674149E0,0E0,5.9197694E-1,0E0,0E0],"parents":[2147483647,0,0,2,2],"right_children":[2,-1,4,-1,-1],"split_conditions":[5.086622E-1,-6.474547E-2,5.6210345E-1,-1.9703165E-2,5.7776745E-2],"split_indices":[630,0,1038,0,0],"split_type":[0,0,0,0,0],"sum_hessian":[4.0337996E0,1.7776883E0,2.2561114E0,1.1347278E0,1.1213834E0],"tree_param":{"num_deleted":"0","num_feature":"2048","num_nodes":"5","size_leaf_vector":"1"}},{"base_weights":[-1.8901809E-1,2.4870417E-1,-6.356662E-2,5.7587344E-2,-1.8848607E-2],"categories":[],"categories_nodes":[],"categories_segments":[],"categories_sizes":[],"default_left":[0,0,0,0,0],"id":40,"left_children":[1,3,-1,-1,-1],"loss_changes":[1.1134163E0,5.643432E-1,0E0,0E0,0E0],"parents":[2147483647,0,0,1,1],"right_children":[2,4,-1,-1,-1],"split_conditions":[1.9758272E-1,2.4840897E-1,-6.356662E-2,5.7587344E-2,-1.8848607E-2],"split_indices":[1924,105,0,0,0],"split_type":[0,0,0,0,0],"sum_hessian":[3.88637E0,2.186622E0,1.699748E0,1.0692437E0,1.1173784E0],"tree_param":{"num_deleted":"0","num_feature":"2048","num_nodes":"5","size_leaf_vector":"1"}},{"base_weights":[-1.8098952E-1,-5.6358058E-2,3.0534444E-2],"categories":[],"categories_nodes":[],"categories_segments":[],"categories_sizes":[],"default_left":[0,0,0],"id":41,"left_children":[1,-1,-1],"loss_changes":[1.0548383E0,0E0,0E0],"parents":[2147483647,0,0],"right_children":[2,-1,-1],"split_conditions":[5.197131E-1,-5.6358058E-2,3.0534444E-2],"split_indices":[1615,0,0],"split_type":[0,0,0],"sum_hessian":[3.7442694E0,2.006754E0,1.7375154E0],"tree_param":{"num_deleted":"0","num_feature":"2048","num_nodes":"3","size_leaf_vector":"1"}},{"base_weights":[-1.723896E-1,3.1411886E-2,-5.4834407E-2],"categories":[],"categories_nodes":[],"categories_segments":[],"categories_sizes":[],"default_left":[0,0,0],"id":42,"left_children":[1,-1,-1],"loss_changes":[1.0223912E0,0E0,0E0],"parents":[2147483647,0,0],"right_children":[2,-1,-1],"split_conditions":[3.5838765E-1,3.1411886E-2,-5.4834407E-2],"split_indices":[949,0,0],"split_type":[0,0,0],"sum_hessian":[3.6480174E0,1.6618966E0,1.9861209E0],"tree_param":{"num_deleted":"0","num_feature":"2048","num_nodes":"3","size_leaf_vector":"1"}},{"base_weights":[-1.6397248E-1,2.4938115E-1,-6.0464967E-2,-1.5890522E-2,5.428497E-2],"categories":[],"categories_nodes":[],"categories_segments":[],"categories_sizes":[],"default_left":[0,0,0,0,0],"id":43,"left_children":[1,3,-1,-1,-1],"loss_changes":[9.806105E-1,4.527473E-1,0E0,0E0,0E0],"parents":[2147483647,0,0,1,1],"right_children":[2,4,-1,-1,-1],"split_conditions":[2.1059132E-1,6.8546474E-1,-6.0464967E-2,-1.5890522E-2,5.428497E-2],"split_indices":[509,604,0,0,0],"split_type":[0,0,0,0,0],"sum_hessian":[3.5555713E0,2.0586553E0,1.4969159E0,1.0526665E0,1.0059888E0],"tree_param":{"num_deleted":"0","num_feature":"2048","num_nodes":"5","size_leaf_vector":"1"}},{"base_weights":[-1.570086E-1,2.5115205E-2,-5.9464585E-2],"categories":[],"categories_nodes":[],"categories_segments":[],"categories_sizes":[],"default_left":[0,0,0],"id":44,"left_children":[1,-1,-1],"loss_changes":[9.415784E-1,0E0,0E0],"parents":[2147483647,0,0],"right_children":[2,-1,-1],"split_conditions":[1.9758272E-1,2.5115205E-2,-5.9464585E-2],"split_indices":[1924,0,0],"split_type":[0,0,0],"sum_hessian":[3.435135E0,1.9979103E0,1.4372247E0],"tree_param":{"num_deleted":"0","num_feature":"2048","num_nodes":"3","size_leaf_vector":"1"}},{"base_weights":[-1.5240724E-1,-5.1877327E-2,3.151322E-2],"categories":[],"categories_nodes":[],"categories_segments":[],"categories_sizes":[],"default_left":[0,0,0],"id":45,"left_children":[1,-1,-1],"loss_changes":[9.0921366E-1,0E0,0E0],"parents":[2147483647,0,0],"right_children":[2,-1,-1],"split_conditions":[5.9773153E-1,-5.1877327E-2,3.151322E-2],"split_indices":[1224,0,0],"split_type":[0,0,0],"sum_hessian":[3.3536048E0,1.8188016E0,1.534803E0],"tree_param":{"num_deleted":"0","num_feature":"2048","num_nodes":"3","size_leaf_vector":"1"}},{"base_weights":[-1.4503266E-1,2.5085619E-2,-5.794237E-2],"categories":[],"categories_nodes":[],"categories_segments":[],"categories_sizes":[],"default_left":[0,0,0],"id":46,"left_children":[1,-1,-1],"loss_changes":[8.798751E-1,0E0,0E0],"parents":[2147483647,0,0],"right_children":[2,-1,-1],"split_conditions":[3.308294E-1,2.5085619E-2,-5.794237E-2],"split_indices":[750,0,0],"split_type":[0,0,0],"sum_hessian":[3.271214E0,1.9325061E0,1.3387079E0],"tree_param":{"num_deleted":"0","num_feature":"2048","num_nodes":"3","size_leaf_vector":"1"}},{"base_weights":[-1.4116725E-1,2.511313E-2,-5.7183813E-2],"categories":[],"categories_nodes":[],"categories_segments":[],"categories_sizes":[],"default_left":[0,0,0],"id":47,"left_children":[1,-1,-1],"loss_changes":[8.5275185E-1,0E0,0E0],"parents":[2147483647,0,0],"right_children":[2,-1,-1],"split_conditions":[2.692067E-1,2.511313E-2,-5.7183813E-2],"split_indices":[136,0,0],"split_type":[0,0,0],"sum_hessian":[3.19733E0,1.8913661E0,1.3059639E0],"tree_param":{"num_deleted":"0","num_feature":"2048","num_nodes":"3","size_leaf_vector":"1"}},{"base_weights":[-1.3754165E-1,-5.6419324E-2,2.4919895E-2],"categories":[],"categories_nodes":[],"categories_segments":[],"categories_sizes":[],"default_left":[0,0,0],"id":48,"left_children":[1,-1,-1],"loss_changes":[8.212708E-1,0E0,0E0],"parents":[2147483647,0,0],"right_children":[2,-1,-1],"split_conditions":[5.086622E-1,-5.6419324E-2,2.4919895E-2],"split_indices":[630,0,0],"split_type":[0,0,0],"sum_hessian":[3.1252122E0,1.2677695E0,1.8574427E0],"tree_param":{"num_deleted":"0","num_feature":"2048","num_nodes":"3","size_leaf_vector":"1"}},{"base_weights":[-1.3415176E-1,2.9889775E-2,-4.914007E-2],"categories":[],"categories_nodes":[],"categories_segments":[],"categories_sizes":[],"default_left":[0,0,0],"id":49,"left_children":[1,-1,-1],"loss_changes":[7.743216E-1,0E0,0E0],"parents":[2147483647,0,0],"right_children":[2,-1,-1],"split_conditions":[3.5838765E-1,2.9889775E-2,-4.914007E-2],"split_indices":[949,0,0],"split_type":[0,0,0],"sum_hessian":[3.0557003E0,1.4551425E0,1.6005578E0],"tree_param":{"num_deleted":"0","num_feature":"2048","num_nodes":"3","size_leaf_vector":"1"}},{"base_weights":[-1.279991E-1,2.4390243E-2,-5.4637533E-2],"categories":[],"categories_nodes":[],"categories_segments":[],"categories_sizes":[],"default_left":[0,0,0],"id":50,"left_children":[1,-1,-1],"loss_changes":[7.53713E-1,0E0,0E0],"parents":[2147483647,0,0],"right_children":[2,-1,-1],"split_conditions":[2.1059132E-1,2.4390243E-2,-5.4637533E-2],"split_indices":[509,0,0],"split_type":[0,0,0],"sum_hessian":[2.9876068E0,1.8024265E0,1.1851804E0],"tree_param":{"num_deleted":"0","num_feature":"2048","num_nodes":"3","size_leaf_vector":"1"}},{"base_weights":[-1.2520964E-1,-5.3934045E-2,2.404033E-2],"categories":[],"categories_nodes":[],"categories_segments":[],"categories_sizes":[],"default_left":[0,0,0],"id":51,"left_children":[1,-1,-1],"loss_changes":[7.237822E-1,0E0,0E0],"parents":[2147483647,0,0],"right_children":[2,-1,-1],"split_conditions":[3.5668272E-1,-5.3934045E-2,2.404033E-2],"split_indices":[169,0,0],"split_type":[0,0,0],"sum_hessian":[2.923894E0,1.1481798E0,1.7757143E0],"tree_param":{"num_deleted":"0","num_feature":"2048","num_nodes":"3","size_leaf_vector":"1"}},{"base_weights":[-1.22613795E-1,2.4028203E-2,-5.3293772E-2],"categories":[],"categories_nodes":[],"categories_segments":[],"categories_sizes":[],"default_left":[0,0,0],"id":52,"left_children":[1,-1,-1],"loss_changes":[7.032833E-1,0E0,0E0],"parents":[2147483647,0,0],"right_children":[2,-1,-1],"split_conditions":[1.9758272E-1,2.4028203E-2,-5.3293772E-2],"split_indices":[1924,0,0],"split_type":[0,0,0],"sum_hessian":[2.8630576E0,1.7392507E0,1.1238071E0],"tree_param":{"num_deleted":"0","num_feature":"2048","num_nodes":"3","size_leaf_vector":"1"}},{"base_weights":[-1.20174944E-1,2.378027E-2,-5.274405E-2],"categories":[],"categories_nodes":[],"categories_segments":[],"categories_sizes":[],"default_left":[0,0,0],"id":53,"left_children":[1,-1,-1],"loss_changes":[6.799459E-1,0E0,0E0],"parents":[2147483647,0,0],"right_children":[2,-1,-1],"split_conditions":[3.308294E-1,2.378027E-2,-5.274405E-2],"split_indices":[750,0,0],"split_type":[0,0,0],"sum_hessian":[2.8034956E0,1.7134815E0,1.0900142E0],"tree_param":{"num_deleted":"0","num_feature":"2048","num_nodes":"3","size_leaf_vector":"1"}},{"base_weights":[-1.1790786E-1,-4.1400205E-2,3.446905E-2],"categories":[],"categories_nodes":[],"categories_segments":[],"categories_sizes":[],"default_left":[0,0,0],"id":54,"left_children":[1,-1,-1],"loss_changes":[6.5590924E-1,0E0,0E0],"parents":[2147483647,0,0],"right_children":[2,-1,-1],"split_conditions":[6.8546474E-1,-4.1400205E-2,3.446905E-2],"split_indices":[604,0,0],"split_type":[0,0,0],"sum_hessian":[2.7467813E0,1.7388505E0,1.0079309E0],"tree_param":{"num_deleted":"0","num_feature":"2048","num_nodes":"3","size_leaf_vector":"1"}},{"base_weights":[-1.09967016E-1,-5.1086206E-2,2.3706406E-2],"categories":[],"categories_nodes":[],"categories_segments":[],"categories_sizes":[],"default_left":[0,0,0],"id":55,"left_children":[1,-1,-1],"loss_changes":[6.3399404E-1,0E0,0E0],"parents":[2147483647,0,0],"right_children":[2,-1,-1],"split_conditions":[5.086622E-1,-5.1086206E-2,2.3706406E-2],"split_indices":[630,0,0],"split_type":[0,0,0],"sum_hessian":[2.6865718E0,1.0274985E0,1.6590734E0],"tree_param":{"num_deleted":"0","num_feature":"2048","num_nodes":"3","size_leaf_vector":"1"}},{"base_weights":[-1.0829313E-1,2.351564E-2,-5.050863E-2],"categories":[],"categories_nodes":[],"categories_segments":[],"categories_sizes":[],"default_left":[0,0,0],"id":56,"left_children":[1,-1,-1],"loss_changes":[6.139748E-1,0E0,0E0],"parents":[2147483647,0,0],"right_children":[2,-1,-1],"split_conditions":[2.692067E-1,2.351564E-2,-5.050863E-2],"split_indices":[136,0,0],"split_type":[0,0,0],"sum_hessian":[2.6337407E0,1.6301236E0,1.0036172E0],"tree_param":{"num_deleted":"0","num_feature":"2048","num_nodes":"3","size_leaf_vector":"1"}},{"base_weights":[-1.06729135E-1,-4.389446E-2,2.8317247E-2],"categories":[],"categories_nodes":[],"categories_segments":[],"categories_sizes":[],"default_left":[0,0,0],"id":57,"left_children":[1,-1,-1],"loss_changes":[5.883456E-1,0E0,0E0],"parents":[2147483647,0,0],"right_children":[2,-1,-1],"split_conditions":[5.9773153E-1,-4.389446E-2,2.8317247E-2],"split_indices":[1224,0,0],"split_type":[0,0,0],"sum_hessian":[2.5825198E0,1.3264964E0,1.2560234E0],"tree_param":{"num_deleted":"0","num_feature":"2048","num_nodes":"3","size_leaf_vector":"1"}},{"base_weights":[-1.0215198E-1,2.8721599E-2,-4.297002E-2],"categories":[],"categories_nodes":[],"categories_segments":[],"categories_sizes":[],"default_left":[0,0,0],"id":58,"left_children":[1,-1,-1],"loss_changes":[5.7365847E-1,0E0,0E0],"parents":[2147483647,0,0],"right_children":[2,-1,-1],"split_conditions":[2.6087874E-1,2.8721599E-2,-4.297002E-2],"split_indices":[105,0,0],"split_type":[0,0,0],"sum_hessian":[2.5302887E0,1.2123086E0,1.3179799E0],"tree_param":{"num_deleted":"0","num_feature":"2048","num_nodes":"3","size_leaf_vector":"1"}},{"base_weights":[-9.76185E-2,2.8042072E-2,-4.290628E-2],"categories":[],"categories_nodes":[],"categories_segments":[],"categories_sizes":[],"default_left":[0,0,0],"id":59,"left_children":[1,-1,-1],"loss_changes":[5.563008E-1,0E0,0E0],"parents":[2147483647,0,0],"right_children":[2,-1,-1],"split_conditions":[3.5838765E-1,2.8042072E-2,-4.290628E-2],"split_indices":[949,0,0],"split_type":[0,0,0],"sum_hessian":[2.4795403E0,1.2302655E0,1.2492748E0],"tree_param":{"num_deleted":"0","num_feature":"2048","num_nodes":"3","size_leaf_vector":"1"}},{"base_weights":[-9.365215E-2,-4.257524E-2,2.7119875E-2],"categories":[],"categories_nodes":[],"categories_segments":[],"categories_sizes":[],"default_left":[0,0,0],"id":60,"left_children":[1,-1,-1],"loss_changes":[5.3127027E-1,0E0,0E0],"parents":[2147483647,0,0],"right_children":[2,-1,-1],"split_conditions":[5.197131E-1,-4.257524E-2,2.7119875E-2],"split_indices":[1615,0,0],"split_type":[0,0,0],"sum_hessian":[2.4316804E0,1.1855915E0,1.246089E0],"tree_param":{"num_deleted":"0","num_feature":"2048","num_nodes":"3","size_leaf_vector":"1"}},{"base_weights":[-9.0215154E-2,-4.3471668E-2,2.5450835E-2],"categories":[],"categories_nodes":[],"categories_segments":[],"categories_sizes":[],"default_left":[0,0,0],"id":61,"left_children":[1,-1,-1],"loss_changes":[5.1277035E-1,0E0,0E0],"parents":[2147483647,0,0],"right_children":[2,-1,-1],"split_conditions":[5.144903E-1,-4.3471668E-2,2.5450835E-2],"split_indices":[1606,0,0],"split_type":[0,0,0],"sum_hessian":[2.386148E0,1.0628866E0,1.3232613E0],"tree_param":{"num_deleted":"0","num_feature":"2048","num_nodes":"3","size_leaf_vector":"1"}},{"base_weights":[-8.7837785E-2,-4.0509295E-2,2.6985684E-2],"categories":[],"categories_nodes":[],"categories_segments":[],"categories_sizes":[],"default_left":[0,0,0],"id":62,"left_children":[1,-1,-1],"loss_changes":[4.8879656E-1,0E0,0E0],"parents":[2147483647,0,0],"right_children":[2,-1,-1],"split_conditions":[5.9773153E-1,-4.0509295E-2,2.6985684E-2],"split_indices":[1224,0,0],"split_type":[0,0,0],"sum_hessian":[2.3440073E0,1.1719991E0,1.1720082E0],"tree_param":{"num_deleted":"0","num_feature":"2048","num_nodes":"3","size_leaf_vector":"1"}},{"base_weights":[-8.437989E-2,2.7021507E-2,-4.029802E-2],"categories":[],"categories_nodes":[],"categories_segments":[],"categories_sizes":[],"default_left":[0,0,0],"id":63,"left_children":[1,-1,-1],"loss_changes":[4.8183128E-1,0E0,0E0],"parents":[2147483647,0,0],"right_children":[2,-1,-1],"split_conditions":[3.5838765E-1,2.7021507E-2,-4.029802E-2],"split_indices":[949,0,0],"split_type":[0,0,0],"sum_hessian":[2.3011117E0,1.1609114E0,1.1402003E0],"tree_param":{"num_deleted":"0","num_feature":"2048","num_nodes":"3","size_leaf_vector":"1"}},{"base_weights":[-8.117264E-2,-3.912072E-2,2.7066717E-2],"categories":[],"categories_nodes":[],"categories_segments":[],"categories_sizes":[],"default_left":[0,0,0],"id":64,"left_children":[1,-1,-1],"loss_changes":[4.6147254E-1,0E0,0E0],"parents":[2147483647,0,0],"right_children":[2,-1,-1],"split_conditions":[4.938435E-1,-3.912072E-2,2.7066717E-2],"split_indices":[1288,0,0],"split_type":[0,0,0],"sum_hessian":[2.259786E0,1.1417805E0,1.1180054E0],"tree_param":{"num_deleted":"0","num_feature":"2048","num_nodes":"3","size_leaf_vector":"1"}},{"base_weights":[-7.790026E-2,-3.9241865E-2,2.5441587E-2],"categories":[],"categories_nodes":[],"categories_segments":[],"categories_sizes":[],"default_left":[0,0,0],"id":65,"left_children":[1,-1,-1],"loss_changes":[4.3631494E-1,0E0,0E0],"parents":[2147483647,0,0],"right_children":[2,-1,-1],"split_conditions":[5.197131E-1,-3.9241865E-2,2.5441587E-2],"split_indices":[1615,0,0],"split_type":[0,0,0],"sum_hessian":[2.2192776E0,1.0472527E0,1.1720248E0],"tree_param":{"num_deleted":"0","num_feature":"2048","num_nodes":"3","size_leaf_vector":"1"}},{"base_weights":[-7.544401E-2,2.643165E-2,-3.7704565E-2],"categories":[],"categories_nodes":[],"categories_segments":[],"categories_sizes":[],"default_left":[0,0,0],"id":66,"left_children":[1,-1,-1],"loss_changes":[4.2573655E-1,0E0,0E0],"parents":[2147483647,0,0],"right_children":[2,-1,-1],"split_conditions":[2.6087874E-1,2.643165E-2,-3.7704565E-2],"split_indices":[105,0,0],"split_type":[0,0,0],"sum_hessian":[2.1820998E0,1.0842704E0,1.0978295E0],"tree_param":{"num_deleted":"0","num_feature":"2048","num_nodes":"3","size_leaf_vector":"1"}},{"base_weights":[-7.245349E-2,2.5740875E-2,-3.771414E-2],"categories":[],"categories_nodes":[],"categories_segments":[],"categories_sizes":[],"default_left":[0,0,0],"id":67,"left_children":[1,-1,-1],"loss_changes":[4.1313884E-1,0E0,0E0],"parents":[2147483647,0,0],"right_children":[2,-1,-1],"split_conditions":[3.5838765E-1,2.5740875E-2,-3.771414E-2],"split_indices":[949,0,0],"split_type":[0,0,0],"sum_hessian":[2.1447117E0,1.1043206E0,1.0403911E0],"tree_param":{"num_deleted":"0","num_feature":"2048","num_nodes":"3","size_leaf_vector":"1"}},{"base_weights":[-6.9956705E-2,-3.7274007E-2,2.593104E-2],"categories":[],"categories_nodes":[],"categories_segments":[],"categories_sizes":[],"default_left":[0,0,0],"id":68,"left_children":[1,-1,-1],"loss_changes":[4.0665638E-1,0E0,0E0],"parents":[2147483647,0,0],"right_children":[2,-1,-1],"split_conditions":[5.9773153E-1,-3.7274007E-2,2.593104E-2],"split_indices":[1224,0,0],"split_type":[0,0,0],"sum_hessian":[2.1094441E0,1.0301354E0,1.0793086E0],"tree_param":{"num_deleted":"0","num_feature":"2048","num_nodes":"3","size_leaf_vector":"1"}},{"base_weights":[-6.752348E-2,-3.5854258E-2,2.6519818E-2],"categories":[],"categories_nodes":[],"categories_segments":[],"categories_sizes":[],"default_left":[0,0,0],"id":69,"left_children":[1,-1,-1],"loss_changes":[3.927637E-1,0E0,0E0],"parents":[2147483647,0,0],"right_children":[2,-1,-1],"split_conditions":[5.031724E-1,-3.5854258E-2,2.6519818E-2],"split_indices":[743,0,0],"split_type":[0,0,0],"sum_hessian":[2.0742948E0,1.0650929E0,1.0092018E0],"tree_param":{"num_deleted":"0","num_feature":"2048","num_nodes":"3","size_leaf_vector":"1"}},{"base_weights":[-6.461312E-2,-3.5332344E-2,2.5258174E-2],"categories":[],"categories_nodes":[],"categories_segments":[],"categories_sizes":[],"default_left":[0,0,0],"id":70,"left_children":[1,-1,-1],"loss_changes":[3.6784467E-1,0E0,0E0],"parents":[2147483647,0,0],"right_children":[2,-1,-1],"split_conditions":[4.938435E-1,-3.5332344E-2,2.5258174E-2],"split_indices":[1288,0,0],"split_type":[0,0,0],"sum_hessian":[2.0422523E0,1.0095035E0,1.0327488E0],"tree_param":{"num_deleted":"0","num_feature":"2048","num_nodes":"3","size_leaf_vector":"1"}},{"base_weights":[-6.225557E-2,-3.429594E-2,2.4988897E-2],"categories":[],"categories_nodes":[],"categories_segments":[],"categories_sizes":[],"default_left":[0,0,0],"id":71,"left_children":[1,-1,-1],"loss_changes":[3.4942922E-1,0E0,0E0],"parents":[2147483647,0,0],"right_children":[2,-1,-1],"split_conditions":[5.7239646E-1,-3.429594E-2,2.4988897E-2],"split_indices":[865,0,0],"split_type":[0,0,0],"sum_hessian":[2.0098948E0,1.0062655E0,1.0036293E0],"tree_param":{"num_deleted":"0","num_feature":"2048","num_nodes":"3","size_leaf_vector":"1"}},{"base_weights":[-5.9804574E-2],"categories":[],"categories_nodes":[],"categories_segments":[],"categories_sizes":[],"default_left":[0],"id":72,"left_children":[-1],"loss_changes":[0E0],"parents":[2147483647],"right_children":[-1],"split_conditions":[-5.9804576E-3],"split_indices":[0],"split_type":[0],"sum_hessian":[1.9813917E0],"tree_param":{"num_deleted":"0","num_feature":"2048","num_nodes":"1","size_leaf_vector":"1"}},{"base_weights":[-5.58876E-2],"categories":[],"categories_nodes":[],"categories_segments":[],"categories_sizes":[],"default_left":[0],"id":73,"left_children":[-1],"loss_changes":[0E0],"parents":[2147483647],"right_children":[-1],"split_conditions":[-5.58876E-3],"split_indices":[0],"split_type":[0],"sum_hessian":[1.9784762E0],"tree_param":{"num_deleted":"0","num_feature":"2048","num_nodes":"1","size_leaf_vector":"1"}},{"base_weights":[-5.2224826E-2],"categories":[],"categories_nodes":[],"categories_segments":[],"categories_sizes":[],"default_left":[0],"id":74,"left_children":[-1],"loss_changes":[0E0],"parents":[2147483647],"right_children":[-1],"split_conditions":[-5.2224826E-3],"split_indices":[0],"split_type":[0],"sum_hessian":[1.9757959E0],"tree_param":{"num_deleted":"0","num_feature":"2048","num_nodes":"1","size_leaf_vector":"1"}},{"base_weights":[-4.879995E-2],"categories":[],"categories_nodes":[],"categories_segments":[],"categories_sizes":[],"default_left":[0],"id":75,"left_children":[-1],"loss_changes":[0E0],"parents":[2147483647],"right_children":[-1],"split_conditions":[-4.8799952E-3],"split_indices":[0],"split_type":[0],"sum_hessian":[1.9733294E0],"tree_param":{"num_deleted":"0","num_feature":"2048","num_nodes":"1","size_leaf_vector":"1"}},{"base_weights":[-4.5597948E-2],"categories":[],"categories_nodes":[],"categories_segments":[],"categories_sizes":[],"default_left":[0],"id":76,"left_children":[-1],"loss_changes":[0E0],"parents":[2147483647],"right_children":[-1],"split_conditions":[-4.559795E-3],"split_indices":[0],"split_type":[0],"sum_hessian":[1.9710578E0],"tree_param":{"num_deleted":"0","num_feature":"2048","num_nodes":"1","size_leaf_vector":"1"}},{"base_weights":[-4.260448E-2],"categories":[],"categories_nodes":[],"categories_segments":[],"categories_sizes":[],"default_left":[0],"id":77,"left_children":[-1],"loss_changes":[0E0],"parents":[2147483647],"right_children":[-1],"split_conditions":[-4.2604483E-3],"split_indices":[0],"split_type":[0],"sum_hessian":[1.968964E0],"tree_param":{"num_deleted":"0","num_feature":"2048","num_nodes":"1","size_leaf_vector":"1"}},{"base_weights":[-3.9806265E-2],"categories":[],"categories_nodes":[],"categories_segments":[],"categories_sizes":[],"default_left":[0],"id":78,"left_children":[-1],"loss_changes":[0E0],"parents":[2147483647],"right_children":[-1],"split_conditions":[-3.980627E-3],"split_indices":[0],"split_type":[0],"sum_hessian":[1.9670327E0],"tree_param":{"num_deleted":"0","num_feature":"2048","num_nodes":"1","size_leaf_vector":"1"}},{"base_weights":[-3.7190832E-2],"categories":[],"categories_nodes":[],"categories_segments":[],"categories_sizes":[],"default_left":[0],"id":79,"left_children":[-1],"loss_changes":[0E0],"parents":[2147483647],"right_children":[-1],"split_conditions":[-3.7190833E-3],"split_indices":[0],"split_type":[0],"sum_hessian":[1.9652503E0],"tree_param":{"num_deleted":"0","num_feature":"2048","num_nodes":"1","size_leaf_vector":"1"}},{"base_weights":[-3.4746397E-2],"categories":[],"categories_nodes":[],"categories_segments":[],"categories_sizes":[],"default_left":[0],"id":80,"left_children":[-1],"loss_changes":[0E0],"parents":[2147483647],"right_children":[-1],"split_conditions":[-3.4746397E-3],"split_indices":[0],"split_type":[0],"sum_hessian":[1.9636041E0],"tree_param":{"num_deleted":"0","num_feature":"2048","num_nodes":"1","size_leaf_vector":"1"}},{"base_weights":[-3.2461677E-2],"categories":[],"categories_nodes":[],"categories_segments":[],"categories_sizes":[],"default_left":[0],"id":81,"left_children":[-1],"loss_changes":[0E0],"parents":[2147483647],"right_children":[-1],"split_conditions":[-3.2461677E-3],"split_indices":[0],"split_type":[0],"sum_hessian":[1.9620825E0],"tree_param":{"num_deleted":"0","num_feature":"2048","num_nodes":"1","size_leaf_vector":"1"}},{"base_weights":[-3.0326609E-2],"categories":[],"categories_nodes":[],"categories_segments":[],"categories_sizes":[],"default_left":[0],"id":82,"left_children":[-1],"loss_changes":[0E0],"parents":[2147483647],"right_children":[-1],"split_conditions":[-3.0326608E-3],"split_indices":[0],"split_type":[0],"sum_hessian":[1.9606751E0],"tree_param":{"num_deleted":"0","num_feature":"2048","num_nodes":"1","size_leaf_vector":"1"}},{"base_weights":[-2.833134E-2],"categories":[],"categories_nodes":[],"categories_segments":[],"categories_sizes":[],"default_left":[0],"id":83,"left_children":[-1],"loss_changes":[0E0],"parents":[2147483647],"right_children":[-1],"split_conditions":[-2.833134E-3],"split_indices":[0],"split_type":[0],"sum_hessian":[1.9593731E0],"tree_param":{"num_deleted":"0","num_feature":"2048","num_nodes":"1","size_leaf_vector":"1"}},{"base_weights":[-2.6466822E-2],"categories":[],"categories_nodes":[],"categories_segments":[],"categories_sizes":[],"default_left":[0],"id":84,"left_children":[-1],"loss_changes":[0E0],"parents":[2147483647],"right_children":[-1],"split_conditions":[-2.6466823E-3],"split_indices":[0],"split_type":[0],"sum_hessian":[1.9581674E0],"tree_param":{"num_deleted":"0","num_feature":"2048","num_nodes":"1","size_leaf_vector":"1"}},{"base_weights":[-2.4724713E-2],"categories":[],"categories_nodes":[],"categories_segments":[],"categories_sizes":[],"default_left":[0],"id":85,"left_children":[-1],"loss_changes":[0E0],"parents":[2147483647],"right_children":[-1],"split_conditions":[-2.4724712E-3],"split_indices":[0],"split_type":[0],"sum_hessian":[1.957051E0],"tree_param":{"num_deleted":"0","num_feature":"2048","num_nodes":"1","size_leaf_vector":"1"}},{"base_weights":[-2.3097003E-2],"categories":[],"categories_nodes":[],"categories_segments":[],"categories_sizes":[],"default_left":[0],"id":86,"left_children":[-1],"loss_changes":[0E0],"parents":[2147483647],"right_children":[-1],"split_conditions":[-2.3097002E-3],"split_indices":[0],"split_type":[0],"sum_hessian":[1.956016E0],"tree_param":{"num_deleted":"0","num_feature":"2048","num_nodes":"1","size_leaf_vector":"1"}},{"base_weights":[-2.1575985E-2],"categories":[],"categories_nodes":[],"categories_segments":[],"categories_sizes":[],"default_left":[0],"id":87,"left_children":[-1],"loss_changes":[0E0],"parents":[2147483647],"right_children":[-1],"split_conditions":[-2.1575985E-3],"split_indices":[0],"split_type":[0],"sum_hessian":[1.9550563E0],"tree_param":{"num_deleted":"0","num_feature":"2048","num_nodes":"1","size_leaf_vector":"1"}},{"base_weights":[-2.0154856E-2],"categories":[],"categories_nodes":[],"categories_segments":[],"categories_sizes":[],"default_left":[0],"id":88,"left_children":[-1],"loss_changes":[0E0],"parents":[2147483647],"right_children":[-1],"split_conditions":[-2.0154857E-3],"split_indices":[0],"split_type":[0],"sum_hessian":[1.954166E0],"tree_param":{"num_deleted":"0","num_feature":"2048","num_nodes":"1","size_leaf_vector":"1"}},{"base_weights":[-1.8827137E-2],"categories":[],"categories_nodes":[],"categories_segments":[],"categories_sizes":[],"default_left":[0],"id":89,"left_children":[-1],"loss_changes":[0E0],"parents":[2147483647],"right_children":[-1],"split_conditions":[-1.8827136E-3],"split_indices":[0],"split_type":[0],"sum_hessian":[1.9533399E0],"tree_param":{"num_deleted":"0","num_feature":"2048","num_nodes":"1","size_leaf_vector":"1"}},{"base_weights":[-1.7586756E-2],"categories":[],"categories_nodes":[],"categories_segments":[],"categories_sizes":[],"default_left":[0],"id":90,"left_children":[-1],"loss_changes":[0E0],"parents":[2147483647],"right_children":[-1],"split_conditions":[-1.7586757E-3],"split_indices":[0],"split_type":[0],"sum_hessian":[1.9525732E0],"tree_param":{"num_deleted":"0","num_feature":"2048","num_nodes":"1","size_leaf_vector":"1"}},{"base_weights":[-1.642792E-2],"categories":[],"categories_nodes":[],"categories_segments":[],"categories_sizes":[],"default_left":[0],"id":91,"left_children":[-1],"loss_changes":[0E0],"parents":[2147483647],"right_children":[-1],"split_conditions":[-1.6427919E-3],"split_indices":[0],"split_type":[0],"sum_hessian":[1.951861E0],"tree_param":{"num_deleted":"0","num_feature":"2048","num_nodes":"1","size_leaf_vector":"1"}},{"base_weights":[-1.5345261E-2],"categories":[],"categories_nodes":[],"categories_segments":[],"categories_sizes":[],"default_left":[0],"id":92,"left_children":[-1],"loss_changes":[0E0],"parents":[2147483647],"right_children":[-1],"split_conditions":[-1.5345261E-3],"split_indices":[0],"split_type":[0],"sum_hessian":[1.9511995E0],"tree_param":{"num_deleted":"0","num_feature":"2048","num_nodes":"1","size_leaf_vector":"1"}},{"base_weights":[-1.4333933E-2],"categories":[],"categories_nodes":[],"categories_segments":[],"categories_sizes":[],"default_left":[0],"id":93,"left_children":[-1],"loss_changes":[0E0],"parents":[2147483647],"right_children":[-1],"split_conditions":[-1.4333933E-3],"split_indices":[0],"split_type":[0],"sum_hessian":[1.9505845E0],"tree_param":{"num_deleted":"0","num_feature":"2048","num_nodes":"1","size_leaf_vector":"1"}},{"base_weights":[-1.3389066E-2],"categories":[],"categories_nodes":[],"categories_segments":[],"categories_sizes":[],"default_left":[0],"id":94,"left_children":[-1],"loss_changes":[0E0],"parents":[2147483647],"right_children":[-1],"split_conditions":[-1.3389066E-3],"split_indices":[0],"split_type":[0],"sum_hessian":[1.9500129E0],"tree_param":{"num_deleted":"0","num_feature":"2048","num_nodes":"1","size_leaf_vector":"1"}},{"base_weights":[-1.2506386E-2],"categories":[],"categories_nodes":[],"categories_segments":[],"categories_sizes":[],"default_left":[0],"id":95,"left_children":[-1],"loss_changes":[0E0],"parents":[2147483647],"right_children":[-1],"split_conditions":[-1.2506386E-3],"split_indices":[0],"split_type":[0],"sum_hessian":[1.9494811E0],"tree_param":{"num_deleted":"0","num_feature":"2048","num_nodes":"1","size_leaf_vector":"1"}},{"base_weights":[-1.1681776E-2],"categories":[],"categories_nodes":[],"categories_segments":[],"categories_sizes":[],"default_left":[0],"id":96,"left_children":[-1],"loss_changes":[0E0],"parents":[2147483647],"right_children":[-1],"split_conditions":[-1.1681776E-3],"split_indices":[0],"split_type":[0],"sum_hessian":[1.9489865E0],"tree_param":{"num_deleted":"0","num_feature":"2048","num_nodes":"1","size_leaf_vector":"1"}},{"base_weights":[-1.0911512E-2],"categories":[],"categories_nodes":[],"categories_segments":[],"categories_sizes":[],"default_left":[0],"id":97,"left_children":[-1],"loss_changes":[0E0],"parents":[2147483647],"right_children":[-1],"split_conditions":[-1.0911513E-3],"split_indices":[0],"split_type":[0],"sum_hessian":[1.9485264E0],"tree_param":{"num_deleted":"0","num_feature":"2048","num_nodes":"1","size_leaf_vector":"1"}},{"base_weights":[-1.0192013E-2],"categories":[],"categories_nodes":[],"categories_segments":[],"categories_sizes":[],"default_left":[0],"id":98,"left_children":[-1],"loss_changes":[0E0],"parents":[2147483647],"right_children":[-1],"split_conditions":[-1.0192014E-3],"split_indices":[0],"split_type":[0],"sum_hessian":[1.9480983E0],"tree_param":{"num_deleted":"0","num_feature":"2048","num_nodes":"1","size_leaf_vector":"1"}},{"base_weights":[-9.51992E-3],"categories":[],"categories_nodes":[],"categories_segments":[],"categories_sizes":[],"default_left":[0],"id":99,"left_children":[-1],"loss_changes":[0E0],"parents":[2147483647],"right_children":[-1],"split_conditions":[-9.51992E-4],"split_indices":[0],"split_type":[0],"sum_hessian":[1.9477E0],"tree_param":{"num_deleted":"0","num_feature":"2048","num_nodes":"1","size_leaf_vector":"1"}}]},"name":"gbtree"},"learner_model_param":{"base_score":"1.3010848E-1","boost_from_average":"1","num_class":"0","num_feature":"2048","num_target":"1"},"objective":{"name":"binary:logistic","reg_loss_param":{"scale_pos_weight":"1"}}},"version":[2,0,1]}