{"learner":{"attributes":{"scikit_learn":"{\"_estimator_type\": \"classifier\"}"},"feature_names":[],"feature_types":[],"gradient_booster":{"model":{"gbtree_model_param":{"num_parallel_tree":"1","num_trees":"100"},"iteration_indptr":[0,1,2,3,4,5,6,7,8,9,10,11,12,13,14,15,16,17,18,19,20,21,22,23,24,25,26,27,28,29,30,31,32,33,34,35,36,37,38,39,40,41,42,43,44,45,46,47,48,49,50,51,52,53,54,55,56,57,58,59,60,61,62,63,64,65,66,67,68,69,70,71,72,73,74,75,76,77,78,79,80,81,82,83,84,85,86,87,88,89,90,91,92,93,94,95,96,97,98,99,100],"tree_info":[0,0,0,0,0,0,0,0,0,0,0,0,0,0,0,0,0,0,0,0,0,0,0,0,0,0,0,0,0,0,0,0,0,0,0,0,0,0,0,0,0,0,0,0,0,0,0,0,0,0,0,0,0,0,0,0,0,0,0,0,0,0,0,0,0,0,0,0,0,0,0,0,0,0,0,0,0,0,0,0,0,0,0,0,0,0,0,0,0,0,0,0,0,0,0,0,0,0,0,0],"trees":[{"base_weights":[-7.356658E-1,-8.9436007E-1,1.2120755E0,-1.0469865E0,9.975768E-1,-6.670999E-2,2.7311692E-1,-1.131014E-1,7.132521E-2,2.253971E-1,-6.397488E-2],"categories":[],"categories_nodes":[],"categories_segments":[],"categories_sizes":[],"default_left":[0,0,0,0,0,0,0,0,0,0,0],"id":0,"left_children":[1,3,5,7,9,-1,-1,-1,-1,-1,-1],"loss_changes":[1.3433443E1,1.1878366E1,1.1626485E1,6.0139503E0,8.256941E0,0E0,0E0,0E0,0E0,0E0,0E0],"parents":[2147483647,0,0,1,1,2,2,3,3,4,4],"right_children":[2,4,6,8,10,-1,-1,-1,-1,-1,-1],"split_conditions":[8.197472E-1,1.0465723E0,7.736985E-1,1.0547153E0,5.989557E-1,-6.670999E-2,2.7311692E-1,-1.131014E-1,7.132521E-2,2.253971E-1,-6.397488E-2],"split_indices":[168,1794,1784,1325,228,0,0,0,0,0,0],"split_type":[0,0,0,0,0,0,0,0,0,0,0],"sum_hessian":[3.8953392E1,3.6518803E1,2.434587E0,3.4205944E1,2.3128576E0,1.3390228E0,1.0955641E0,3.298865E1,1.2172935E0,1.0955641E0,1.2172935E0],"tree_param":{"num_deleted":"0","num_feature":"2048","num_nodes":"11","size_leaf_vector":"1"}},{"base_weights":[-6.9862205E-1,-8.412652E-1,1.3291709E-1,-9.4423175E-1,1.0692208E-1,-1.0264647E0,8.11375E-2,-1.0836924E0,3.6152255E-2,-1.11317836E-1,-1.01557905E-2],"categories":[],"categories_nodes":[],"categories_segments":[],"categories_sizes":[],"default_left":[0,0,0,0,0,0,0,0,0,0,0],"id":1,"left_children":[1,3,-1,5,-1,7,-1,9,-1,-1,-1],"loss_changes":[1.2020735E1,8.057457E0,0E0,5.8173885E0,0E0,3.0466194E0,0E0,8.237686E-1,0E0,0E0,0E0],"parents":[2147483647,0,0,1,1,3,3,5,5,7,7],"right_children":[2,4,-1,6,-1,8,-1,10,-1,-1,-1],"split_conditions":[8.231431E-1,1.1167005E0,1.3291709E-1,1.1529646E0,1.0692208E-1,9.6912503E-1,8.11375E-2,9.842773E-1,3.6152255E-2,-1.11317836E-1,-1.01557905E-2],"split_indices":[1454,1325,0,1770,0,919,0,99,0,0,0],"split_type":[0,0,0,0,0,0,0,0,0,0,0],"sum_hessian":[3.6692383E1,3.4827602E1,1.8647815E0,3.3526443E1,1.3011597E0,3.242306E1,1.1033802E0,3.1349724E1,1.0733387E0,3.0306427E1,1.0432972E0],"tree_param":{"num_deleted":"0","num_feature":"2048","num_nodes":"11","size_leaf_vector":"1"}},{"base_weights":[-6.6312766E-1,-8.342677E-1,1.1167082E0,-1.0027493E0,9.3613374E-1,-6.2199958E-2,2.2622466E-1,-1.09639585E-1,5.9914917E-2,-6.470679E-2,2.1894248E-1],"categories":[],"categories_nodes":[],"categories_segments":[],"categories_sizes":[],"default_left":[0,0,0,0,0,0,0,0,0,0,0],"id":2,"left_children":[1,3,5,7,9,-1,-1,-1,-1,-1,-1],"loss_changes":[1.17814455E1,1.0802099E1,8.482208E0,5.2588215E0,8.144425E0,0E0,0E0,0E0,0E0,0E0,0E0],"parents":[2147483647,0,0,1,1,2,2,3,3,4,4],"right_children":[2,4,6,8,10,-1,-1,-1,-1,-1,-1],"split_conditions":[8.197472E-1,1.0465723E0,7.736985E-1,1.0547153E0,5.1023495E-1,-6.2199958E-2,2.2622466E-1,-1.09639585E-1,5.9914917E-2,-6.470679E-2,2.1894248E-1],"split_indices":[168,1794,1784,1325,1273,0,0,0,0,0,0],"split_type":[0,0,0,0,0,0,0,0,0,0,0],"sum_hessian":[3.4619736E1,3.206755E1,2.5521865E0,2.9676926E1,2.3906245E0,1.1951709E0,1.3570156E0,2.8335978E1,1.3409482E0,1.2700092E0,1.1206152E0],"tree_param":{"num_deleted":"0","num_feature":"2048","num_nodes":"11","size_leaf_vector":"1"}},{"base_weights":[-6.2955195E-1,-9.326322E-1,3.7482134E-1,6.2155187E-2,-1.0400072E0,-7.0138514E-1,1.4153497E0,-1.07813455E-1,-6.7461254E-3,-8.408879E-2,-8.226838E-3,-3.440274E-2,2.5185353E-1],"categories":[],"categories_nodes":[],"categories_segments":[],"categories_sizes":[],"default_left":[0,0,0,0,0,0,0,0,0,0,0,0,0],"id":3,"left_children":[1,3,5,-1,7,9,11,-1,-1,-1,-1,-1,-1],"loss_changes":[1.058213E1,5.0035553E0,1.0517444E1,0E0,8.4672165E-1,3.4968686E-1,9.903014E0,0E0,0E0,0E0,0E0,0E0,0E0],"parents":[2147483647,0,0,1,1,2,2,4,4,5,5,6,6],"right_children":[2,4,6,-1,8,10,12,-1,-1,-1,-1,-1,-1],"split_conditions":[5.2092326E-1,1.2942156E-1,3.6118275E-1,6.2155187E-2,1.126423E0,5.9904677E-1,3.0205724E-1,-1.07813455E-1,-6.7461254E-3,-8.408879E-2,-8.226838E-3,-3.440274E-2,2.5185353E-1],"split_indices":[1367,170,1477,0,202,454,2027,0,0,0,0,0,0],"split_type":[0,0,0,0,0,0,0,0,0,0,0,0,0],"sum_hessian":[3.2614876E1,2.5109306E1,7.505571E0,1.313186E0,2.379612E1,3.8497515E0,3.6558197E0,2.2793947E1,1.0021719E0,2.8494847E0,1.0002667E0,1.6740962E0,1.9817233E0],"tree_param":{"num_deleted":"0","num_feature":"2048","num_nodes":"13","size_leaf_vector":"1"}},{"base_weights":[-5.9981185E-1,-9.080813E-1,3.4384054E-1,-1.0624155E-1,2.8294587E-1,1.3113719E0,-6.965733E-1,-6.786969E-2,1.3545077E-1,-6.1614167E-2,2.1459869E-1,-8.384282E-2,-8.050631E-3],"categories":[],"categories_nodes":[],"categories_segments":[],"categories_sizes":[],"default_left":[0,0,0,0,0,0,0,0,0,0,0,0,0],"id":4,"left_children":[1,3,5,-1,7,9,11,-1,-1,-1,-1,-1,-1],"loss_changes":[9.586103E0,4.7681923E0,9.545736E0,0E0,4.606091E0,9.028428E0,3.5068583E-1,0E0,0E0,0E0,0E0,0E0,0E0],"parents":[2147483647,0,0,1,1,2,2,4,4,5,5,6,6],"right_children":[2,4,6,-1,8,10,12,-1,-1,-1,-1,-1,-1],"split_conditions":[5.2092326E-1,1.0010457E0,2.9870483E-1,-1.0624155E-1,6.858068E-1,4.8011842E-1,5.329598E-1,-6.786969E-2,1.3545077E-1,-6.1614167E-2,2.1459869E-1,-8.384282E-2,-8.050631E-3],"split_indices":[1367,1937,1568,0,576,1257,445,0,0,0,0,0,0],"split_type":[0,0,0,0,0,0,0,0,0,0,0,0,0],"sum_hessian":[3.088001E1,2.3304625E1,7.575387E0,2.0726812E1,2.5778117E0,3.7902324E0,3.7851543E0,1.5518111E0,1.0260006E0,1.2243663E0,2.565866E0,2.7833312E0,1.0018232E0],"tree_param":{"num_deleted":"0","num_feature":"2048","num_nodes":"13","size_leaf_vector":"1"}},{"base_weights":[-5.729272E-1,-7.542709E-1,9.00322E-1,-9.4461215E-1,8.218635E-1,1.6694577E-1,-5.8011174E-2,-1.0555448E-1,5.5244554E-2,-5.9314407E-2,1.7227453E-1],"categories":[],"categories_nodes":[],"categories_segments":[],"categories_sizes":[],"default_left":[0,0,0,0,0,0,0,0,0,0,0],"id":5,"left_children":[1,3,5,7,9,-1,-1,-1,-1,-1,-1],"loss_changes":[8.759606E0,9.0188465E0,5.2620835E0,4.731539E0,5.477356E0,0E0,0E0,0E0,0E0,0E0,0E0],"parents":[2147483647,0,0,1,1,2,2,3,3,4,4],"right_children":[2,4,6,8,10,-1,-1,-1,-1,-1,-1],"split_conditions":[8.197472E-1,1.0465723E0,5.348592E-1,1.0547153E0,8.180751E-1,1.6694577E-1,-5.8011174E-2,-1.0555448E-1,5.5244554E-2,-5.9314407E-2,1.7227453E-1],"split_indices":[168,1794,1704,1325,1795,0,0,0,0,0,0],"split_type":[0,0,0,0,0,0,0,0,0,0,0],"sum_hessian":[2.9245485E1,2.6474709E1,2.7707767E0,2.3979511E1,2.495198E0,1.7394118E0,1.0313649E0,2.259978E1,1.3797319E0,1.103514E0,1.391684E0],"tree_param":{"num_deleted":"0","num_feature":"2048","num_nodes":"11","size_leaf_vector":"1"}},{"base_weights":[-5.444366E-1,-8.6406654E-1,3.19969E-1,-1.0352134E-1,2.9344034E-1,1.1126733E0,-6.530304E-1,1.3337477E-1,-6.616325E-2,-5.9462976E-2,1.773272E-1,-7.9588406E-2,-8.239272E-3],"categories":[],"categories_nodes":[],"categories_segments":[],"categories_sizes":[],"default_left":[0,0,0,0,0,0,0,0,0,0,0,0,0],"id":6,"left_children":[1,3,5,-1,7,9,11,-1,-1,-1,-1,-1,-1],"loss_changes":[8.167323E0,4.4878206E0,7.2360272E0,0E0,4.3596673E0,6.716756E0,2.946552E-1,0E0,0E0,0E0,0E0,0E0,0E0],"parents":[2147483647,0,0,1,1,2,2,4,4,5,5,6,6],"right_children":[2,4,6,-1,8,10,12,-1,-1,-1,-1,-1,-1],"split_conditions":[5.2092326E-1,1.0010457E0,2.9870483E-1,-1.0352134E-1,6.235243E-1,3.3316386E-1,4.7553882E-1,1.3337477E-1,-6.616325E-2,-5.9462976E-2,1.773272E-1,-7.9588406E-2,-8.239272E-3],"split_indices":[1367,1937,1568,0,1160,1211,128,0,0,0,0,0,0],"split_type":[0,0,0,0,0,0,0,0,0,0,0,0,0],"sum_hessian":[2.7560028E1,2.0120495E1,7.439533E0,1.7620771E1,2.4997225E0,4.0204864E0,3.4190469E0,1.0066965E0,1.493026E0,1.1494975E0,2.8709888E0,2.418797E0,1.0002497E0],"tree_param":{"num_deleted":"0","num_feature":"2048","num_nodes":"13","size_leaf_vector":"1"}},{"base_weights":[-5.2098805E-1,-7.890924E-1,4.5014256E-1,-9.867227E-1,6.959692E-1,1.2691402E0,-5.589133E-1,-1.03082836E-1,-8.628622E-3,-1.7255602E-2,1.2673955E-1,1.8483429E-1,-1.4940086E-2,-6.880262E-2,-1.1207928E-2],"categories":[],"categories_nodes":[],"categories_segments":[],"categories_sizes":[],"default_left":[0,0,0,0,0,0,0,0,0,0,0,0,0,0,0],"id":7,"left_children":[1,3,5,7,9,11,13,-1,-1,-1,-1,-1,-1,-1,-1],"loss_changes":[7.4065886E0,7.0222864E0,6.0777454E0,6.8409157E-1,1.7680066E0,3.4734406E0,1.3084209E-1,0E0,0E0,0E0,0E0,0E0,0E0,0E0,0E0],"parents":[2147483647,0,0,1,1,2,2,3,3,4,4,5,5,6,6],"right_children":[2,4,6,8,10,12,14,-1,-1,-1,-1,-1,-1,-1,-1],"split_conditions":[9.204621E-1,6.92249E-1,4.1104388E-1,1.1910774E0,6.3819855E-1,4.2858678E-1,3.64494E-1,-1.03082836E-1,-8.628622E-3,-1.7255602E-2,1.2673955E-1,1.8483429E-1,-1.4940086E-2,-6.880262E-2,-1.1207928E-2],"split_indices":[473,57,468,1628,301,677,736,0,0,0,0,0,0,0,0],"split_type":[0,0,0,0,0,0,0,0,0,0,0,0,0,0,0],"sum_hessian":[2.6082756E1,2.0586735E1,5.4960213E0,1.8465E1,2.1217332E0,2.8914404E0,2.6045809E0,1.7464725E1,1.0002759E0,1.1189849E0,1.0027483E0,1.8379862E0,1.0534543E0,1.6019242E0,1.0026568E0],"tree_param":{"num_deleted":"0","num_feature":"2048","num_nodes":"15","size_leaf_vector":"1"}},{"base_weights":[-4.9504468E-1,-8.232095E-1,3.0255333E-1,-1.01088956E-1,2.993732E-1,-6.2493527E-1,9.983391E-1,1.2816566E-1,-6.391995E-2,-1.0681457E-2,-7.5642675E-2,-2.8268775E-2,1.5789829E-1],"categories":[],"categories_nodes":[],"categories_segments":[],"categories_sizes":[],"default_left":[0,0,0,0,0,0,0,0,0,0,0,0,0],"id":8,"left_children":[1,3,5,-1,7,9,11,-1,-1,-1,-1,-1,-1],"loss_changes":[6.965789E0,4.1897497E0,5.923166E0,0E0,3.9669685E0,2.0089972E-1,4.2226467E0,0E0,0E0,0E0,0E0,0E0,0E0],"parents":[2147483647,0,0,1,1,2,2,4,4,5,5,6,6],"right_children":[2,4,6,-1,8,10,12,-1,-1,-1,-1,-1,-1],"split_conditions":[5.2092326E-1,1.0010457E0,3.6118275E-1,-1.01088956E-1,6.692931E-1,3.888158E-1,3.0205724E-1,1.2816566E-1,-6.391995E-2,-1.0681457E-2,-7.5642675E-2,-2.8268775E-2,1.5789829E-1],"split_indices":[1367,1937,1477,0,1497,1793,2027,0,0,0,0,0,0],"split_type":[0,0,0,0,0,0,0,0,0,0,0,0,0],"sum_hessian":[2.466146E1,1.7449785E1,7.2116756E0,1.503555E1,2.4142346E0,3.134795E0,4.076881E0,1.0010384E0,1.4131962E0,1.0013741E0,2.1334207E0,1.431602E0,2.645279E0],"tree_param":{"num_deleted":"0","num_feature":"2048","num_nodes":"13","size_leaf_vector":"1"}},{"base_weights":[-4.7322446E-1,-8.1291234E-1,2.7053276E-1,-1.0064224E-1,6.6730455E-2,1.2290256E0,-4.2888853E-1,1.6366887E-1,1.6599271E-2,-8.467292E-2,7.414525E-2],"categories":[],"categories_nodes":[],"categories_segments":[],"categories_sizes":[],"default_left":[0,0,0,0,0,0,0,0,0,0,0],"id":9,"left_children":[1,3,5,-1,-1,7,9,-1,-1,-1,-1],"loss_changes":[6.3650136E0,5.5257845E0,6.1424336E0,0E0,0E0,1.3717675E0,3.3584025E0,0E0,0E0,0E0,0E0],"parents":[2147483647,0,0,1,1,2,2,5,5,6,6],"right_children":[2,4,6,-1,-1,8,10,-1,-1,-1,-1],"split_conditions":[7.893112E-1,8.906251E-1,3.391027E-1,-1.0064224E-1,6.6730455E-2,3.2431E-1,8.268296E-1,1.6366887E-1,1.6599271E-2,-8.467292E-2,7.414525E-2],"split_indices":[839,1327,1431,0,0,215,271,0,0,0,0],"split_type":[0,0,0,0,0,0,0,0,0,0,0],"sum_hessian":[2.3323013E1,1.594682E1,7.376193E0,1.4386186E1,1.5606346E0,2.7923412E0,4.583852E0,1.6282732E0,1.1640681E0,3.5816317E0,1.0022202E0],"tree_param":{"num_deleted":"0","num_feature":"2048","num_nodes":"11","size_leaf_vector":"1"}},{"base_weights":[-4.4778857E-1,-7.8451437E-1,2.9362428E-1,-9.876008E-2,2.9569405E-1,9.0706867E-1,-5.8442163E-1,1.1915051E-1,-6.1139937E-2,1.46885E-1,-3.1391144E-2,-1.0577299E-2,-7.1543045E-2],"categories":[],"categories_nodes":[],"categories_segments":[],"categories_sizes":[],"default_left":[0,0,0,0,0,0,0,0,0,0,0,0,0],"id":10,"left_children":[1,3,5,-1,7,9,11,-1,-1,-1,-1,-1,-1],"loss_changes":[5.9740186E0,3.8225508E0,4.792371E0,0E0,3.4233732E0,3.925221E0,1.6655183E-1,0E0,0E0,0E0,0E0,0E0,0E0],"parents":[2147483647,0,0,1,1,2,2,4,4,5,5,6,6],"right_children":[2,4,6,-1,8,10,12,-1,-1,-1,-1,-1,-1],"split_conditions":[5.2092326E-1,1.0010457E0,2.9870483E-1,-9.876008E-2,6.1398625E-1,2.5693628E-1,3.6302403E-1,1.1915051E-1,-6.1139937E-2,1.46885E-1,-3.1391144E-2,-1.0577299E-2,-7.1543045E-2],"split_indices":[1367,1937,1568,0,1497,788,1113,0,0,0,0,0,0],"split_type":[0,0,0,0,0,0,0,0,0,0,0,0,0],"sum_hessian":[2.2006615E1,1.5093499E1,6.9131155E0,1.2777059E1,2.3164413E0,4.050318E0,2.8627975E0,1.0077167E0,1.3087245E0,2.6349506E0,1.4153674E0,1.0035694E0,1.8592281E0],"tree_param":{"num_deleted":"0","num_feature":"2048","num_nodes":"13","size_leaf_vector":"1"}},{"base_weights":[-4.2850438E-1,-7.77651E-1,2.777234E-1,-9.841664E-2,5.9185643E-2,9.211103E-1,-5.9443706E-1,-2.1091865E-2,1.3443075E-1,-7.207043E-2,-1.0893217E-2],"categories":[],"categories_nodes":[],"categories_segments":[],"categories_sizes":[],"default_left":[0,0,0,0,0,0,0,0,0,0,0],"id":11,"left_children":[1,3,5,-1,-1,7,9,-1,-1,-1,-1],"loss_changes":[5.5933766E0,4.784299E0,5.009476E0,0E0,0E0,2.663652E0,1.6568911E-1,0E0,0E0,0E0,0E0],"parents":[2147483647,0,0,1,1,2,2,5,5,6,6],"right_children":[2,4,6,-1,-1,8,10,-1,-1,-1,-1],"split_conditions":[7.893112E-1,8.906251E-1,4.5579478E-1,-9.841664E-2,5.9185643E-2,2.8294545E-1,5.7587546E-1,-2.1091865E-2,1.3443075E-1,-7.207043E-2,-1.0893217E-2],"split_indices":[839,1327,1297,0,0,1856,1941,0,0,0,0],"split_type":[0,0,0,0,0,0,0,0,0,0,0],"sum_hessian":[2.0808218E1,1.3856617E1,6.951601E0,1.2285406E1,1.5712104E0,3.9681783E0,2.983423E0,1.2162867E0,2.7518916E0,1.983201E0,1.000222E0],"tree_param":{"num_deleted":"0","num_feature":"2048","num_nodes":"11","size_leaf_vector":"1"}},{"base_weights":[-4.0916285E-1,-7.054792E-1,3.8336357E-1,-8.810555E-1,5.641654E-2,1.0456322E0,-7.060642E-2,-9.793549E-2,1.9316403E-2,5.7718493E-3,1.4542875E-1],"categories":[],"categories_nodes":[],"categories_segments":[],"categories_sizes":[],"default_left":[0,0,0,0,0,0,0,0,0,0,0],"id":12,"left_children":[1,3,5,7,-1,9,-1,-1,-1,-1,-1],"loss_changes":[5.1372385E0,3.9381003E0,5.274827E0,1.6623659E0,0E0,1.6575189E0,0E0,0E0,0E0,0E0,0E0],"parents":[2147483647,0,0,1,1,2,2,3,3,5,5],"right_children":[2,4,6,8,-1,10,-1,-1,-1,-1,-1],"split_conditions":[7.5652677E-1,8.231431E-1,3.8840678E-1,7.933723E-1,5.641654E-2,5.801005E-1,-7.060642E-2,-9.793549E-2,1.9316403E-2,5.7718493E-3,1.4542875E-1],"split_indices":[860,1454,2044,721,0,323,0,0,0,0,0],"split_type":[0,0,0,0,0,0,0,0,0,0,0],"sum_hessian":[1.9723953E1,1.4436245E1,5.2877083E0,1.2951301E1,1.4849443E0,3.3135717E0,1.9741367E0,1.1946421E1,1.0048802E0,1.3035387E0,2.0100331E0],"tree_param":{"num_deleted":"0","num_feature":"2048","num_nodes":"11","size_leaf_vector":"1"}},{"base_weights":[-3.8791075E-1,-7.329568E-1,2.908666E-1,-9.566601E-2,2.9100278E-1,-5.449649E-1,8.1289476E-1,1.0260596E-1,-5.601421E-2,-1.6393445E-2,-6.34745E-2,-2.4753349E-2,1.2283641E-1],"categories":[],"categories_nodes":[],"categories_segments":[],"categories_sizes":[],"default_left":[0,0,0,0,0,0,0,0,0,0,0,0,0],"id":13,"left_children":[1,3,5,-1,7,9,11,-1,-1,-1,-1,-1,-1],"loss_changes":[4.819851E0,3.3304944E0,3.6476862E0,0E0,2.5491197E0,1.3017297E-2,2.4727342E0,0E0,0E0,0E0,0E0,0E0,0E0],"parents":[2147483647,0,0,1,1,2,2,4,4,5,5,6,6],"right_children":[2,4,6,-1,8,10,12,-1,-1,-1,-1,-1,-1],"split_conditions":[5.2092326E-1,1.0010457E0,3.6118275E-1,-9.566601E-2,1.5527138E-1,4.4793585E-1,3.0205724E-1,1.0260596E-1,-5.601421E-2,-1.6393445E-2,-6.34745E-2,-2.4753349E-2,1.2283641E-1],"split_indices":[1367,1937,1477,0,2047,1471,2027,0,0,0,0,0,0],"split_type":[0,0,0,0,0,0,0,0,0,0,0,0,0],"sum_hessian":[1.8668968E1,1.2324287E1,6.3446813E0,1.0168509E1,2.1557784E0,2.4223163E0,3.9223652E0,1.0465031E0,1.1092753E0,1.0008063E0,1.4215099E0,1.2179425E0,2.7044227E0],"tree_param":{"num_deleted":"0","num_feature":"2048","num_nodes":"13","size_leaf_vector":"1"}},{"base_weights":[-3.7173364E-1,-7.273693E-1,2.726289E-1,-9.530086E-2,5.160293E-2,8.148238E-1,-5.394418E-1,1.1943557E-1,-2.2096895E-2,-6.535237E-2,-1.242339E-2],"categories":[],"categories_nodes":[],"categories_segments":[],"categories_sizes":[],"default_left":[0,0,0,0,0,0,0,0,0,0,0],"id":14,"left_children":[1,3,5,-1,-1,7,9,-1,-1,-1,-1],"loss_changes":[4.4789877E0,3.9452906E0,3.6848612E0,0E0,0E0,2.1579785E0,8.708882E-2,0E0,0E0,0E0,0E0],"parents":[2147483647,0,0,1,1,2,2,5,5,6,6],"right_children":[2,4,6,-1,-1,8,10,-1,-1,-1,-1],"split_conditions":[7.893112E-1,8.906251E-1,3.771025E-1,-9.530086E-2,5.160293E-2,5.4892504E-1,3.6964518E-1,1.1943557E-1,-2.2096895E-2,-6.535237E-2,-1.242339E-2],"split_indices":[839,1327,1750,0,0,1093,116,0,0,0,0],"split_type":[0,0,0,0,0,0,0,0,0,0,0],"sum_hessian":[1.7680037E1,1.1309367E1,6.370671E0,9.76996E0,1.5394068E0,3.8180707E0,2.5526E0,2.682188E0,1.1358825E0,1.5521628E0,1.0004373E0],"tree_param":{"num_deleted":"0","num_feature":"2048","num_nodes":"11","size_leaf_vector":"1"}},{"base_weights":[-3.5527247E-1,-6.585733E-1,3.7563258E-1,-8.433758E-1,4.8966326E-2,9.2156607E-1,-6.502034E-2,-9.49231E-2,1.3078316E-2,6.4747627E-3,1.2364037E-1],"categories":[],"categories_nodes":[],"categories_segments":[],"categories_sizes":[],"default_left":[0,0,0,0,0,0,0,0,0,0,0],"id":15,"left_children":[1,3,5,7,-1,9,-1,-1,-1,-1,-1],"loss_changes":[4.188777E0,3.1563377E0,3.8759449E0,1.3103762E0,0E0,1.0616612E0,0E0,0E0,0E0,0E0,0E0],"parents":[2147483647,0,0,1,1,2,2,3,3,5,5],"right_children":[2,4,6,8,-1,10,-1,-1,-1,-1,-1],"split_conditions":[7.5652677E-1,8.231431E-1,3.8840678E-1,7.498882E-1,4.8966326E-2,5.801005E-1,-6.502034E-2,-9.49231E-2,1.3078316E-2,6.4747627E-3,1.2364037E-1],"split_indices":[860,1454,2044,721,0,323,0,0,0,0,0],"split_type":[0,0,0,0,0,0,0,0,0,0,0],"sum_hessian":[1.6779327E1,1.1928404E1,4.850922E0,1.0503436E1,1.4249679E0,3.2323573E0,1.618565E0,9.497046E0,1.0063897E0,1.1925453E0,2.0398118E0],"tree_param":{"num_deleted":"0","num_feature":"2048","num_nodes":"11","size_leaf_vector":"1"}},{"base_weights":[-3.366692E-1,-6.8920344E-1,2.926384E-1,-9.268041E-2,2.6794782E-2,7.612888E-1,-4.9543303E-2,1.1331995E-1,-2.299216E-2],"categories":[],"categories_nodes":[],"categories_segments":[],"categories_sizes":[],"default_left":[0,0,0,0,0,0,0,0,0],"id":16,"left_children":[1,3,5,-1,-1,7,-1,-1,-1],"loss_changes":[3.9533715E0,2.7810879E0,2.8789392E0,0E0,0E0,1.9717748E0,0E0,0E0,0E0],"parents":[2147483647,0,0,1,1,2,2,5,5],"right_children":[2,4,6,-1,-1,8,-1,-1,-1],"split_conditions":[5.2092326E-1,1.0010457E0,2.9870483E-1,-9.268041E-2,2.6794782E-2,2.5693628E-1,-4.9543303E-2,1.1331995E-1,-2.299216E-2],"split_indices":[1367,1937,1568,0,0,788,0,0,0],"split_type":[0,0,0,0,0,0,0,0,0],"sum_hessian":[1.5910716E1,1.0136906E1,5.77381E0,8.146377E0,1.9905288E0,3.641981E0,2.1318288E0,2.5441473E0,1.0978336E0],"tree_param":{"num_deleted":"0","num_feature":"2048","num_nodes":"9","size_leaf_vector":"1"}},{"base_weights":[-3.2115138E-1,-6.13021E-1,4.1435906E-1,-8.7124586E-1,5.7100225E-2,-5.5262696E-2,8.0701345E-1,-1.6123164E-2,-9.3096785E-2,1.0878458E-1,2.3583155E-3],"categories":[],"categories_nodes":[],"categories_segments":[],"categories_sizes":[],"default_left":[0,0,0,0,0,0,0,0,0,0,0],"id":17,"left_children":[1,3,5,7,-1,-1,9,-1,-1,-1,-1],"loss_changes":[3.7173347E0,4.1520667E0,2.412751E0,2.8279018E-1,0E0,0E0,8.742964E-1,0E0,0E0,0E0,0E0],"parents":[2147483647,0,0,1,1,2,2,3,3,6,6],"right_children":[2,4,6,8,-1,-1,10,-1,-1,-1,-1],"split_conditions":[9.204621E-1,6.92249E-1,4.9706972E-1,2.4303932E-1,5.7100225E-2,-5.5262696E-2,4.4140378E-1,-1.6123164E-2,-9.3096785E-2,1.0878458E-1,2.3583155E-3],"split_indices":[473,57,1870,547,0,0,272,0,0,0,0],"split_type":[0,0,0,0,0,0,0,0,0,0,0],"sum_hessian":[1.5133004E1,1.0953075E1,4.1799283E0,9.208869E0,1.7442064E0,1.0894753E0,3.0904531E0,1.001546E0,8.207323E0,1.9889253E0,1.1015278E0],"tree_param":{"num_deleted":"0","num_feature":"2048","num_nodes":"11","size_leaf_vector":"1"}},{"base_weights":[-3.049477E-1,-6.672734E-1,2.7862346E-1,-9.1398865E-2,4.5808103E-2,-5.245247E-2,7.119575E-1,1.0414211E-1,-2.2460245E-2],"categories":[],"categories_nodes":[],"categories_segments":[],"categories_sizes":[],"default_left":[0,0,0,0,0,0,0,0,0],"id":18,"left_children":[1,3,5,-1,-1,-1,7,-1,-1],"loss_changes":[3.4388256E0,3.135666E0,2.6698925E0,0E0,0E0,0E0,1.6872828E0,0E0,0E0],"parents":[2147483647,0,0,1,1,2,2,6,6],"right_children":[2,4,6,-1,-1,-1,8,-1,-1],"split_conditions":[7.893112E-1,8.906251E-1,4.1877127E-1,-9.1398865E-2,4.5808103E-2,-5.245247E-2,5.4892504E-1,1.0414211E-1,-2.2460245E-2],"split_indices":[839,1327,1968,0,0,0,1093,0,0],"split_type":[0,0,0,0,0,0,0,0,0],"sum_hessian":[1.43843355E1,8.785928E0,5.5984077E0,7.360157E0,1.4257706E0,1.8882521E0,3.7101555E0,2.6618161E0,1.0483394E0],"tree_param":{"num_deleted":"0","num_feature":"2048","num_nodes":"9","size_leaf_vector":"1"}},{"base_weights":[-2.906076E-1,-5.9802157E-1,3.7162122E-1,3.134721E-2,-8.5000026E-1,8.1639653E-1,-5.8056097E-2,-2.3615964E-2,-9.013779E-2,8.140238E-3,1.0523557E-1],"categories":[],"categories_nodes":[],"categories_segments":[],"categories_sizes":[],"default_left":[0,0,0,0,0,0,0,0,0,0,0],"id":19,"left_children":[1,3,5,-1,7,9,-1,-1,-1,-1,-1],"loss_changes":[3.2118864E0,2.65805E0,2.7069554E0,0E0,5.2903175E-2,6.096904E-1,0E0,0E0,0E0,0E0,0E0],"parents":[2147483647,0,0,1,1,2,2,4,4,5,5],"right_children":[2,4,6,-1,8,10,-1,-1,-1,-1,-1],"split_conditions":[7.5652677E-1,2.3693694E-1,3.8840678E-1,3.134721E-2,2.1576941E-1,5.801005E-1,-5.8056097E-2,-2.3615964E-2,-9.013779E-2,8.140238E-3,1.0523557E-1],"split_indices":[860,170,2044,0,1381,323,0,0,0,0,0],"split_type":[0,0,0,0,0,0,0,0,0,0,0],"sum_hessian":[1.3685492E1,9.412883E0,4.2726088E0,1.9857389E0,7.427144E0,3.0094597E0,1.2631488E0,1.0058748E0,6.4212694E0,1.0582082E0,1.9512515E0],"tree_param":{"num_deleted":"0","num_feature":"2048","num_nodes":"11","size_leaf_vector":"1"}},{"base_weights":[-2.7659073E-1,-6.3199526E-1,2.9871795E-1,-8.87968E-2,2.5048245E-2,7.057792E-1,-4.4066057E-2,-2.8195244E-3,1.0116445E-1],"categories":[],"categories_nodes":[],"categories_segments":[],"categories_sizes":[],"default_left":[0,0,0,0,0,0,0,0,0],"id":20,"left_children":[1,3,5,-1,-1,7,-1,-1,-1],"loss_changes":[3.065803E0,2.2596416E0,2.1325378E0,0E0,0E0,9.9108124E-1,0E0,0E0,0E0],"parents":[2147483647,0,0,1,1,2,2,5,5],"right_children":[2,4,6,-1,-1,8,-1,-1,-1],"split_conditions":[5.2092326E-1,1.0010457E0,2.9870483E-1,-8.87968E-2,2.5048245E-2,8.002164E-1,-4.4066057E-2,-2.8195244E-3,1.0116445E-1],"split_indices":[1367,1937,1568,0,0,1784,0,0,0],"split_type":[0,0,0,0,0,0,0,0,0],"sum_hessian":[1.3070781E1,8.018633E0,5.052148E0,6.2108755E0,1.8077569E0,3.287612E0,1.764536E0,1.2340716E0,2.0535405E0],"tree_param":{"num_deleted":"0","num_feature":"2048","num_nodes":"9","size_leaf_vector":"1"}},{"base_weights":[-2.6233134E-1,-5.848433E-1,3.450066E-1,3.7412018E-2,-8.233884E-1,7.517055E-1,-4.00772E-2,-2.2201471E-2,-8.806693E-2,1.7426694E-2,9.380005E-2],"categories":[],"categories_nodes":[],"categories_segments":[],"categories_sizes":[],"default_left":[0,0,0,0,0,0,0,0,0,0,0],"id":21,"left_children":[1,3,5,-1,7,9,-1,-1,-1,-1,-1],"loss_changes":[2.8397732E0,2.4052026E0,1.9088507E0,0E0,6.813288E-2,2.4290395E-1,0E0,0E0,0E0,0E0,0E0],"parents":[2147483647,0,0,1,1,2,2,4,4,5,5],"right_children":[2,4,6,-1,8,10,-1,-1,-1,-1,-1],"split_conditions":[3.6357567E-1,1.3904634E-1,4.5239362E-1,3.7412018E-2,1.8151434E-1,5.8774745E-1,-4.00772E-2,-2.2201471E-2,-8.806693E-2,1.7426694E-2,9.380005E-2],"split_indices":[375,788,845,0,1869,198,0,0,0,0,0],"split_type":[0,0,0,0,0,0,0,0,0,0,0],"sum_hessian":[1.2467851E1,8.167655E0,4.3001957E0,1.5137919E0,6.653863E0,2.7775524E0,1.5226432E0,1.0027027E0,5.6511602E0,1.1496233E0,1.6279291E0],"tree_param":{"num_deleted":"0","num_feature":"2048","num_nodes":"11","size_leaf_vector":"1"}},{"base_weights":[-2.4735785E-1,-5.416007E-1,4.0004352E-1,-8.163483E-1,4.9780067E-2,7.720461E-2,-3.2060552E-2,-1.9378196E-2,-8.799089E-2],"categories":[],"categories_nodes":[],"categories_segments":[],"categories_sizes":[],"default_left":[0,0,0,0,0,0,0,0,0],"id":22,"left_children":[1,3,5,7,-1,-1,-1,-1,-1],"loss_changes":[2.6816611E0,3.068327E0,1.4857054E0,1.3621855E-1,0E0,0E0,0E0,0E0,0E0],"parents":[2147483647,0,0,1,1,2,2,3,3],"right_children":[2,4,6,8,-1,-1,-1,-1,-1],"split_conditions":[9.204621E-1,6.92249E-1,4.1104388E-1,1.9054435E-1,4.9780067E-2,7.720461E-2,-3.2060552E-2,-1.9378196E-2,-8.799089E-2],"split_indices":[473,57,468,1633,0,0,0,0,0],"split_type":[0,0,0,0,0,0,0,0,0],"sum_hessian":[1.1940079E1,8.321427E0,3.6186512E0,6.751408E0,1.5700192E0,2.3396115E0,1.2790395E0,1.0004942E0,5.7509136E0],"tree_param":{"num_deleted":"0","num_feature":"2048","num_nodes":"9","size_leaf_vector":"1"}},{"base_weights":[-2.3452379E-1,-5.4237163E-1,3.7038475E-1,-8.646382E-2,2.1366987E-1,7.694348E-2,-3.6508873E-2,-3.4603067E-2,6.3267894E-2],"categories":[],"categories_nodes":[],"categories_segments":[],"categories_sizes":[],"default_left":[0,0,0,0,0,0,0,0,0],"id":23,"left_children":[1,3,5,-1,7,-1,-1,-1,-1],"loss_changes":[2.5140934E0,2.289401E0,1.6849092E0,0E0,1.0124154E0,0E0,0E0,0E0,0E0],"parents":[2147483647,0,0,1,1,2,2,4,4],"right_children":[2,4,6,-1,8,-1,-1,-1,-1],"split_conditions":[7.5652677E-1,5.062207E-1,3.72388E-1,-8.646382E-2,5.731632E-1,7.694348E-2,-3.6508873E-2,-3.4603067E-2,6.3267894E-2],"split_indices":[860,400,1351,0,1589,0,0,0,0],"split_type":[0,0,0,0,0,0,0,0,0],"sum_hessian":[1.1421921E1,7.638132E0,3.783788E0,5.254666E0,2.3834665E0,2.4229684E0,1.3608197E0,1.0949852E0,1.2884812E0],"tree_param":{"num_deleted":"0","num_feature":"2048","num_nodes":"9","size_leaf_vector":"1"}},{"base_weights":[-2.2293822E-1,-5.747548E-1,3.022238E-1,2.6475703E-2,-8.511513E-2,6.604125E-1,-3.9071914E-2,9.772683E-4,9.031021E-2],"categories":[],"categories_nodes":[],"categories_segments":[],"categories_sizes":[],"default_left":[0,0,0,0,0,0,0,0,0],"id":24,"left_children":[1,3,5,-1,-1,7,-1,-1,-1],"loss_changes":[2.3760312E0,1.9616003E0,1.6075892E0,0E0,0E0,6.158643E-1,0E0,0E0,0E0],"parents":[2147483647,0,0,1,1,2,2,5,5],"right_children":[2,4,6,-1,-1,8,-1,-1,-1],"split_conditions":[5.2092326E-1,2.3513417E-1,2.9870483E-1,2.6475703E-2,-8.511513E-2,8.002164E-1,-3.9071914E-2,9.772683E-4,9.031021E-2],"split_indices":[1367,84,1568,0,0,1784,0,0,0],"split_type":[0,0,0,0,0,0,0,0,0],"sum_hessian":[1.0919886E1,6.4826174E0,4.4372687E0,1.6160933E0,4.866524E0,2.9561517E0,1.481117E0,1.085702E0,1.8704498E0],"tree_param":{"num_deleted":"0","num_feature":"2048","num_nodes":"9","size_leaf_vector":"1"}},{"base_weights":[-2.1078368E-1,-5.3134876E-1,3.4229E-1,3.4462444E-2,-7.807028E-2,6.8349534E-1,-3.445467E-2,1.345626E-2,8.495643E-2],"categories":[],"categories_nodes":[],"categories_segments":[],"categories_sizes":[],"default_left":[0,0,0,0,0,0,0,0,0],"id":25,"left_children":[1,3,5,-1,-1,7,-1,-1,-1],"loss_changes":[2.2110145E0,1.9372282E0,1.3621907E0,0E0,0E0,2.0904362E-1,0E0,0E0,0E0],"parents":[2147483647,0,0,1,1,2,2,5,5],"right_children":[2,4,6,-1,-1,8,-1,-1,-1],"split_conditions":[3.6357567E-1,1.3904634E-1,4.5239362E-1,3.4462444E-2,-7.807028E-2,5.7776296E-1,-3.445467E-2,1.345626E-2,8.495643E-2],"split_indices":[375,788,845,0,0,647,0,0,0],"split_type":[0,0,0,0,0,0,0,0,0],"sum_hessian":[1.0444916E1,6.6372204E0,3.8076954E0,1.3860391E0,5.251181E0,2.5471783E0,1.2605172E0,1.0120798E0,1.5350983E0],"tree_param":{"num_deleted":"0","num_feature":"2048","num_nodes":"9","size_leaf_vector":"1"}},{"base_weights":[-1.962111E-1,2.4489611E-1,-6.1415434E-1,-3.063922E-1,7.114943E-1,2.023845E-2,-8.2051575E-2,-6.159721E-2,2.3127876E-2,1.8225687E-2,8.598411E-2],"categories":[],"categories_nodes":[],"categories_segments":[],"categories_sizes":[],"default_left":[0,0,0,0,0,0,0,0,0,0,0],"id":26,"left_children":[1,3,5,7,9,-1,-1,-1,-1,-1,-1],"loss_changes":[2.1832836E0,1.7818693E0,1.1681678E0,7.2269744E-1,1.2543678E-1,0E0,0E0,0E0,0E0,0E0,0E0],"parents":[2147483647,0,0,1,1,2,2,3,3,4,4],"right_children":[2,4,6,8,10,-1,-1,-1,-1,-1,-1],"split_conditions":[3.2315588E-1,7.167436E-1,2.4953845E-1,5.2635634E-1,8.0559164E-1,2.023845E-2,-8.2051575E-2,-6.159721E-2,2.3127876E-2,1.8225687E-2,8.598411E-2],"split_indices":[1948,1698,1594,1433,912,0,0,0,0,0,0],"split_type":[0,0,0,0,0,0,0,0,0,0,0],"sum_hessian":[1.002682E1,5.079665E0,4.947155E0,2.4859045E0,2.5937607E0,1.0019343E0,3.9452205E0,1.4851534E0,1.0007509E0,1.0557798E0,1.5379808E0],"tree_param":{"num_deleted":"0","num_feature":"2048","num_nodes":"11","size_leaf_vector":"1"}},{"base_weights":[-1.8435156E-1,4.899089E-1,-4.3558124E-1,7.547785E-2,-5.1409067E-3,-7.68673E-2,2.6618648E-1,-3.6522154E-2,7.2953366E-2],"categories":[],"categories_nodes":[],"categories_segments":[],"categories_sizes":[],"default_left":[0,0,0,0,0,0,0,0,0],"id":27,"left_children":[1,3,5,-1,-1,-1,7,-1,-1],"loss_changes":[2.0109909E0,5.193092E-1,2.1355486E0,0E0,0E0,0E0,1.2616258E0,0E0,0E0],"parents":[2147483647,0,0,1,1,2,2,6,6],"right_children":[2,4,6,-1,-1,-1,8,-1,-1],"split_conditions":[1.8693966E-1,2.0109743E-1,9.204621E-1,7.547785E-2,-5.1409067E-3,-7.68673E-2,5.9239095E-1,-3.6522154E-2,7.2953366E-2],"split_indices":[334,510,473,0,0,0,1133,0,0],"split_type":[0,0,0,0,0,0,0,0,0],"sum_hessian":[9.611904E0,2.3513124E0,7.260592E0,1.3140208E0,1.0372916E0,4.858963E0,2.4016287E0,1.1061044E0,1.2955244E0],"tree_param":{"num_deleted":"0","num_feature":"2048","num_nodes":"9","size_leaf_vector":"1"}},{"base_weights":[-1.7081575E-1,-4.7977751E-1,3.6968505E-1,3.0671218E-2,-7.637602E-2,-2.0570368E-2,7.596443E-2],"categories":[],"categories_nodes":[],"categories_segments":[],"categories_sizes":[],"default_left":[0,0,0,0,0,0,0],"id":28,"left_children":[1,3,5,-1,-1,-1,-1],"loss_changes":[1.8798822E0,1.7803177E0,1.1150053E0,0E0,0E0,0E0,0E0],"parents":[2147483647,0,0,1,1,2,2],"right_children":[2,4,6,-1,-1,-1,-1],"split_conditions":[7.5652677E-1,2.3693694E-1,5.801005E-1,3.0671218E-2,-7.637602E-2,-2.0570368E-2,7.596443E-2],"split_indices":[860,170,323,0,0,0,0],"split_type":[0,0,0,0,0,0,0],"sum_hessian":[9.195065E0,5.9221716E0,3.2728932E0,1.5498437E0,4.3723283E0,1.5129781E0,1.759915E0],"tree_param":{"num_deleted":"0","num_feature":"2048","num_nodes":"7","size_leaf_vector":"1"}},{"base_weights":[-1.5911393E-1,-4.8590675E-1,3.5895467E-1,-7.336562E-2,3.262139E-2,6.484769E-1,-2.8438816E-2,1.9490354E-2,7.658564E-2],"categories":[],"categories_nodes":[],"categories_segments":[],"categories_sizes":[],"default_left":[0,0,0,0,0,0,0,0,0],"id":29,"left_children":[1,3,5,-1,-1,7,-1,-1,-1],"loss_changes":[1.8422437E0,1.540232E0,1.0012891E0,0E0,0E0,2.7987123E-2,0E0,0E0,0E0],"parents":[2147483647,0,0,1,1,2,2,5,5],"right_children":[2,4,6,-1,-1,8,-1,-1,-1],"split_conditions":[3.6357567E-1,8.805598E-1,4.5239362E-1,-7.336562E-2,3.262139E-2,7.102956E-1,-2.8438816E-2,1.9490354E-2,7.658564E-2],"split_indices":[375,312,845,0,0,1105,0,0,0],"split_type":[0,0,0,0,0,0,0,0,0],"sum_hessian":[8.851237E0,5.465642E0,3.385595E0,4.2620554E0,1.2035865E0,2.3293447E0,1.0562505E0,1.0258298E0,1.303515E0],"tree_param":{"num_deleted":"0","num_feature":"2048","num_nodes":"9","size_leaf_vector":"1"}},{"base_weights":[-1.462816E-1,2.719902E-1,-5.4981107E-1,-5.235353E-2,5.8711654E-1,-7.775262E-2,1.9617561E-2,-7.6935714E-5,7.763677E-2],"categories":[],"categories_nodes":[],"categories_segments":[],"categories_sizes":[],"default_left":[0,0,0,0,0,0,0,0,0],"id":30,"left_children":[1,3,5,-1,7,-1,-1,-1,-1],"loss_changes":[1.7559966E0,1.646702E0,1.0316578E0,0E0,4.7879243E-1,0E0,0E0,0E0,0E0],"parents":[2147483647,0,0,1,1,2,2,4,4],"right_children":[2,4,6,-1,8,-1,-1,-1,-1],"split_conditions":[2.5693628E-1,3.0099043E-1,9.8536944E-1,-5.235353E-2,3.381174E-1,-7.775262E-2,1.9617561E-2,-7.6935714E-5,7.763677E-2],"split_indices":[788,1183,589,0,1865,0,0,0,0],"split_type":[0,0,0,0,0,0,0,0,0],"sum_hessian":[8.51775E0,4.342537E0,4.1752133E0,1.0444664E0,3.2980704E0,3.166384E0,1.0088294E0,1.0456913E0,2.2523792E0],"tree_param":{"num_deleted":"0","num_feature":"2048","num_nodes":"9","size_leaf_vector":"1"}},{"base_weights":[-1.4079216E-1,-4.9185893E-1,3.2264113E-1,2.3939466E-2,-7.796451E-2,6.235518E-1,-3.236031E-2,1.5935168E-2,7.624223E-2],"categories":[],"categories_nodes":[],"categories_segments":[],"categories_sizes":[],"default_left":[0,0,0,0,0,0,0,0,0],"id":31,"left_children":[1,3,5,-1,-1,7,-1,-1,-1],"loss_changes":[1.6544428E0,1.3708233E0,1.0897889E0,0E0,0E0,1.0138154E-1,0E0,0E0,0E0],"parents":[2147483647,0,0,1,1,2,2,5,5],"right_children":[2,4,6,-1,-1,8,-1,-1,-1],"split_conditions":[5.2092326E-1,2.3513417E-1,2.9870483E-1,2.3939466E-2,-7.796451E-2,4.603164E-1,-3.236031E-2,1.5935168E-2,7.624223E-2],"split_indices":[1367,84,1568,0,0,1862,0,0,0],"split_type":[0,0,0,0,0,0,0,0,0],"sum_hessian":[8.193518E0,4.6270385E0,3.566479E0,1.3542054E0,3.2728333E0,2.4573689E0,1.1091101E0,1.0603702E0,1.3969986E0],"tree_param":{"num_deleted":"0","num_feature":"2048","num_nodes":"9","size_leaf_vector":"1"}},{"base_weights":[-1.3129357E-1,2.589059E-1,-5.383995E-1,-4.1340083E-2,5.4974407E-1,1.0742976E-2,-7.4335665E-2,4.40085E-3,7.511496E-2],"categories":[],"categories_nodes":[],"categories_segments":[],"categories_sizes":[],"default_left":[0,0,0,0,0,0,0,0,0],"id":32,"left_children":[1,3,5,-1,7,-1,-1,-1,-1],"loss_changes":[1.5516144E0,1.2468871E0,6.987467E-1,0E0,3.814212E-1,0E0,0E0,0E0,0E0],"parents":[2147483647,0,0,1,1,2,2,4,4],"right_children":[2,4,6,-1,8,-1,-1,-1,-1],"split_conditions":[3.2315588E-1,3.2488373E-1,2.9263684E-1,-4.1340083E-2,4.461733E-1,1.0742976E-2,-7.4335665E-2,4.40085E-3,7.511496E-2],"split_indices":[1948,456,14,0,661,0,0,0,0],"split_type":[0,0,0,0,0,0,0,0,0],"sum_hessian":[7.8901305E0,4.2145944E0,3.675536E0,1.1454167E0,3.0691779E0,1.0000802E0,2.6754556E0,1.2212039E0,1.847974E0],"tree_param":{"num_deleted":"0","num_feature":"2048","num_nodes":"9","size_leaf_vector":"1"}},{"base_weights":[-1.2546048E-1,-4.4624296E-1,3.5163668E-1,3.0105442E-2,-7.023E-2,6.855662E-2,-1.1633819E-2],"categories":[],"categories_nodes":[],"categories_segments":[],"categories_sizes":[],"default_left":[0,0,0,0,0,0,0],"id":33,"left_children":[1,3,5,-1,-1,-1,-1],"loss_changes":[1.4763894E0,1.2822291E0,7.088264E-1,0E0,0E0,0E0,0E0],"parents":[2147483647,0,0,1,1,2,2],"right_children":[2,4,6,-1,-1,-1,-1],"split_conditions":[3.6357567E-1,1.3904634E-1,3.07064E-1,3.0105442E-2,-7.023E-2,6.855662E-2,-1.1633819E-2],"split_indices":[375,788,800,0,0,0,0],"split_type":[0,0,0,0,0,0,0],"sum_hessian":[7.6215096E0,4.5959997E0,3.0255098E0,1.1280566E0,3.4679432E0,1.4942819E0,1.531228E0],"tree_param":{"num_deleted":"0","num_feature":"2048","num_nodes":"7","size_leaf_vector":"1"}},{"base_weights":[-1.1513298E-1,-6.757963E-2,1.6427253E-1,4.5558053E-1,-4.4482764E-2,-2.4436112E-2,7.2244234E-2],"categories":[],"categories_nodes":[],"categories_segments":[],"categories_sizes":[],"default_left":[0,0,0,0,0,0,0],"id":34,"left_children":[1,-1,3,5,-1,-1,-1],"loss_changes":[1.4208275E0,0E0,1.3355426E0,1.0755732E0,0E0,0E0,0E0],"parents":[2147483647,0,0,2,2,3,3],"right_children":[2,-1,4,6,-1,-1,-1],"split_conditions":[3.3682284E-1,-6.757963E-2,2.6777086E-1,3.2220548E-1,-4.4482764E-2,-2.4436112E-2,7.2244234E-2],"split_indices":[1211,0,1850,456,0,0,0],"split_type":[0,0,0,0,0,0,0],"sum_hessian":[7.3612676E0,1.9764904E0,5.384777E0,3.8131466E0,1.5716306E0,1.0757965E0,2.73735E0],"tree_param":{"num_deleted":"0","num_feature":"2048","num_nodes":"7","size_leaf_vector":"1"}},{"base_weights":[-1.1521118E-1,-6.094658E-2,1.878994E-1,4.7092193E-1,-4.4190798E-2,-8.413521E-3,7.2427474E-2],"categories":[],"categories_nodes":[],"categories_segments":[],"categories_sizes":[],"default_left":[0,0,0,0,0,0,0],"id":35,"left_children":[1,-1,3,5,-1,-1,-1],"loss_changes":[1.3291361E0,0E0,1.2401475E0,6.90774E-1,0E0,0E0,0E0],"parents":[2147483647,0,0,2,2,3,3],"right_children":[2,-1,4,6,-1,-1,-1],"split_conditions":[5.295301E-1,-6.094658E-2,4.2100224E-1,6.434902E-1,-4.4190798E-2,-8.413521E-3,7.2427474E-2],"split_indices":[1257,0,881,860,0,0,0],"split_type":[0,0,0,0,0,0,0],"sum_hessian":[7.1075177E0,2.317644E0,4.7898736E0,3.4788334E0,1.3110403E0,1.2995754E0,2.1792579E0],"tree_param":{"num_deleted":"0","num_feature":"2048","num_nodes":"7","size_leaf_vector":"1"}},{"base_weights":[-1.1218017E-1,-4.5733234E-1,2.982421E-1,-7.368245E-2,2.6970446E-2,5.9602797E-2,-3.150201E-2],"categories":[],"categories_nodes":[],"categories_segments":[],"categories_sizes":[],"default_left":[0,0,0,0,0,0,0],"id":36,"left_children":[1,3,5,-1,-1,-1,-1],"loss_changes":[1.2530911E0,1.1490399E0,9.5591974E-1,0E0,0E0,0E0,0E0],"parents":[2147483647,0,0,1,1,2,2],"right_children":[2,4,6,-1,-1,-1,-1],"split_conditions":[7.893112E-1,8.003496E-1,3.771025E-1,-7.368245E-2,2.6970446E-2,5.9602797E-2,-3.150201E-2],"split_indices":[839,1327,1750,0,0,0,0],"split_type":[0,0,0,0,0,0,0],"sum_hessian":[6.883029E0,3.6767237E0,3.2063055E0,2.64605E0,1.0306736E0,2.177207E0,1.0290985E0],"tree_param":{"num_deleted":"0","num_feature":"2048","num_nodes":"7","size_leaf_vector":"1"}},{"base_weights":[-1.07423805E-1,2.542746E-1,-4.9838614E-1,-3.3378113E-2,5.225267E-1,2.2676324E-3,-6.7950144E-2,6.0940715E-3,6.827335E-2],"categories":[],"categories_nodes":[],"categories_segments":[],"categories_sizes":[],"default_left":[0,0,0,0,0,0,0,0,0],"id":37,"left_children":[1,3,5,-1,7,-1,-1,-1,-1],"loss_changes":[1.2067614E0,9.046899E-1,3.9366728E-1,0E0,2.223171E-1,0E0,0E0,0E0,0E0],"parents":[2147483647,0,0,1,1,2,2,4,4],"right_children":[2,4,6,-1,8,-1,-1,-1,-1],"split_conditions":[3.2315588E-1,5.371056E-1,2.2235063E-1,-3.3378113E-2,5.289124E-1,2.2676324E-3,-6.7950144E-2,6.0940715E-3,6.827335E-2],"split_indices":[1948,1074,27,0,1356,0,0,0,0],"split_type":[0,0,0,0,0,0,0,0,0],"sum_hessian":[6.6375856E0,3.6294355E0,3.0081499E0,1.0604535E0,2.5689821E0,1.0015423E0,2.0066075E0,1.0175672E0,1.551415E0],"tree_param":{"num_deleted":"0","num_feature":"2048","num_nodes":"9","size_leaf_vector":"1"}},{"base_weights":[-1.0304292E-1,-4.572662E-1,2.7518722E-1,1.6196433E-2,-7.006604E-2,6.389333E-2,-2.2174641E-2],"categories":[],"categories_nodes":[],"categories_segments":[],"categories_sizes":[],"default_left":[0,0,0,0,0,0,0],"id":38,"left_children":[1,3,5,-1,-1,-1,-1],"loss_changes":[1.1219761E0,7.487718E-1,9.0448E-1,0E0,0E0,0E0,0E0],"parents":[2147483647,0,0,1,1,2,2],"right_children":[2,4,6,-1,-1,-1,-1],"split_conditions":[7.0863146E-1,1.611852E-1,1.9850175E-1,1.6196433E-2,-7.006604E-2,6.389333E-2,-2.2174641E-2],"split_indices":[1698,100,310,0,0,0,0],"split_type":[0,0,0,0,0,0,0],"sum_hessian":[6.435122E0,3.2151136E0,3.2200084E0,1.0015595E0,2.2135544E0,1.694162E0,1.5258464E0],"tree_param":{"num_deleted":"0","num_feature":"2048","num_nodes":"7","size_leaf_vector":"1"}},{"base_weights":[-9.758796E-2,-4.6914494E-1,2.614182E-1,5.3170873E-3,-6.673907E-2,5.7436276E-2,-2.8838446E-2],"categories":[],"categories_nodes":[],"categories_segments":[],"categories_sizes":[],"default_left":[0,0,0,0,0,0,0],"id":39,"left_children":[1,3,5,-1,-1,-1,-1],"loss_changes":[1.0871627E0,4.4046766E-1,9.088682E-1,0E0,0E0,0E0,0E0],"parents":[2147483647,0,0,1,1,2,2],"right_children":[2,4,6,-1,-1,-1,-1],"split_conditions":[4.9792066E-1,2.4707133E-1,4.4140378E-1,5.3170873E-3,-6.673907E-2,5.7436276E-2,-2.8838446E-2],"split_indices":[1870,397,272,0,0,0,0],"split_type":[0,0,0,0,0,0,0],"sum_hessian":[6.2307577E0,2.911099E0,3.319659E0,1.0022568E0,1.9088422E0,2.0870507E0,1.2326083E0],"tree_param":{"num_deleted":"0","num_feature":"2048","num_nodes":"7","size_leaf_vector":"1"}},{"base_weights":[-9.514157E-2,2.4813512E-1,-4.746624E-1,-2.5261272E-2,5.248882E-1,-1.6227348E-3,-6.389048E-2,6.302985E-2,1.5993595E-2],"categories":[],"categories_nodes":[],"categories_segments":[],"categories_sizes":[],"default_left":[0,0,0,0,0,0,0,0,0],"id":40,"left_children":[1,3,5,-1,7,-1,-1,-1,-1],"loss_changes":[1.0367793E0,7.368947E-1,2.677276E-1,0E0,1.973015E-2,0E0,0E0,0E0,0E0],"parents":[2147483647,0,0,1,1,2,2,4,4],"right_children":[2,4,6,-1,8,-1,-1,-1,-1],"split_conditions":[3.2315588E-1,4.8898727E-1,2.6900434E-1,-2.5261272E-2,3.3857712E-1,-1.6227348E-3,-6.389048E-2,6.302985E-2,1.5993595E-2],"split_indices":[1948,1339,1584,0,590,0,0,0,0],"split_type":[0,0,0,0,0,0,0,0,0],"sum_hessian":[6.053994E0,3.3605573E0,2.6934366E0,1.2272462E0,2.1333113E0,1.0002712E0,1.6931653E0,1.0910958E0,1.0422153E0],"tree_param":{"num_deleted":"0","num_feature":"2048","num_nodes":"9","size_leaf_vector":"1"}},{"base_weights":[-8.9630604E-2,-5.5037584E-2,1.90658E-1,-3.2607306E-2,4.7644284E-1,1.140017E-3,6.588072E-2],"categories":[],"categories_nodes":[],"categories_segments":[],"categories_sizes":[],"default_left":[0,0,0,0,0,0,0],"id":41,"left_children":[1,-1,3,-1,5,-1,-1],"loss_changes":[9.953834E-1,0E0,8.9813083E-1,0E0,3.0160928E-1,0E0,0E0],"parents":[2147483647,0,0,2,2,4,4],"right_children":[2,-1,4,-1,6,-1,-1],"split_conditions":[3.5667273E-1,-5.5037584E-2,3.508362E-1,-3.2607306E-2,4.7779134E-1,1.140017E-3,6.588072E-2],"split_indices":[1211,0,161,0,927,0,0],"split_type":[0,0,0,0,0,0,0],"sum_hessian":[5.895142E0,1.8653048E0,4.029837E0,1.3848674E0,2.6449697E0,1.0443394E0,1.6006302E0],"tree_param":{"num_deleted":"0","num_feature":"2048","num_nodes":"7","size_leaf_vector":"1"}},{"base_weights":[-8.5877866E-2,-3.6092412E-1,3.5711107E-1,2.5304262E-2,-6.276795E-2,5.4887015E-2,-8.286318E-4],"categories":[],"categories_nodes":[],"categories_segments":[],"categories_sizes":[],"default_left":[0,0,0,0,0,0,0],"id":42,"left_children":[1,3,5,-1,-1,-1,-1],"loss_changes":[9.487987E-1,9.202266E-1,2.2038102E-1,0E0,0E0,0E0,0E0],"parents":[2147483647,0,0,1,1,2,2],"right_children":[2,4,6,-1,-1,-1,-1],"split_conditions":[6.0316736E-1,2.1062632E-1,3.0377635E-1,2.5304262E-2,-6.276795E-2,5.4887015E-2,-8.286318E-4],"split_indices":[1454,1984,1455,0,0,0,0],"split_type":[0,0,0,0,0,0,0],"sum_hessian":[5.7292533E0,3.6489308E0,2.0803227E0,1.1207674E0,2.5281632E0,1.0350266E0,1.0452962E0],"tree_param":{"num_deleted":"0","num_feature":"2048","num_nodes":"7","size_leaf_vector":"1"}},{"base_weights":[-7.7262275E-2,-3.8151443E-1,3.263703E-1,1.5164982E-2,-6.66311E-2,5.7189435E-2,-7.395266E-3],"categories":[],"categories_nodes":[],"categories_segments":[],"categories_sizes":[],"default_left":[0,0,0,0,0,0,0],"id":43,"left_children":[1,3,5,-1,-1,-1,-1],"loss_changes":[9.301871E-1,7.390659E-1,3.7241548E-1,0E0,0E0,0E0,0E0],"parents":[2147483647,0,0,1,1,2,2],"right_children":[2,4,6,-1,-1,-1,-1],"split_conditions":[3.6357567E-1,2.5222212E-1,3.07064E-1,1.5164982E-2,-6.66311E-2,5.7189435E-2,-7.395266E-3],"split_indices":[375,530,800,0,0,0,0],"split_type":[0,0,0,0,0,0,0],"sum_hessian":[5.5605235E0,3.20183E0,2.3586936E0,1.2775879E0,1.924242E0,1.1963634E0,1.16233E0],"tree_param":{"num_deleted":"0","num_feature":"2048","num_nodes":"7","size_leaf_vector":"1"}},{"base_weights":[-7.200667E-2,-5.7379972E-2,1.6891323E-1,4.091514E-1,-3.9318897E-2,-5.982665E-3,5.822292E-2],"categories":[],"categories_nodes":[],"categories_segments":[],"categories_sizes":[],"default_left":[0,0,0,0,0,0,0],"id":44,"left_children":[1,-1,3,5,-1,-1,-1],"loss_changes":[8.707603E-1,0E0,8.492019E-1,3.6447054E-1,0E0,0E0,0E0],"parents":[2147483647,0,0,2,2,3,3],"right_children":[2,-1,4,6,-1,-1,-1],"split_conditions":[4.9750298E-1,-5.7379972E-2,4.2100224E-1,4.8365837E-1,-3.9318897E-2,-5.982665E-3,5.822292E-2],"split_indices":[1257,0,881,1134,0,0,0],"split_type":[0,0,0,0,0,0,0],"sum_hessian":[5.4010725E0,1.3037957E0,4.0972767E0,3.0610936E0,1.0361831E0,1.0015615E0,2.0595322E0],"tree_param":{"num_deleted":"0","num_feature":"2048","num_nodes":"7","size_leaf_vector":"1"}},{"base_weights":[-7.367693E-2,-3.691762E-1,3.1012046E-1,1.32125085E-2,-6.43452E-2,5.444175E-2,-7.28403E-3],"categories":[],"categories_nodes":[],"categories_segments":[],"categories_sizes":[],"default_left":[0,0,0,0,0,0,0],"id":45,"left_children":[1,3,5,-1,-1,-1,-1],"loss_changes":[8.235497E-1,6.3347083E-1,3.324489E-1,0E0,0E0,0E0,0E0],"parents":[2147483647,0,0,1,1,2,2],"right_children":[2,4,6,-1,-1,-1,-1],"split_conditions":[3.6357567E-1,2.5222212E-1,3.07064E-1,1.32125085E-2,-6.43452E-2,5.444175E-2,-7.28403E-3],"split_indices":[375,530,800,0,0,0,0],"split_type":[0,0,0,0,0,0,0],"sum_hessian":[5.2520847E0,2.9889114E0,2.2631733E0,1.2402855E0,1.748626E0,1.1425531E0,1.1206201E0],"tree_param":{"num_deleted":"0","num_feature":"2048","num_nodes":"7","size_leaf_vector":"1"}},{"base_weights":[-6.892217E-2,2.4389797E-1,-4.304016E-1,-2.1980286E-2,4.8669767E-2,-8.166727E-3,-5.5223048E-2],"categories":[],"categories_nodes":[],"categories_segments":[],"categories_sizes":[],"default_left":[0,0,0,0,0,0,0],"id":46,"left_children":[1,3,5,-1,-1,-1,-1],"loss_changes":[7.958722E-1,5.4760814E-1,9.0694845E-2,0E0,0E0,0E0,0E0],"parents":[2147483647,0,0,1,1,2,2],"right_children":[2,4,6,-1,-1,-1,-1],"split_conditions":[3.2315588E-1,4.8898727E-1,3.7435535E-1,-2.1980286E-2,4.8669767E-2,-8.166727E-3,-5.5223048E-2],"split_indices":[1948,1339,1804,0,0,0,0],"split_type":[0,0,0,0,0,0,0],"sum_hessian":[5.1099234E0,2.91371E0,2.196213E0,1.0338913E0,1.8798188E0,1.0010521E0,1.1951609E0],"tree_param":{"num_deleted":"0","num_feature":"2048","num_nodes":"7","size_leaf_vector":"1"}},{"base_weights":[-6.944012E-2,-5.515799E-2,1.6623662E-1,4.2502704E-1,-2.5361944E-2,5.938382E-2,3.5013568E-3],"categories":[],"categories_nodes":[],"categories_segments":[],"categories_sizes":[],"default_left":[0,0,0,0,0,0,0],"id":47,"left_children":[1,-1,3,5,-1,-1,-1],"loss_changes":[7.738264E-1,0E0,6.294015E-1,1.993509E-1,0E0,0E0,0E0],"parents":[2147483647,0,0,2,2,3,3],"right_children":[2,-1,4,6,-1,-1,-1],"split_conditions":[4.271465E-1,-5.515799E-2,3.2315588E-1,3.853664E-1,-2.5361944E-2,5.938382E-2,3.5013568E-3],"split_indices":[839,0,1948,1416,0,0,0],"split_type":[0,0,0,0,0,0,0],"sum_hessian":[5.0031576E0,1.2025702E0,3.8005874E0,2.343678E0,1.4569095E0,1.2709553E0,1.0727226E0],"tree_param":{"num_deleted":"0","num_feature":"2048","num_nodes":"7","size_leaf_vector":"1"}},{"base_weights":[-6.694602E-2,-3.5391146E-1,3.0784196E-1,-6.42239E-2,1.9944092E-2,4.9743164E-2,-3.0351763E-3],"categories":[],"categories_nodes":[],"categories_segments":[],"categories_sizes":[],"default_left":[0,0,0,0,0,0,0],"id":48,"left_children":[1,3,5,-1,-1,-1,-1],"loss_changes":[7.4118865E-1,7.334913E-1,2.1283707E-1,0E0,0E0,0E0,0E0],"parents":[2147483647,0,0,1,1,2,2],"right_children":[2,4,6,-1,-1,-1,-1],"split_conditions":[5.1983577E-1,7.227818E-1,2.2838326E-1,-6.42239E-2,1.9944092E-2,4.9743164E-2,-3.0351763E-3],"split_indices":[1553,312,574,0,0,0,0],"split_type":[0,0,0,0,0,0,0],"sum_hessian":[4.8785014E0,2.7945156E0,2.0839856E0,1.7316147E0,1.0629009E0,1.0336684E0,1.0503173E0],"tree_param":{"num_deleted":"0","num_feature":"2048","num_nodes":"7","size_leaf_vector":"1"}},{"base_weights":[-6.1707087E-2,2.4921854E-1,-4.055511E-1,4.7089465E-2,-1.5354839E-2,-6.870729E-3,-5.3274155E-2],"categories":[],"categories_nodes":[],"categories_segments":[],"categories_sizes":[],"default_left":[0,0,0,0,0,0,0],"id":49,"left_children":[1,3,5,-1,-1,-1,-1],"loss_changes":[7.1525115E-1,3.9695972E-1,9.65808E-2,0E0,0E0,0E0,0E0],"parents":[2147483647,0,0,1,1,2,2],"right_children":[2,4,6,-1,-1,-1,-1],"split_conditions":[2.5693628E-1,3.4149486E-1,4.2650175E-1,4.7089465E-2,-1.5354839E-2,-6.870729E-3,-5.3274155E-2],"split_indices":[788,442,123,0,0,0,0],"split_type":[0,0,0,0,0,0,0],"sum_hessian":[4.7448397E0,2.6362097E0,2.10863E0,1.5912588E0,1.0449511E0,1.0001315E0,1.1084983E0],"tree_param":{"num_deleted":"0","num_feature":"2048","num_nodes":"7","size_leaf_vector":"1"}},{"base_weights":[-6.163385E-2,-3.4703547E-1,2.9719236E-1,1.1512681E-2,-6.0315102E-2,-8.233964E-5,4.446852E-2],"categories":[],"categories_nodes":[],"categories_segments":[],"categories_sizes":[],"default_left":[0,0,0,0,0,0,0],"id":50,"left_children":[1,3,5,-1,-1,-1,-1],"loss_changes":[6.819736E-1,4.9668467E-1,1.341075E-1,0E0,0E0,0E0,0E0],"parents":[2147483647,0,0,1,1,2,2],"right_children":[2,4,6,-1,-1,-1,-1],"split_conditions":[3.6357567E-1,2.5222212E-1,5.726958E-1,1.1512681E-2,-6.0315102E-2,-8.233964E-5,4.446852E-2],"split_indices":[375,530,1258,0,0,0,0],"split_type":[0,0,0,0,0,0,0],"sum_hessian":[4.6521783E0,2.6095026E0,2.0426755E0,1.1267546E0,1.482748E0,1.0054786E0,1.0371969E0],"tree_param":{"num_deleted":"0","num_feature":"2048","num_nodes":"7","size_leaf_vector":"1"}},{"base_weights":[-5.7708763E-2,-5.192504E-2,1.6675074E-1,4.2317873E-1,-2.3482844E-2,5.226335E-2,1.1281363E-2],"categories":[],"categories_nodes":[],"categories_segments":[],"categories_sizes":[],"default_left":[0,0,0,0,0,0,0],"id":51,"left_children":[1,-1,3,5,-1,-1,-1],"loss_changes":[6.611658E-1,0E0,5.6157887E-1,3.6610126E-2,0E0,0E0,0E0],"parents":[2147483647,0,0,2,2,3,3],"right_children":[2,-1,4,6,-1,-1,-1],"split_conditions":[3.3682284E-1,-5.192504E-2,2.5693628E-1,1.9239934E-1,-2.3482844E-2,5.226335E-2,1.1281363E-2],"split_indices":[1211,0,788,1169,0,0,0],"split_type":[0,0,0,0,0,0,0],"sum_hessian":[4.5462813E0,1.0578191E0,3.488462E0,2.096169E0,1.392293E0,1.0695169E0,1.0266521E0],"tree_param":{"num_deleted":"0","num_feature":"2048","num_nodes":"7","size_leaf_vector":"1"}},{"base_weights":[-5.5212464E-2,-3.677559E-1,2.649346E-1,-5.4687303E-2,1.0728132E-3,4.693284E-2,-7.4544507E-3],"categories":[],"categories_nodes":[],"categories_segments":[],"categories_sizes":[],"default_left":[0,0,0,0,0,0,0],"id":52,"left_children":[1,3,5,-1,-1,-1,-1],"loss_changes":[6.4228296E-1,2.2104812E-1,2.6196355E-1,0E0,0E0,0E0,0E0],"parents":[2147483647,0,0,1,1,2,2],"right_children":[2,4,6,-1,-1,-1,-1],"split_conditions":[4.6404207E-1,8.292108E-1,2.2838326E-1,-5.4687303E-2,1.0728132E-3,4.693284E-2,-7.4544507E-3],"split_indices":[1553,1236,574,0,0,0,0],"split_type":[0,0,0,0,0,0,0],"sum_hessian":[4.445257E0,2.1740918E0,2.2711654E0,1.1737243E0,1.0003676E0,1.1788857E0,1.0922797E0],"tree_param":{"num_deleted":"0","num_feature":"2048","num_nodes":"7","size_leaf_vector":"1"}},{"base_weights":[-5.335283E-2,-4.6553534E-2,1.8970554E-1,-2.4309132E-2,4.0997037E-1,5.2004945E-2,1.0635867E-2],"categories":[],"categories_nodes":[],"categories_segments":[],"categories_sizes":[],"default_left":[0,0,0,0,0,0,0],"id":53,"left_children":[1,-1,3,-1,5,-1,-1],"loss_changes":[6.250146E-1,0E0,4.886448E-1,0E0,4.750532E-2,0E0,0E0],"parents":[2147483647,0,0,2,2,4,4],"right_children":[2,-1,4,-1,6,-1,-1],"split_conditions":[5.295301E-1,-4.6553534E-2,4.9744475E-1,-2.4309132E-2,1.718519E-1,5.2004945E-2,1.0635867E-2],"split_indices":[1257,0,1134,0,788,0,0],"split_type":[0,0,0,0,0,0,0],"sum_hessian":[4.3571215E0,1.276718E0,3.0804033E0,1.0040063E0,2.076397E0,1.0007008E0,1.0756962E0],"tree_param":{"num_deleted":"0","num_feature":"2048","num_nodes":"7","size_leaf_vector":"1"}},{"base_weights":[-5.0519284E-2,2.8997594E-2,-3.2842696E-1,8.193838E-3,-5.6474872E-2],"categories":[],"categories_nodes":[],"categories_segments":[],"categories_sizes":[],"default_left":[0,0,0,0,0],"id":54,"left_children":[1,-1,3,-1,-1],"loss_changes":[5.933421E-1,0E0,3.728251E-1,0E0,0E0],"parents":[2147483647,0,0,2,2],"right_children":[2,-1,4,-1,-1],"split_conditions":[2.315248E-1,2.8997594E-2,3.95903E-1,8.193838E-3,-5.6474872E-2],"split_indices":[1653,0,1475,0,0],"split_type":[0,0,0,0,0],"sum_hessian":[4.263933E0,1.8966784E0,2.3672547E0,1.1038061E0,1.2634487E0],"tree_param":{"num_deleted":"0","num_feature":"2048","num_nodes":"5","size_leaf_vector":"1"}},{"base_weights":[-5.0197925E-2,-3.0708668E-1,3.1180128E-2,-5.930235E-2,1.644874E-2],"categories":[],"categories_nodes":[],"categories_segments":[],"categories_sizes":[],"default_left":[0,0,0,0,0],"id":55,"left_children":[1,3,-1,-1,-1],"loss_changes":[5.782063E-1,5.746646E-1,0E0,0E0,0E0],"parents":[2147483647,0,0,1,1],"right_children":[2,4,-1,-1,-1],"split_conditions":[9.204621E-1,5.0828975E-1,3.1180128E-2,-5.930235E-2,1.644874E-2],"split_indices":[473,927,0,0,0],"split_type":[0,0,0,0,0],"sum_hessian":[4.1880627E0,2.5384045E0,1.6496582E0,1.4199088E0,1.1184958E0],"tree_param":{"num_deleted":"0","num_feature":"2048","num_nodes":"5","size_leaf_vector":"1"}},{"base_weights":[-4.8719887E-2,-4.4459283E-2,1.8552732E-1,-2.0067923E-2,4.2506937E-2],"categories":[],"categories_nodes":[],"categories_segments":[],"categories_sizes":[],"default_left":[0,0,0,0,0],"id":56,"left_children":[1,-1,3,-1,-1],"loss_changes":[5.5505186E-1,0E0,4.4676477E-1,0E0,0E0],"parents":[2147483647,0,0,2,2],"right_children":[2,-1,4,-1,-1],"split_conditions":[3.8198194E-1,-4.4459283E-2,7.0863146E-1,-2.0067923E-2,4.2506937E-2],"split_indices":[354,0,1698,0,0],"split_type":[0,0,0,0,0],"sum_hessian":[4.096051E0,1.1888891E0,2.9071622E0,1.1749932E0,1.7321689E0],"tree_param":{"num_deleted":"0","num_feature":"2048","num_nodes":"5","size_leaf_vector":"1"}},{"base_weights":[-4.902835E-2,-3.243921E-1,2.7930839E-2,8.2409065E-3,-5.4797858E-2],"categories":[],"categories_nodes":[],"categories_segments":[],"categories_sizes":[],"default_left":[0,0,0,0,0],"id":57,"left_children":[1,3,-1,-1,-1],"loss_changes":[5.442331E-1,3.3543825E-1,0E0,0E0,0E0],"parents":[2147483647,0,0,1,1],"right_children":[2,4,-1,-1,-1],"split_conditions":[3.6357567E-1,2.5600153E-1,2.7930839E-2,8.2409065E-3,-5.4797858E-2],"split_indices":[375,530,0,0,0],"split_type":[0,0,0,0,0],"sum_hessian":[4.0173373E0,2.1914575E0,1.8258797E0,1.0012217E0,1.190236E0],"tree_param":{"num_deleted":"0","num_feature":"2048","num_nodes":"5","size_leaf_vector":"1"}},{"base_weights":[-4.884507E-2,-3.1466922E-1,2.7747555E-2,-5.504773E-2,1.0111277E-2],"categories":[],"categories_nodes":[],"categories_segments":[],"categories_sizes":[],"default_left":[0,0,0,0,0],"id":58,"left_children":[1,3,-1,-1,-1],"loss_changes":[5.164215E-1,3.688851E-1,0E0,0E0,0E0],"parents":[2147483647,0,0,1,1],"right_children":[2,4,-1,-1,-1],"split_conditions":[5.1983577E-1,6.2277013E-1,2.7747555E-2,-5.504773E-2,1.0111277E-2],"split_indices":[1553,295,0,0,0],"split_type":[0,0,0,0,0],"sum_hessian":[3.9468439E0,2.194713E0,1.7521307E0,1.1937364E0,1.0009767E0],"tree_param":{"num_deleted":"0","num_feature":"2048","num_nodes":"5","size_leaf_vector":"1"}},{"base_weights":[-4.845672E-2,-4.0960226E-2,1.9263968E-1,-1.8987361E-2,4.3335266E-2],"categories":[],"categories_nodes":[],"categories_segments":[],"categories_sizes":[],"default_left":[0,0,0,0,0],"id":59,"left_children":[1,-1,3,-1,-1],"loss_changes":[5.0345993E-1,0E0,4.14132E-1,0E0,0E0],"parents":[2147483647,0,0,2,2],"right_children":[2,-1,4,-1,-1],"split_conditions":[3.2488373E-1,-4.0960226E-2,4.83834E-1,-1.8987361E-2,4.3335266E-2],"split_indices":[456,0,926,0,0],"split_type":[0,0,0,0,0],"sum_hessian":[3.8759615E0,1.2718717E0,2.6040897E0,1.08737E0,1.5167197E0],"tree_param":{"num_deleted":"0","num_feature":"2048","num_nodes":"5","size_leaf_vector":"1"}},{"base_weights":[-4.779836E-2,-2.9335693E-1,2.9289082E-2,-5.6749623E-2,1.6568335E-2],"categories":[],"categories_nodes":[],"categories_segments":[],"categories_sizes":[],"default_left":[0,0,0,0,0],"id":60,"left_children":[1,3,-1,-1,-1],"loss_changes":[4.8771852E-1,5.081259E-1,0E0,0E0,0E0],"parents":[2147483647,0,0,1,1],"right_children":[2,4,-1,-1,-1],"split_conditions":[7.5652677E-1,5.0331914E-1,2.9289082E-2,-5.6749623E-2,1.6568335E-2],"split_indices":[860,400,0,0,0],"split_type":[0,0,0,0,0],"sum_hessian":[3.802786E0,2.2906704E0,1.5121157E0,1.2862524E0,1.004418E0],"tree_param":{"num_deleted":"0","num_feature":"2048","num_nodes":"5","size_leaf_vector":"1"}},{"base_weights":[-4.645649E-2,-3.5091154E-2,2.1984288E-1,4.298364E-2,-9.305187E-3],"categories":[],"categories_nodes":[],"categories_segments":[],"categories_sizes":[],"default_left":[0,0,0,0,0],"id":61,"left_children":[1,-1,3,-1,-1],"loss_changes":[4.599394E-1,0E0,2.458761E-1,0E0,0E0],"parents":[2147483647,0,0,2,2],"right_children":[2,-1,4,-1,-1],"split_conditions":[4.9792066E-1,-3.5091154E-2,3.415177E-1,4.298364E-2,-9.305187E-3],"split_indices":[1870,0,1750,0,0],"split_type":[0,0,0,0,0],"sum_hessian":[3.7214112E0,1.5880688E0,2.1333425E0,1.05294E0,1.0804025E0],"tree_param":{"num_deleted":"0","num_feature":"2048","num_nodes":"5","size_leaf_vector":"1"}},{"base_weights":[-4.268099E-2,-3.1455893E-2,2.5192369E-2],"categories":[],"categories_nodes":[],"categories_segments":[],"categories_sizes":[],"default_left":[0,0,0],"id":62,"left_children":[1,-1,-1],"loss_changes":[4.5257345E-1,0E0,0E0],"parents":[2147483647,0,0],"right_children":[2,-1,-1],"split_conditions":[5.2092326E-1,-3.1455893E-2,2.5192369E-2],"split_indices":[1367,0,0],"split_type":[0,0,0],"sum_hessian":[3.6609855E0,1.8687054E0,1.79228E0],"tree_param":{"num_deleted":"0","num_feature":"2048","num_nodes":"3","size_leaf_vector":"1"}},{"base_weights":[-4.0193133E-2,2.2242494E-1,-3.4022644E-2,4.2644307E-2,-9.387973E-3],"categories":[],"categories_nodes":[],"categories_segments":[],"categories_sizes":[],"default_left":[0,0,0,0,0],"id":63,"left_children":[1,3,-1,-1,-1],"loss_changes":[4.3976212E-1,2.3806262E-1,0E0,0E0,0E0],"parents":[2147483647,0,0,1,1],"right_children":[2,4,-1,-1,-1],"split_conditions":[2.5693628E-1,2.2949831E-1,-3.4022644E-2,4.2644307E-2,-9.387973E-3],"split_indices":[788,707,0,0,0],"split_type":[0,0,0,0,0],"sum_hessian":[3.620739E0,2.0686889E0,1.5520501E0,1.0458844E0,1.0228045E0],"tree_param":{"num_deleted":"0","num_feature":"2048","num_nodes":"5","size_leaf_vector":"1"}},{"base_weights":[-3.6814835E-2,3.3715993E-2,-2.4307847E-1,-5.436532E-2,2.5239332E-2],"categories":[],"categories_nodes":[],"categories_segments":[],"categories_sizes":[],"default_left":[0,0,0,0,0],"id":64,"left_children":[1,-1,3,-1,-1],"loss_changes":[4.3392128E-1,0E0,6.6171867E-1,0E0,0E0],"parents":[2147483647,0,0,2,2],"right_children":[2,-1,4,-1,-1],"split_conditions":[2.3693694E-1,3.3715993E-2,8.167763E-1,-5.436532E-2,2.5239332E-2],"split_indices":[170,0,860,0,0],"split_type":[0,0,0,0,0],"sum_hessian":[3.5628324E0,1.0409281E0,2.5219042E0,1.5091467E0,1.0127577E0],"tree_param":{"num_deleted":"0","num_feature":"2048","num_nodes":"5","size_leaf_vector":"1"}},{"base_weights":[-3.3140175E-2,-3.743389E-2,1.8898638E-1,-1.2070607E-2,3.9696556E-2],"categories":[],"categories_nodes":[],"categories_segments":[],"categories_sizes":[],"default_left":[0,0,0,0,0],"id":65,"left_children":[1,-1,3,-1,-1],"loss_changes":[4.0974358E-1,0E0,2.6521468E-1,0E0,0E0],"parents":[2147483647,0,0,2,2],"right_children":[2,-1,4,-1,-1],"split_conditions":[3.2488373E-1,-3.743389E-2,5.266332E-1,-1.2070607E-2,3.9696556E-2],"split_indices":[456,0,926,0,0],"split_type":[0,0,0,0,0],"sum_hessian":[3.4729092E0,1.0992105E0,2.3736987E0,1.1222423E0,1.2514565E0],"tree_param":{"num_deleted":"0","num_feature":"2048","num_nodes":"5","size_leaf_vector":"1"}},{"base_weights":[-3.245329E-2,-2.6479813E-1,2.8707376E-2,-5.229264E-2,1.3508354E-2],"categories":[],"categories_nodes":[],"categories_segments":[],"categories_sizes":[],"default_left":[0,0,0,0,0],"id":66,"left_children":[1,3,-1,-1,-1],"loss_changes":[4.0401924E-1,3.8837427E-1,0E0,0E0,0E0],"parents":[2147483647,0,0,1,1],"right_children":[2,4,-1,-1,-1],"split_conditions":[6.0316736E-1,5.741368E-1,2.8707376E-2,-5.229264E-2,1.3508354E-2],"split_indices":[1454,323,0,0,0],"split_type":[0,0,0,0,0],"sum_hessian":[3.418111E0,2.078214E0,1.339897E0,1.075964E0,1.00225E0],"tree_param":{"num_deleted":"0","num_feature":"2048","num_nodes":"5","size_leaf_vector":"1"}},{"base_weights":[-3.224943E-2,2.5987342E-2,-2.8291756E-2],"categories":[],"categories_nodes":[],"categories_segments":[],"categories_sizes":[],"default_left":[0,0,0],"id":67,"left_children":[1,-1,-1],"loss_changes":[3.922912E-1,0E0,0E0],"parents":[2147483647,0,0],"right_children":[2,-1,-1],"split_conditions":[2.315248E-1,2.5987342E-2,-2.8291756E-2],"split_indices":[1653,0,0],"split_type":[0,0,0],"sum_hessian":[3.3532207E0,1.5316029E0,1.8216178E0],"tree_param":{"num_deleted":"0","num_feature":"2048","num_nodes":"3","size_leaf_vector":"1"}},{"base_weights":[-2.9845037E-2,2.1560235E-2,-3.168678E-2],"categories":[],"categories_nodes":[],"categories_segments":[],"categories_sizes":[],"default_left":[0,0,0],"id":68,"left_children":[1,-1,-1],"loss_changes":[3.726181E-1,0E0,0E0],"parents":[2147483647,0,0],"right_children":[2,-1,-1],"split_conditions":[2.5693628E-1,2.1560235E-2,-3.168678E-2],"split_indices":[788,0,0],"split_type":[0,0,0],"sum_hessian":[3.3194473E0,1.9234456E0,1.3960018E0],"tree_param":{"num_deleted":"0","num_feature":"2048","num_nodes":"3","size_leaf_vector":"1"}},{"base_weights":[-2.950025E-2,-2.786382E-2,2.5035081E-2],"categories":[],"categories_nodes":[],"categories_segments":[],"categories_sizes":[],"default_left":[0,0,0],"id":69,"left_children":[1,-1,-1],"loss_changes":[3.6874768E-1,0E0,0E0],"parents":[2147483647,0,0],"right_children":[2,-1,-1],"split_conditions":[3.6357567E-1,-2.786382E-2,2.5035081E-2],"split_indices":[375,0,0],"split_type":[0,0,0],"sum_hessian":[3.288352E0,1.7419299E0,1.5464222E0],"tree_param":{"num_deleted":"0","num_feature":"2048","num_nodes":"3","size_leaf_vector":"1"}},{"base_weights":[-2.7468506E-2,-2.5890982E-2,2.7083317E-2],"categories":[],"categories_nodes":[],"categories_segments":[],"categories_sizes":[],"default_left":[0,0,0],"id":70,"left_children":[1,-1,-1],"loss_changes":[3.640121E-1,0E0,0E0],"parents":[2147483647,0,0],"right_children":[2,-1,-1],"split_conditions":[7.5652677E-1,-2.5890982E-2,2.7083317E-2],"split_indices":[860,0,0],"split_type":[0,0,0],"sum_hessian":[3.2568598E0,1.9083189E0,1.348541E0],"tree_param":{"num_deleted":"0","num_feature":"2048","num_nodes":"3","size_leaf_vector":"1"}},{"base_weights":[-2.466421E-2,2.1560544E-2,-3.133851E-2],"categories":[],"categories_nodes":[],"categories_segments":[],"categories_sizes":[],"default_left":[0,0,0],"id":71,"left_children":[1,-1,-1],"loss_changes":[3.606993E-1,0E0,0E0],"parents":[2147483647,0,0],"right_children":[2,-1,-1],"split_conditions":[3.2315588E-1,2.1560544E-2,-3.133851E-2],"split_indices":[1948,0,0],"split_type":[0,0,0],"sum_hessian":[3.225575E0,1.8987225E0,1.3268523E0],"tree_param":{"num_deleted":"0","num_feature":"2048","num_nodes":"3","size_leaf_vector":"1"}},{"base_weights":[-2.476368E-2,-2.8899396E-2,2.25326E-2],"categories":[],"categories_nodes":[],"categories_segments":[],"categories_sizes":[],"default_left":[0,0,0],"id":72,"left_children":[1,-1,-1],"loss_changes":[3.4238666E-1,0E0,0E0],"parents":[2147483647,0,0],"right_children":[2,-1,-1],"split_conditions":[4.6404207E-1,-2.8899396E-2,2.25326E-2],"split_indices":[1553,0,0],"split_type":[0,0,0],"sum_hessian":[3.195876E0,1.4783626E0,1.7175134E0],"tree_param":{"num_deleted":"0","num_feature":"2048","num_nodes":"3","size_leaf_vector":"1"}},{"base_weights":[-2.4030745E-2,-2.7930154E-2,2.2984598E-2],"categories":[],"categories_nodes":[],"categories_segments":[],"categories_sizes":[],"default_left":[0,0,0],"id":73,"left_children":[1,-1,-1],"loss_changes":[3.3427602E-1,0E0,0E0],"parents":[2147483647,0,0],"right_children":[2,-1,-1],"split_conditions":[7.893112E-1,-2.7930154E-2,2.2984598E-2],"split_indices":[839,0,0],"split_type":[0,0,0],"sum_hessian":[3.1674266E0,1.529441E0,1.6379856E0],"tree_param":{"num_deleted":"0","num_feature":"2048","num_nodes":"3","size_leaf_vector":"1"}},{"base_weights":[-2.303032E-2,2.10327E-2,-3.0211886E-2],"categories":[],"categories_nodes":[],"categories_segments":[],"categories_sizes":[],"default_left":[0,0,0],"id":74,"left_children":[1,-1,-1],"loss_changes":[3.3308658E-1,0E0,0E0],"parents":[2147483647,0,0],"right_children":[2,-1,-1],"split_conditions":[2.5693628E-1,2.10327E-2,-3.0211886E-2],"split_indices":[788,0,0],"split_type":[0,0,0],"sum_hessian":[3.138704E0,1.8435856E0,1.2951183E0],"tree_param":{"num_deleted":"0","num_feature":"2048","num_nodes":"3","size_leaf_vector":"1"}},{"base_weights":[-2.3169668E-2,2.0479029E-2,-3.0053465E-2],"categories":[],"categories_nodes":[],"categories_segments":[],"categories_sizes":[],"default_left":[0,0,0],"id":75,"left_children":[1,-1,-1],"loss_changes":[3.2148522E-1,0E0,0E0],"parents":[2147483647,0,0],"right_children":[2,-1,-1],"split_conditions":[3.2315588E-1,2.0479029E-2,-3.0053465E-2],"split_indices":[1948,0,0],"split_type":[0,0,0],"sum_hessian":[3.111125E0,1.8512678E0,1.2598573E0],"tree_param":{"num_deleted":"0","num_feature":"2048","num_nodes":"3","size_leaf_vector":"1"}},{"base_weights":[-2.3401706E-2,2.4864415E-2,-2.5391763E-2],"categories":[],"categories_nodes":[],"categories_segments":[],"categories_sizes":[],"default_left":[0,0,0],"id":76,"left_children":[1,-1,-1],"loss_changes":[3.1928065E-1,0E0,0E0],"parents":[2147483647,0,0],"right_children":[2,-1,-1],"split_conditions":[3.771025E-1,2.4864415E-2,-2.5391763E-2],"split_indices":[1750,0,0],"split_type":[0,0,0],"sum_hessian":[3.0845459E0,1.3787533E0,1.7057924E0],"tree_param":{"num_deleted":"0","num_feature":"2048","num_nodes":"3","size_leaf_vector":"1"}},{"base_weights":[-2.1375973E-2,-2.2081418E-1,2.8651139E-2,1.8096518E-2,-5.1059015E-2],"categories":[],"categories_nodes":[],"categories_segments":[],"categories_sizes":[],"default_left":[0,0,0,0,0],"id":77,"left_children":[1,3,-1,-1,-1],"loss_changes":[3.123706E-1,4.4479057E-1,0E0,0E0,0E0],"parents":[2147483647,0,0,1,1],"right_children":[2,4,-1,-1,-1],"split_conditions":[6.154468E-1,2.9525712E-1,2.8651139E-2,1.8096518E-2,-5.1059015E-2],"split_indices":[81,742,0,0,0],"split_type":[0,0,0,0,0],"sum_hessian":[3.0567842E0,2.0267427E0,1.0300415E0,1.0065892E0,1.0201535E0],"tree_param":{"num_deleted":"0","num_feature":"2048","num_nodes":"5","size_leaf_vector":"1"}},{"base_weights":[-2.0896535E-2,-2.9667864E-2,1.9948862E-2],"categories":[],"categories_nodes":[],"categories_segments":[],"categories_sizes":[],"default_left":[0,0,0],"id":78,"left_children":[1,-1,-1],"loss_changes":[3.0197245E-1,0E0,0E0],"parents":[2147483647,0,0],"right_children":[2,-1,-1],"split_conditions":[3.8886434E-1,-2.9667864E-2,1.9948862E-2],"split_indices":[1707,0,0],"split_type":[0,0,0],"sum_hessian":[2.9946578E0,1.176387E0,1.8182708E0],"tree_param":{"num_deleted":"0","num_feature":"2048","num_nodes":"3","size_leaf_vector":"1"}},{"base_weights":[-2.1437282E-2,2.383314E-2,-2.4835065E-2],"categories":[],"categories_nodes":[],"categories_segments":[],"categories_sizes":[],"default_left":[0,0,0],"id":79,"left_children":[1,-1,-1],"loss_changes":[2.9319906E-1,0E0,0E0],"parents":[2147483647,0,0],"right_children":[2,-1,-1],"split_conditions":[2.315248E-1,2.383314E-2,-2.4835065E-2],"split_indices":[1653,0,0],"split_type":[0,0,0],"sum_hessian":[2.969961E0,1.3612703E0,1.6086906E0],"tree_param":{"num_deleted":"0","num_feature":"2048","num_nodes":"3","size_leaf_vector":"1"}},{"base_weights":[-1.9710414E-2,2.014723E-2,-2.8819496E-2],"categories":[],"categories_nodes":[],"categories_segments":[],"categories_sizes":[],"default_left":[0,0,0],"id":80,"left_children":[1,-1,-1],"loss_changes":[2.9229504E-1,0E0,0E0],"parents":[2147483647,0,0],"right_children":[2,-1,-1],"split_conditions":[2.5693628E-1,2.014723E-2,-2.8819496E-2],"split_indices":[788,0,0],"split_type":[0,0,0],"sum_hessian":[2.9443488E0,1.751239E0,1.1931099E0],"tree_param":{"num_deleted":"0","num_feature":"2048","num_nodes":"3","size_leaf_vector":"1"}},{"base_weights":[-2.0121433E-2,-2.9157415E-2,1.9285947E-2],"categories":[],"categories_nodes":[],"categories_segments":[],"categories_sizes":[],"default_left":[0,0,0],"id":81,"left_children":[1,-1,-1],"loss_changes":[2.8287235E-1,0E0,0E0],"parents":[2147483647,0,0],"right_children":[2,-1,-1],"split_conditions":[4.9935472E-1,-2.9157415E-2,1.9285947E-2],"split_indices":[1134,0,0],"split_type":[0,0,0],"sum_hessian":[2.9201324E0,1.1215968E0,1.7985356E0],"tree_param":{"num_deleted":"0","num_feature":"2048","num_nodes":"3","size_leaf_vector":"1"}},{"base_weights":[-2.0809371E-2,-2.293973E-2,2.5518877E-2],"categories":[],"categories_nodes":[],"categories_segments":[],"categories_sizes":[],"default_left":[0,0,0],"id":82,"left_children":[1,-1,-1],"loss_changes":[2.8290594E-1,0E0,0E0],"parents":[2147483647,0,0],"right_children":[2,-1,-1],"split_conditions":[6.0316736E-1,-2.293973E-2,2.5518877E-2],"split_indices":[1454,0,0],"split_type":[0,0,0],"sum_hessian":[2.8972867E0,1.7463287E0,1.1509578E0],"tree_param":{"num_deleted":"0","num_feature":"2048","num_nodes":"3","size_leaf_vector":"1"}},{"base_weights":[-1.8209716E-2,-2.890997E-2,1.9472126E-2],"categories":[],"categories_nodes":[],"categories_segments":[],"categories_sizes":[],"default_left":[0,0,0],"id":83,"left_children":[1,-1,-1],"loss_changes":[2.7962676E-1,0E0,0E0],"parents":[2147483647,0,0],"right_children":[2,-1,-1],"split_conditions":[4.7264522E-1,-2.890997E-2,1.9472126E-2],"split_indices":[1023,0,0],"split_type":[0,0,0],"sum_hessian":[2.8718715E0,1.1064872E0,1.7653843E0],"tree_param":{"num_deleted":"0","num_feature":"2048","num_nodes":"3","size_leaf_vector":"1"}},{"base_weights":[-1.8997284E-2,-2.312738E-2,2.4771206E-2],"categories":[],"categories_nodes":[],"categories_segments":[],"categories_sizes":[],"default_left":[0,0,0],"id":84,"left_children":[1,-1,-1],"loss_changes":[2.7520582E-1,0E0,0E0],"parents":[2147483647,0,0],"right_children":[2,-1,-1],"split_conditions":[7.5652677E-1,-2.312738E-2,2.4771206E-2],"split_indices":[860,0,0],"split_type":[0,0,0],"sum_hessian":[2.8490179E0,1.660373E0,1.1886448E0],"tree_param":{"num_deleted":"0","num_feature":"2048","num_nodes":"3","size_leaf_vector":"1"}},{"base_weights":[-1.6801327E-2,2.0884948E-2,-2.6375905E-2],"categories":[],"categories_nodes":[],"categories_segments":[],"categories_sizes":[],"default_left":[0,0,0],"id":85,"left_children":[1,-1,-1],"loss_changes":[2.6823938E-1,0E0,0E0],"parents":[2147483647,0,0],"right_children":[2,-1,-1],"split_conditions":[3.0015552E-1,2.0884948E-2,-2.6375905E-2],"split_indices":[1828,0,0],"split_type":[0,0,0],"sum_hessian":[2.8250124E0,1.556821E0,1.2681915E0],"tree_param":{"num_deleted":"0","num_feature":"2048","num_nodes":"3","size_leaf_vector":"1"}},{"base_weights":[-1.6700245E-2,-2.154378E-2,2.5845578E-2],"categories":[],"categories_nodes":[],"categories_segments":[],"categories_sizes":[],"default_left":[0,0,0],"id":86,"left_children":[1,-1,-1],"loss_changes":[2.6362157E-1,0E0,0E0],"parents":[2147483647,0,0],"right_children":[2,-1,-1],"split_conditions":[6.7272353E-1,-2.154378E-2,2.5845578E-2],"split_indices":[1968,0,0],"split_type":[0,0,0],"sum_hessian":[2.8025944E0,1.7532817E0,1.0493127E0],"tree_param":{"num_deleted":"0","num_feature":"2048","num_nodes":"3","size_leaf_vector":"1"}},{"base_weights":[-1.3999051E-2,1.9469848E-2,-2.7201852E-2],"categories":[],"categories_nodes":[],"categories_segments":[],"categories_sizes":[],"default_left":[0,0,0],"id":87,"left_children":[1,-1,-1],"loss_changes":[2.564962E-1,0E0,0E0],"parents":[2147483647,0,0],"right_children":[2,-1,-1],"split_conditions":[2.5693628E-1,1.9469848E-2,-2.7201852E-2],"split_indices":[788,0,0],"split_type":[0,0,0],"sum_hessian":[2.7797968E0,1.672454E0,1.1073427E0],"tree_param":{"num_deleted":"0","num_feature":"2048","num_nodes":"3","size_leaf_vector":"1"}},{"base_weights":[-1.4776814E-2,-2.2254905E-2,2.4419298E-2],"categories":[],"categories_nodes":[],"categories_segments":[],"categories_sizes":[],"default_left":[0,0,0],"id":88,"left_children":[1,-1,-1],"loss_changes":[2.565825E-1,0E0,0E0],"parents":[2147483647,0,0],"right_children":[2,-1,-1],"split_conditions":[9.204621E-1,-2.2254905E-2,2.4419298E-2],"split_indices":[473,0,0],"split_type":[0,0,0],"sum_hessian":[2.7585926E0,1.608625E0,1.1499674E0],"tree_param":{"num_deleted":"0","num_feature":"2048","num_nodes":"3","size_leaf_vector":"1"}},{"base_weights":[-1.282214E-2,-2.776475E-2,1.900888E-2],"categories":[],"categories_nodes":[],"categories_segments":[],"categories_sizes":[],"default_left":[0,0,0],"id":89,"left_children":[1,-1,-1],"loss_changes":[2.535226E-1,0E0,0E0],"parents":[2147483647,0,0],"right_children":[2,-1,-1],"split_conditions":[4.4995573E-1,-2.776475E-2,1.900888E-2],"split_indices":[904,0,0],"split_type":[0,0,0],"sum_hessian":[2.7357655E0,1.0270321E0,1.7087334E0],"tree_param":{"num_deleted":"0","num_feature":"2048","num_nodes":"3","size_leaf_vector":"1"}},{"base_weights":[-1.4010467E-2,-2.5878737E-2,2.0033566E-2],"categories":[],"categories_nodes":[],"categories_segments":[],"categories_sizes":[],"default_left":[0,0,0],"id":90,"left_children":[1,-1,-1],"loss_changes":[2.467816E-1,0E0,0E0],"parents":[2147483647,0,0],"right_children":[2,-1,-1],"split_conditions":[3.701307E-1,-2.5878737E-2,2.0033566E-2],"split_indices":[1833,0,0],"split_type":[0,0,0],"sum_hessian":[2.7154276E0,1.1709284E0,1.5444993E0],"tree_param":{"num_deleted":"0","num_feature":"2048","num_nodes":"3","size_leaf_vector":"1"}},{"base_weights":[-1.4303685E-2,-2.5112465E-2,2.0714413E-2],"categories":[],"categories_nodes":[],"categories_segments":[],"categories_sizes":[],"default_left":[0,0,0],"id":91,"left_children":[1,-1,-1],"loss_changes":[2.4579445E-1,0E0,0E0],"parents":[2147483647,0,0],"right_children":[2,-1,-1],"split_conditions":[4.6404207E-1,-2.5112465E-2,2.0714413E-2],"split_indices":[1553,0,0],"split_type":[0,0,0],"sum_hessian":[2.6949391E0,1.2375085E0,1.4574305E0],"tree_param":{"num_deleted":"0","num_feature":"2048","num_nodes":"3","size_leaf_vector":"1"}},{"base_weights":[-1.4181562E-2,-2.307805E-2,2.253353E-2],"categories":[],"categories_nodes":[],"categories_segments":[],"categories_sizes":[],"default_left":[0,0,0],"id":92,"left_children":[1,-1,-1],"loss_changes":[2.4261643E-1,0E0,0E0],"parents":[2147483647,0,0],"right_children":[2,-1,-1],"split_conditions":[9.82908E-1,-2.307805E-2,2.253353E-2],"split_indices":[1131,0,0],"split_type":[0,0,0],"sum_hessian":[2.6741858E0,1.42343E0,1.2507557E0],"tree_param":{"num_deleted":"0","num_feature":"2048","num_nodes":"3","size_leaf_vector":"1"}},{"base_weights":[-1.3013608E-2,-2.482388E-2,2.0467876E-2],"categories":[],"categories_nodes":[],"categories_segments":[],"categories_sizes":[],"default_left":[0,0,0],"id":93,"left_children":[1,-1,-1],"loss_changes":[2.3786686E-1,0E0,0E0],"parents":[2147483647,0,0],"right_children":[2,-1,-1],"split_conditions":[7.0863146E-1,-2.482388E-2,2.0467876E-2],"split_indices":[1698,0,0],"split_type":[0,0,0],"sum_hessian":[2.6529906E0,1.2077018E0,1.4452888E0],"tree_param":{"num_deleted":"0","num_feature":"2048","num_nodes":"3","size_leaf_vector":"1"}},{"base_weights":[-1.3012423E-2,2.0120448E-2,-2.4651436E-2],"categories":[],"categories_nodes":[],"categories_segments":[],"categories_sizes":[],"default_left":[0,0,0],"id":94,"left_children":[1,-1,-1],"loss_changes":[2.3132463E-1,0E0,0E0],"parents":[2147483647,0,0],"right_children":[2,-1,-1],"split_conditions":[2.3490845E-1,2.0120448E-2,-2.4651436E-2],"split_indices":[707,0,0],"split_type":[0,0,0],"sum_hessian":[2.6330397E0,1.4453653E0,1.1876743E0],"tree_param":{"num_deleted":"0","num_feature":"2048","num_nodes":"3","size_leaf_vector":"1"}},{"base_weights":[-1.3064986E-2,2.2116182E-2,-2.2199174E-2],"categories":[],"categories_nodes":[],"categories_segments":[],"categories_sizes":[],"default_left":[0,0,0],"id":95,"left_children":[1,-1,-1],"loss_changes":[2.2592264E-1,0E0,0E0],"parents":[2147483647,0,0],"right_children":[2,-1,-1],"split_conditions":[2.315248E-1,2.2116182E-2,-2.2199174E-2],"split_indices":[1653,0,0],"split_type":[0,0,0],"sum_hessian":[2.613407E0,1.2044935E0,1.4089134E0],"tree_param":{"num_deleted":"0","num_feature":"2048","num_nodes":"3","size_leaf_vector":"1"}},{"base_weights":[-1.1870548E-2,1.8648295E-2,-2.5964731E-2],"categories":[],"categories_nodes":[],"categories_segments":[],"categories_sizes":[],"default_left":[0,0,0],"id":96,"left_children":[1,-1,-1],"loss_changes":[2.2502963E-1,0E0,0E0],"parents":[2147483647,0,0],"right_children":[2,-1,-1],"split_conditions":[2.5693628E-1,1.8648295E-2,-2.5964731E-2],"split_indices":[788,0,0],"split_type":[0,0,0],"sum_hessian":[2.5934737E0,1.577782E0,1.0156915E0],"tree_param":{"num_deleted":"0","num_feature":"2048","num_nodes":"3","size_leaf_vector":"1"}},{"base_weights":[-1.2827927E-2,1.8479224E-2,-2.5856305E-2],"categories":[],"categories_nodes":[],"categories_segments":[],"categories_sizes":[],"default_left":[0,0,0],"id":97,"left_children":[1,-1,-1],"loss_changes":[2.2138193E-1,0E0,0E0],"parents":[2147483647,0,0],"right_children":[2,-1,-1],"split_conditions":[3.2315588E-1,1.8479224E-2,-2.5856305E-2],"split_indices":[1948,0,0],"split_type":[0,0,0],"sum_hessian":[2.5748262E0,1.5645875E0,1.0102389E0],"tree_param":{"num_deleted":"0","num_feature":"2048","num_nodes":"3","size_leaf_vector":"1"}},{"base_weights":[-1.3721474E-2,-2.3576487E-2,2.0240154E-2],"categories":[],"categories_nodes":[],"categories_segments":[],"categories_sizes":[],"default_left":[0,0,0],"id":98,"left_children":[1,-1,-1],"loss_changes":[2.1838209E-1,0E0,0E0],"parents":[2147483647,0,0],"right_children":[2,-1,-1],"split_conditions":[7.893112E-1,-2.3576487E-2,2.0240154E-2],"split_indices":[839,0,0],"split_type":[0,0,0],"sum_hessian":[2.5563157E0,1.2160604E0,1.3402554E0],"tree_param":{"num_deleted":"0","num_feature":"2048","num_nodes":"3","size_leaf_vector":"1"}},{"base_weights":[-1.3390432E-2,-2.2134228E-2,2.1023603E-2],"categories":[],"categories_nodes":[],"categories_segments":[],"categories_sizes":[],"default_left":[0,0,0],"id":99,"left_children":[1,-1,-1],"loss_changes":[2.1102948E-1,0E0,0E0],"parents":[2147483647,0,0],"right_children":[2,-1,-1],"split_conditions":[3.6357567E-1,-2.2134228E-2,2.1023603E-2],"split_indices":[375,0,0],"split_type":[0,0,0],"sum_hessian":[2.537266E0,1.3200015E0,1.2172645E0],"tree_param":{"num_deleted":"0","num_feature":"2048","num_nodes":"3","size_leaf_vector":"1"}}]},"name":"gbtree"},"learner_model_param":{"base_score":"1.4185107E-1","boost_from_average":"1","num_class":"0","num_feature":"2048","num_target":"1"},"objective":{"name":"binary:logistic","reg_loss_param":{"scale_pos_weight":"1"}}},"version":[2,0,1]}