{"learner":{"attributes":{"scikit_learn":"{\"_estimator_type\": \"classifier\"}"},"feature_names":[],"feature_types":[],"gradient_booster":{"model":{"gbtree_model_param":{"num_parallel_tree":"1","num_trees":"100"},"iteration_indptr":[0,1,2,3,4,5,6,7,8,9,10,11,12,13,14,15,16,17,18,19,20,21,22,23,24,25,26,27,28,29,30,31,32,33,34,35,36,37,38,39,40,41,42,43,44,45,46,47,48,49,50,51,52,53,54,55,56,57,58,59,60,61,62,63,64,65,66,67,68,69,70,71,72,73,74,75,76,77,78,79,80,81,82,83,84,85,86,87,88,89,90,91,92,93,94,95,96,97,98,99,100],"tree_info":[0,0,0,0,0,0,0,0,0,0,0,0,0,0,0,0,0,0,0,0,0,0,0,0,0,0,0,0,0,0,0,0,0,0,0,0,0,0,0,0,0,0,0,0,0,0,0,0,0,0,0,0,0,0,0,0,0,0,0,0,0,0,0,0,0,0,0,0,0,0,0,0,0,0,0,0,0,0,0,0,0,0,0,0,0,0,0,0,0,0,0,0,0,0,0,0,0,0,0,0],"trees":[{"base_weights":[-9.744375E-1,-1.0542601E0,7.3046036E-2,3.526375E-2,-1.1103254E-1],"categories":[],"categories_nodes":[],"categories_segments":[],"categories_sizes":[],"default_left":[0,0,0,0,0],"id":0,"left_children":[1,3,-1,-1,-1],"loss_changes":[5.699421E0,3.1530914E0,0E0,0E0,0E0],"parents":[2147483647,0,0,1,1],"right_children":[2,4,-1,-1,-1],"split_conditions":[7.476757E-1,1.0678037E-1,7.3046036E-2,3.526375E-2,-1.1103254E-1],"split_indices":[415,1818,0,0,0],"split_type":[0,0,0,0,0],"sum_hessian":[3.522119E1,3.4010464E1,1.2107284E0,1.1006622E0,3.29098E1],"tree_param":{"num_deleted":"0","num_feature":"2048","num_nodes":"5","size_leaf_vector":"1"}},{"base_weights":[-9.484819E-1,6.843327E-2,-1.0336891E0,-1.09417E-1,4.034223E-2],"categories":[],"categories_nodes":[],"categories_segments":[],"categories_sizes":[],"default_left":[0,0,0,0,0],"id":1,"left_children":[1,-1,3,-1,-1],"loss_changes":[5.3896446E0,0E0,3.2561226E0,0E0,0E0],"parents":[2147483647,0,0,2,2],"right_children":[2,-1,4,-1,-1],"split_conditions":[7.5099856E-2,6.843327E-2,8.459682E-1,-1.09417E-1,4.034223E-2],"split_indices":[1004,0,689,0,0],"split_type":[0,0,0,0,0],"sum_hessian":[3.2654423E1,1.2708023E0,3.1383621E1,3.0345177E1,1.0384438E0],"tree_param":{"num_deleted":"0","num_feature":"2048","num_nodes":"5","size_leaf_vector":"1"}},{"base_weights":[-9.232272E-1,-1.0138204E0,7.0686944E-2,3.8408518E-2,-1.07876934E-1],"categories":[],"categories_nodes":[],"categories_segments":[],"categories_sizes":[],"default_left":[0,0,0,0,0],"id":2,"left_children":[1,3,-1,-1,-1],"loss_changes":[5.3344593E0,3.141243E0,0E0,0E0,0E0],"parents":[2147483647,0,0,1,1],"right_children":[2,4,-1,-1,-1],"split_conditions":[7.476757E-1,8.651401E-2,7.0686944E-2,3.8408518E-2,-1.07876934E-1],"split_indices":[415,164,0,0,0],"split_type":[0,0,0,0,0],"sum_hessian":[3.027E1,2.903446E1,1.2355392E0,1.0709349E0,2.7963526E1],"tree_param":{"num_deleted":"0","num_feature":"2048","num_nodes":"5","size_leaf_vector":"1"}},{"base_weights":[-8.986014E-1,-1.0287255E0,4.086182E-1,-1.0642054E-1,-5.90058E-3,1.4142402E-1,-6.342306E-2],"categories":[],"categories_nodes":[],"categories_segments":[],"categories_sizes":[],"default_left":[0,0,0,0,0,0,0],"id":3,"left_children":[1,3,5,-1,-1,-1,-1],"loss_changes":[5.3628635E0,8.561802E-1,4.4061656E0,0E0,0E0,0E0,0E0],"parents":[2147483647,0,0,1,1,2,2],"right_children":[2,4,6,-1,-1,-1,-1],"split_conditions":[1.0692472E0,1.1808771E0,3.3500406E-1,-1.0642054E-1,-5.90058E-3,1.4142402E-1,-6.342306E-2],"split_indices":[712,21,678,0,0,0,0],"split_type":[0,0,0,0,0,0,0],"sum_hessian":[2.8056341E1,2.5710129E1,2.3462114E0,2.470866E1,1.0014701E0,1.0131228E0,1.3330886E0],"tree_param":{"num_deleted":"0","num_feature":"2048","num_nodes":"7","size_leaf_vector":"1"}},{"base_weights":[-8.746501E-1,-9.7847503E-1,7.19005E-2,3.9358415E-2,-1.0533183E-1],"categories":[],"categories_nodes":[],"categories_segments":[],"categories_sizes":[],"default_left":[0,0,0,0,0],"id":4,"left_children":[1,3,-1,-1,-1],"loss_changes":[5.1782207E0,3.0653152E0,0E0,0E0,0E0],"parents":[2147483647,0,0,1,1],"right_children":[2,4,-1,-1,-1],"split_conditions":[8.9335984E-1,1.8643358E-1,7.19005E-2,3.9358415E-2,-1.0533183E-1],"split_indices":[506,1084,0,0,0],"split_type":[0,0,0,0,0],"sum_hessian":[2.604378E1,2.4813242E1,1.2305373E0,1.0632113E0,2.375003E1],"tree_param":{"num_deleted":"0","num_feature":"2048","num_nodes":"5","size_leaf_vector":"1"}},{"base_weights":[-8.503228E-1,-9.9750346E-1,4.328832E-1,-1.0386783E-1,-4.8514004E-3,-6.1730124E-2,1.416684E-1],"categories":[],"categories_nodes":[],"categories_segments":[],"categories_sizes":[],"default_left":[0,0,0,0,0,0,0],"id":5,"left_children":[1,3,5,-1,-1,-1,-1],"loss_changes":[5.1830387E0,8.432846E-1,4.269439E0,0E0,0E0,0E0,0E0],"parents":[2147483647,0,0,1,1,2,2],"right_children":[2,4,6,-1,-1,-1,-1],"split_conditions":[1.0692472E0,1.0829237E0,5.252458E-1,-1.0386783E-1,-4.8514004E-3,-6.1730124E-2,1.416684E-1],"split_indices":[712,137,882,0,0,0,0],"split_type":[0,0,0,0,0,0,0],"sum_hessian":[2.415704E1,2.1871122E1,2.2859178E0,2.0871058E1,1.0000647E0,1.2858437E0,1.000074E0],"tree_param":{"num_deleted":"0","num_feature":"2048","num_nodes":"7","size_leaf_vector":"1"}},{"base_weights":[-8.269266E-1,7.692511E-2,-9.448082E-1,-1.0301285E-1,4.3214258E-2],"categories":[],"categories_nodes":[],"categories_segments":[],"categories_sizes":[],"default_left":[0,0,0,0,0],"id":6,"left_children":[1,-1,3,-1,-1],"loss_changes":[5.137165E0,0E0,3.0622196E0,0E0,0E0],"parents":[2147483647,0,0,2,2],"right_children":[2,-1,4,-1,-1],"split_conditions":[7.5099856E-2,7.692511E-2,1.0262525E0,-1.0301285E-1,4.3214258E-2],"split_indices":[1004,0,1952,0,0],"split_type":[0,0,0,0,0],"sum_hessian":[2.2439476E1,1.1632222E0,2.1276255E1,2.0272013E1,1.0042427E0],"tree_param":{"num_deleted":"0","num_feature":"2048","num_nodes":"5","size_leaf_vector":"1"}},{"base_weights":[-8.026305E-1,-9.682294E-1,4.4967395E-1,-4.331717E-3,-1.0156494E-1,-6.007964E-2,1.3865492E-1],"categories":[],"categories_nodes":[],"categories_segments":[],"categories_sizes":[],"default_left":[0,0,0,0,0,0,0],"id":7,"left_children":[1,3,5,-1,-1,-1,-1],"loss_changes":[4.9621286E0,8.1547165E-1,4.0140424E0,0E0,0E0,0E0,0E0],"parents":[2147483647,0,0,1,1,2,2],"right_children":[2,4,6,-1,-1,-1,-1],"split_conditions":[1.0692472E0,1.1011613E-1,5.892946E-1,-4.331717E-3,-1.0156494E-1,-6.007964E-2,1.3865492E-1],"split_indices":[712,760,724,0,0,0,0],"split_type":[0,0,0,0,0,0,0],"sum_hessian":[2.0828215E1,1.8596006E1,2.2322078E0,1.0002316E0,1.7595776E1,1.2214177E0,1.0107902E0],"tree_param":{"num_deleted":"0","num_feature":"2048","num_nodes":"7","size_leaf_vector":"1"}},{"base_weights":[-7.794413E-1,7.250773E-2,-9.113675E-1,-1.00857906E-1,4.1980755E-2],"categories":[],"categories_nodes":[],"categories_segments":[],"categories_sizes":[],"default_left":[0,0,0,0,0],"id":8,"left_children":[1,-1,3,-1,-1],"loss_changes":[4.7047358E0,0E0,2.9046974E0,0E0,0E0],"parents":[2147483647,0,0,2,2],"right_children":[2,-1,4,-1,-1],"split_conditions":[7.5099856E-2,7.250773E-2,8.56791E-1,-1.00857906E-1,4.1980755E-2],"split_indices":[1004,0,2026,0,0],"split_type":[0,0,0,0,0],"sum_hessian":[1.9373917E1,1.1994139E0,1.8174501E1,1.7163448E1,1.0110544E0],"tree_param":{"num_deleted":"0","num_feature":"2048","num_nodes":"5","size_leaf_vector":"1"}},{"base_weights":[-7.550711E-1,-9.399141E-1,4.556119E-1,-3.906908E-3,-9.944951E-2,1.3718584E-1,-5.8941275E-2],"categories":[],"categories_nodes":[],"categories_segments":[],"categories_sizes":[],"default_left":[0,0,0,0,0,0,0],"id":9,"left_children":[1,3,5,-1,-1,-1,-1],"loss_changes":[4.6830378E0,7.882147E-1,3.8647776E0,0E0,0E0,0E0,0E0],"parents":[2147483647,0,0,1,1,2,2],"right_children":[2,4,6,-1,-1,-1,-1],"split_conditions":[1.0692472E0,1.14152804E-1,2.926305E-1,-3.906908E-3,-9.944951E-2,1.3718584E-1,-5.8941275E-2],"split_indices":[712,914,1448,0,0,0,0],"split_type":[0,0,0,0,0,0,0],"sum_hessian":[1.8012785E1,1.5820946E1,2.1918397E0,1.0018282E0,1.4819118E1,1.0012347E0,1.1906049E0],"tree_param":{"num_deleted":"0","num_feature":"2048","num_nodes":"7","size_leaf_vector":"1"}},{"base_weights":[-7.3202133E-1,-9.282847E-1,4.181775E-1,-5.2275322E-3,-9.8521866E-2,1.3630371E-1,-5.9524246E-2],"categories":[],"categories_nodes":[],"categories_segments":[],"categories_sizes":[],"default_left":[0,0,0,0,0,0,0],"id":10,"left_children":[1,3,5,-1,-1,-1,-1],"loss_changes":[4.4021416E0,7.2155094E-1,3.953262E0,0E0,0E0,0E0,0E0],"parents":[2147483647,0,0,1,1,2,2],"right_children":[2,4,6,-1,-1,-1,-1],"split_conditions":[6.637293E-1,1.946662E-1,1.8402009E-1,-5.2275322E-3,-9.8521866E-2,1.3630371E-1,-5.9524246E-2],"split_indices":[1459,2030,1004,0,0,0,0],"split_type":[0,0,0,0,0,0,0],"sum_hessian":[1.6781168E1,1.4499921E1,2.2812483E0,1.0019332E0,1.3497987E1,1.0020254E0,1.2792231E0],"tree_param":{"num_deleted":"0","num_feature":"2048","num_nodes":"7","size_leaf_vector":"1"}},{"base_weights":[-7.089143E-1,-9.118334E-1,4.5314E-1,-3.845622E-3,-9.736421E-2,1.3265662E-1,-5.738157E-2],"categories":[],"categories_nodes":[],"categories_segments":[],"categories_sizes":[],"default_left":[0,0,0,0,0,0,0],"id":11,"left_children":[1,3,5,-1,-1,-1,-1],"loss_changes":[4.3401594E0,7.4583054E-1,3.5810752E0,0E0,0E0,0E0,0E0],"parents":[2147483647,0,0,1,1,2,2],"right_children":[2,4,6,-1,-1,-1,-1],"split_conditions":[1.0692472E0,3.199314E-1,3.7032908E-1,-3.845622E-3,-9.736421E-2,1.3265662E-1,-5.738157E-2],"split_indices":[712,65,1665,0,0,0,0],"split_type":[0,0,0,0,0,0,0],"sum_hessian":[1.5653606E1,1.3509831E1,2.1437745E0,1.0001115E0,1.2509721E1,1.0008258E0,1.1429487E0],"tree_param":{"num_deleted":"0","num_feature":"2048","num_nodes":"7","size_leaf_vector":"1"}},{"base_weights":[-6.863072E-1,-9.013151E-1,4.4043517E-1,-5.605403E-3,-9.6519314E-2,1.3017221E-1,-5.6524213E-2],"categories":[],"categories_nodes":[],"categories_segments":[],"categories_sizes":[],"default_left":[0,0,0,0,0,0,0],"id":12,"left_children":[1,3,5,-1,-1,-1,-1],"loss_changes":[4.1772885E0,6.7115116E-1,3.4835386E0,0E0,0E0,0E0,0E0],"parents":[2147483647,0,0,1,1,2,2],"right_children":[2,4,6,-1,-1,-1,-1],"split_conditions":[5.526897E-1,1.4853679E-1,3.2418612E-1,-5.605403E-3,-9.6519314E-2,1.3017221E-1,-5.6524213E-2],"split_indices":[1857,1507,657,0,0,0,0],"split_type":[0,0,0,0,0,0,0],"sum_hessian":[1.4604481E1,1.2432205E1,2.1722753E0,1.0054317E0,1.1426773E1,1.011569E0,1.1607062E0],"tree_param":{"num_deleted":"0","num_feature":"2048","num_nodes":"7","size_leaf_vector":"1"}},{"base_weights":[-6.636473E-1,4.5305085E-1,-8.897711E-1,-5.5839866E-2,1.2985551E-1,-7.5472826E-3,-9.539576E-2],"categories":[],"categories_nodes":[],"categories_segments":[],"categories_sizes":[],"default_left":[0,0,0,0,0,0,0],"id":13,"left_children":[1,3,5,-1,-1,-1,-1],"loss_changes":[4.1014323E0,3.4009318E0,5.822363E-1,0E0,0E0,0E0,0E0],"parents":[2147483647,0,0,1,1,2,2],"right_children":[2,4,6,-1,-1,-1,-1],"split_conditions":[1.21325135E-1,5.187573E-1,1.4591683E-1,-5.5839866E-2,1.2985551E-1,-7.5472826E-3,-9.539576E-2],"split_indices":[1004,1356,1171,0,0,0,0],"split_type":[0,0,0,0,0,0,0],"sum_hessian":[1.3646114E1,2.128938E0,1.1517176E1,1.1239545E0,1.0049833E0,1.0004796E0,1.0516696E1],"tree_param":{"num_deleted":"0","num_feature":"2048","num_nodes":"7","size_leaf_vector":"1"}},{"base_weights":[-6.4116985E-1,-8.73293E-1,4.4672322E-1,-5.808547E-3,-9.4417445E-2,-5.4278653E-2,1.24903336E-1],"categories":[],"categories_nodes":[],"categories_segments":[],"categories_sizes":[],"default_left":[0,0,0,0,0,0,0],"id":14,"left_children":[1,3,5,-1,-1,-1,-1],"loss_changes":[3.8658414E0,6.2017536E-1,3.1246872E0,0E0,0E0,0E0,0E0],"parents":[2147483647,0,0,1,1,2,2],"right_children":[2,4,6,-1,-1,-1,-1],"split_conditions":[6.637293E-1,1.2870918E-1,5.090053E-1,-5.808547E-3,-9.4417445E-2,-5.4278653E-2,1.24903336E-1],"split_indices":[1459,1964,1474,0,0,0,0],"split_type":[0,0,0,0,0,0,0],"sum_hessian":[1.276386E1,1.0681926E1,2.0819347E0,1.0000325E0,9.681893E0,1.0770507E0,1.0048841E0],"tree_param":{"num_deleted":"0","num_feature":"2048","num_nodes":"7","size_leaf_vector":"1"}},{"base_weights":[-6.19208E-1,-8.563326E-1,4.6809196E-2,-9.332176E-2,-4.4672457E-3],"categories":[],"categories_nodes":[],"categories_segments":[],"categories_sizes":[],"default_left":[0,0,0,0,0],"id":15,"left_children":[1,3,-1,-1,-1],"loss_changes":[3.7381582E0,6.435137E-1,0E0,0E0,0E0],"parents":[2147483647,0,0,1,1],"right_children":[2,4,-1,-1,-1],"split_conditions":[1.0692472E0,6.001372E-1,4.6809196E-2,-9.332176E-2,-4.4672457E-3],"split_indices":[712,1163,0,0,0],"split_type":[0,0,0,0,0],"sum_hessian":[1.1944085E1,9.98001E0,1.9640749E0,8.979644E0,1.0003664E0],"tree_param":{"num_deleted":"0","num_feature":"2048","num_nodes":"5","size_leaf_vector":"1"}},{"base_weights":[-5.9619504E-1,4.7605965E-2,-8.505078E-1,-9.238619E-2,-8.624922E-3],"categories":[],"categories_nodes":[],"categories_segments":[],"categories_sizes":[],"default_left":[0,0,0,0,0],"id":16,"left_children":[1,-1,3,-1,-1],"loss_changes":[3.7443066E0,0E0,4.9536514E-1,0E0,0E0],"parents":[2147483647,0,0,2,2],"right_children":[2,-1,4,-1,-1],"split_conditions":[1.21325135E-1,4.7605965E-2,6.4786035E-1,-9.238619E-2,-8.624922E-3],"split_indices":[1004,0,298,0,0],"split_type":[0,0,0,0,0],"sum_hessian":[1.1246278E1,1.9888363E0,9.2574415E0,8.256174E0,1.0012677E0],"tree_param":{"num_deleted":"0","num_feature":"2048","num_nodes":"5","size_leaf_vector":"1"}},{"base_weights":[-5.7313025E-1,-8.3049756E-1,4.7605556E-2,-4.51925E-3,-9.156766E-2],"categories":[],"categories_nodes":[],"categories_segments":[],"categories_sizes":[],"default_left":[0,0,0,0,0],"id":17,"left_children":[1,3,-1,-1,-1],"loss_changes":[3.5321624E0,6.0697985E-1,0E0,0E0,0E0],"parents":[2147483647,0,0,1,1],"right_children":[2,4,-1,-1,-1],"split_conditions":[6.0045815E-1,2.4348713E-1,4.7605556E-2,-4.51925E-3,-9.156766E-2],"split_indices":[1928,81,0,0,0],"split_type":[0,0,0,0,0],"sum_hessian":[1.0616651E1,8.69274E0,1.9239097E0,1.0003744E0,7.692366E0],"tree_param":{"num_deleted":"0","num_feature":"2048","num_nodes":"5","size_leaf_vector":"1"}},{"base_weights":[-5.502405E-1,-8.1983495E-1,4.9130645E-2,-9.050712E-2,-6.312472E-3],"categories":[],"categories_nodes":[],"categories_segments":[],"categories_sizes":[],"default_left":[0,0,0,0,0],"id":18,"left_children":[1,3,-1,-1,-1],"loss_changes":[3.5009658E0,5.32362E-1,0E0,0E0,0E0],"parents":[2147483647,0,0,1,1],"right_children":[2,4,-1,-1,-1],"split_conditions":[5.526897E-1,7.771471E-1,4.9130645E-2,-9.050712E-2,-6.312472E-3],"split_indices":[1857,1538,0,0,0],"split_type":[0,0,0,0,0],"sum_hessian":[1.0033573E1,8.139586E0,1.8939861E0,7.1393466E0,1.0002401E0],"tree_param":{"num_deleted":"0","num_feature":"2048","num_nodes":"5","size_leaf_vector":"1"}},{"base_weights":[-5.276423E-1,4.7884498E-2,-8.1751126E-1,-8.934932E-2,-1.2311417E-2],"categories":[],"categories_nodes":[],"categories_segments":[],"categories_sizes":[],"default_left":[0,0,0,0,0],"id":19,"left_children":[1,-1,3,-1,-1],"loss_changes":[3.454558E0,0E0,3.3957052E-1,0E0,0E0],"parents":[2147483647,0,0,2,2],"right_children":[2,-1,4,-1,-1],"split_conditions":[1.4967528E-1,4.7884498E-2,6.970039E-1,-8.934932E-2,-1.2311417E-2],"split_indices":[164,0,848,0,0],"split_type":[0,0,0,0,0],"sum_hessian":[9.499067E0,1.9782435E0,7.520824E0,6.5206113E0,1.0002126E0],"tree_param":{"num_deleted":"0","num_feature":"2048","num_nodes":"5","size_leaf_vector":"1"}},{"base_weights":[-5.0532776E-1,-8.835535E-2,3.1954834E-1,1.0767118E-1,-6.009692E-2],"categories":[],"categories_nodes":[],"categories_segments":[],"categories_sizes":[],"default_left":[0,0,0,0,0],"id":20,"left_children":[1,-1,3,-1,-1],"loss_changes":[3.4094057E0,0E0,3.3551116E0,0E0,0E0],"parents":[2147483647,0,0,2,2],"right_children":[2,-1,4,-1,-1],"split_conditions":[8.2924587E-1,-8.835535E-2,3.2418612E-1,1.0767118E-1,-6.009692E-2],"split_indices":[1839,0,657,0,0],"split_type":[0,0,0,0,0],"sum_hessian":[9.022997E0,6.1376166E0,2.8853805E0,1.4900622E0,1.3953183E0],"tree_param":{"num_deleted":"0","num_feature":"2048","num_nodes":"5","size_leaf_vector":"1"}},{"base_weights":[-4.865669E-1,5.0407E-2,-7.865894E-1,-8.722381E-2,-1.07173575E-2],"categories":[],"categories_nodes":[],"categories_segments":[],"categories_sizes":[],"default_left":[0,0,0,0,0],"id":21,"left_children":[1,-1,3,-1,-1],"loss_changes":[3.222624E0,0E0,3.539462E-1,0E0,0E0],"parents":[2147483647,0,0,2,2],"right_children":[2,-1,4,-1,-1],"split_conditions":[1.21325135E-1,5.0407E-2,5.2530587E-1,-8.722381E-2,-1.07173575E-2],"split_indices":[1004,0,979,0,0],"split_type":[0,0,0,0,0],"sum_hessian":[8.508752E0,1.8198212E0,6.688931E0,5.688073E0,1.0008578E0],"tree_param":{"num_deleted":"0","num_feature":"2048","num_nodes":"5","size_leaf_vector":"1"}},{"base_weights":[-4.6532732E-1,-8.6213455E-2,3.2367852E-1,9.877336E-2,-5.6987215E-2],"categories":[],"categories_nodes":[],"categories_segments":[],"categories_sizes":[],"default_left":[0,0,0,0,0],"id":22,"left_children":[1,-1,3,-1,-1],"loss_changes":[3.1269965E0,0E0,2.8004515E0,0E0,0E0],"parents":[2147483647,0,0,2,2],"right_children":[2,-1,4,-1,-1],"split_conditions":[8.2924587E-1,-8.6213455E-2,3.2418612E-1,9.877336E-2,-5.6987215E-2],"split_indices":[1839,0,657,0,0],"split_type":[0,0,0,0,0],"sum_hessian":[8.096439E0,5.3254676E0,2.7709713E0,1.5291548E0,1.2418165E0],"tree_param":{"num_deleted":"0","num_feature":"2048","num_nodes":"5","size_leaf_vector":"1"}},{"base_weights":[-4.4786167E-1,-7.5413734E-1,5.1406205E-2,-8.375077E-3,-8.525641E-2],"categories":[],"categories_nodes":[],"categories_segments":[],"categories_sizes":[],"default_left":[0,0,0,0,0],"id":23,"left_children":[1,3,-1,-1,-1],"loss_changes":[2.9377084E0,3.8853955E-1,0E0,0E0,0E0],"parents":[2147483647,0,0,1,1],"right_children":[2,4,-1,-1,-1],"split_conditions":[6.637293E-1,2.8579894E-1,5.1406205E-2,-8.375077E-3,-8.525641E-2],"split_indices":[1459,1663,0,0,0],"split_type":[0,0,0,0,0],"sum_hessian":[7.6555166E0,5.9705195E0,1.684997E0,1.0013309E0,4.9691887E0],"tree_param":{"num_deleted":"0","num_feature":"2048","num_nodes":"5","size_leaf_vector":"1"}},{"base_weights":[-4.2766267E-1,-8.4241524E-2,3.3613342E-1,9.549169E-2,-5.4377943E-2],"categories":[],"categories_nodes":[],"categories_segments":[],"categories_sizes":[],"default_left":[0,0,0,0,0],"id":24,"left_children":[1,-1,3,-1,-1],"loss_changes":[2.9119177E0,0E0,2.4984725E0,0E0,0E0],"parents":[2147483647,0,0,2,2],"right_children":[2,-1,4,-1,-1],"split_conditions":[6.1694825E-1,-8.4241524E-2,2.6769945E-1,9.549169E-2,-5.4377943E-2],"split_indices":[1956,0,800,0,0],"split_type":[0,0,0,0,0],"sum_hessian":[7.298189E0,4.663116E0,2.6350732E0,1.4970549E0,1.1380183E0],"tree_param":{"num_deleted":"0","num_feature":"2048","num_nodes":"5","size_leaf_vector":"1"}},{"base_weights":[-4.1146487E-1,-8.2861066E-2,3.1509185E-1,-5.352357E-2,8.992807E-2],"categories":[],"categories_nodes":[],"categories_segments":[],"categories_sizes":[],"default_left":[0,0,0,0,0],"id":25,"left_children":[1,-1,3,-1,-1],"loss_changes":[2.6591725E0,0E0,2.274801E0,0E0,0E0],"parents":[2147483647,0,0,2,2],"right_children":[2,-1,4,-1,-1],"split_conditions":[6.1694825E-1,-8.2861066E-2,5.2324945E-1,-5.352357E-2,8.992807E-2],"split_indices":[1956,0,1356,0,0],"split_type":[0,0,0,0,0],"sum_hessian":[6.912378E0,4.301976E0,2.6104019E0,1.0971786E0,1.5132233E0],"tree_param":{"num_deleted":"0","num_feature":"2048","num_nodes":"5","size_leaf_vector":"1"}},{"base_weights":[-3.9609382E-1,-8.1617095E-2,3.190068E-1,8.6429186E-2,-5.159053E-2],"categories":[],"categories_nodes":[],"categories_segments":[],"categories_sizes":[],"default_left":[0,0,0,0,0],"id":26,"left_children":[1,-1,3,-1,-1],"loss_changes":[2.5303388E0,0E0,2.0462954E0,0E0,0E0],"parents":[2147483647,0,0,2,2],"right_children":[2,-1,4,-1,-1],"split_conditions":[8.2924587E-1,-8.1617095E-2,3.1457236E-1,8.6429186E-2,-5.159053E-2],"split_indices":[1839,0,1301,0,0],"split_type":[0,0,0,0,0],"sum_hessian":[6.556571E0,4.04125E0,2.5153205E0,1.500287E0,1.0150335E0],"tree_param":{"num_deleted":"0","num_feature":"2048","num_nodes":"5","size_leaf_vector":"1"}},{"base_weights":[-3.8151786E-1,4.52785E-2,-7.204883E-1,-7.935684E-2,-1.9555567E-2],"categories":[],"categories_nodes":[],"categories_segments":[],"categories_sizes":[],"default_left":[0,0,0,0,0],"id":27,"left_children":[1,-1,3,-1,-1],"loss_changes":[2.3687096E0,0E0,5.6633234E-2,0E0,0E0],"parents":[2147483647,0,0,2,2],"right_children":[2,-1,4,-1,-1],"split_conditions":[1.4967528E-1,4.52785E-2,5.919058E-1,-7.935684E-2,-1.9555567E-2],"split_indices":[164,0,297,0,0],"split_type":[0,0,0,0,0],"sum_hessian":[6.222256E0,1.7006664E0,4.5215898E0,3.519815E0,1.0017748E0],"tree_param":{"num_deleted":"0","num_feature":"2048","num_nodes":"5","size_leaf_vector":"1"}},{"base_weights":[-3.645302E-1,3.1873292E-1,-7.939451E-2,8.421489E-2,-3.0214584E-2],"categories":[],"categories_nodes":[],"categories_segments":[],"categories_sizes":[],"default_left":[0,0,0,0,0],"id":28,"left_children":[1,3,-1,-1,-1],"loss_changes":[2.3012877E0,1.3618765E0,0E0,0E0,0E0],"parents":[2147483647,0,0,1,1],"right_children":[2,4,-1,-1,-1],"split_conditions":[1.8402009E-1,2.6853296E-1,-7.939451E-2,8.421489E-2,-3.0214584E-2],"split_indices":[1004,987,0,0,0],"split_type":[0,0,0,0,0],"sum_hessian":[5.9809403E0,2.4076927E0,3.573248E0,1.1130131E0,1.2946794E0],"tree_param":{"num_deleted":"0","num_feature":"2048","num_nodes":"5","size_leaf_vector":"1"}},{"base_weights":[-3.4755164E-1,-7.815535E-2,3.191981E-1,8.7460764E-2,-3.241906E-2],"categories":[],"categories_nodes":[],"categories_segments":[],"categories_sizes":[],"default_left":[0,0,0,0,0],"id":29,"left_children":[1,-1,3,-1,-1],"loss_changes":[2.18701E0,0E0,1.4806368E0,0E0,0E0],"parents":[2147483647,0,0,2,2],"right_children":[2,-1,4,-1,-1],"split_conditions":[8.2924587E-1,-7.815535E-2,2.2300583E-1,8.7460764E-2,-3.241906E-2],"split_indices":[1839,0,1301,0,0],"split_type":[0,0,0,0,0],"sum_hessian":[5.695702E0,3.3457174E0,2.3499844E0,1.0683486E0,1.2816356E0],"tree_param":{"num_deleted":"0","num_feature":"2048","num_nodes":"5","size_leaf_vector":"1"}},{"base_weights":[-3.3127353E-1,-7.696516E-2,3.1723484E-1,8.230123E-2,-2.8879995E-2],"categories":[],"categories_nodes":[],"categories_segments":[],"categories_sizes":[],"default_left":[0,0,0,0,0],"id":30,"left_children":[1,-1,3,-1,-1],"loss_changes":[2.0701683E0,0E0,1.2488117E0,0E0,0E0],"parents":[2147483647,0,0,2,2],"right_children":[2,-1,4,-1,-1],"split_conditions":[6.1694825E-1,-7.696516E-2,2.006868E-1,8.230123E-2,-2.8879995E-2],"split_indices":[1956,0,800,0,0],"split_type":[0,0,0,0,0],"sum_hessian":[5.4230056E0,3.124265E0,2.2987406E0,1.0578579E0,1.2408828E0],"tree_param":{"num_deleted":"0","num_feature":"2048","num_nodes":"5","size_leaf_vector":"1"}},{"base_weights":[-3.156379E-1,-7.576447E-2,3.2142743E-1,8.0588296E-2,-2.7103413E-2],"categories":[],"categories_nodes":[],"categories_segments":[],"categories_sizes":[],"default_left":[0,0,0,0,0],"id":31,"left_children":[1,-1,3,-1,-1],"loss_changes":[1.9810293E0,0E0,1.1453924E0,0E0,0E0],"parents":[2147483647,0,0,2,2],"right_children":[2,-1,4,-1,-1],"split_conditions":[5.2872974E-1,-7.576447E-2,1.21325135E-1,8.0588296E-2,-2.7103413E-2],"split_indices":[1356,0,1004,0,0],"split_type":[0,0,0,0,0],"sum_hessian":[5.1703854E0,2.9407616E0,2.2296238E0,1.0284404E0,1.2011833E0],"tree_param":{"num_deleted":"0","num_feature":"2048","num_nodes":"5","size_leaf_vector":"1"}},{"base_weights":[-3.0061722E-1,-7.455574E-2,3.263039E-1,7.3668964E-2,-2.5821729E-2],"categories":[],"categories_nodes":[],"categories_segments":[],"categories_sizes":[],"default_left":[0,0,0,0,0],"id":32,"left_children":[1,-1,3,-1,-1],"loss_changes":[1.8979102E0,0E0,9.477461E-1,0E0,0E0],"parents":[2147483647,0,0,2,2],"right_children":[2,-1,4,-1,-1],"split_conditions":[4.777797E-1,-7.455574E-2,2.2300583E-1,7.3668964E-2,-2.5821729E-2],"split_indices":[68,0,1301,0,0],"split_type":[0,0,0,0,0],"sum_hessian":[4.931805E0,2.7738817E0,2.1579235E0,1.1148616E0,1.0430617E0],"tree_param":{"num_deleted":"0","num_feature":"2048","num_nodes":"5","size_leaf_vector":"1"}},{"base_weights":[-2.866225E-1,-7.3106565E-2,3.193068E-1,7.619719E-2,-2.6876355E-2],"categories":[],"categories_nodes":[],"categories_segments":[],"categories_sizes":[],"default_left":[0,0,0,0,0],"id":33,"left_children":[1,-1,3,-1,-1],"loss_changes":[1.7735193E0,0E0,1.0158913E0,0E0,0E0],"parents":[2147483647,0,0,2,2],"right_children":[2,-1,4,-1,-1],"split_conditions":[8.2924587E-1,-7.3106565E-2,2.2300583E-1,7.619719E-2,-2.6876355E-2],"split_indices":[1839,0,1301,0,0],"split_type":[0,0,0,0,0],"sum_hessian":[4.7188215E0,2.6030157E0,2.115806E0,1.0384248E0,1.0773813E0],"tree_param":{"num_deleted":"0","num_feature":"2048","num_nodes":"5","size_leaf_vector":"1"}},{"base_weights":[-2.7317563E-1,-7.183172E-2,3.1405503E-1,7.031006E-2,-2.3722637E-2],"categories":[],"categories_nodes":[],"categories_segments":[],"categories_sizes":[],"default_left":[0,0,0,0,0],"id":34,"left_children":[1,-1,3,-1,-1],"loss_changes":[1.6663268E0,0E0,8.257214E-1,0E0,0E0],"parents":[2147483647,0,0,2,2],"right_children":[2,-1,4,-1,-1],"split_conditions":[4.777797E-1,-7.183172E-2,2.6853296E-1,7.031006E-2,-2.3722637E-2],"split_indices":[68,0,987,0,0],"split_type":[0,0,0,0,0],"sum_hessian":[4.511597E0,2.4392962E0,2.072301E0,1.053465E0,1.0188358E0],"tree_param":{"num_deleted":"0","num_feature":"2048","num_nodes":"5","size_leaf_vector":"1"}},{"base_weights":[-2.6042908E-1,3.1735146E-1,-7.05892E-2,-1.8953405E-2,6.666105E-2],"categories":[],"categories_nodes":[],"categories_segments":[],"categories_sizes":[],"default_left":[0,0,0,0,0],"id":35,"left_children":[1,3,-1,-1,-1],"loss_changes":[1.5940517E0,6.587229E-1,0E0,0E0,0E0],"parents":[2147483647,0,0,1,1],"right_children":[2,4,-1,-1,-1],"split_conditions":[1.8402009E-1,6.899089E-1,-7.05892E-2,-1.8953405E-2,6.666105E-2],"split_indices":[1004,929,0,0,0],"split_type":[0,0,0,0,0],"sum_hessian":[4.323013E0,2.007199E0,2.315814E0,1.0053878E0,1.0018111E0],"tree_param":{"num_deleted":"0","num_feature":"2048","num_nodes":"5","size_leaf_vector":"1"}},{"base_weights":[-2.4801715E-1,-6.949259E-2,3.1975713E-2],"categories":[],"categories_nodes":[],"categories_segments":[],"categories_sizes":[],"default_left":[0,0,0],"id":36,"left_children":[1,-1,-1],"loss_changes":[1.5274596E0,0E0,0E0],"parents":[2147483647,0,0],"right_children":[2,-1,-1],"split_conditions":[5.2872974E-1,-6.949259E-2,3.1975713E-2],"split_indices":[1356,0,0],"split_type":[0,0,0],"sum_hessian":[4.143987E0,2.1934907E0,1.9504967E0],"tree_param":{"num_deleted":"0","num_feature":"2048","num_nodes":"3","size_leaf_vector":"1"}},{"base_weights":[-2.3747711E-1,-6.850224E-2,3.1980824E-2],"categories":[],"categories_nodes":[],"categories_segments":[],"categories_sizes":[],"default_left":[0,0,0],"id":37,"left_children":[1,-1,-1],"loss_changes":[1.4699678E0,0E0,0E0],"parents":[2147483647,0,0],"right_children":[2,-1,-1],"split_conditions":[6.1694825E-1,-6.850224E-2,3.1980824E-2],"split_indices":[1956,0,0],"split_type":[0,0,0],"sum_hessian":[4.015396E0,2.0998409E0,1.9155554E0],"tree_param":{"num_deleted":"0","num_feature":"2048","num_nodes":"3","size_leaf_vector":"1"}},{"base_weights":[-2.275234E-1,-6.7411825E-2,3.175084E-2],"categories":[],"categories_nodes":[],"categories_segments":[],"categories_sizes":[],"default_left":[0,0,0],"id":38,"left_children":[1,-1,-1],"loss_changes":[1.4051733E0,0E0,0E0],"parents":[2147483647,0,0],"right_children":[2,-1,-1],"split_conditions":[8.2924587E-1,-6.7411825E-2,3.175084E-2],"split_indices":[1839,0,0],"split_type":[0,0,0],"sum_hessian":[3.8935668E0,2.0098608E0,1.8837061E0],"tree_param":{"num_deleted":"0","num_feature":"2048","num_nodes":"3","size_leaf_vector":"1"}},{"base_weights":[-2.1815415E-1,3.193998E-2,-6.657609E-2],"categories":[],"categories_nodes":[],"categories_segments":[],"categories_sizes":[],"default_left":[0,0,0],"id":39,"left_children":[1,-1,-1],"loss_changes":[1.3622613E0,0E0,0E0],"parents":[2147483647,0,0],"right_children":[2,-1,-1],"split_conditions":[3.2418612E-1,3.193998E-2,-6.657609E-2],"split_indices":[657,0,0],"split_type":[0,0,0],"sum_hessian":[3.777873E0,1.8466111E0,1.931262E0],"tree_param":{"num_deleted":"0","num_feature":"2048","num_nodes":"3","size_leaf_vector":"1"}},{"base_weights":[-2.0930177E-1,-6.55398E-2,3.1361803E-2],"categories":[],"categories_nodes":[],"categories_segments":[],"categories_sizes":[],"default_left":[0,0,0],"id":40,"left_children":[1,-1,-1],"loss_changes":[1.2944525E0,0E0,0E0],"parents":[2147483647,0,0],"right_children":[2,-1,-1],"split_conditions":[4.700592E-1,-6.55398E-2,3.1361803E-2],"split_indices":[1813,0,0],"split_type":[0,0,0],"sum_hessian":[3.6679652E0,1.8426666E0,1.8252985E0],"tree_param":{"num_deleted":"0","num_feature":"2048","num_nodes":"3","size_leaf_vector":"1"}},{"base_weights":[-2.0098577E-1,3.1372815E-2,-6.460011E-2],"categories":[],"categories_nodes":[],"categories_segments":[],"categories_sizes":[],"default_left":[0,0,0],"id":41,"left_children":[1,-1,-1],"loss_changes":[1.2482594E0,0E0,0E0],"parents":[2147483647,0,0],"right_children":[2,-1,-1],"split_conditions":[2.6769945E-1,3.1372815E-2,-6.460011E-2],"split_indices":[800,0,0],"split_type":[0,0,0],"sum_hessian":[3.5647902E0,1.789748E0,1.7750423E0],"tree_param":{"num_deleted":"0","num_feature":"2048","num_nodes":"3","size_leaf_vector":"1"}},{"base_weights":[-1.931608E-1,-6.3740045E-2,3.1453717E-2],"categories":[],"categories_nodes":[],"categories_segments":[],"categories_sizes":[],"default_left":[0,0,0],"id":42,"left_children":[1,-1,-1],"loss_changes":[1.2077459E0,0E0,0E0],"parents":[2147483647,0,0],"right_children":[2,-1,-1],"split_conditions":[4.777797E-1,-6.3740045E-2,3.1453717E-2],"split_indices":[68,0,0],"split_type":[0,0,0],"sum_hessian":[3.466E0,1.7122747E0,1.7537254E0],"tree_param":{"num_deleted":"0","num_feature":"2048","num_nodes":"3","size_leaf_vector":"1"}},{"base_weights":[-1.8579201E-1,-6.273257E-2,3.0954495E-2],"categories":[],"categories_nodes":[],"categories_segments":[],"categories_sizes":[],"default_left":[0,0,0],"id":43,"left_children":[1,-1,-1],"loss_changes":[1.1502364E0,0E0,0E0],"parents":[2147483647,0,0],"right_children":[2,-1,-1],"split_conditions":[5.2872974E-1,-6.273257E-2,3.0954495E-2],"split_indices":[1356,0,0],"split_type":[0,0,0],"sum_hessian":[3.3713593E0,1.6416036E0,1.7297556E0],"tree_param":{"num_deleted":"0","num_feature":"2048","num_nodes":"3","size_leaf_vector":"1"}},{"base_weights":[-1.7889044E-1,4.114036E-2,-5.3349655E-2],"categories":[],"categories_nodes":[],"categories_segments":[],"categories_sizes":[],"default_left":[0,0,0],"id":44,"left_children":[1,-1,-1],"loss_changes":[1.1157436E0,0E0,0E0],"parents":[2147483647,0,0],"right_children":[2,-1,-1],"split_conditions":[1.21325135E-1,4.114036E-2,-5.3349655E-2],"split_indices":[1004,0,0],"split_type":[0,0,0],"sum_hessian":[3.2817369E0,1.1714747E0,2.1102624E0],"tree_param":{"num_deleted":"0","num_feature":"2048","num_nodes":"3","size_leaf_vector":"1"}},{"base_weights":[-1.6807641E-1,-6.0783286E-2,3.1017909E-2],"categories":[],"categories_nodes":[],"categories_segments":[],"categories_sizes":[],"default_left":[0,0,0],"id":45,"left_children":[1,-1,-1],"loss_changes":[1.0695641E0,0E0,0E0],"parents":[2147483647,0,0],"right_children":[2,-1,-1],"split_conditions":[8.2924587E-1,-6.0783286E-2,3.1017909E-2],"split_indices":[1839,0,0],"split_type":[0,0,0],"sum_hessian":[3.1890645E0,1.5202528E0,1.6688118E0],"tree_param":{"num_deleted":"0","num_feature":"2048","num_nodes":"3","size_leaf_vector":"1"}},{"base_weights":[-1.6221051E-1,-6.0009588E-2,3.0877782E-2],"categories":[],"categories_nodes":[],"categories_segments":[],"categories_sizes":[],"default_left":[0,0,0],"id":46,"left_children":[1,-1,-1],"loss_changes":[1.0323904E0,0E0,0E0],"parents":[2147483647,0,0],"right_children":[2,-1,-1],"split_conditions":[6.1694825E-1,-6.0009588E-2,3.0877782E-2],"split_indices":[1956,0,0],"split_type":[0,0,0],"sum_hessian":[3.1073437E0,1.4682072E0,1.6391364E0],"tree_param":{"num_deleted":"0","num_feature":"2048","num_nodes":"3","size_leaf_vector":"1"}},{"base_weights":[-1.5670483E-1,-5.08863E-2,3.929887E-2],"categories":[],"categories_nodes":[],"categories_segments":[],"categories_sizes":[],"default_left":[0,0,0],"id":47,"left_children":[1,-1,-1],"loss_changes":[9.799529E-1,0E0,0E0],"parents":[2147483647,0,0],"right_children":[2,-1,-1],"split_conditions":[6.838912E-1,-5.08863E-2,3.929887E-2],"split_indices":[1346,0,0],"split_type":[0,0,0],"sum_hessian":[3.029235E0,1.891643E0,1.137592E0],"tree_param":{"num_deleted":"0","num_feature":"2048","num_nodes":"3","size_leaf_vector":"1"}},{"base_weights":[-1.4729689E-1,3.0487416E-2,-5.8100928E-2],"categories":[],"categories_nodes":[],"categories_segments":[],"categories_sizes":[],"default_left":[0,0,0],"id":48,"left_children":[1,-1,-1],"loss_changes":[9.5180976E-1,0E0,0E0],"parents":[2147483647,0,0],"right_children":[2,-1,-1],"split_conditions":[3.2418612E-1,3.0487416E-2,-5.8100928E-2],"split_indices":[657,0,0],"split_type":[0,0,0],"sum_hessian":[2.950163E0,1.5897808E0,1.3603822E0],"tree_param":{"num_deleted":"0","num_feature":"2048","num_nodes":"3","size_leaf_vector":"1"}},{"base_weights":[-1.4269905E-1,-5.720563E-2,2.9940287E-2],"categories":[],"categories_nodes":[],"categories_segments":[],"categories_sizes":[],"default_left":[0,0,0],"id":49,"left_children":[1,-1,-1],"loss_changes":[9.076322E-1,0E0,0E0],"parents":[2147483647,0,0],"right_children":[2,-1,-1],"split_conditions":[5.2872974E-1,-5.720563E-2,2.9940287E-2],"split_indices":[1356,0,0],"split_type":[0,0,0],"sum_hessian":[2.879244E0,1.3115531E0,1.5676911E0],"tree_param":{"num_deleted":"0","num_feature":"2048","num_nodes":"3","size_leaf_vector":"1"}},{"base_weights":[-1.3841954E-1,-5.6506056E-2,2.9907156E-2],"categories":[],"categories_nodes":[],"categories_segments":[],"categories_sizes":[],"default_left":[0,0,0],"id":50,"left_children":[1,-1,-1],"loss_changes":[8.804462E-1,0E0,0E0],"parents":[2147483647,0,0],"right_children":[2,-1,-1],"split_conditions":[4.777797E-1,-5.6506056E-2,2.9907156E-2],"split_indices":[68,0,0],"split_type":[0,0,0],"sum_hessian":[2.8116598E0,1.2758542E0,1.5358056E0],"tree_param":{"num_deleted":"0","num_feature":"2048","num_nodes":"3","size_leaf_vector":"1"}},{"base_weights":[-1.3439701E-1,2.9520217E-2,-5.568848E-2],"categories":[],"categories_nodes":[],"categories_segments":[],"categories_sizes":[],"default_left":[0,0,0],"id":51,"left_children":[1,-1,-1],"loss_changes":[8.443148E-1,0E0,0E0],"parents":[2147483647,0,0],"right_children":[2,-1,-1],"split_conditions":[2.6769945E-1,2.9520217E-2,-5.568848E-2],"split_indices":[800,0,0],"split_type":[0,0,0],"sum_hessian":[2.746113E0,1.5109783E0,1.2351348E0],"tree_param":{"num_deleted":"0","num_feature":"2048","num_nodes":"3","size_leaf_vector":"1"}},{"base_weights":[-1.3064377E-1,2.9125402E-2,-5.4872792E-2],"categories":[],"categories_nodes":[],"categories_segments":[],"categories_sizes":[],"default_left":[0,0,0],"id":52,"left_children":[1,-1,-1],"loss_changes":[8.094899E-1,0E0,0E0],"parents":[2147483647,0,0],"right_children":[2,-1,-1],"split_conditions":[3.1457236E-1,2.9125402E-2,-5.4872792E-2],"split_indices":[1301,0,0],"split_type":[0,0,0],"sum_hessian":[2.6831744E0,1.4864879E0,1.1966866E0],"tree_param":{"num_deleted":"0","num_feature":"2048","num_nodes":"3","size_leaf_vector":"1"}},{"base_weights":[-1.2714276E-1,-5.4203045E-2,2.8953085E-2],"categories":[],"categories_nodes":[],"categories_segments":[],"categories_sizes":[],"default_left":[0,0,0],"id":53,"left_children":[1,-1,-1],"loss_changes":[7.8319055E-1,0E0,0E0],"parents":[2147483647,0,0],"right_children":[2,-1,-1],"split_conditions":[4.700592E-1,-5.4203045E-2,2.8953085E-2],"split_indices":[1813,0,0],"split_type":[0,0,0],"sum_hessian":[2.6226416E0,1.1633883E0,1.4592533E0],"tree_param":{"num_deleted":"0","num_feature":"2048","num_nodes":"3","size_leaf_vector":"1"}},{"base_weights":[-1.2386066E-1,-5.349728E-2,2.8841406E-2],"categories":[],"categories_nodes":[],"categories_segments":[],"categories_sizes":[],"default_left":[0,0,0],"id":54,"left_children":[1,-1,-1],"loss_changes":[7.5839514E-1,0E0,0E0],"parents":[2147483647,0,0],"right_children":[2,-1,-1],"split_conditions":[8.2924587E-1,-5.349728E-2,2.8841406E-2],"split_indices":[1839,0,0],"split_type":[0,0,0],"sum_hessian":[2.5642073E0,1.1348977E0,1.4293097E0],"tree_param":{"num_deleted":"0","num_feature":"2048","num_nodes":"3","size_leaf_vector":"1"}},{"base_weights":[-1.2077246E-1,-4.6068087E-2,3.475001E-2],"categories":[],"categories_nodes":[],"categories_segments":[],"categories_sizes":[],"default_left":[0,0,0],"id":55,"left_children":[1,-1,-1],"loss_changes":[7.1832204E-1,0E0,0E0],"parents":[2147483647,0,0],"right_children":[2,-1,-1],"split_conditions":[7.559101E-1,-4.6068087E-2,3.475001E-2],"split_indices":[1066,0,0],"split_type":[0,0,0],"sum_hessian":[2.5071695E0,1.4620863E0,1.045083E0],"tree_param":{"num_deleted":"0","num_feature":"2048","num_nodes":"3","size_leaf_vector":"1"}},{"base_weights":[-1.1409872E-1,2.8099721E-2,-5.175013E-2],"categories":[],"categories_nodes":[],"categories_segments":[],"categories_sizes":[],"default_left":[0,0,0],"id":56,"left_children":[1,-1,-1],"loss_changes":[6.9541526E-1,0E0,0E0],"parents":[2147483647,0,0],"right_children":[2,-1,-1],"split_conditions":[1.8402009E-1,2.8099721E-2,-5.175013E-2],"split_indices":[1004,0,0],"split_type":[0,0,0],"sum_hessian":[2.4508061E0,1.391445E0,1.0593611E0],"tree_param":{"num_deleted":"0","num_feature":"2048","num_nodes":"3","size_leaf_vector":"1"}},{"base_weights":[-1.11630075E-1,2.7738407E-2,-5.109793E-2],"categories":[],"categories_nodes":[],"categories_segments":[],"categories_sizes":[],"default_left":[0,0,0],"id":57,"left_children":[1,-1,-1],"loss_changes":[6.697342E-1,0E0,0E0],"parents":[2147483647,0,0],"right_children":[2,-1,-1],"split_conditions":[3.405744E-1,2.7738407E-2,-5.109793E-2],"split_indices":[883,0,0],"split_type":[0,0,0],"sum_hessian":[2.3987012E0,1.3697802E0,1.028921E0],"tree_param":{"num_deleted":"0","num_feature":"2048","num_nodes":"3","size_leaf_vector":"1"}},{"base_weights":[-1.0933353E-1,-5.0422903E-2,2.745266E-2],"categories":[],"categories_nodes":[],"categories_segments":[],"categories_sizes":[],"default_left":[0,0,0],"id":58,"left_children":[1,-1,-1],"loss_changes":[6.460357E-1,0E0,0E0],"parents":[2147483647,0,0],"right_children":[2,-1,-1],"split_conditions":[6.1694825E-1,-5.0422903E-2,2.745266E-2],"split_indices":[1956,0,0],"split_type":[0,0,0],"sum_hessian":[2.3486996E0,1.0031431E0,1.3455565E0],"tree_param":{"num_deleted":"0","num_feature":"2048","num_nodes":"3","size_leaf_vector":"1"}},{"base_weights":[-1.07183345E-1,-4.2493206E-2,3.1002244E-2],"categories":[],"categories_nodes":[],"categories_segments":[],"categories_sizes":[],"default_left":[0,0,0],"id":59,"left_children":[1,-1,-1],"loss_changes":[5.69229E-1,0E0,0E0],"parents":[2147483647,0,0],"right_children":[2,-1,-1],"split_conditions":[6.745527E-1,-4.2493206E-2,3.1002244E-2],"split_indices":[1408,0,0],"split_type":[0,0,0],"sum_hessian":[2.3001568E0,1.2951993E0,1.0049577E0],"tree_param":{"num_deleted":"0","num_feature":"2048","num_nodes":"3","size_leaf_vector":"1"}},{"base_weights":[-1.0161218E-1,-4.0901456E-2,2.9485693E-2],"categories":[],"categories_nodes":[],"categories_segments":[],"categories_sizes":[],"default_left":[0,0,0],"id":60,"left_children":[1,-1,-1],"loss_changes":[5.172758E-1,0E0,0E0],"parents":[2147483647,0,0],"right_children":[2,-1,-1],"split_conditions":[6.745527E-1,-4.0901456E-2,2.9485693E-2],"split_indices":[1408,0,0],"split_type":[0,0,0],"sum_hessian":[2.2547548E0,1.2522104E0,1.0025444E0],"tree_param":{"num_deleted":"0","num_feature":"2048","num_nodes":"3","size_leaf_vector":"1"}},{"base_weights":[-9.643247E-2,2.8183991E-2,-3.9482176E-2],"categories":[],"categories_nodes":[],"categories_segments":[],"categories_sizes":[],"default_left":[0,0,0],"id":61,"left_children":[1,-1,-1],"loss_changes":[4.739505E-1,0E0,0E0],"parents":[2147483647,0,0],"right_children":[2,-1,-1],"split_conditions":[1.832752E-1,2.8183991E-2,-3.9482176E-2],"split_indices":[164,0,0],"split_type":[0,0,0],"sum_hessian":[2.213132E0,1.000388E0,1.2127438E0],"tree_param":{"num_deleted":"0","num_feature":"2048","num_nodes":"3","size_leaf_vector":"1"}},{"base_weights":[-9.162026E-2,2.7374763E-2,-3.856377E-2],"categories":[],"categories_nodes":[],"categories_segments":[],"categories_sizes":[],"default_left":[0,0,0],"id":62,"left_children":[1,-1,-1],"loss_changes":[4.4660684E-1,0E0,0E0],"parents":[2147483647,0,0],"right_children":[2,-1,-1],"split_conditions":[2.4241589E-1,2.7374763E-2,-3.856377E-2],"split_indices":[1667,0,0],"split_type":[0,0,0],"sum_hessian":[2.174689E0,1.000426E0,1.174263E0],"tree_param":{"num_deleted":"0","num_feature":"2048","num_nodes":"3","size_leaf_vector":"1"}},{"base_weights":[-8.71776E-2,2.6718302E-2,-3.7817713E-2],"categories":[],"categories_nodes":[],"categories_segments":[],"categories_sizes":[],"default_left":[0,0,0],"id":63,"left_children":[1,-1,-1],"loss_changes":[4.246896E-1,0E0,0E0],"parents":[2147483647,0,0],"right_children":[2,-1,-1],"split_conditions":[2.3553362E-1,2.6718302E-2,-3.7817713E-2],"split_indices":[206,0,0],"split_type":[0,0,0],"sum_hessian":[2.1385858E0,1.0012145E0,1.1373712E0],"tree_param":{"num_deleted":"0","num_feature":"2048","num_nodes":"3","size_leaf_vector":"1"}},{"base_weights":[-8.3086126E-2,2.5495443E-2,-3.6489233E-2],"categories":[],"categories_nodes":[],"categories_segments":[],"categories_sizes":[],"default_left":[0,0,0],"id":64,"left_children":[1,-1,-1],"loss_changes":[3.8878396E-1,0E0,0E0],"parents":[2147483647,0,0],"right_children":[2,-1,-1],"split_conditions":[2.273361E-1,2.5495443E-2,-3.6489233E-2],"split_indices":[1136,0,0],"split_type":[0,0,0],"sum_hessian":[2.1046295E0,1.0001656E0,1.1044638E0],"tree_param":{"num_deleted":"0","num_feature":"2048","num_nodes":"3","size_leaf_vector":"1"}},{"base_weights":[-7.929352E-2,2.4815846E-2,-3.570005E-2],"categories":[],"categories_nodes":[],"categories_segments":[],"categories_sizes":[],"default_left":[0,0,0],"id":65,"left_children":[1,-1,-1],"loss_changes":[3.6806065E-1,0E0,0E0],"parents":[2147483647,0,0],"right_children":[2,-1,-1],"split_conditions":[2.3840526E-1,2.4815846E-2,-3.570005E-2],"split_indices":[206,0,0],"split_type":[0,0,0],"sum_hessian":[2.073248E0,1.0002396E0,1.0730084E0],"tree_param":{"num_deleted":"0","num_feature":"2048","num_nodes":"3","size_leaf_vector":"1"}},{"base_weights":[-7.579604E-2,2.4283456E-2,-3.505739E-2],"categories":[],"categories_nodes":[],"categories_segments":[],"categories_sizes":[],"default_left":[0,0,0],"id":66,"left_children":[1,-1,-1],"loss_changes":[3.5161757E-1,0E0,0E0],"parents":[2147483647,0,0],"right_children":[2,-1,-1],"split_conditions":[2.6211524E-1,2.4283456E-2,-3.505739E-2],"split_indices":[749,0,0],"split_type":[0,0,0],"sum_hessian":[2.0437253E0,1.0001774E0,1.043548E0],"tree_param":{"num_deleted":"0","num_feature":"2048","num_nodes":"3","size_leaf_vector":"1"}},{"base_weights":[-7.2577804E-2,-3.378054E-2,2.3079434E-2],"categories":[],"categories_nodes":[],"categories_segments":[],"categories_sizes":[],"default_left":[0,0,0],"id":67,"left_children":[1,-1,-1],"loss_changes":[3.2061335E-1,0E0,0E0],"parents":[2147483647,0,0],"right_children":[2,-1,-1],"split_conditions":[5.62881E-1,-3.378054E-2,2.3079434E-2],"split_indices":[201,0,0],"split_type":[0,0,0],"sum_hessian":[2.0156817E0,1.014894E0,1.0007879E0],"tree_param":{"num_deleted":"0","num_feature":"2048","num_nodes":"3","size_leaf_vector":"1"}},{"base_weights":[-6.960251E-2],"categories":[],"categories_nodes":[],"categories_segments":[],"categories_sizes":[],"default_left":[0],"id":68,"left_children":[-1],"loss_changes":[0E0],"parents":[2147483647],"right_children":[-1],"split_conditions":[-6.9602514E-3],"split_indices":[0],"split_type":[0],"sum_hessian":[1.9898828E0],"tree_param":{"num_deleted":"0","num_feature":"2048","num_nodes":"1","size_leaf_vector":"1"}},{"base_weights":[-6.508164E-2],"categories":[],"categories_nodes":[],"categories_segments":[],"categories_sizes":[],"default_left":[0],"id":69,"left_children":[-1],"loss_changes":[0E0],"parents":[2147483647],"right_children":[-1],"split_conditions":[-6.508164E-3],"split_indices":[0],"split_type":[0],"sum_hessian":[1.9850217E0],"tree_param":{"num_deleted":"0","num_feature":"2048","num_nodes":"1","size_leaf_vector":"1"}},{"base_weights":[-6.0850184E-2],"categories":[],"categories_nodes":[],"categories_segments":[],"categories_sizes":[],"default_left":[0],"id":70,"left_children":[-1],"loss_changes":[0E0],"parents":[2147483647],"right_children":[-1],"split_conditions":[-6.0850186E-3],"split_indices":[0],"split_type":[0],"sum_hessian":[1.9805279E0],"tree_param":{"num_deleted":"0","num_feature":"2048","num_nodes":"1","size_leaf_vector":"1"}},{"base_weights":[-5.689041E-2],"categories":[],"categories_nodes":[],"categories_segments":[],"categories_sizes":[],"default_left":[0],"id":71,"left_children":[-1],"loss_changes":[0E0],"parents":[2147483647],"right_children":[-1],"split_conditions":[-5.689041E-3],"split_indices":[0],"split_type":[0],"sum_hessian":[1.9763712E0],"tree_param":{"num_deleted":"0","num_feature":"2048","num_nodes":"1","size_leaf_vector":"1"}},{"base_weights":[-5.3185135E-2],"categories":[],"categories_nodes":[],"categories_segments":[],"categories_sizes":[],"default_left":[0],"id":72,"left_children":[-1],"loss_changes":[0E0],"parents":[2147483647],"right_children":[-1],"split_conditions":[-5.3185136E-3],"split_indices":[0],"split_type":[0],"sum_hessian":[1.9725236E0],"tree_param":{"num_deleted":"0","num_feature":"2048","num_nodes":"1","size_leaf_vector":"1"}},{"base_weights":[-4.9718607E-2],"categories":[],"categories_nodes":[],"categories_segments":[],"categories_sizes":[],"default_left":[0],"id":73,"left_children":[-1],"loss_changes":[0E0],"parents":[2147483647],"right_children":[-1],"split_conditions":[-4.971861E-3],"split_indices":[0],"split_type":[0],"sum_hessian":[1.9689599E0],"tree_param":{"num_deleted":"0","num_feature":"2048","num_nodes":"1","size_leaf_vector":"1"}},{"base_weights":[-4.647577E-2],"categories":[],"categories_nodes":[],"categories_segments":[],"categories_sizes":[],"default_left":[0],"id":74,"left_children":[-1],"loss_changes":[0E0],"parents":[2147483647],"right_children":[-1],"split_conditions":[-4.647577E-3],"split_indices":[0],"split_type":[0],"sum_hessian":[1.9656577E0],"tree_param":{"num_deleted":"0","num_feature":"2048","num_nodes":"1","size_leaf_vector":"1"}},{"base_weights":[-4.344249E-2],"categories":[],"categories_nodes":[],"categories_segments":[],"categories_sizes":[],"default_left":[0],"id":75,"left_children":[-1],"loss_changes":[0E0],"parents":[2147483647],"right_children":[-1],"split_conditions":[-4.344249E-3],"split_indices":[0],"split_type":[0],"sum_hessian":[1.9625962E0],"tree_param":{"num_deleted":"0","num_feature":"2048","num_nodes":"1","size_leaf_vector":"1"}},{"base_weights":[-4.0605556E-2],"categories":[],"categories_nodes":[],"categories_segments":[],"categories_sizes":[],"default_left":[0],"id":76,"left_children":[-1],"loss_changes":[0E0],"parents":[2147483647],"right_children":[-1],"split_conditions":[-4.0605557E-3],"split_indices":[0],"split_type":[0],"sum_hessian":[1.9597564E0],"tree_param":{"num_deleted":"0","num_feature":"2048","num_nodes":"1","size_leaf_vector":"1"}},{"base_weights":[-3.7952453E-2],"categories":[],"categories_nodes":[],"categories_segments":[],"categories_sizes":[],"default_left":[0],"id":77,"left_children":[-1],"loss_changes":[0E0],"parents":[2147483647],"right_children":[-1],"split_conditions":[-3.7952454E-3],"split_indices":[0],"split_type":[0],"sum_hessian":[1.957121E0],"tree_param":{"num_deleted":"0","num_feature":"2048","num_nodes":"1","size_leaf_vector":"1"}},{"base_weights":[-3.5471607E-2],"categories":[],"categories_nodes":[],"categories_segments":[],"categories_sizes":[],"default_left":[0],"id":78,"left_children":[-1],"loss_changes":[0E0],"parents":[2147483647],"right_children":[-1],"split_conditions":[-3.5471607E-3],"split_indices":[0],"split_type":[0],"sum_hessian":[1.9546747E0],"tree_param":{"num_deleted":"0","num_feature":"2048","num_nodes":"1","size_leaf_vector":"1"}},{"base_weights":[-3.3151787E-2],"categories":[],"categories_nodes":[],"categories_segments":[],"categories_sizes":[],"default_left":[0],"id":79,"left_children":[-1],"loss_changes":[0E0],"parents":[2147483647],"right_children":[-1],"split_conditions":[-3.3151787E-3],"split_indices":[0],"split_type":[0],"sum_hessian":[1.9524027E0],"tree_param":{"num_deleted":"0","num_feature":"2048","num_nodes":"1","size_leaf_vector":"1"}},{"base_weights":[-3.098292E-2],"categories":[],"categories_nodes":[],"categories_segments":[],"categories_sizes":[],"default_left":[0],"id":80,"left_children":[-1],"loss_changes":[0E0],"parents":[2147483647],"right_children":[-1],"split_conditions":[-3.098292E-3],"split_indices":[0],"split_type":[0],"sum_hessian":[1.950292E0],"tree_param":{"num_deleted":"0","num_feature":"2048","num_nodes":"1","size_leaf_vector":"1"}},{"base_weights":[-2.8954988E-2],"categories":[],"categories_nodes":[],"categories_segments":[],"categories_sizes":[],"default_left":[0],"id":81,"left_children":[-1],"loss_changes":[0E0],"parents":[2147483647],"right_children":[-1],"split_conditions":[-2.8954989E-3],"split_indices":[0],"split_type":[0],"sum_hessian":[1.9483298E0],"tree_param":{"num_deleted":"0","num_feature":"2048","num_nodes":"1","size_leaf_vector":"1"}},{"base_weights":[-2.7059311E-2],"categories":[],"categories_nodes":[],"categories_segments":[],"categories_sizes":[],"default_left":[0],"id":82,"left_children":[-1],"loss_changes":[0E0],"parents":[2147483647],"right_children":[-1],"split_conditions":[-2.7059312E-3],"split_indices":[0],"split_type":[0],"sum_hessian":[1.9465059E0],"tree_param":{"num_deleted":"0","num_feature":"2048","num_nodes":"1","size_leaf_vector":"1"}},{"base_weights":[-2.5287014E-2],"categories":[],"categories_nodes":[],"categories_segments":[],"categories_sizes":[],"default_left":[0],"id":83,"left_children":[-1],"loss_changes":[0E0],"parents":[2147483647],"right_children":[-1],"split_conditions":[-2.5287014E-3],"split_indices":[0],"split_type":[0],"sum_hessian":[1.9448093E0],"tree_param":{"num_deleted":"0","num_feature":"2048","num_nodes":"1","size_leaf_vector":"1"}},{"base_weights":[-2.3630371E-2],"categories":[],"categories_nodes":[],"categories_segments":[],"categories_sizes":[],"default_left":[0],"id":84,"left_children":[-1],"loss_changes":[0E0],"parents":[2147483647],"right_children":[-1],"split_conditions":[-2.363037E-3],"split_indices":[0],"split_type":[0],"sum_hessian":[1.9432312E0],"tree_param":{"num_deleted":"0","num_feature":"2048","num_nodes":"1","size_leaf_vector":"1"}},{"base_weights":[-2.2081703E-2],"categories":[],"categories_nodes":[],"categories_segments":[],"categories_sizes":[],"default_left":[0],"id":85,"left_children":[-1],"loss_changes":[0E0],"parents":[2147483647],"right_children":[-1],"split_conditions":[-2.2081702E-3],"split_indices":[0],"split_type":[0],"sum_hessian":[1.9417627E0],"tree_param":{"num_deleted":"0","num_feature":"2048","num_nodes":"1","size_leaf_vector":"1"}},{"base_weights":[-2.0634321E-2],"categories":[],"categories_nodes":[],"categories_segments":[],"categories_sizes":[],"default_left":[0],"id":86,"left_children":[-1],"loss_changes":[0E0],"parents":[2147483647],"right_children":[-1],"split_conditions":[-2.0634322E-3],"split_indices":[0],"split_type":[0],"sum_hessian":[1.9403956E0],"tree_param":{"num_deleted":"0","num_feature":"2048","num_nodes":"1","size_leaf_vector":"1"}},{"base_weights":[-1.9281441E-2],"categories":[],"categories_nodes":[],"categories_segments":[],"categories_sizes":[],"default_left":[0],"id":87,"left_children":[-1],"loss_changes":[0E0],"parents":[2147483647],"right_children":[-1],"split_conditions":[-1.9281441E-3],"split_indices":[0],"split_type":[0],"sum_hessian":[1.9391234E0],"tree_param":{"num_deleted":"0","num_feature":"2048","num_nodes":"1","size_leaf_vector":"1"}},{"base_weights":[-1.8016947E-2],"categories":[],"categories_nodes":[],"categories_segments":[],"categories_sizes":[],"default_left":[0],"id":88,"left_children":[-1],"loss_changes":[0E0],"parents":[2147483647],"right_children":[-1],"split_conditions":[-1.8016947E-3],"split_indices":[0],"split_type":[0],"sum_hessian":[1.9379381E0],"tree_param":{"num_deleted":"0","num_feature":"2048","num_nodes":"1","size_leaf_vector":"1"}},{"base_weights":[-1.6835216E-2],"categories":[],"categories_nodes":[],"categories_segments":[],"categories_sizes":[],"default_left":[0],"id":89,"left_children":[-1],"loss_changes":[0E0],"parents":[2147483647],"right_children":[-1],"split_conditions":[-1.6835217E-3],"split_indices":[0],"split_type":[0],"sum_hessian":[1.9368347E0],"tree_param":{"num_deleted":"0","num_feature":"2048","num_nodes":"1","size_leaf_vector":"1"}},{"base_weights":[-1.5730731E-2],"categories":[],"categories_nodes":[],"categories_segments":[],"categories_sizes":[],"default_left":[0],"id":90,"left_children":[-1],"loss_changes":[0E0],"parents":[2147483647],"right_children":[-1],"split_conditions":[-1.5730731E-3],"split_indices":[0],"split_type":[0],"sum_hessian":[1.9358062E0],"tree_param":{"num_deleted":"0","num_feature":"2048","num_nodes":"1","size_leaf_vector":"1"}},{"base_weights":[-1.469846E-2],"categories":[],"categories_nodes":[],"categories_segments":[],"categories_sizes":[],"default_left":[0],"id":91,"left_children":[-1],"loss_changes":[0E0],"parents":[2147483647],"right_children":[-1],"split_conditions":[-1.469846E-3],"split_indices":[0],"split_type":[0],"sum_hessian":[1.9348483E0],"tree_param":{"num_deleted":"0","num_feature":"2048","num_nodes":"1","size_leaf_vector":"1"}},{"base_weights":[-1.3733953E-2],"categories":[],"categories_nodes":[],"categories_segments":[],"categories_sizes":[],"default_left":[0],"id":92,"left_children":[-1],"loss_changes":[0E0],"parents":[2147483647],"right_children":[-1],"split_conditions":[-1.3733953E-3],"split_indices":[0],"split_type":[0],"sum_hessian":[1.9339558E0],"tree_param":{"num_deleted":"0","num_feature":"2048","num_nodes":"1","size_leaf_vector":"1"}},{"base_weights":[-1.2832487E-2],"categories":[],"categories_nodes":[],"categories_segments":[],"categories_sizes":[],"default_left":[0],"id":93,"left_children":[-1],"loss_changes":[0E0],"parents":[2147483647],"right_children":[-1],"split_conditions":[-1.2832488E-3],"split_indices":[0],"split_type":[0],"sum_hessian":[1.9331238E0],"tree_param":{"num_deleted":"0","num_feature":"2048","num_nodes":"1","size_leaf_vector":"1"}},{"base_weights":[-1.1990134E-2],"categories":[],"categories_nodes":[],"categories_segments":[],"categories_sizes":[],"default_left":[0],"id":94,"left_children":[-1],"loss_changes":[0E0],"parents":[2147483647],"right_children":[-1],"split_conditions":[-1.1990134E-3],"split_indices":[0],"split_type":[0],"sum_hessian":[1.9323481E0],"tree_param":{"num_deleted":"0","num_feature":"2048","num_nodes":"1","size_leaf_vector":"1"}},{"base_weights":[-1.1202842E-2],"categories":[],"categories_nodes":[],"categories_segments":[],"categories_sizes":[],"default_left":[0],"id":95,"left_children":[-1],"loss_changes":[0E0],"parents":[2147483647],"right_children":[-1],"split_conditions":[-1.1202842E-3],"split_indices":[0],"split_type":[0],"sum_hessian":[1.9316247E0],"tree_param":{"num_deleted":"0","num_feature":"2048","num_nodes":"1","size_leaf_vector":"1"}},{"base_weights":[-1.0467305E-2],"categories":[],"categories_nodes":[],"categories_segments":[],"categories_sizes":[],"default_left":[0],"id":96,"left_children":[-1],"loss_changes":[0E0],"parents":[2147483647],"right_children":[-1],"split_conditions":[-1.0467306E-3],"split_indices":[0],"split_type":[0],"sum_hessian":[1.9309505E0],"tree_param":{"num_deleted":"0","num_feature":"2048","num_nodes":"1","size_leaf_vector":"1"}},{"base_weights":[-9.779895E-3],"categories":[],"categories_nodes":[],"categories_segments":[],"categories_sizes":[],"default_left":[0],"id":97,"left_children":[-1],"loss_changes":[0E0],"parents":[2147483647],"right_children":[-1],"split_conditions":[-9.779895E-4],"split_indices":[0],"split_type":[0],"sum_hessian":[1.9303217E0],"tree_param":{"num_deleted":"0","num_feature":"2048","num_nodes":"1","size_leaf_vector":"1"}},{"base_weights":[-9.137612E-3],"categories":[],"categories_nodes":[],"categories_segments":[],"categories_sizes":[],"default_left":[0],"id":98,"left_children":[-1],"loss_changes":[0E0],"parents":[2147483647],"right_children":[-1],"split_conditions":[-9.137612E-4],"split_indices":[0],"split_type":[0],"sum_hessian":[1.9297352E0],"tree_param":{"num_deleted":"0","num_feature":"2048","num_nodes":"1","size_leaf_vector":"1"}},{"base_weights":[-8.537476E-3],"categories":[],"categories_nodes":[],"categories_segments":[],"categories_sizes":[],"default_left":[0],"id":99,"left_children":[-1],"loss_changes":[0E0],"parents":[2147483647],"right_children":[-1],"split_conditions":[-8.537476E-4],"split_indices":[0],"split_type":[0],"sum_hessian":[1.9291881E0],"tree_param":{"num_deleted":"0","num_feature":"2048","num_nodes":"1","size_leaf_vector":"1"}}]},"name":"gbtree"},"learner_model_param":{"base_score":"1.2592277E-1","boost_from_average":"1","num_class":"0","num_feature":"2048","num_target":"1"},"objective":{"name":"binary:logistic","reg_loss_param":{"scale_pos_weight":"1"}}},"version":[2,0,1]}