{"learner":{"attributes":{"scikit_learn":"{\"_estimator_type\": \"classifier\"}"},"feature_names":[],"feature_types":[],"gradient_booster":{"model":{"gbtree_model_param":{"num_parallel_tree":"1","num_trees":"100"},"iteration_indptr":[0,1,2,3,4,5,6,7,8,9,10,11,12,13,14,15,16,17,18,19,20,21,22,23,24,25,26,27,28,29,30,31,32,33,34,35,36,37,38,39,40,41,42,43,44,45,46,47,48,49,50,51,52,53,54,55,56,57,58,59,60,61,62,63,64,65,66,67,68,69,70,71,72,73,74,75,76,77,78,79,80,81,82,83,84,85,86,87,88,89,90,91,92,93,94,95,96,97,98,99,100],"tree_info":[0,0,0,0,0,0,0,0,0,0,0,0,0,0,0,0,0,0,0,0,0,0,0,0,0,0,0,0,0,0,0,0,0,0,0,0,0,0,0,0,0,0,0,0,0,0,0,0,0,0,0,0,0,0,0,0,0,0,0,0,0,0,0,0,0,0,0,0,0,0,0,0,0,0,0,0,0,0,0,0,0,0,0,0,0,0,0,0,0,0,0,0,0,0,0,0,0,0,0,0],"trees":[{"base_weights":[-7.7503455E-1,8.9343214E-1,-9.8674643E-1,-8.187964E-2,2.8169E-1,-1.0688859E0,8.431854E-2,-1.126074E-1,2.7858023E-2],"categories":[],"categories_nodes":[],"categories_segments":[],"categories_sizes":[],"default_left":[0,0,0,0,0,0,0,0,0],"id":0,"left_children":[1,3,5,-1,-1,7,-1,-1,-1],"loss_changes":[1.47492695E1,1.8593975E1,6.209255E0,0E0,0E0,2.9520187E0,0E0,0E0,0E0],"parents":[2147483647,0,0,1,1,2,2,5,5],"right_children":[2,4,6,-1,-1,8,-1,-1,-1],"split_conditions":[1.2659004E-1,3.8931978E-1,6.7320466E-1,-8.187964E-2,2.8169E-1,9.242813E-1,8.431854E-2,-1.126074E-1,2.7858023E-2],"split_indices":[1351,1752,941,0,0,1358,0,0,0],"split_type":[0,0,0,0,0,0,0,0,0],"sum_hessian":[3.8259148E1,3.9454744E0,3.431367E1,2.3911967E0,1.5542778E0,3.3237633E1,1.0760385E0,3.2042034E1,1.1955984E0],"tree_param":{"num_deleted":"0","num_feature":"2048","num_nodes":"9","size_leaf_vector":"1"}},{"base_weights":[-7.402087E-1,-9.368554E-1,1.0509998E0,-1.0470676E0,4.167429E-1,-7.471461E-2,2.8824326E-1,-1.1090004E-1,4.0742993E-2,1.3913995E-1,-6.40684E-2],"categories":[],"categories_nodes":[],"categories_segments":[],"categories_sizes":[],"default_left":[0,0,0,0,0,0,0,0,0,0,0],"id":1,"left_children":[1,3,5,7,9,-1,-1,-1,-1,-1,-1],"loss_changes":[1.4015806E1,5.488386E0,1.5757903E1,3.2983665E0,4.256464E0,0E0,0E0,0E0,0E0,0E0,0E0],"parents":[2147483647,0,0,1,1,2,2,3,3,4,4],"right_children":[2,4,6,8,10,-1,-1,-1,-1,-1,-1],"split_conditions":[6.8827903E-1,7.9850054E-1,8.124451E-1,6.236241E-1,3.3216324E-1,-7.471461E-2,2.8824326E-1,-1.1090004E-1,4.0742993E-2,1.3913995E-1,-6.40684E-2],"split_indices":[1630,1011,167,803,35,0,0,0,0,0,0],"split_type":[0,0,0,0,0,0,0,0,0,0,0],"sum_hessian":[3.599566E1,3.286461E1,3.1310494E0,3.0599594E1,2.2650154E0,1.8786186E0,1.2524309E0,2.9577707E1,1.0218859E0,1.0142868E0,1.2507286E0],"tree_param":{"num_deleted":"0","num_feature":"2048","num_nodes":"11","size_leaf_vector":"1"}},{"base_weights":[-7.065483E-1,-9.630286E-1,6.373226E-1,-1.0586271E0,6.1720174E-2,2.3947184E-1,-6.4863783E-1,-1.0919305E-1,-7.5786905E-3,-7.944096E-2,-7.966403E-3],"categories":[],"categories_nodes":[],"categories_segments":[],"categories_sizes":[],"default_left":[0,0,0,0,0,0,0,0,0,0,0],"id":2,"left_children":[1,3,5,7,-1,-1,9,-1,-1,-1,-1],"loss_changes":[1.2618868E1,5.131983E0,1.5528339E1,8.443241E-1,0E0,0E0,2.9814517E-1,0E0,0E0,0E0,0E0],"parents":[2147483647,0,0,1,1,2,2,3,3,6,6],"right_children":[2,4,6,8,-1,-1,10,-1,-1,-1,-1],"split_conditions":[6.902033E-1,1.4784671E0,3.405282E-1,8.9852005E-1,6.1720174E-2,2.3947184E-1,6.05498E-1,-1.0919305E-1,-7.5786905E-3,-7.944096E-2,-7.966403E-3],"split_indices":[1339,839,562,1358,0,0,147,0,0,0,0],"split_type":[0,0,0,0,0,0,0,0,0,0,0],"sum_hessian":[3.383008E1,2.8646273E1,5.183804E0,2.7323381E1,1.3228912E0,1.8260791E0,3.357725E0,2.632052E1,1.0028609E0,2.357513E0,1.0002121E0],"tree_param":{"num_deleted":"0","num_feature":"2048","num_nodes":"11","size_leaf_vector":"1"}},{"base_weights":[-6.7546844E-1,-1.0015059E0,4.1951245E-1,-1.0762975E-1,4.1858308E-2,-7.412763E-1,2.0429645E0,-6.7789755E-3,-8.746535E-2,3.0351216E-2,2.6758584E-1],"categories":[],"categories_nodes":[],"categories_segments":[],"categories_sizes":[],"default_left":[0,0,0,0,0,0,0,0,0,0,0],"id":3,"left_children":[1,3,5,-1,-1,7,9,-1,-1,-1,-1],"loss_changes":[1.2158973E1,3.1729565E0,1.7059656E1,0E0,0E0,4.3868375E-1,3.2670727E0,0E0,0E0,0E0,0E0],"parents":[2147483647,0,0,1,1,2,2,5,5,6,6],"right_children":[2,4,6,-1,-1,8,10,-1,-1,-1,-1],"split_conditions":[6.661849E-1,6.7712075E-1,8.278251E-1,-1.0762975E-1,4.1858308E-2,3.753828E-1,4.8921275E-1,-6.7789755E-3,-8.746535E-2,3.0351216E-2,2.6758584E-1],"split_indices":[708,1300,12,0,0,1689,99,0,0,0,0],"split_type":[0,0,0,0,0,0,0,0,0,0,0],"sum_hessian":[3.1881449E1,2.4632374E1,7.2490745E0,2.362995E1,1.0024251E0,4.54368E0,2.7053943E0,1.0004046E0,3.5432758E0,1.1164616E0,1.5889325E0],"tree_param":{"num_deleted":"0","num_feature":"2048","num_nodes":"11","size_leaf_vector":"1"}},{"base_weights":[-6.455196E-1,-8.621514E-1,9.1084385E-1,-9.904152E-1,4.40879E-1,-6.731812E-2,2.0451108E-1,-1.06499694E-1,3.9230794E-2,-6.0595036E-2,1.3461159E-1],"categories":[],"categories_nodes":[],"categories_segments":[],"categories_sizes":[],"default_left":[0,0,0,0,0,0,0,0,0,0,0],"id":4,"left_children":[1,3,5,7,9,-1,-1,-1,-1,-1,-1],"loss_changes":[1.1230258E1,5.0675373E0,9.051305E0,3.0509186E0,3.8243942E0,0E0,0E0,0E0,0E0,0E0,0E0],"parents":[2147483647,0,0,1,1,2,2,3,3,4,4],"right_children":[2,4,6,8,10,-1,-1,-1,-1,-1,-1],"split_conditions":[6.8827903E-1,7.9850054E-1,8.124451E-1,9.2916536E-1,4.9862972E-1,-6.731812E-2,2.0451108E-1,-1.06499694E-1,3.9230794E-2,-6.0595036E-2,1.3461159E-1],"split_indices":[1630,1011,167,1003,1677,0,0,0,0,0,0],"split_type":[0,0,0,0,0,0,0,0,0,0,0],"sum_hessian":[2.9979479E1,2.6708012E1,3.271467E0,2.4533018E1,2.1749935E0,1.5347145E0,1.7367524E0,2.3495495E1,1.0375243E0,1.1619333E0,1.0130601E0],"tree_param":{"num_deleted":"0","num_feature":"2048","num_nodes":"11","size_leaf_vector":"1"}},{"base_weights":[-6.166995E-1,-9.6292186E-1,4.0716904E-1,4.2109255E-2,-1.04851715E-1,-6.890656E-1,1.665982E0,-8.294036E-2,-6.2437407E-3,2.4953773E-2,2.1334262E-1],"categories":[],"categories_nodes":[],"categories_segments":[],"categories_sizes":[],"default_left":[0,0,0,0,0,0,0,0,0,0,0],"id":5,"left_children":[1,3,5,-1,-1,7,9,-1,-1,-1,-1],"loss_changes":[1.073001E1,3.0585117E0,1.2287454E1,0E0,0E0,3.8986707E-1,2.1492596E0,0E0,0E0,0E0,0E0],"parents":[2147483647,0,0,1,1,2,2,5,5,6,6],"right_children":[2,4,6,-1,-1,8,10,-1,-1,-1,-1],"split_conditions":[6.661849E-1,1.241573E-1,8.278251E-1,4.2109255E-2,-1.04851715E-1,8.096906E-1,4.086159E-1,-8.294036E-2,-6.2437407E-3,2.4953773E-2,2.1334262E-1],"split_indices":[708,886,12,0,0,1607,318,0,0,0,0],"split_type":[0,0,0,0,0,0,0,0,0,0,0],"sum_hessian":[2.8163166E1,2.1090809E1,7.072356E0,1.0001128E0,2.0090696E1,4.0222206E0,3.0501354E0,3.0218558E0,1.0003648E0,1.137408E0,1.9127275E0],"tree_param":{"num_deleted":"0","num_feature":"2048","num_nodes":"11","size_leaf_vector":"1"}},{"base_weights":[-5.8996964E-1,-9.4331807E-1,3.8419917E-1,3.935535E-2,-1.034564E-1,-6.665606E-1,1.4966204E0,-5.7328707E-3,-8.111143E-2,1.981914E-2,1.9330555E-1],"categories":[],"categories_nodes":[],"categories_segments":[],"categories_sizes":[],"default_left":[0,0,0,0,0,0,0,0,0,0,0],"id":6,"left_children":[1,3,5,-1,-1,7,9,-1,-1,-1,-1],"loss_changes":[9.821967E0,2.9024334E0,1.0378235E1,0E0,0E0,3.7788272E-1,2.0005655E0,0E0,0E0,0E0,0E0],"parents":[2147483647,0,0,1,1,2,2,5,5,6,6],"right_children":[2,4,6,-1,-1,8,10,-1,-1,-1,-1],"split_conditions":[6.661849E-1,1.241573E-1,8.278251E-1,3.935535E-2,-1.034564E-1,3.561388E-1,6.5510744E-1,-5.7328707E-3,-8.111143E-2,1.981914E-2,1.9330555E-1],"split_indices":[708,886,12,0,0,427,289,0,0,0,0],"split_type":[0,0,0,0,0,0,0,0,0,0,0],"sum_hessian":[2.6481026E1,1.9455748E1,7.025278E0,1.0313935E0,1.8424355E1,3.8188803E0,3.2063975E0,1.0001727E0,2.8187077E0,1.1724323E0,2.0339653E0],"tree_param":{"num_deleted":"0","num_feature":"2048","num_nodes":"11","size_leaf_vector":"1"}},{"base_weights":[-5.647439E-1,-8.622435E-1,5.7874453E-1,-9.793942E-1,4.9436327E-2,1.435184E0,-7.286625E-2,-1.02613546E-1,-5.540445E-3,1.8716762E-2,1.8979824E-1],"categories":[],"categories_nodes":[],"categories_segments":[],"categories_sizes":[],"default_left":[0,0,0,0,0,0,0,0,0,0,0],"id":7,"left_children":[1,3,5,7,-1,9,-1,-1,-1,-1,-1],"loss_changes":[9.310885E0,3.8147888E0,7.703788E0,7.907791E-1,0E0,1.9143333E0,0E0,0E0,0E0,0E0,0E0],"parents":[2147483647,0,0,1,1,2,2,3,3,5,5],"right_children":[2,4,6,8,-1,10,-1,-1,-1,-1,-1],"split_conditions":[6.902033E-1,1.4784671E0,3.7957728E-1,8.94141E-1,4.9436327E-2,4.8541015E-1,-7.286625E-2,-1.02613546E-1,-5.540445E-3,1.8716762E-2,1.8979824E-1],"split_indices":[1339,839,562,418,0,394,0,0,0,0,0],"split_type":[0,0,0,0,0,0,0,0,0,0,0],"sum_hessian":[2.490298E1,1.9956802E1,4.946177E0,1.8626366E1,1.330437E0,2.9294543E0,2.0167227E0,1.762427E1,1.0020964E0,1.1723728E0,1.7570816E0],"tree_param":{"num_deleted":"0","num_feature":"2048","num_nodes":"11","size_leaf_vector":"1"}},{"base_weights":[-5.3941655E-1,-9.077307E-1,3.7236217E-1,3.9117306E-2,-1.0119978E-1,1.4117126E-1,-5.238659E-1,2.8787812E-2,-8.0721214E-2],"categories":[],"categories_nodes":[],"categories_segments":[],"categories_sizes":[],"default_left":[0,0,0,0,0,0,0,0,0],"id":8,"left_children":[1,3,5,-1,-1,-1,7,-1,-1],"loss_changes":[8.542769E0,2.7921076E0,7.948192E0,0E0,0E0,0E0,1.3559186E0,0E0,0E0],"parents":[2147483647,0,0,1,1,2,2,6,6],"right_children":[2,4,6,-1,-1,-1,8,-1,-1],"split_conditions":[6.661849E-1,2.1742845E-1,3.9278713E-1,3.9117306E-2,-1.0119978E-1,1.4117126E-1,3.2998005E-1,2.8787812E-2,-8.0721214E-2],"split_indices":[708,1154,909,0,0,0,49,0,0],"split_type":[0,0,0,0,0,0,0,0,0],"sum_hessian":[2.3431963E1,1.6693174E1,6.738789E0,1.0359695E0,1.5657204E1,2.8539307E0,3.8848584E0,1.0010393E0,2.8838193E0],"tree_param":{"num_deleted":"0","num_feature":"2048","num_nodes":"9","size_leaf_vector":"1"}},{"base_weights":[-5.162443E-1,-8.235209E-1,5.3287953E-1,-9.499124E-1,4.488924E-2,-7.003146E-2,1.2593164E0,-4.727494E-3,-1.0036756E-1,1.7083524E-2,1.6386843E-1],"categories":[],"categories_nodes":[],"categories_segments":[],"categories_sizes":[],"default_left":[0,0,0,0,0,0,0,0,0,0,0],"id":9,"left_children":[1,3,5,7,-1,-1,9,-1,-1,-1,-1],"loss_changes":[7.880874E0,3.3611698E0,6.1107802E0,7.736778E-1,0E0,0E0,1.3843846E0,0E0,0E0,0E0,0E0],"parents":[2147483647,0,0,1,1,2,2,3,3,6,6],"right_children":[2,4,6,8,-1,-1,10,-1,-1,-1,-1],"split_conditions":[6.902033E-1,1.4784671E0,3.6643755E-1,2.4250776E-1,4.488924E-2,-7.003146E-2,6.5510744E-1,-4.727494E-3,-1.0036756E-1,1.7083524E-2,1.6386843E-1],"split_indices":[1339,839,1101,931,0,0,289,0,0,0,0],"split_type":[0,0,0,0,0,0,0,0,0,0,0],"sum_hessian":[2.2085302E1,1.724846E1,4.8368416E0,1.5920499E1,1.3279618E0,1.8063514E0,3.03049E0,1.0005991E0,1.4919899E1,1.1580712E0,1.8724188E0],"tree_param":{"num_deleted":"0","num_feature":"2048","num_nodes":"11","size_leaf_vector":"1"}},{"base_weights":[-4.92971E-1,-8.728749E-1,3.5786894E-1,-9.903005E-2,3.9863575E-2,-7.553776E-2,1.0287925E0,-2.737308E-2,1.561866E-1],"categories":[],"categories_nodes":[],"categories_segments":[],"categories_sizes":[],"default_left":[0,0,0,0,0,0,0,0,0],"id":10,"left_children":[1,3,5,-1,-1,-1,7,-1,-1],"loss_changes":[7.3588495E0,2.688342E0,6.3328304E0,0E0,0E0,0E0,3.9440684E0,0E0,0E0],"parents":[2147483647,0,0,1,1,2,2,6,6],"right_children":[2,4,6,-1,-1,-1,8,-1,-1],"split_conditions":[6.661849E-1,8.1491876E-1,5.353925E-1,-9.903005E-2,3.9863575E-2,-7.553776E-2,6.499501E-1,-2.737308E-2,1.561866E-1],"split_indices":[708,808,12,0,0,0,289,0,0],"split_type":[0,0,0,0,0,0,0,0,0],"sum_hessian":[2.0799688E1,1.4361372E1,6.438316E0,1.3349675E1,1.0116963E0,2.3737445E0,4.0645714E0,1.3216724E0,2.742899E0],"tree_param":{"num_deleted":"0","num_feature":"2048","num_nodes":"9","size_leaf_vector":"1"}},{"base_weights":[-4.7394472E-1,-7.8648835E-1,4.9449447E-1,4.067031E-2,-9.3243355E-1,1.1219754E0,-6.606246E-2,-9.8206185E-2,-1.3331986E-2,1.5837347E-2,1.4323154E-1],"categories":[],"categories_nodes":[],"categories_segments":[],"categories_sizes":[],"default_left":[0,0,0,0,0,0,0,0,0,0,0],"id":11,"left_children":[1,3,5,-1,7,9,-1,-1,-1,-1,-1],"loss_changes":[6.6110306E0,3.1527977E0,4.8216004E0,0E0,4.4392776E-1,9.7487974E-1,0E0,0E0,0E0,0E0,0E0],"parents":[2147483647,0,0,1,1,2,2,4,4,5,5],"right_children":[2,4,6,-1,8,10,-1,-1,-1,-1,-1],"split_conditions":[6.902033E-1,1.9746402E-1,3.7957728E-1,4.067031E-2,7.27331E-1,4.8541015E-1,-6.606246E-2,-9.8206185E-2,-1.3331986E-2,1.5837347E-2,1.4323154E-1],"split_indices":[1339,176,562,0,1874,394,0,0,0,0,0],"split_type":[0,0,0,0,0,0,0,0,0,0,0],"sum_hessian":[1.9556782E1,1.4927215E1,4.6295676E0,1.4321147E0,1.3495099E1,3.018538E0,1.6110299E0,1.2490451E1,1.0046482E0,1.1032578E0,1.9152802E0],"tree_param":{"num_deleted":"0","num_feature":"2048","num_nodes":"11","size_leaf_vector":"1"}},{"base_weights":[-4.5252374E-1,-8.381244E-1,3.4189796E-1,3.9073307E-2,-9.6899636E-2,-7.189717E-2,9.3010324E-1,-2.4944194E-2,1.3849866E-1],"categories":[],"categories_nodes":[],"categories_segments":[],"categories_sizes":[],"default_left":[0,0,0,0,0,0,0,0,0],"id":12,"left_children":[1,3,5,-1,-1,-1,7,-1,-1],"loss_changes":[6.2452593E0,2.5312815E0,5.078374E0,0E0,0E0,0E0,3.0186186E0,0E0,0E0],"parents":[2147483647,0,0,1,1,2,2,6,6],"right_children":[2,4,6,-1,-1,-1,8,-1,-1],"split_conditions":[6.661849E-1,2.1819256E-1,5.353925E-1,3.9073307E-2,-9.6899636E-2,-7.189717E-2,6.499501E-1,-2.4944194E-2,1.3849866E-1],"split_indices":[708,1154,12,0,0,0,289,0,0],"split_type":[0,0,0,0,0,0,0,0,0],"sum_hessian":[1.8451946E1,1.2385294E1,6.0666523E0,1.0009539E0,1.138434E1,2.0846055E0,3.982047E0,1.2339534E0,2.7480936E0],"tree_param":{"num_deleted":"0","num_feature":"2048","num_nodes":"9","size_leaf_vector":"1"}},{"base_weights":[-4.3521044E-1,2.8159153E-1,-8.504709E-1,1.0129986E0,-4.7685704E-1,1.43238595E-2,-9.5538884E-2,6.3535566E-3,1.3563894E-1,-7.445154E-2,2.0933537E-2],"categories":[],"categories_nodes":[],"categories_segments":[],"categories_sizes":[],"default_left":[0,0,0,0,0,0,0,0,0,0,0],"id":13,"left_children":[1,3,5,7,9,-1,-1,-1,-1,-1,-1],"loss_changes":[5.70385E0,4.6353617E0,1.3746567E0,1.2605505E0,9.5564306E-1,0E0,0E0,0E0,0E0,0E0,0E0],"parents":[2147483647,0,0,1,1,2,2,3,3,4,4],"right_children":[2,4,6,8,10,-1,-1,-1,-1,-1,-1],"split_conditions":[1.9318481E-1,3.0474707E-1,1.2090219E-1,3.5058576E-1,6.7513454E-1,1.43238595E-2,-9.5538884E-2,6.3535566E-3,1.3563894E-1,-7.445154E-2,2.0933537E-2],"split_indices":[1950,1420,608,1019,1167,0,0,0,0,0,0],"split_type":[0,0,0,0,0,0,0,0,0,0,0],"sum_hessian":[1.7357769E1,6.4852114E0,1.0872559E1,3.130605E0,3.3546064E0,1.0034393E0,9.86912E0,1.1462606E0,1.9843442E0,2.3521314E0,1.002475E0],"tree_param":{"num_deleted":"0","num_feature":"2048","num_nodes":"11","size_leaf_vector":"1"}},{"base_weights":[-4.1504443E-1,-8.0483186E-1,3.3310297E-1,3.6952026E-2,-9.485167E-2,-6.817822E-2,8.557728E-1,-2.2540981E-2,1.2530968E-1],"categories":[],"categories_nodes":[],"categories_segments":[],"categories_sizes":[],"default_left":[0,0,0,0,0,0,0,0,0],"id":14,"left_children":[1,3,5,-1,-1,-1,7,-1,-1],"loss_changes":[5.347719E0,2.332284E0,4.1236076E0,0E0,0E0,0E0,2.3653238E0,0E0,0E0],"parents":[2147483647,0,0,1,1,2,2,6,6],"right_children":[2,4,6,-1,-1,-1,8,-1,-1],"split_conditions":[6.661849E-1,2.1819256E-1,5.353925E-1,3.6952026E-2,-9.485167E-2,-6.817822E-2,6.499501E-1,-2.2540981E-2,1.2530968E-1],"split_indices":[708,1154,12,0,0,0,289,0,0],"split_type":[0,0,0,0,0,0,0,0,0],"sum_hessian":[1.6418741E1,1.0744863E1,5.673878E0,1.0000013E0,9.744861E0,1.8252698E0,3.8486083E0,1.1505244E0,2.6980839E0],"tree_param":{"num_deleted":"0","num_feature":"2048","num_nodes":"9","size_leaf_vector":"1"}},{"base_weights":[-3.9920357E-1,2.769021E-1,-8.224521E-1,-6.8900004E-2,7.650643E-1,-9.332626E-2,1.0723854E-2,1.1469151E0,-3.1690635E-2,3.2850344E-2,1.3379084E-1],"categories":[],"categories_nodes":[],"categories_segments":[],"categories_sizes":[],"default_left":[0,0,0,0,0,0,0,0,0,0,0],"id":15,"left_children":[1,3,5,-1,7,-1,-1,9,-1,-1,-1],"loss_changes":[4.937631E0,3.867713E0,1.1688218E0,0E0,2.5036252E0,0E0,0E0,1.9282007E-1,0E0,0E0,0E0],"parents":[2147483647,0,0,1,1,2,2,4,4,7,7],"right_children":[2,4,6,-1,8,-1,-1,10,-1,-1,-1],"split_conditions":[1.9318481E-1,5.3748435E-1,1.0582495E0,-6.8900004E-2,4.5709708E-1,-9.332626E-2,1.0723854E-2,3.4508595E-1,-3.1690635E-2,3.2850344E-2,1.3379084E-1],"split_indices":[1950,912,726,0,41,0,0,1019,0,0,0],"split_type":[0,0,0,0,0,0,0,0,0,0,0],"sum_hessian":[1.5458904E1,6.0847588E0,9.3741455E0,1.9046692E0,4.1800895E0,8.372392E0,1.0017537E0,3.04531E0,1.1347798E0,1.0908709E0,1.954439E0],"tree_param":{"num_deleted":"0","num_feature":"2048","num_nodes":"11","size_leaf_vector":"1"}},{"base_weights":[-3.8144326E-1,-6.354495E-1,6.5528315E-1,-8.290985E-1,4.927202E-2,-6.577643E-4,9.759249E-2,1.8986786E-2,-9.4408385E-2],"categories":[],"categories_nodes":[],"categories_segments":[],"categories_sizes":[],"default_left":[0,0,0,0,0,0,0,0,0],"id":16,"left_children":[1,3,5,7,-1,-1,-1,-1,-1],"loss_changes":[4.5358996E0,3.2644973E0,7.642262E-1,1.5302119E0,0E0,0E0,0E0,0E0,0E0],"parents":[2147483647,0,0,1,1,2,2,3,3],"right_children":[2,4,6,8,-1,-1,-1,-1,-1],"split_conditions":[6.8827903E-1,7.9850054E-1,1.0885645E0,2.4433999E-1,4.927202E-2,-6.577643E-4,9.759249E-2,1.8986786E-2,-9.4408385E-2],"split_indices":[1630,1011,167,1549,0,0,0,0,0],"split_type":[0,0,0,0,0,0,0,0,0],"sum_hessian":[1.4643573E1,1.20727215E1,2.5708518E0,1.0530301E1,1.5424199E0,1.15866E0,1.4121917E0,1.0017594E0,9.528542E0],"tree_param":{"num_deleted":"0","num_feature":"2048","num_nodes":"9","size_leaf_vector":"1"}},{"base_weights":[-3.5929623E-1,-7.555548E-1,3.3675385E-1,3.374434E-2,-9.1909215E-2,-6.2276613E-2,7.802447E-1,-1.9641949E-2,1.1163049E-1],"categories":[],"categories_nodes":[],"categories_segments":[],"categories_sizes":[],"default_left":[0,0,0,0,0,0,0,0,0],"id":17,"left_children":[1,3,5,-1,-1,-1,7,-1,-1],"loss_changes":[4.351304E0,2.0571065E0,3.0732605E0,0E0,0E0,0E0,1.7297618E0,0E0,0E0],"parents":[2147483647,0,0,1,1,2,2,6,6],"right_children":[2,4,6,-1,-1,-1,8,-1,-1],"split_conditions":[6.661849E-1,1.6060227E-1,5.353925E-1,3.374434E-2,-9.1909215E-2,-6.2276613E-2,6.499501E-1,-1.9641949E-2,1.1163049E-1],"split_indices":[708,109,12,0,0,0,289,0,0],"split_type":[0,0,0,0,0,0,0,0,0],"sum_hessian":[1.3853638E1,8.773455E0,5.080182E0,1.0034586E0,7.769996E0,1.4780635E0,3.6021187E0,1.0285244E0,2.5735943E0],"tree_param":{"num_deleted":"0","num_feature":"2048","num_nodes":"9","size_leaf_vector":"1"}},{"base_weights":[-3.4540182E-1,2.8322756E-1,-7.803419E-1,-6.41832E-2,7.118139E-1,-8.991287E-2,5.899996E-3,-2.8980106E-2,1.0822808E-1],"categories":[],"categories_nodes":[],"categories_segments":[],"categories_sizes":[],"default_left":[0,0,0,0,0,0,0,0,0],"id":18,"left_children":[1,3,5,-1,7,-1,-1,-1,-1],"loss_changes":[4.068549E0,3.029304E0,9.088659E-1,0E0,2.1349127E0,0E0,0E0,0E0,0E0],"parents":[2147483647,0,0,1,1,2,2,4,4],"right_children":[2,4,6,-1,8,-1,-1,-1,-1],"split_conditions":[1.9318481E-1,3.470388E-1,8.793095E-1,-6.41832E-2,4.7672722E-1,-8.991287E-2,5.899996E-3,-2.8980106E-2,1.0822808E-1],"split_indices":[1950,1211,1282,0,1451,0,0,0,0],"split_type":[0,0,0,0,0,0,0,0,0],"sum_hessian":[1.3072084E1,5.488392E0,7.5836926E0,1.5801803E0,3.908212E0,6.581083E0,1.0026097E0,1.1140215E0,2.7941904E0],"tree_param":{"num_deleted":"0","num_feature":"2048","num_nodes":"9","size_leaf_vector":"1"}},{"base_weights":[-3.3324543E-1,2.2784351E-1,-8.176999E-1,-6.8359606E-2,7.141984E-1,-8.750315E-2,-2.2495082E-2,-2.8238995E-2,1.0327755E0,1.1723473E-1,3.137407E-2],"categories":[],"categories_nodes":[],"categories_segments":[],"categories_sizes":[],"default_left":[0,0,0,0,0,0,0,0,0,0,0],"id":19,"left_children":[1,3,5,-1,7,-1,-1,-1,9,-1,-1],"loss_changes":[3.8322012E0,3.589842E0,5.517578E-2,0E0,1.8954268E0,0E0,0E0,0E0,3.788328E-2,0E0,0E0],"parents":[2147483647,0,0,1,1,2,2,4,4,8,8],"right_children":[2,4,6,-1,8,-1,-1,-1,10,-1,-1],"split_conditions":[3.1001458E-1,3.9119837E-1,6.238631E-1,-6.8359606E-2,3.7687206E-1,-8.750315E-2,-2.2495082E-2,-2.8238995E-2,1.8998323E-1,1.1723473E-1,3.137407E-2],"split_indices":[819,539,29,0,1478,0,0,0,1950,0,0],"split_type":[0,0,0,0,0,0,0,0,0,0,0],"sum_hessian":[1.2412797E1,5.9969254E0,6.415871E0,1.9454883E0,4.051437E0,5.4158196E0,1.0000519E0,1.0089087E0,3.0425282E0,2.0199833E0,1.0225449E0],"tree_param":{"num_deleted":"0","num_feature":"2048","num_nodes":"11","size_leaf_vector":"1"}},{"base_weights":[-3.206235E-1,2.1786895E-1,-8.007304E-1,-6.671322E-2,6.75183E-1,-8.610352E-2,-2.2089666E-2,-2.5945816E-2,9.7467977E-1,1.12079404E-1,2.7450535E-2],"categories":[],"categories_nodes":[],"categories_segments":[],"categories_sizes":[],"default_left":[0,0,0,0,0,0,0,0,0,0,0],"id":20,"left_children":[1,3,5,-1,7,-1,-1,-1,9,-1,-1],"loss_changes":[3.4817605E0,3.2089298E0,5.375576E-2,0E0,1.6498921E0,0E0,0E0,0E0,1.0051465E-1,0E0,0E0],"parents":[2147483647,0,0,1,1,2,2,4,4,8,8],"right_children":[2,4,6,-1,8,-1,-1,-1,10,-1,-1],"split_conditions":[3.1001458E-1,3.9119837E-1,5.252345E-1,-6.671322E-2,5.056341E-1,-8.610352E-2,-2.2089666E-2,-2.5945816E-2,3.77114E-1,1.12079404E-1,2.7450535E-2],"split_indices":[819,539,410,0,1126,0,0,0,37,0,0],"split_type":[0,0,0,0,0,0,0,0,0,0,0],"sum_hessian":[1.1792541E1,5.815749E0,5.9767914E0,1.8250599E0,3.9906895E0,4.974461E0,1.0023307E0,1.0008907E0,2.9897988E0,1.9765842E0,1.0132145E0],"tree_param":{"num_deleted":"0","num_feature":"2048","num_nodes":"11","size_leaf_vector":"1"}},{"base_weights":[-3.0867058E-1,4.0449098E-1,-6.5474993E-1,-4.1272875E-2,9.215975E-2,-8.825396E-2,1.8678412E-2],"categories":[],"categories_nodes":[],"categories_segments":[],"categories_sizes":[],"default_left":[0,0,0,0,0,0,0],"id":21,"left_children":[1,3,5,-1,-1,-1,-1],"loss_changes":[3.2799995E0,2.3283186E0,1.8147333E0,0E0,0E0,0E0,0E0],"parents":[2147483647,0,0,1,1,2,2],"right_children":[2,4,6,-1,-1,-1,-1],"split_conditions":[3.0474707E-1,4.649836E-1,8.117392E-1,-4.1272875E-2,9.215975E-2,-8.825396E-2,1.8678412E-2],"split_indices":[1420,808,1668,0,0,0,0],"split_type":[0,0,0,0,0,0,0],"sum_hessian":[1.1216495E1,3.6095524E0,7.6069417E0,1.4770757E0,2.1324768E0,5.9481473E0,1.6587943E0],"tree_param":{"num_deleted":"0","num_feature":"2048","num_nodes":"7","size_leaf_vector":"1"}},{"base_weights":[-2.9411176E-1,2.19098E-1,-7.73829E-1,-6.359085E-2,6.3956904E-1,-8.337789E-2,-2.2952374E-2,9.6445434E-2,-1.4259185E-2],"categories":[],"categories_nodes":[],"categories_segments":[],"categories_sizes":[],"default_left":[0,0,0,0,0,0,0,0,0],"id":22,"left_children":[1,3,5,-1,7,-1,-1,-1,-1],"loss_changes":[3.0434349E0,2.714397E0,1.2706757E-2,0E0,1.3576539E0,0E0,0E0,0E0,0E0],"parents":[2147483647,0,0,1,1,2,2,4,4],"right_children":[2,4,6,-1,8,-1,-1,-1,-1],"split_conditions":[3.1001458E-1,3.9119837E-1,5.1640284E-1,-6.359085E-2,2.3275378E-1,-8.337789E-2,-2.2952374E-2,9.6445434E-2,-1.4259185E-2],"split_indices":[819,539,410,0,333,0,0,0,0],"split_type":[0,0,0,0,0,0,0,0,0],"sum_hessian":[1.0673201E1,5.419067E0,5.254134E0,1.6175301E0,3.8015368E0,4.253797E0,1.0003371E0,2.5212317E0,1.280305E0],"tree_param":{"num_deleted":"0","num_feature":"2048","num_nodes":"9","size_leaf_vector":"1"}},{"base_weights":[-2.8542155E-1,-5.479463E-1,5.8941525E-1,-8.692823E-2,1.7208788E-1,1.2893093E-2,7.517802E-2,6.713121E-2,-5.328395E-2],"categories":[],"categories_nodes":[],"categories_segments":[],"categories_sizes":[],"default_left":[0,0,0,0,0,0,0,0,0],"id":23,"left_children":[1,3,5,-1,7,-1,-1,-1,-1],"loss_changes":[2.891591E0,2.2599146E0,1.3210356E-1,0E0,1.6419086E0,0E0,0E0,0E0,0E0],"parents":[2147483647,0,0,1,1,2,2,4,4],"right_children":[2,4,6,-1,8,-1,-1,-1,-1],"split_conditions":[6.8827903E-1,5.6969124E-1,7.370378E-1,-8.692823E-2,2.3275378E-1,1.2893093E-2,7.517802E-2,6.713121E-2,-5.328395E-2],"split_indices":[1630,1677,1098,0,333,0,0,0,0],"split_type":[0,0,0,0,0,0,0,0,0],"sum_hessian":[1.01841545E1,8.120869E0,2.0632856E0,5.4716897E0,2.649179E0,1.0055423E0,1.0577434E0,1.578783E0,1.0703958E0],"tree_param":{"num_deleted":"0","num_feature":"2048","num_nodes":"9","size_leaf_vector":"1"}},{"base_weights":[-2.6968893E-1,2.785984E-1,-6.947783E-1,-5.434522E-2,6.225494E-1,1.3616242E-3,-8.3120406E-2,8.91837E-2,-7.3309424E-3],"categories":[],"categories_nodes":[],"categories_segments":[],"categories_sizes":[],"default_left":[0,0,0,0,0,0,0,0,0],"id":24,"left_children":[1,3,5,-1,7,-1,-1,-1,-1],"loss_changes":[2.6801615E0,1.8575253E0,6.197643E-1,0E0,8.6255085E-1,0E0,0E0,0E0,0E0],"parents":[2147483647,0,0,1,1,2,2,4,4],"right_children":[2,4,6,-1,8,-1,-1,-1,-1],"split_conditions":[1.9318481E-1,5.3748435E-1,1.9694524E-1,-5.434522E-2,3.0474707E-1,1.3616242E-3,-8.3120406E-2,8.91837E-2,-7.3309424E-3],"split_indices":[1950,912,1034,0,1420,0,0,0,0],"split_type":[0,0,0,0,0,0,0,0,0],"sum_hessian":[9.668836E0,4.3730345E0,5.2958007E0,1.1188736E0,3.254161E0,1.0005597E0,4.2952414E0,2.143155E0,1.1110058E0],"tree_param":{"num_deleted":"0","num_feature":"2048","num_nodes":"9","size_leaf_vector":"1"}},{"base_weights":[-2.597322E-1,-6.755723E-1,2.919714E-1,-8.256563E-2,4.681073E-3,-3.6618154E-2,8.194861E-2],"categories":[],"categories_nodes":[],"categories_segments":[],"categories_sizes":[],"default_left":[0,0,0,0,0,0,0],"id":25,"left_children":[1,3,5,-1,-1,-1,-1],"loss_changes":[2.543949E0,7.037239E-1,2.0688071E0,0E0,0E0,0E0,0E0],"parents":[2147483647,0,0,1,1,2,2],"right_children":[2,4,6,-1,-1,-1,-1],"split_conditions":[3.9492878E-1,5.9665E-1,6.2836635E-1,-8.256563E-2,4.681073E-3,-3.6618154E-2,8.194861E-2],"split_indices":[1833,469,1451,0,0,0,0],"split_type":[0,0,0,0,0,0,0],"sum_hessian":[9.228822E0,5.1343474E0,4.0944743E0,4.132755E0,1.0015928E0,1.9577396E0,2.1367345E0],"tree_param":{"num_deleted":"0","num_feature":"2048","num_nodes":"7","size_leaf_vector":"1"}},{"base_weights":[-2.4784271E-1,-7.533417E-2,2.030239E-1,7.303996E-1,-3.750907E-1,1.9339364E-2,8.776171E-2,-6.177962E-2,1.1725246E-2],"categories":[],"categories_nodes":[],"categories_segments":[],"categories_sizes":[],"default_left":[0,0,0,0,0,0,0,0,0],"id":26,"left_children":[1,-1,3,5,7,-1,-1,-1,-1],"loss_changes":[2.3928716E0,0E0,2.0979097E0,1.0442698E-1,4.9241626E-1,0E0,0E0,0E0,0E0],"parents":[2147483647,0,0,2,2,3,3,4,4],"right_children":[2,-1,4,6,8,-1,-1,-1,-1],"split_conditions":[4.2631406E-1,-7.533417E-2,2.475888E-1,7.4712783E-1,5.557909E-1,1.9339364E-2,8.776171E-2,-6.177962E-2,1.1725246E-2],"split_indices":[197,0,1992,1624,1743,0,0,0,0],"split_type":[0,0,0,0,0,0,0,0,0],"sum_hessian":[8.828002E0,3.8455758E0,4.9824257E0,2.4677992E0,2.5146267E0,1.0287783E0,1.4390209E0,1.5136496E0,1.000977E0],"tree_param":{"num_deleted":"0","num_feature":"2048","num_nodes":"9","size_leaf_vector":"1"}},{"base_weights":[-2.34967E-1,-6.256377E-1,3.324636E-1,-8.136711E-2,1.5091866E-2,7.3648624E-2,-3.04057E-2],"categories":[],"categories_nodes":[],"categories_segments":[],"categories_sizes":[],"default_left":[0,0,0,0,0,0,0],"id":27,"left_children":[1,3,5,-1,-1,-1,-1],"loss_changes":[2.3032992E0,9.908607E-1,1.3830146E0,0E0,0E0,0E0,0E0],"parents":[2147483647,0,0,1,1,2,2],"right_children":[2,4,6,-1,-1,-1,-1],"split_conditions":[6.661849E-1,7.4311614E-1,3.9278713E-1,-8.136711E-2,1.5091866E-2,7.3648624E-2,-3.04057E-2],"split_indices":[708,636,909,0,0,0,0],"split_type":[0,0,0,0,0,0,0],"sum_hessian":[8.451962E0,4.9448786E0,3.5070837E0,3.942466E0,1.0024127E0,2.0492811E0,1.4578027E0],"tree_param":{"num_deleted":"0","num_feature":"2048","num_nodes":"7","size_leaf_vector":"1"}},{"base_weights":[-2.2373007E-1,2.3800741E-1,-7.0314296E-2,5.844016E-1,-5.4868456E-2,-8.555818E-3,8.6108275E-2],"categories":[],"categories_nodes":[],"categories_segments":[],"categories_sizes":[],"default_left":[0,0,0,0,0,0,0],"id":28,"left_children":[1,3,-1,5,-1,-1,-1],"loss_changes":[2.178536E0,1.7854109E0,0E0,8.552023E-1,0E0,0E0,0E0],"parents":[2147483647,0,0,1,1,3,3],"right_children":[2,4,-1,6,-1,-1,-1],"split_conditions":[3.1001458E-1,2.7624825E-1,-7.0314296E-2,5.144546E-1,-5.4868456E-2,-8.555818E-3,8.6108275E-2],"split_indices":[819,398,0,433,0,0,0],"split_type":[0,0,0,0,0,0,0],"sum_hessian":[8.085456E0,4.3751535E0,3.7103026E0,3.216162E0,1.1589916E0,1.1419053E0,2.0742567E0],"tree_param":{"num_deleted":"0","num_feature":"2048","num_nodes":"7","size_leaf_vector":"1"}},{"base_weights":[-2.1577252E-1,3.4388614E-1,-5.956012E-1,-3.7018146E-2,6.950804E-2,1.6259829E-2,-7.972826E-2],"categories":[],"categories_nodes":[],"categories_segments":[],"categories_sizes":[],"default_left":[0,0,0,0,0,0,0],"id":29,"left_children":[1,3,5,-1,-1,-1,-1],"loss_changes":[2.060615E0,1.3014102E0,9.8085415E-1,0E0,0E0,0E0,0E0],"parents":[2147483647,0,0,1,1,2,2],"right_children":[2,4,6,-1,-1,-1,-1],"split_conditions":[3.410194E-1,3.89831E-1,2.2985668E-1,-3.7018146E-2,6.950804E-2,1.6259829E-2,-7.972826E-2],"split_indices":[1420,121,104,0,0,0,0],"split_type":[0,0,0,0,0,0,0],"sum_hessian":[7.730101E0,3.1634877E0,4.566613E0,1.0251108E0,2.138377E0,1.0002116E0,3.5664017E0],"tree_param":{"num_deleted":"0","num_feature":"2048","num_nodes":"7","size_leaf_vector":"1"}},{"base_weights":[-2.065144E-1,2.63985E-1,-6.495496E-1,-4.3921772E-2,6.1790484E-1,-7.3695175E-2,-1.6671348E-2,8.257327E-2,1.1012901E-2],"categories":[],"categories_nodes":[],"categories_segments":[],"categories_sizes":[],"default_left":[0,0,0,0,0,0,0,0,0],"id":30,"left_children":[1,3,5,-1,7,-1,-1,-1,-1],"loss_changes":[1.9239904E0,1.4631155E0,7.2069764E-2,0E0,2.890489E-1,0E0,0E0,0E0,0E0],"parents":[2147483647,0,0,1,1,2,2,4,4],"right_children":[2,4,6,-1,8,-1,-1,-1,-1],"split_conditions":[4.2094272E-1,4.260918E-1,5.500445E-1,-4.3921772E-2,2.1481529E-1,-7.3695175E-2,-1.6671348E-2,8.257327E-2,1.1012901E-2],"split_indices":[909,197,669,0,1992,0,0,0,0],"split_type":[0,0,0,0,0,0,0,0,0],"sum_hessian":[7.4074717E0,3.788385E0,3.6190865E0,1.1876453E0,2.6007397E0,2.6187475E0,1.0003392E0,1.4011047E0,1.1996349E0],"tree_param":{"num_deleted":"0","num_feature":"2048","num_nodes":"9","size_leaf_vector":"1"}},{"base_weights":[-1.9775186E-1,2.762459E-1,-6.292909E-1,-3.1822894E-2,6.931855E-2,-7.330782E-2,-1.2986148E-2],"categories":[],"categories_nodes":[],"categories_segments":[],"categories_sizes":[],"default_left":[0,0,0,0,0,0,0],"id":31,"left_children":[1,3,5,-1,-1,-1,-1],"loss_changes":[1.838372E0,1.354045E0,1.4140677E-1,0E0,0E0,0E0,0E0],"parents":[2147483647,0,0,1,1,2,2],"right_children":[2,4,6,-1,-1,-1,-1],"split_conditions":[2.3275378E-1,5.114836E-1,5.358212E-1,-3.1822894E-2,6.931855E-2,-7.330782E-2,-1.2986148E-2],"split_indices":[333,833,1288,0,0,0,0],"split_type":[0,0,0,0,0,0,0],"sum_hessian":[7.137594E0,3.5729563E0,3.5646377E0,1.5704913E0,2.002465E0,2.5639808E0,1.0006568E0],"tree_param":{"num_deleted":"0","num_feature":"2048","num_nodes":"7","size_leaf_vector":"1"}},{"base_weights":[-1.9051665E-1,-4.5683062E-1,5.2974906E-2,1.7860128E-2,-7.835917E-2],"categories":[],"categories_nodes":[],"categories_segments":[],"categories_sizes":[],"default_left":[0,0,0,0,0],"id":32,"left_children":[1,3,-1,-1,-1],"loss_changes":[1.7550628E0,1.4471583E0,0E0,0E0,0E0],"parents":[2147483647,0,0,1,1],"right_children":[2,4,-1,-1,-1],"split_conditions":[6.8827903E-1,2.4876553E-1,5.2974906E-2,1.7860128E-2,-7.835917E-2],"split_indices":[1630,1467,0,0,0],"split_type":[0,0,0,0,0],"sum_hessian":[6.8880324E0,5.2957187E0,1.5923136E0,1.9524093E0,3.3433094E0],"tree_param":{"num_deleted":"0","num_feature":"2048","num_nodes":"5","size_leaf_vector":"1"}},{"base_weights":[-1.7950438E-1,-7.129545E-2,1.93697E-1,6.84175E-2,-2.8357276E-1,-5.9053995E-2,2.231417E-2],"categories":[],"categories_nodes":[],"categories_segments":[],"categories_sizes":[],"default_left":[0,0,0,0,0,0,0],"id":33,"left_children":[1,-1,3,-1,5,-1,-1],"loss_changes":[1.6565689E0,0E0,1.428618E0,0E0,6.575142E-1,0E0,0E0],"parents":[2147483647,0,0,2,2,4,4],"right_children":[2,-1,4,-1,6,-1,-1],"split_conditions":[4.5480582E-1,-7.129545E-2,2.7255347E-1,6.84175E-2,4.0824014E-1,-5.9053995E-2,2.231417E-2],"split_indices":[1126,0,553,0,486,0,0],"split_type":[0,0,0,0,0,0,0],"sum_hessian":[6.6272798E0,2.3532271E0,4.274052E0,1.8940585E0,2.379994E0,1.3791044E0,1.0008895E0],"tree_param":{"num_deleted":"0","num_feature":"2048","num_nodes":"7","size_leaf_vector":"1"}},{"base_weights":[-1.7388736E-1,3.307774E-1,-5.457769E-1,-2.0573933E-2,6.3783444E-2,6.8067783E-3,-7.348204E-2],"categories":[],"categories_nodes":[],"categories_segments":[],"categories_sizes":[],"default_left":[0,0,0,0,0,0,0],"id":34,"left_children":[1,3,5,-1,-1,-1,-1],"loss_changes":[1.5602705E0,7.4762976E-1,5.8496964E-1,0E0,0E0,0E0,0E0],"parents":[2147483647,0,0,1,1,2,2],"right_children":[2,4,6,-1,-1,-1,-1],"split_conditions":[3.410194E-1,4.649836E-1,1.9729254E-1,-2.0573933E-2,6.3783444E-2,6.8067783E-3,-7.348204E-2],"split_indices":[1420,808,78,0,0,0,0],"split_type":[0,0,0,0,0,0,0],"sum_hessian":[6.3515725E0,2.7416391E0,3.6099331E0,1.1180495E0,1.6235896E0,1.0006498E0,2.6092834E0],"tree_param":{"num_deleted":"0","num_feature":"2048","num_nodes":"7","size_leaf_vector":"1"}},{"base_weights":[-1.6555001E-1,2.439142E-1,-6.270675E-2,-3.5128962E-2,5.7275295E-1,1.3135771E-2,7.090335E-2],"categories":[],"categories_nodes":[],"categories_segments":[],"categories_sizes":[],"default_left":[0,0,0,0,0,0,0],"id":35,"left_children":[1,3,-1,-1,5,-1,-1],"loss_changes":[1.4994646E0,1.0810995E0,0E0,0E0,1.0391927E-1,0E0,0E0],"parents":[2147483647,0,0,1,1,4,4],"right_children":[2,4,-1,-1,6,-1,-1],"split_conditions":[3.1001458E-1,6.7044175E-1,-6.270675E-2,-3.5128962E-2,5.552256E-1,1.3135771E-2,7.090335E-2],"split_indices":[819,173,0,0,1577,0,0],"split_type":[0,0,0,0,0,0,0],"sum_hessian":[6.1253586E0,3.495554E0,2.6298048E0,1.2196655E0,2.2758884E0,1.0002106E0,1.2756778E0],"tree_param":{"num_deleted":"0","num_feature":"2048","num_nodes":"7","size_leaf_vector":"1"}},{"base_weights":[-1.5594694E-1,-5.300536E-1,3.280243E-1,2.201719E-3,-7.0493154E-2,-2.0331098E-2,6.3497156E-2],"categories":[],"categories_nodes":[],"categories_segments":[],"categories_sizes":[],"default_left":[0,0,0,0,0,0,0],"id":36,"left_children":[1,3,5,-1,-1,-1,-1],"loss_changes":[1.426519E0,4.2916334E-1,7.217859E-1,0E0,0E0,0E0,0E0],"parents":[2147483647,0,0,1,1,2,2],"right_children":[2,4,6,-1,-1,-1,-1],"split_conditions":[6.661849E-1,2.2503982E-1,9.883634E-1,2.201719E-3,-7.0493154E-2,-2.0331098E-2,6.3497156E-2],"split_indices":[708,1719,839,0,0,0,0],"split_type":[0,0,0,0,0,0,0],"sum_hessian":[5.918536E0,3.2844558E0,2.6340806E0,1.0003997E0,2.284056E0,1.0881298E0,1.545951E0],"tree_param":{"num_deleted":"0","num_feature":"2048","num_nodes":"7","size_leaf_vector":"1"}},{"base_weights":[-1.4912833E-1,3.3882463E-1,-5.162411E-1,6.090508E-2,-1.2715593E-2,3.7485957E-3,-6.996625E-2],"categories":[],"categories_nodes":[],"categories_segments":[],"categories_sizes":[],"default_left":[0,0,0,0,0,0,0],"id":37,"left_children":[1,3,5,-1,-1,-1,-1],"loss_changes":[1.3762345E0,5.160249E-1,4.5516503E-1,0E0,0E0,0E0,0E0],"parents":[2147483647,0,0,1,1,2,2],"right_children":[2,4,6,-1,-1,-1,-1],"split_conditions":[2.475888E-1,2.5116557E-1,3.3946848E-1,6.090508E-2,-1.2715593E-2,3.7485957E-3,-6.996625E-2],"split_indices":[1992,159,260,0,0,0,0],"split_type":[0,0,0,0,0,0,0],"sum_hessian":[5.70627E0,2.4830053E0,3.2232647E0,1.3772787E0,1.1057265E0,1.0000039E0,2.2232609E0],"tree_param":{"num_deleted":"0","num_feature":"2048","num_nodes":"7","size_leaf_vector":"1"}},{"base_weights":[-1.4133038E-1,-6.2007647E-2,2.3344094E-1,6.0353756E-2,-2.7418757E-2],"categories":[],"categories_nodes":[],"categories_segments":[],"categories_sizes":[],"default_left":[0,0,0,0,0],"id":38,"left_children":[1,-1,3,-1,-1],"loss_changes":[1.3158373E0,0E0,9.897846E-1,0E0,0E0],"parents":[2147483647,0,0,2,2],"right_children":[2,-1,4,-1,-1],"split_conditions":[4.2631406E-1,-6.2007647E-2,2.475888E-1,6.0353756E-2,-2.7418757E-2],"split_indices":[197,0,1992,0,0],"split_type":[0,0,0,0,0],"sum_hessian":[5.527054E0,2.1394713E0,3.3875825E0,1.8499236E0,1.5376589E0],"tree_param":{"num_deleted":"0","num_feature":"2048","num_nodes":"5","size_leaf_vector":"1"}},{"base_weights":[-1.3568352E-1,2.7336872E-1,-5.617383E-2,-2.5856674E-2,5.7691235E-2],"categories":[],"categories_nodes":[],"categories_segments":[],"categories_sizes":[],"default_left":[0,0,0,0,0],"id":39,"left_children":[1,3,-1,-1,-1],"loss_changes":[1.2608907E0,7.811836E-1,0E0,0E0,0E0],"parents":[2147483647,0,0,1,1],"right_children":[2,4,-1,-1,-1],"split_conditions":[4.2094272E-1,5.019106E-1,-5.617383E-2,-2.5856674E-2,5.7691235E-2],"split_indices":[909,833,0,0,0],"split_type":[0,0,0,0,0],"sum_hessian":[5.353784E0,2.9142272E0,2.4395568E0,1.1126215E0,1.8016056E0],"tree_param":{"num_deleted":"0","num_feature":"2048","num_nodes":"5","size_leaf_vector":"1"}},{"base_weights":[-1.2949066E-1,2.8010955E-1,-5.435775E-2,-2.4777902E-2,6.0018864E-2],"categories":[],"categories_nodes":[],"categories_segments":[],"categories_sizes":[],"default_left":[0,0,0,0,0],"id":40,"left_children":[1,3,-1,-1,-1],"loss_changes":[1.2034351E0,7.8666353E-1,0E0,0E0,0E0],"parents":[2147483647,0,0,1,1],"right_children":[2,4,-1,-1,-1],"split_conditions":[2.3275378E-1,5.114836E-1,-5.435775E-2,-2.4777902E-2,6.0018864E-2],"split_indices":[333,833,0,0,0],"split_type":[0,0,0,0,0],"sum_hessian":[5.1975913E0,2.7756069E0,2.4219844E0,1.1329603E0,1.6426466E0],"tree_param":{"num_deleted":"0","num_feature":"2048","num_nodes":"5","size_leaf_vector":"1"}},{"base_weights":[-1.23001546E-1,-4.9192318E-1,3.263326E-1,-4.6206256E-3,-6.390413E-2,-1.135767E-2,5.7963263E-2],"categories":[],"categories_nodes":[],"categories_segments":[],"categories_sizes":[],"default_left":[0,0,0,0,0,0,0],"id":41,"left_children":[1,3,5,-1,-1,-1,-1],"loss_changes":[1.162148E0,2.1419603E-1,4.3638024E-1,0E0,0E0,0E0,0E0],"parents":[2147483647,0,0,1,1,2,2],"right_children":[2,4,6,-1,-1,-1,-1],"split_conditions":[6.661849E-1,2.9954255E-1,1.0486027E0,-4.6206256E-3,-6.390413E-2,-1.135767E-2,5.7963263E-2],"split_indices":[708,971,839,0,0,0,0],"split_type":[0,0,0,0,0,0,0],"sum_hessian":[5.0422444E0,2.7168322E0,2.3254125E0,1.000311E0,1.7165213E0,1.0512702E0,1.2741421E0],"tree_param":{"num_deleted":"0","num_feature":"2048","num_nodes":"7","size_leaf_vector":"1"}},{"base_weights":[-1.17634416E-1,-6.200359E-2,2.112923E-1,5.9000295E-2,-2.2015544E-2],"categories":[],"categories_nodes":[],"categories_segments":[],"categories_sizes":[],"default_left":[0,0,0,0,0],"id":42,"left_children":[1,-1,3,-1,-1],"loss_changes":[1.1045551E0,0E0,8.334865E-1,0E0,0E0],"parents":[2147483647,0,0,2,2],"right_children":[2,-1,4,-1,-1],"split_conditions":[4.5480582E-1,-6.200359E-2,2.7255347E-1,5.9000295E-2,-2.2015544E-2],"split_indices":[1126,0,553,0,0],"split_type":[0,0,0,0,0],"sum_hessian":[4.891238E0,1.5851139E0,3.3061244E0,1.564959E0,1.7411653E0],"tree_param":{"num_deleted":"0","num_feature":"2048","num_nodes":"5","size_leaf_vector":"1"}},{"base_weights":[-1.1333762E-1,2.880991E-1,-5.0971694E-2,5.2905858E-2,-1.5121224E-2],"categories":[],"categories_nodes":[],"categories_segments":[],"categories_sizes":[],"default_left":[0,0,0,0,0],"id":43,"left_children":[1,3,-1,-1,-1],"loss_changes":[1.0604018E0,4.495773E-1,0E0,0E0,0E0],"parents":[2147483647,0,0,1,1],"right_children":[2,4,-1,-1,-1],"split_conditions":[1.9318481E-1,3.132436E-1,-5.0971694E-2,5.2905858E-2,-1.5121224E-2],"split_indices":[1950,1842,0,0,0],"split_type":[0,0,0,0,0],"sum_hessian":[4.7412386E0,2.4913125E0,2.249926E0,1.4769334E0,1.014379E0],"tree_param":{"num_deleted":"0","num_feature":"2048","num_nodes":"5","size_leaf_vector":"1"}},{"base_weights":[-1.0682831E-1,-5.640598E-2,2.3464456E-1,5.5334955E-2,-2.3778562E-2],"categories":[],"categories_nodes":[],"categories_segments":[],"categories_sizes":[],"default_left":[0,0,0,0,0],"id":44,"left_children":[1,-1,3,-1,-1],"loss_changes":[1.0097321E0,0E0,7.2227436E-1,0E0,0E0],"parents":[2147483647,0,0,2,2],"right_children":[2,-1,4,-1,-1],"split_conditions":[4.2631406E-1,-5.640598E-2,2.475888E-1,5.5334955E-2,-2.3778562E-2],"split_indices":[197,0,1992,0,0],"split_type":[0,0,0,0,0],"sum_hessian":[4.619461E0,1.6962894E0,2.9231718E0,1.6433035E0,1.2798684E0],"tree_param":{"num_deleted":"0","num_feature":"2048","num_nodes":"5","size_leaf_vector":"1"}},{"base_weights":[-1.03273556E-1,-4.6269196E-1,3.1586733E-1,-9.060215E-3,-5.8202196E-2,-7.165469E-3,5.5722E-2],"categories":[],"categories_nodes":[],"categories_segments":[],"categories_sizes":[],"default_left":[0,0,0,0,0,0,0],"id":45,"left_children":[1,3,5,-1,-1,-1,-1],"loss_changes":[9.7279423E-1,9.64486E-2,3.3243898E-1,0E0,0E0,0E0,0E0],"parents":[2147483647,0,0,1,1,2,2],"right_children":[2,4,6,-1,-1,-1,-1],"split_conditions":[6.661849E-1,4.2341813E-1,6.8827903E-1,-9.060215E-3,-5.8202196E-2,-7.165469E-3,5.5722E-2],"split_indices":[708,1807,1630,0,0,0,0],"split_type":[0,0,0,0,0,0,0],"sum_hessian":[4.4873004E0,2.3598201E0,2.12748E0,1.0002232E0,1.359597E0,1.0863389E0,1.0411413E0],"tree_param":{"num_deleted":"0","num_feature":"2048","num_nodes":"7","size_leaf_vector":"1"}},{"base_weights":[-9.86969E-2,-4.3546653E-1,3.3336483E-2,-1.778819E-3,-5.986276E-2],"categories":[],"categories_nodes":[],"categories_segments":[],"categories_sizes":[],"default_left":[0,0,0,0,0],"id":46,"left_children":[1,3,-1,-1,-1],"loss_changes":[9.264768E-1,2.2454494E-1,0E0,0E0,0E0],"parents":[2147483647,0,0,1,1],"right_children":[2,4,-1,-1,-1],"split_conditions":[4.3698716E-1,2.1701615E-1,3.3336483E-2,-1.778819E-3,-5.986276E-2],"split_indices":[2008,233,0,0,0],"split_type":[0,0,0,0,0],"sum_hessian":[4.3696175E0,2.4511743E0,1.9184432E0,1.0000792E0,1.451095E0],"tree_param":{"num_deleted":"0","num_feature":"2048","num_nodes":"5","size_leaf_vector":"1"}},{"base_weights":[-9.622336E-2,2.764038E-1,-4.9183413E-2,-1.4385769E-2,5.5302955E-2],"categories":[],"categories_nodes":[],"categories_segments":[],"categories_sizes":[],"default_left":[0,0,0,0,0],"id":47,"left_children":[1,3,-1,-1,-1],"loss_changes":[9.13554E-1,4.6977887E-1,0E0,0E0,0E0],"parents":[2147483647,0,0,1,1],"right_children":[2,4,-1,-1,-1],"split_conditions":[2.3275378E-1,8.731025E-1,-4.9183413E-2,-1.4385769E-2,5.5302955E-2],"split_indices":[333,1784,0,0,0],"split_type":[0,0,0,0,0],"sum_hessian":[4.274955E0,2.3565943E0,1.9183607E0,1.1259536E0,1.2306408E0],"tree_param":{"num_deleted":"0","num_feature":"2048","num_nodes":"5","size_leaf_vector":"1"}},{"base_weights":[-9.024812E-2,2.6878822E-1,-4.884078E-2,-1.2229511E-2,5.451217E-2],"categories":[],"categories_nodes":[],"categories_segments":[],"categories_sizes":[],"default_left":[0,0,0,0,0],"id":48,"left_children":[1,3,-1,-1,-1],"loss_changes":[8.6931825E-1,4.297564E-1,0E0,0E0,0E0],"parents":[2147483647,0,0,1,1],"right_children":[2,4,-1,-1,-1],"split_conditions":[4.2094272E-1,6.0130763E-1,-4.884078E-2,-1.2229511E-2,5.451217E-2],"split_indices":[909,1098,0,0,0],"split_type":[0,0,0,0,0],"sum_hessian":[4.162787E0,2.3597925E0,1.8029946E0,1.2078329E0,1.1519595E0],"tree_param":{"num_deleted":"0","num_feature":"2048","num_nodes":"5","size_leaf_vector":"1"}},{"base_weights":[-8.440839E-2,-4.563577E-2,2.9314786E-1,5.190457E-2,-7.2046528E-3],"categories":[],"categories_nodes":[],"categories_segments":[],"categories_sizes":[],"default_left":[0,0,0,0,0],"id":49,"left_children":[1,-1,3,-1,-1],"loss_changes":[8.4351903E-1,0E0,2.945343E-1,0E0,0E0],"parents":[2147483647,0,0,2,2],"right_children":[2,-1,4,-1,-1],"split_conditions":[3.9492878E-1,-4.563577E-2,2.920375E-1,5.190457E-2,-7.2046528E-3],"split_indices":[1833,0,72,0,0],"split_type":[0,0,0,0,0],"sum_hessian":[4.0539746E0,1.937013E0,2.1169617E0,1.0476389E0,1.0693228E0],"tree_param":{"num_deleted":"0","num_feature":"2048","num_nodes":"5","size_leaf_vector":"1"}},{"base_weights":[-7.776006E-2,3.1870704E-2,-4.238382E-1,-5.241527E-2,-1.0780462E-2],"categories":[],"categories_nodes":[],"categories_segments":[],"categories_sizes":[],"default_left":[0,0,0,0,0],"id":50,"left_children":[1,-1,3,-1,-1],"loss_changes":[8.154938E-1,0E0,4.104179E-2,0E0,0E0],"parents":[2147483647,0,0,2,2],"right_children":[2,-1,4,-1,-1],"split_conditions":[3.410194E-1,3.1870704E-2,5.412785E-1,-5.241527E-2,-1.0780462E-2],"split_indices":[1420,0,1868,0,0],"split_type":[0,0,0,0,0],"sum_hessian":[3.9589725E0,1.8820201E0,2.0769525E0,1.0766654E0,1.000287E0],"tree_param":{"num_deleted":"0","num_feature":"2048","num_nodes":"5","size_leaf_vector":"1"}},{"base_weights":[-7.7614926E-2,-4.315562E-2,3.0723264E-2],"categories":[],"categories_nodes":[],"categories_segments":[],"categories_sizes":[],"default_left":[0,0,0],"id":51,"left_children":[1,-1,-1],"loss_changes":[7.988997E-1,0E0,0E0],"parents":[2147483647,0,0],"right_children":[2,-1,-1],"split_conditions":[5.114836E-1,-4.315562E-2,3.0723264E-2],"split_indices":[833,0,0],"split_type":[0,0,0],"sum_hessian":[3.8916726E0,1.9640146E0,1.927658E0],"tree_param":{"num_deleted":"0","num_feature":"2048","num_nodes":"3","size_leaf_vector":"1"}},{"base_weights":[-7.3599346E-2,2.5094086E-1,-4.843841E-2,4.86613E-2,-1.3239498E-2],"categories":[],"categories_nodes":[],"categories_segments":[],"categories_sizes":[],"default_left":[0,0,0,0,0],"id":52,"left_children":[1,3,-1,-1,-1],"loss_changes":[7.6505136E-1,3.6754233E-1,0E0,0E0,0E0],"parents":[2147483647,0,0,1,1],"right_children":[2,4,-1,-1,-1],"split_conditions":[3.1001458E-1,2.7902338E-1,-4.843841E-2,4.86613E-2,-1.3239498E-2],"split_indices":[819,1955,0,0,0],"split_type":[0,0,0,0,0],"sum_hessian":[3.826868E0,2.3552349E0,1.4716331E0,1.2916939E0,1.0635409E0],"tree_param":{"num_deleted":"0","num_feature":"2048","num_nodes":"5","size_leaf_vector":"1"}},{"base_weights":[-7.041344E-2,-4.0998336E-2,3.0748084E-2],"categories":[],"categories_nodes":[],"categories_segments":[],"categories_sizes":[],"default_left":[0,0,0],"id":53,"left_children":[1,-1,-1],"loss_changes":[7.338927E-1,0E0,0E0],"parents":[2147483647,0,0],"right_children":[2,-1,-1],"split_conditions":[6.661849E-1,-4.0998336E-2,3.0748084E-2],"split_indices":[708,0,0],"split_type":[0,0,0],"sum_hessian":[3.7367785E0,1.9234662E0,1.8133123E0],"tree_param":{"num_deleted":"0","num_feature":"2048","num_nodes":"3","size_leaf_vector":"1"}},{"base_weights":[-6.668361E-2,2.7355406E-1,-4.450147E-2,-8.29444E-3,4.923967E-2],"categories":[],"categories_nodes":[],"categories_segments":[],"categories_sizes":[],"default_left":[0,0,0,0,0],"id":54,"left_children":[1,3,-1,-1,-1],"loss_changes":[7.2284365E-1,2.80977E-1,0E0,0E0,0E0],"parents":[2147483647,0,0,1,1],"right_children":[2,4,-1,-1,-1],"split_conditions":[2.3275378E-1,5.2822924E-1,-4.450147E-2,-8.29444E-3,4.923967E-2],"split_indices":[333,836,0,0,0],"split_type":[0,0,0,0,0],"sum_hessian":[3.6697984E0,2.077986E0,1.5918124E0,1.0266087E0,1.0513773E0],"tree_param":{"num_deleted":"0","num_feature":"2048","num_nodes":"5","size_leaf_vector":"1"}},{"base_weights":[-6.195532E-2,-4.8654966E-2,2.3764294E-1,4.840095E-2,-1.6649447E-2],"categories":[],"categories_nodes":[],"categories_segments":[],"categories_sizes":[],"default_left":[0,0,0,0,0],"id":55,"left_children":[1,-1,3,-1,-1],"loss_changes":[6.994606E-1,0E0,4.1540015E-1,0E0,0E0],"parents":[2147483647,0,0,2,2],"right_children":[2,-1,4,-1,-1],"split_conditions":[4.2631406E-1,-4.8654966E-2,3.3695373E-1,4.840095E-2,-1.6649447E-2],"split_indices":[197,0,137,0,0],"split_type":[0,0,0,0,0],"sum_hessian":[3.5896237E0,1.2268747E0,2.3627489E0,1.3451159E0,1.017633E0],"tree_param":{"num_deleted":"0","num_feature":"2048","num_nodes":"5","size_leaf_vector":"1"}},{"base_weights":[-6.0724538E-2,-4.748115E-2,2.3455201E-1,4.905064E-2,-1.2693736E-2],"categories":[],"categories_nodes":[],"categories_segments":[],"categories_sizes":[],"default_left":[0,0,0,0,0],"id":56,"left_children":[1,-1,3,-1,-1],"loss_changes":[6.619301E-1,0E0,3.6739665E-1,0E0,0E0],"parents":[2147483647,0,0,2,2],"right_children":[2,-1,4,-1,-1],"split_conditions":[3.8777444E-1,-4.748115E-2,2.7255347E-1,4.905064E-2,-1.2693736E-2],"split_indices":[1211,0,553,0,0],"split_type":[0,0,0,0,0],"sum_hessian":[3.502833E0,1.2049807E0,2.297852E0,1.1363497E0,1.1615024E0],"tree_param":{"num_deleted":"0","num_feature":"2048","num_nodes":"5","size_leaf_vector":"1"}},{"base_weights":[-5.828544E-2,-3.6345E-2,3.2580577E-2],"categories":[],"categories_nodes":[],"categories_segments":[],"categories_sizes":[],"default_left":[0,0,0],"id":57,"left_children":[1,-1,-1],"loss_changes":[6.3666576E-1,0E0,0E0],"parents":[2147483647,0,0],"right_children":[2,-1,-1],"split_conditions":[4.8624808E-1,-3.6345E-2,3.2580577E-2],"split_indices":[603,0,0],"split_type":[0,0,0],"sum_hessian":[3.421527E0,1.9366101E0,1.4849169E0],"tree_param":{"num_deleted":"0","num_feature":"2048","num_nodes":"3","size_leaf_vector":"1"}},{"base_weights":[-5.409691E-2,2.6502166E-2,-4.1880034E-2],"categories":[],"categories_nodes":[],"categories_segments":[],"categories_sizes":[],"default_left":[0,0,0],"id":58,"left_children":[1,-1,-1],"loss_changes":[6.1934716E-1,0E0,0E0],"parents":[2147483647,0,0],"right_children":[2,-1,-1],"split_conditions":[2.3275378E-1,2.6502166E-2,-4.1880034E-2],"split_indices":[333,0,0],"split_type":[0,0,0],"sum_hessian":[3.3679335E0,1.9419945E0,1.4259388E0],"tree_param":{"num_deleted":"0","num_feature":"2048","num_nodes":"3","size_leaf_vector":"1"}},{"base_weights":[-5.2997097E-2,-3.6770787E-2,3.1524E-2],"categories":[],"categories_nodes":[],"categories_segments":[],"categories_sizes":[],"default_left":[0,0,0],"id":59,"left_children":[1,-1,-1],"loss_changes":[6.1636955E-1,0E0,0E0],"parents":[2147483647,0,0],"right_children":[2,-1,-1],"split_conditions":[4.3698716E-1,-3.6770787E-2,3.1524E-2],"split_indices":[2008,0,0],"split_type":[0,0,0],"sum_hessian":[3.3184152E0,1.7900234E0,1.5283917E0],"tree_param":{"num_deleted":"0","num_feature":"2048","num_nodes":"3","size_leaf_vector":"1"}},{"base_weights":[-4.967552E-2,2.9924247E-2,-3.7315022E-2],"categories":[],"categories_nodes":[],"categories_segments":[],"categories_sizes":[],"default_left":[0,0,0],"id":60,"left_children":[1,-1,-1],"loss_changes":[5.9291494E-1,0E0,0E0],"parents":[2147483647,0,0],"right_children":[2,-1,-1],"split_conditions":[3.410194E-1,2.9924247E-2,-3.7315022E-2],"split_indices":[1420,0,0],"split_type":[0,0,0],"sum_hessian":[3.2639241E0,1.6062474E0,1.6576766E0],"tree_param":{"num_deleted":"0","num_feature":"2048","num_nodes":"3","size_leaf_vector":"1"}},{"base_weights":[-4.712777E-2,-3.7730195E-2,2.917006E-2],"categories":[],"categories_nodes":[],"categories_segments":[],"categories_sizes":[],"default_left":[0,0,0],"id":61,"left_children":[1,-1,-1],"loss_changes":[5.815457E-1,0E0,0E0],"parents":[2147483647,0,0],"right_children":[2,-1,-1],"split_conditions":[5.114836E-1,-3.7730195E-2,2.917006E-2],"split_indices":[833,0,0],"split_type":[0,0,0],"sum_hessian":[3.2145035E0,1.5705343E0,1.6439693E0],"tree_param":{"num_deleted":"0","num_feature":"2048","num_nodes":"3","size_leaf_vector":"1"}},{"base_weights":[-4.5087975E-2,-3.8391925E-2,2.7776062E-2],"categories":[],"categories_nodes":[],"categories_segments":[],"categories_sizes":[],"default_left":[0,0,0],"id":62,"left_children":[1,-1,-1],"loss_changes":[5.625503E-1,0E0,0E0],"parents":[2147483647,0,0],"right_children":[2,-1,-1],"split_conditions":[3.9492878E-1,-3.8391925E-2,2.7776062E-2],"split_indices":[1833,0,0],"split_type":[0,0,0],"sum_hessian":[3.167727E0,1.4533094E0,1.7144175E0],"tree_param":{"num_deleted":"0","num_feature":"2048","num_nodes":"3","size_leaf_vector":"1"}},{"base_weights":[-4.376705E-2,3.548191E-2,-3.1312805E-2],"categories":[],"categories_nodes":[],"categories_segments":[],"categories_sizes":[],"default_left":[0,0,0],"id":63,"left_children":[1,-1,-1],"loss_changes":[5.535376E-1,0E0,0E0],"parents":[2147483647,0,0],"right_children":[2,-1,-1],"split_conditions":[3.214311E-1,3.548191E-2,-3.1312805E-2],"split_indices":[1510,0,0],"split_type":[0,0,0],"sum_hessian":[3.1208932E0,1.1306115E0,1.9902817E0],"tree_param":{"num_deleted":"0","num_feature":"2048","num_nodes":"3","size_leaf_vector":"1"}},{"base_weights":[-3.8875174E-2,2.6310593E-2,-3.940048E-2],"categories":[],"categories_nodes":[],"categories_segments":[],"categories_sizes":[],"default_left":[0,0,0],"id":64,"left_children":[1,-1,-1],"loss_changes":[5.40717E-1,0E0,0E0],"parents":[2147483647,0,0],"right_children":[2,-1,-1],"split_conditions":[4.2094272E-1,2.6310593E-2,-3.940048E-2],"split_indices":[909,0,0],"split_type":[0,0,0],"sum_hessian":[3.0753644E0,1.8020961E0,1.2732682E0],"tree_param":{"num_deleted":"0","num_feature":"2048","num_nodes":"3","size_leaf_vector":"1"}},{"base_weights":[-3.8759194E-2,-3.573318E-2,2.9212771E-2],"categories":[],"categories_nodes":[],"categories_segments":[],"categories_sizes":[],"default_left":[0,0,0],"id":65,"left_children":[1,-1,-1],"loss_changes":[5.294505E-1,0E0,0E0],"parents":[2147483647,0,0],"right_children":[2,-1,-1],"split_conditions":[6.661849E-1,-3.573318E-2,2.9212771E-2],"split_indices":[708,0,0],"split_type":[0,0,0],"sum_hessian":[3.0324244E0,1.5042427E0,1.5281819E0],"tree_param":{"num_deleted":"0","num_feature":"2048","num_nodes":"3","size_leaf_vector":"1"}},{"base_weights":[-3.705183E-2,2.9276863E-2,-3.4941208E-2],"categories":[],"categories_nodes":[],"categories_segments":[],"categories_sizes":[],"default_left":[0,0,0],"id":66,"left_children":[1,-1,-1],"loss_changes":[5.1288104E-1,0E0,0E0],"parents":[2147483647,0,0],"right_children":[2,-1,-1],"split_conditions":[2.475888E-1,2.9276863E-2,-3.4941208E-2],"split_indices":[1992,0,0],"split_type":[0,0,0],"sum_hessian":[2.9853718E0,1.4826092E0,1.5027626E0],"tree_param":{"num_deleted":"0","num_feature":"2048","num_nodes":"3","size_leaf_vector":"1"}},{"base_weights":[-3.5238888E-2,2.3820907E-2,-4.0153276E-2],"categories":[],"categories_nodes":[],"categories_segments":[],"categories_sizes":[],"default_left":[0,0,0],"id":67,"left_children":[1,-1,-1],"loss_changes":[4.9071527E-1,0E0,0E0],"parents":[2147483647,0,0],"right_children":[2,-1,-1],"split_conditions":[3.1001458E-1,2.3820907E-2,-4.0153276E-2],"split_indices":[819,0,0],"split_type":[0,0,0],"sum_hessian":[2.9442635E0,1.8859959E0,1.0582675E0],"tree_param":{"num_deleted":"0","num_feature":"2048","num_nodes":"3","size_leaf_vector":"1"}},{"base_weights":[-3.6371864E-2,-2.9656732E-2,3.401214E-2],"categories":[],"categories_nodes":[],"categories_segments":[],"categories_sizes":[],"default_left":[0,0,0],"id":68,"left_children":[1,-1,-1],"loss_changes":[4.8340425E-1,0E0,0E0],"parents":[2147483647,0,0],"right_children":[2,-1,-1],"split_conditions":[8.367453E-1,-2.9656732E-2,3.401214E-2],"split_indices":[1794,0,0],"split_type":[0,0,0],"sum_hessian":[2.9049425E0,1.8433139E0,1.0616287E0],"tree_param":{"num_deleted":"0","num_feature":"2048","num_nodes":"3","size_leaf_vector":"1"}},{"base_weights":[-3.199548E-2,2.5221093E-2,-3.716198E-2],"categories":[],"categories_nodes":[],"categories_segments":[],"categories_sizes":[],"default_left":[0,0,0],"id":69,"left_children":[1,-1,-1],"loss_changes":[4.6682224E-1,0E0,0E0],"parents":[2147483647,0,0],"right_children":[2,-1,-1],"split_conditions":[2.3275378E-1,2.5221093E-2,-3.716198E-2],"split_indices":[333,0,0],"split_type":[0,0,0],"sum_hessian":[2.8653395E0,1.7000643E0,1.1652751E0],"tree_param":{"num_deleted":"0","num_feature":"2048","num_nodes":"3","size_leaf_vector":"1"}},{"base_weights":[-3.232038E-2,-3.258354E-2,2.950716E-2],"categories":[],"categories_nodes":[],"categories_segments":[],"categories_sizes":[],"default_left":[0,0,0],"id":70,"left_children":[1,-1,-1],"loss_changes":[4.6401215E-1,0E0,0E0],"parents":[2147483647,0,0],"right_children":[2,-1,-1],"split_conditions":[4.3698716E-1,-3.258354E-2,2.950716E-2],"split_indices":[2008,0,0],"split_type":[0,0,0],"sum_hessian":[2.8281853E0,1.4937532E0,1.334432E0],"tree_param":{"num_deleted":"0","num_feature":"2048","num_nodes":"3","size_leaf_vector":"1"}},{"base_weights":[-3.0299166E-2,2.4881102E-2,-3.6605652E-2],"categories":[],"categories_nodes":[],"categories_segments":[],"categories_sizes":[],"default_left":[0,0,0],"id":71,"left_children":[1,-1,-1],"loss_changes":[4.4600135E-1,0E0,0E0],"parents":[2147483647,0,0],"right_children":[2,-1,-1],"split_conditions":[4.2094272E-1,2.4881102E-2,-3.6605652E-2],"split_indices":[909,0,0],"split_type":[0,0,0],"sum_hessian":[2.7873223E0,1.6634643E0,1.1238579E0],"tree_param":{"num_deleted":"0","num_feature":"2048","num_nodes":"3","size_leaf_vector":"1"}},{"base_weights":[-3.0772457E-2,-3.1245438E-2,2.9433493E-2],"categories":[],"categories_nodes":[],"categories_segments":[],"categories_sizes":[],"default_left":[0,0,0],"id":72,"left_children":[1,-1,-1],"loss_changes":[4.3553782E-1,0E0,0E0],"parents":[2147483647,0,0],"right_children":[2,-1,-1],"split_conditions":[6.728228E-1,-3.1245438E-2,2.9433493E-2],"split_indices":[760,0,0],"split_type":[0,0,0],"sum_hessian":[2.7517285E0,1.4951817E0,1.2565469E0],"tree_param":{"num_deleted":"0","num_feature":"2048","num_nodes":"3","size_leaf_vector":"1"}},{"base_weights":[-2.8527223E-2,-2.8929109E-2,3.1869806E-2],"categories":[],"categories_nodes":[],"categories_segments":[],"categories_sizes":[],"default_left":[0,0,0],"id":73,"left_children":[1,-1,-1],"loss_changes":[4.2858347E-1,0E0,0E0],"parents":[2147483647,0,0],"right_children":[2,-1,-1],"split_conditions":[9.458464E-1,-2.8929109E-2,3.1869806E-2],"split_indices":[1185,0,0],"split_type":[0,0,0],"sum_hessian":[2.715185E0,1.6459423E0,1.0692426E0],"tree_param":{"num_deleted":"0","num_feature":"2048","num_nodes":"3","size_leaf_vector":"1"}},{"base_weights":[-2.5183422E-2,-3.3098787E-2,2.7280798E-2],"categories":[],"categories_nodes":[],"categories_segments":[],"categories_sizes":[],"default_left":[0,0,0],"id":74,"left_children":[1,-1,-1],"loss_changes":[4.2542675E-1,0E0,0E0],"parents":[2147483647,0,0],"right_children":[2,-1,-1],"split_conditions":[5.114836E-1,-3.3098787E-2,2.7280798E-2],"split_indices":[833,0,0],"split_type":[0,0,0],"sum_hessian":[2.6776178E0,1.2668365E0,1.4107813E0],"tree_param":{"num_deleted":"0","num_feature":"2048","num_nodes":"3","size_leaf_vector":"1"}},{"base_weights":[-2.4561778E-2,2.754997E-2,-3.2023486E-2],"categories":[],"categories_nodes":[],"categories_segments":[],"categories_sizes":[],"default_left":[0,0,0],"id":75,"left_children":[1,-1,-1],"loss_changes":[4.114583E-1,0E0,0E0],"parents":[2147483647,0,0],"right_children":[2,-1,-1],"split_conditions":[3.410194E-1,2.754997E-2,-3.2023486E-2],"split_indices":[1420,0,0],"split_type":[0,0,0],"sum_hessian":[2.643297E0,1.3457756E0,1.2975212E0],"tree_param":{"num_deleted":"0","num_feature":"2048","num_nodes":"3","size_leaf_vector":"1"}},{"base_weights":[-2.3632385E-2,-3.189073E-2,2.723043E-2],"categories":[],"categories_nodes":[],"categories_segments":[],"categories_sizes":[],"default_left":[0,0,0],"id":76,"left_children":[1,-1,-1],"loss_changes":[4.0220943E-1,0E0,0E0],"parents":[2147483647,0,0],"right_children":[2,-1,-1],"split_conditions":[6.661849E-1,-3.189073E-2,2.723043E-2],"split_indices":[708,0,0],"split_type":[0,0,0],"sum_hessian":[2.609063E0,1.267138E0,1.3419248E0],"tree_param":{"num_deleted":"0","num_feature":"2048","num_nodes":"3","size_leaf_vector":"1"}},{"base_weights":[-2.2864964E-2,2.4997406E-2,-3.367136E-2],"categories":[],"categories_nodes":[],"categories_segments":[],"categories_sizes":[],"default_left":[0,0,0],"id":77,"left_children":[1,-1,-1],"loss_changes":[3.901412E-1,0E0,0E0],"parents":[2147483647,0,0],"right_children":[2,-1,-1],"split_conditions":[1.9318481E-1,2.4997406E-2,-3.367136E-2],"split_indices":[1950,0,0],"split_type":[0,0,0],"sum_hessian":[2.5731752E0,1.4853936E0,1.0877817E0],"tree_param":{"num_deleted":"0","num_feature":"2048","num_nodes":"3","size_leaf_vector":"1"}},{"base_weights":[-2.330516E-2,-2.9288808E-2,2.8449465E-2],"categories":[],"categories_nodes":[],"categories_segments":[],"categories_sizes":[],"default_left":[0,0,0],"id":78,"left_children":[1,-1,-1],"loss_changes":[3.7716612E-1,0E0,0E0],"parents":[2147483647,0,0],"right_children":[2,-1,-1],"split_conditions":[4.8624808E-1,-2.9288808E-2,2.8449465E-2],"split_indices":[603,0,0],"split_type":[0,0,0],"sum_hessian":[2.541211E0,1.3805332E0,1.1606778E0],"tree_param":{"num_deleted":"0","num_feature":"2048","num_nodes":"3","size_leaf_vector":"1"}},{"base_weights":[-2.1458128E-2,-3.15084E-2,2.5939548E-2],"categories":[],"categories_nodes":[],"categories_segments":[],"categories_sizes":[],"default_left":[0,0,0],"id":79,"left_children":[1,-1,-1],"loss_changes":[3.711444E-1,0E0,0E0],"parents":[2147483647,0,0],"right_children":[2,-1,-1],"split_conditions":[5.114836E-1,-3.15084E-2,2.5939548E-2],"split_indices":[833,0,0],"split_type":[0,0,0],"sum_hessian":[2.5094876E0,1.1672623E0,1.3422253E0],"tree_param":{"num_deleted":"0","num_feature":"2048","num_nodes":"3","size_leaf_vector":"1"}},{"base_weights":[-2.1152562E-2,2.6435778E-2,-3.0635808E-2],"categories":[],"categories_nodes":[],"categories_segments":[],"categories_sizes":[],"default_left":[0,0,0],"id":80,"left_children":[1,-1,-1],"loss_changes":[3.643155E-1,0E0,0E0],"parents":[2147483647,0,0],"right_children":[2,-1,-1],"split_conditions":[2.475888E-1,2.6435778E-2,-3.0635808E-2],"split_indices":[1992,0,0],"split_type":[0,0,0],"sum_hessian":[2.479436E0,1.2755849E0,1.2038511E0],"tree_param":{"num_deleted":"0","num_feature":"2048","num_nodes":"3","size_leaf_vector":"1"}},{"base_weights":[-2.0483598E-2,-3.1957194E-2,2.5154142E-2],"categories":[],"categories_nodes":[],"categories_segments":[],"categories_sizes":[],"default_left":[0,0,0],"id":81,"left_children":[1,-1,-1],"loss_changes":[3.6106345E-1,0E0,0E0],"parents":[2147483647,0,0],"right_children":[2,-1,-1],"split_conditions":[3.9492878E-1,-3.1957194E-2,2.5154142E-2],"split_indices":[1833,0,0],"split_type":[0,0,0],"sum_hessian":[2.4498475E0,1.0836251E0,1.3662223E0],"tree_param":{"num_deleted":"0","num_feature":"2048","num_nodes":"3","size_leaf_vector":"1"}},{"base_weights":[-2.0664787E-2,2.5747357E-2,-3.0207355E-2],"categories":[],"categories_nodes":[],"categories_segments":[],"categories_sizes":[],"default_left":[0,0,0],"id":82,"left_children":[1,-1,-1],"loss_changes":[3.4542352E-1,0E0,0E0],"parents":[2147483647,0,0],"right_children":[2,-1,-1],"split_conditions":[3.3695373E-1,2.5747357E-2,-3.0207355E-2],"split_indices":[137,0,0],"split_type":[0,0,0],"sum_hessian":[2.419518E0,1.2596058E0,1.1599123E0],"tree_param":{"num_deleted":"0","num_feature":"2048","num_nodes":"3","size_leaf_vector":"1"}},{"base_weights":[-2.0134788E-2,2.7274085E-2,-2.7924685E-2],"categories":[],"categories_nodes":[],"categories_segments":[],"categories_sizes":[],"default_left":[0,0,0],"id":83,"left_children":[1,-1,-1],"loss_changes":[3.3347794E-1,0E0,0E0],"parents":[2147483647,0,0],"right_children":[2,-1,-1],"split_conditions":[2.7255347E-1,2.7274085E-2,-2.7924685E-2],"split_indices":[553,0,0],"split_type":[0,0,0],"sum_hessian":[2.3907504E0,1.097567E0,1.2931833E0],"tree_param":{"num_deleted":"0","num_feature":"2048","num_nodes":"3","size_leaf_vector":"1"}},{"base_weights":[-1.8511264E-2,-2.7364392E-2,2.7564688E-2],"categories":[],"categories_nodes":[],"categories_segments":[],"categories_sizes":[],"default_left":[0,0,0],"id":84,"left_children":[1,-1,-1],"loss_changes":[3.2779688E-1,0E0,0E0],"parents":[2147483647,0,0],"right_children":[2,-1,-1],"split_conditions":[8.394854E-1,-2.7364392E-2,2.7564688E-2],"split_indices":[1185,0,0],"split_type":[0,0,0],"sum_hessian":[2.3626912E0,1.3026234E0,1.0600677E0],"tree_param":{"num_deleted":"0","num_feature":"2048","num_nodes":"3","size_leaf_vector":"1"}},{"base_weights":[-1.6784454E-2,-2.8961608E-2,2.515157E-2],"categories":[],"categories_nodes":[],"categories_segments":[],"categories_sizes":[],"default_left":[0,0,0],"id":85,"left_children":[1,-1,-1],"loss_changes":[3.1688198E-1,0E0,0E0],"parents":[2147483647,0,0],"right_children":[2,-1,-1],"split_conditions":[6.661849E-1,-2.8961608E-2,2.515157E-2],"split_indices":[708,0,0],"split_type":[0,0,0],"sum_hessian":[2.3338313E0,1.1177523E0,1.216079E0],"tree_param":{"num_deleted":"0","num_feature":"2048","num_nodes":"3","size_leaf_vector":"1"}},{"base_weights":[-1.644442E-2,2.4999252E-2,-2.8765967E-2],"categories":[],"categories_nodes":[],"categories_segments":[],"categories_sizes":[],"default_left":[0,0,0],"id":86,"left_children":[1,-1,-1],"loss_changes":[3.10762E-1,0E0,0E0],"parents":[2147483647,0,0],"right_children":[2,-1,-1],"split_conditions":[2.475888E-1,2.4999252E-2,-2.8765967E-2],"split_indices":[1992,0,0],"split_type":[0,0,0],"sum_hessian":[2.3053336E0,1.202384E0,1.1029495E0],"tree_param":{"num_deleted":"0","num_feature":"2048","num_nodes":"3","size_leaf_vector":"1"}},{"base_weights":[-1.6115611E-2,-2.9123658E-2,2.4221264E-2],"categories":[],"categories_nodes":[],"categories_segments":[],"categories_sizes":[],"default_left":[0,0,0],"id":87,"left_children":[1,-1,-1],"loss_changes":[3.036534E-1,0E0,0E0],"parents":[2147483647,0,0],"right_children":[2,-1,-1],"split_conditions":[5.114836E-1,-2.9123658E-2,2.4221264E-2],"split_indices":[833,0,0],"split_type":[0,0,0],"sum_hessian":[2.2799664E0,1.0424073E0,1.237559E0],"tree_param":{"num_deleted":"0","num_feature":"2048","num_nodes":"3","size_leaf_vector":"1"}},{"base_weights":[-1.6176328E-2,-2.8052807E-2,2.500915E-2],"categories":[],"categories_nodes":[],"categories_segments":[],"categories_sizes":[],"default_left":[0,0,0],"id":88,"left_children":[1,-1,-1],"loss_changes":[2.9928002E-1,0E0,0E0],"parents":[2147483647,0,0],"right_children":[2,-1,-1],"split_conditions":[4.4827172E-1,-2.8052807E-2,2.500915E-2],"split_indices":[603,0,0],"split_type":[0,0,0],"sum_hessian":[2.2551172E0,1.1047555E0,1.1503618E0],"tree_param":{"num_deleted":"0","num_feature":"2048","num_nodes":"3","size_leaf_vector":"1"}},{"base_weights":[-1.5663981E-2,2.4576303E-2,-2.776343E-2],"categories":[],"categories_nodes":[],"categories_segments":[],"categories_sizes":[],"default_left":[0,0,0],"id":89,"left_children":[1,-1,-1],"loss_changes":[2.894172E-1,0E0,0E0],"parents":[2147483647,0,0],"right_children":[2,-1,-1],"split_conditions":[3.410194E-1,2.4576303E-2,-2.776343E-2],"split_indices":[1420,0,0],"split_type":[0,0,0],"sum_hessian":[2.2296321E0,1.1469389E0,1.0826932E0],"tree_param":{"num_deleted":"0","num_feature":"2048","num_nodes":"3","size_leaf_vector":"1"}},{"base_weights":[-1.5247252E-2,2.5815774E-2,-2.6267443E-2],"categories":[],"categories_nodes":[],"categories_segments":[],"categories_sizes":[],"default_left":[0,0,0],"id":90,"left_children":[1,-1,-1],"loss_changes":[2.846216E-1,0E0,0E0],"parents":[2147483647,0,0],"right_children":[2,-1,-1],"split_conditions":[2.7255347E-1,2.5815774E-2,-2.6267443E-2],"split_indices":[553,0,0],"split_type":[0,0,0],"sum_hessian":[2.2049835E0,1.0268995E0,1.178084E0],"tree_param":{"num_deleted":"0","num_feature":"2048","num_nodes":"3","size_leaf_vector":"1"}},{"base_weights":[-1.4003297E-2,-2.6457796E-2,2.5075192E-2],"categories":[],"categories_nodes":[],"categories_segments":[],"categories_sizes":[],"default_left":[0,0,0],"id":91,"left_children":[1,-1,-1],"loss_changes":[2.7737284E-1,0E0,0E0],"parents":[2147483647,0,0],"right_children":[2,-1,-1],"split_conditions":[4.3698716E-1,-2.6457796E-2,2.5075192E-2],"split_indices":[2008,0,0],"split_type":[0,0,0],"sum_hessian":[2.180983E0,1.120843E0,1.0601401E0],"tree_param":{"num_deleted":"0","num_feature":"2048","num_nodes":"3","size_leaf_vector":"1"}},{"base_weights":[-1.3177433E-2,-2.7063513E-2,2.397618E-2],"categories":[],"categories_nodes":[],"categories_segments":[],"categories_sizes":[],"default_left":[0,0,0],"id":92,"left_children":[1,-1,-1],"loss_changes":[2.7042666E-1,0E0,0E0],"parents":[2147483647,0,0],"right_children":[2,-1,-1],"split_conditions":[5.914879E-1,-2.7063513E-2,2.397618E-2],"split_indices":[1757,0,0],"split_type":[0,0,0],"sum_hessian":[2.156251E0,1.0339103E0,1.1223407E0],"tree_param":{"num_deleted":"0","num_feature":"2048","num_nodes":"3","size_leaf_vector":"1"}},{"base_weights":[-1.29746115E-2,2.3647292E-2,-2.6903246E-2],"categories":[],"categories_nodes":[],"categories_segments":[],"categories_sizes":[],"default_left":[0,0,0],"id":93,"left_children":[1,-1,-1],"loss_changes":[2.637498E-1,0E0,0E0],"parents":[2147483647,0,0],"right_children":[2,-1,-1],"split_conditions":[3.3695373E-1,2.3647292E-2,-2.6903246E-2],"split_indices":[137,0,0],"split_type":[0,0,0],"sum_hessian":[2.133263E0,1.1193229E0,1.0139402E0],"tree_param":{"num_deleted":"0","num_feature":"2048","num_nodes":"3","size_leaf_vector":"1"}},{"base_weights":[-1.2848996E-2,-2.6630068E-2,2.3368621E-2],"categories":[],"categories_nodes":[],"categories_segments":[],"categories_sizes":[],"default_left":[0,0,0],"id":94,"left_children":[1,-1,-1],"loss_changes":[2.5662377E-1,0E0,0E0],"parents":[2147483647,0,0],"right_children":[2,-1,-1],"split_conditions":[6.661849E-1,-2.6630068E-2,2.3368621E-2],"split_indices":[708,0,0],"split_type":[0,0,0],"sum_hessian":[2.111046E0,1.0013896E0,1.1096565E0],"tree_param":{"num_deleted":"0","num_feature":"2048","num_nodes":"3","size_leaf_vector":"1"}},{"base_weights":[-1.2748887E-2,2.3283063E-2,-2.6101217E-2],"categories":[],"categories_nodes":[],"categories_segments":[],"categories_sizes":[],"default_left":[0,0,0],"id":95,"left_children":[1,-1,-1],"loss_changes":[2.490302E-1,0E0,0E0],"parents":[2147483647,0,0],"right_children":[2,-1,-1],"split_conditions":[3.410194E-1,2.3283063E-2,-2.6101217E-2],"split_indices":[1420,0,0],"split_type":[0,0,0],"sum_hessian":[2.0878072E0,1.0808269E0,1.0069804E0],"tree_param":{"num_deleted":"0","num_feature":"2048","num_nodes":"3","size_leaf_vector":"1"}},{"base_weights":[-1.2510665E-2,-2.5545895E-2,2.2971189E-2],"categories":[],"categories_nodes":[],"categories_segments":[],"categories_sizes":[],"default_left":[0,0,0],"id":96,"left_children":[1,-1,-1],"loss_changes":[2.391406E-1,0E0,0E0],"parents":[2147483647,0,0],"right_children":[2,-1,-1],"split_conditions":[4.4827172E-1,-2.5545895E-2,2.2971189E-2],"split_indices":[603,0,0],"split_type":[0,0,0],"sum_hessian":[2.0665443E0,1.0044445E0,1.0620997E0],"tree_param":{"num_deleted":"0","num_feature":"2048","num_nodes":"3","size_leaf_vector":"1"}},{"base_weights":[-1.2216507E-2,-2.4217816E-2,2.2785265E-2],"categories":[],"categories_nodes":[],"categories_segments":[],"categories_sizes":[],"default_left":[0,0,0],"id":97,"left_children":[1,-1,-1],"loss_changes":[2.2333755E-1,0E0,0E0],"parents":[2147483647,0,0],"right_children":[2,-1,-1],"split_conditions":[4.361872E-1,-2.4217816E-2,2.2785265E-2],"split_indices":[2008,0,0],"split_type":[0,0,0],"sum_hessian":[2.045946E0,1.040484E0,1.005462E0],"tree_param":{"num_deleted":"0","num_feature":"2048","num_nodes":"3","size_leaf_vector":"1"}},{"base_weights":[-1.1571201E-2,2.19869E-2,-2.345495E-2],"categories":[],"categories_nodes":[],"categories_segments":[],"categories_sizes":[],"default_left":[0,0,0],"id":98,"left_children":[1,-1,-1],"loss_changes":[2.0772204E-1,0E0,0E0],"parents":[2147483647,0,0],"right_children":[2,-1,-1],"split_conditions":[6.112607E-1,2.19869E-2,-2.345495E-2],"split_indices":[1051,0,0],"split_type":[0,0,0],"sum_hessian":[2.025839E0,1.0009E0,1.0249391E0],"tree_param":{"num_deleted":"0","num_feature":"2048","num_nodes":"3","size_leaf_vector":"1"}},{"base_weights":[-1.0988373E-2,-2.2944298E-2,2.1385925E-2],"categories":[],"categories_nodes":[],"categories_segments":[],"categories_sizes":[],"default_left":[0,0,0],"id":99,"left_children":[1,-1,-1],"loss_changes":[1.968556E-1,0E0,0E0],"parents":[2147483647,0,0],"right_children":[2,-1,-1],"split_conditions":[4.3282974E-1,-2.2944298E-2,2.1385925E-2],"split_indices":[2008,0,0],"split_type":[0,0,0],"sum_hessian":[2.0087569E0,1.0084966E0,1.0002601E0],"tree_param":{"num_deleted":"0","num_feature":"2048","num_nodes":"3","size_leaf_vector":"1"}}]},"name":"gbtree"},"learner_model_param":{"base_score":"1.3883498E-1","boost_from_average":"1","num_class":"0","num_feature":"2048","num_target":"1"},"objective":{"name":"binary:logistic","reg_loss_param":{"scale_pos_weight":"1"}}},"version":[2,0,1]}