{"learner":{"attributes":{"scikit_learn":"{\"_estimator_type\": \"classifier\"}"},"feature_names":[],"feature_types":[],"gradient_booster":{"model":{"gbtree_model_param":{"num_parallel_tree":"1","num_trees":"100"},"iteration_indptr":[0,1,2,3,4,5,6,7,8,9,10,11,12,13,14,15,16,17,18,19,20,21,22,23,24,25,26,27,28,29,30,31,32,33,34,35,36,37,38,39,40,41,42,43,44,45,46,47,48,49,50,51,52,53,54,55,56,57,58,59,60,61,62,63,64,65,66,67,68,69,70,71,72,73,74,75,76,77,78,79,80,81,82,83,84,85,86,87,88,89,90,91,92,93,94,95,96,97,98,99,100],"tree_info":[0,0,0,0,0,0,0,0,0,0,0,0,0,0,0,0,0,0,0,0,0,0,0,0,0,0,0,0,0,0,0,0,0,0,0,0,0,0,0,0,0,0,0,0,0,0,0,0,0,0,0,0,0,0,0,0,0,0,0,0,0,0,0,0,0,0,0,0,0,0,0,0,0,0,0,0,0,0,0,0,0,0,0,0,0,0,0,0,0,0,0,0,0,0,0,0,0,0,0,0],"trees":[{"base_weights":[-7.7503455E-1,-9.818893E-1,5.6045276E-1,-1.06589E0,7.3403694E-2,-8.515494E-2,2.0624404E0,3.614987E-2,-1.12502635E-1,3.2516187E-1,-1.2018795E-2],"categories":[],"categories_nodes":[],"categories_segments":[],"categories_sizes":[],"default_left":[0,0,0,0,0,0,0,0,0,0,0],"id":0,"left_children":[1,3,5,7,-1,-1,9,-1,-1,-1,-1],"loss_changes":[1.139572E1,5.7346077E0,1.4273189E1,3.2058907E0,0E0,0E0,8.572128E0,0E0,0E0,0E0,0E0],"parents":[2147483647,0,0,1,1,2,2,3,3,6,6],"right_children":[2,4,6,8,-1,-1,10,-1,-1,-1,-1],"split_conditions":[9.237029E-1,4.244534E-1,5.527814E-1,1.1612917E-1,7.3403694E-2,-8.515494E-2,6.096998E-1,3.614987E-2,-1.12502635E-1,3.2516187E-1,-1.2018795E-2],"split_indices":[1937,707,243,1862,0,0,85,0,0,0,0],"split_type":[0,0,0,0,0,0,0,0,0,0,0],"sum_hessian":[3.8259148E1,3.3357193E1,4.901953E0,3.2161594E1,1.1955984E0,2.749876E0,2.152077E0,1.0760385E0,3.1085556E1,1.0760385E0,1.0760385E0],"tree_param":{"num_deleted":"0","num_feature":"2048","num_nodes":"11","size_leaf_vector":"1"}},{"base_weights":[-7.3976153E-1,-9.539063E-1,5.2649033E-1,-1.0425525E0,6.7328505E-2,-8.276962E-2,1.7955413E0,3.3791065E-2,-1.1054349E-1,2.714225E-1,-1.1449949E-2],"categories":[],"categories_nodes":[],"categories_segments":[],"categories_sizes":[],"default_left":[0,0,0,0,0,0,0,0,0,0,0],"id":1,"left_children":[1,3,5,7,-1,-1,9,-1,-1,-1,-1],"loss_changes":[1.0528185E1,5.3150654E0,1.1784993E1,3.0403786E0,0E0,0E0,6.2929373E0,0E0,0E0,0E0,0E0],"parents":[2147483647,0,0,1,1,2,2,3,3,6,6],"right_children":[2,4,6,8,-1,-1,10,-1,-1,-1,-1],"split_conditions":[9.237029E-1,4.244534E-1,5.527814E-1,1.1612917E-1,6.7328505E-2,-8.276962E-2,6.096998E-1,3.3791065E-2,-1.1054349E-1,2.714225E-1,-1.1449949E-2],"split_indices":[1937,707,243,1862,0,0,85,0,0,0,0],"split_type":[0,0,0,0,0,0,0,0,0,0,0],"sum_hessian":[3.597418E1,3.098137E1,4.992808E0,2.9721495E1,1.2598753E0,2.583633E0,2.409175E0,1.1043322E0,2.8617163E1,1.3424561E0,1.0667189E0],"tree_param":{"num_deleted":"0","num_feature":"2048","num_nodes":"11","size_leaf_vector":"1"}},{"base_weights":[-7.069182E-1,7.9684716E-1,-8.81497E-1,-7.2225705E-2,2.2159143E-1,8.947237E-2,-9.6895766E-1,-1.0624627E0,6.1143097E-2,-1.09428875E-1,-8.108622E-3],"categories":[],"categories_nodes":[],"categories_segments":[],"categories_sizes":[],"default_left":[0,0,0,0,0,0,0,0,0,0,0],"id":2,"left_children":[1,3,5,-1,-1,-1,7,9,-1,-1,-1],"loss_changes":[9.84486E0,1.054161E1,5.788E0,0E0,0E0,0E0,5.18198E0,8.271141E-1,0E0,0E0,0E0],"parents":[2147483647,0,0,1,1,2,2,6,6,7,7],"right_children":[2,4,6,-1,-1,-1,8,10,-1,-1,-1],"split_conditions":[1.509309E-1,6.3665307E-1,1.1495161E-1,-7.2225705E-2,2.2159143E-1,8.947237E-2,8.039139E-1,9.121297E-1,6.1143097E-2,-1.09428875E-1,-8.108622E-3],"split_indices":[3,66,750,0,0,0,489,91,0,0,0],"split_type":[0,0,0,0,0,0,0,0,0,0,0],"sum_hessian":[3.3824955E1,3.1476576E0,3.0677298E1,1.7574018E0,1.3902558E0,1.006499E0,2.96708E1,2.8322779E1,1.3480203E0,2.7321684E1,1.001096E0],"tree_param":{"num_deleted":"0","num_feature":"2048","num_nodes":"11","size_leaf_vector":"1"}},{"base_weights":[-6.740823E-1,3.912159E-1,-9.3440765E-1,-5.3999686E-1,1.9671734E-1,4.6541143E-2,-1.0392374E0,4.1365173E-2,-8.60084E-2,-1.07624166E-1,-7.846731E-3],"categories":[],"categories_nodes":[],"categories_segments":[],"categories_sizes":[],"default_left":[0,0,0,0,0,0,0,0,0,0,0],"id":3,"left_children":[1,3,5,7,-1,-1,9,-1,-1,-1,-1],"loss_changes":[9.468761E0,1.1556832E1,4.3978977E0,1.9673887E0,0E0,0E0,8.088093E-1,0E0,0E0,0E0,0E0],"parents":[2147483647,0,0,1,1,2,2,3,3,6,6],"right_children":[2,4,6,8,-1,-1,10,-1,-1,-1,-1],"split_conditions":[2.1511713E-1,4.849417E-1,2.56389E-1,1.7243628E-1,1.9671734E-1,4.6541143E-2,8.701167E-1,4.1365173E-2,-8.60084E-2,-1.07624166E-1,-7.846731E-3],"split_indices":[1827,410,1411,835,0,0,405,0,0,0,0],"split_type":[0,0,0,0,0,0,0,0,0,0,0],"sum_hessian":[3.1825146E1,6.1510696E0,2.5674076E1,4.2796397E0,1.8714299E0,1.5490819E0,2.4124994E1,1.0020077E0,3.2776318E0,2.3114546E1,1.0104493E0],"tree_param":{"num_deleted":"0","num_feature":"2048","num_nodes":"11","size_leaf_vector":"1"}},{"base_weights":[-6.4366215E-1,-8.805055E-1,5.160765E-1,4.0594926E-1,-1.0227653E0,-7.618623E-2,1.4480525E0,-6.295334E-2,1.40086E-1,-1.0622609E-1,-6.1650607E-3,1.1315073E-2,2.2002609E-1],"categories":[],"categories_nodes":[],"categories_segments":[],"categories_sizes":[],"default_left":[0,0,0,0,0,0,0,0,0,0,0,0,0],"id":4,"left_children":[1,3,5,7,9,-1,11,-1,-1,-1,-1,-1,-1],"loss_changes":[8.975006E0,5.197136E0,8.119651E0,4.299731E0,8.383999E-1,0E0,3.5179758E0,0E0,0E0,0E0,0E0,0E0,0E0],"parents":[2147483647,0,0,1,1,2,2,3,3,4,4,6,6],"right_children":[2,4,6,8,10,-1,12,-1,-1,-1,-1,-1,-1],"split_conditions":[9.237029E-1,1.3794525E-1,5.527814E-1,4.1535923E-1,9.073495E-1,-7.618623E-2,4.3275294E-1,-6.295334E-2,1.40086E-1,-1.0622609E-1,-6.1650607E-3,1.1315073E-2,2.2002609E-1],"split_indices":[1937,1136,243,1261,467,0,285,0,0,0,0,0,0],"split_type":[0,0,0,0,0,0,0,0,0,0,0,0,0],"sum_hessian":[3.0020494E1,2.5129324E1,4.8911715E0,2.317609E0,2.2811714E1,2.1397061E0,2.7514653E0,1.3156029E0,1.0020062E0,2.1810217E1,1.0014983E0,1.4062672E0,1.3451983E0],"tree_param":{"num_deleted":"0","num_feature":"2048","num_nodes":"13","size_leaf_vector":"1"}},{"base_weights":[-6.142103E-1,3.0022955E-1,-9.217168E-1,-8.4471904E-2,1.2035357E0,3.3868156E-2,-1.0476545E-1,1.9717845E0,-6.0915947E-2,6.2434323E-2,2.3709297E-1],"categories":[],"categories_nodes":[],"categories_segments":[],"categories_sizes":[],"default_left":[0,0,0,0,0,0,0,0,0,0,0],"id":5,"left_children":[1,3,5,-1,7,-1,-1,9,-1,-1,-1],"loss_changes":[8.506041E0,9.413661E0,3.8701496E0,0E0,8.095676E0,0E0,0E0,5.1677036E-1,0E0,0E0,0E0],"parents":[2147483647,0,0,1,1,2,2,4,4,7,7],"right_children":[2,4,6,-1,8,-1,-1,10,-1,-1,-1],"split_conditions":[2.4402978E-1,5.3843534E-1,1.1084309E-1,-8.4471904E-2,5.6021744E-1,3.3868156E-2,-1.0476545E-1,3.7943757E-1,-6.0915947E-2,6.2434323E-2,2.3709297E-1],"split_indices":[1827,252,199,0,1959,0,0,1909,0,0,0],"split_type":[0,0,0,0,0,0,0,0,0,0,0],"sum_hessian":[2.8265383E1,7.1190243E0,2.1146358E1,3.168183E0,3.9508412E0,1.7675221E0,1.9378838E1,2.7131863E0,1.237655E0,1.2060348E0,1.5071515E0],"tree_param":{"num_deleted":"0","num_feature":"2048","num_nodes":"11","size_leaf_vector":"1"}},{"base_weights":[-5.865926E-1,2.8778014E-1,-8.9999413E-1,-8.239481E-2,1.0959153E0,3.118721E-2,-1.03350274E-1,1.7551421E0,-5.922788E-2,3.0995304E-2,2.1605013E-1],"categories":[],"categories_nodes":[],"categories_segments":[],"categories_sizes":[],"default_left":[0,0,0,0,0,0,0,0,0,0,0],"id":6,"left_children":[1,3,5,-1,7,-1,-1,9,-1,-1,-1],"loss_changes":[7.8322287E0,8.135114E0,3.653141E0,0E0,6.7047935E0,0E0,0E0,1.6228161E0,0E0,0E0,0E0],"parents":[2147483647,0,0,1,1,2,2,4,4,7,7],"right_children":[2,4,6,-1,8,-1,-1,10,-1,-1,-1],"split_conditions":[2.4402978E-1,5.3843534E-1,1.1084309E-1,-8.239481E-2,5.6021744E-1,3.118721E-2,-1.03350274E-1,3.3434263E-1,-5.922788E-2,3.0995304E-2,2.1605013E-1],"split_indices":[1827,252,199,0,1959,0,0,218,0,0,0],"split_type":[0,0,0,0,0,0,0,0,0,0,0],"sum_hessian":[2.6636518E1,7.049779E0,1.9586739E1,2.9592528E0,4.090526E0,1.8111188E0,1.777562E1,2.9132628E0,1.1772633E0,1.0246855E0,1.8885775E0],"tree_param":{"num_deleted":"0","num_feature":"2048","num_nodes":"11","size_leaf_vector":"1"}},{"base_weights":[-5.615839E-1,2.7025223E-1,-8.8515943E-1,-3.7379113E-1,1.6642326E-1,-1.02509774E-1,5.1681306E-2,7.7201195E-2,-8.67505E-2],"categories":[],"categories_nodes":[],"categories_segments":[],"categories_sizes":[],"default_left":[0,0,0,0,0,0,0,0,0],"id":7,"left_children":[1,3,5,7,-1,-1,-1,-1,-1],"loss_changes":[7.265855E0,7.873508E0,4.262995E0,4.256919E0,0E0,0E0,0E0,0E0,0E0],"parents":[2147483647,0,0,1,1,2,2,3,3],"right_children":[2,4,6,8,-1,-1,-1,-1,-1],"split_conditions":[2.7687925E-1,5.938813E-1,6.665193E-1,2.5705552E-1,1.6642326E-1,-1.02509774E-1,5.1681306E-2,7.7201195E-2,-8.67505E-2],"split_indices":[504,1494,113,566,0,0,0,0,0],"split_type":[0,0,0,0,0,0,0,0,0],"sum_hessian":[2.510563E1,7.0770373E0,1.8028595E1,5.341174E0,1.7358627E0,1.6636805E1,1.3917898E0,1.4386637E0,3.9025106E0],"tree_param":{"num_deleted":"0","num_feature":"2048","num_nodes":"9","size_leaf_vector":"1"}},{"base_weights":[-5.3469104E-1,2.818416E-1,-8.593787E-1,-6.3648087E-1,1.092149E0,3.0796686E-2,-1.00888126E-1,-7.596879E-2,-1.1658899E-2,1.6294298E-1,-2.123001E-2],"categories":[],"categories_nodes":[],"categories_segments":[],"categories_sizes":[],"default_left":[0,0,0,0,0,0,0,0,0,0,0],"id":8,"left_children":[1,3,5,7,9,-1,-1,-1,-1,-1,-1],"loss_changes":[6.7801304E0,6.4763393E0,3.4331064E0,1.8517411E-1,3.4966273E0,0E0,0E0,0E0,0E0,0E0,0E0],"parents":[2147483647,0,0,1,1,2,2,3,3,4,4],"right_children":[2,4,6,8,10,-1,-1,-1,-1,-1,-1],"split_conditions":[2.4402978E-1,4.7651806E-1,1.1084309E-1,5.3496057E-1,4.6920678E-1,3.0796686E-2,-1.00888126E-1,-7.596879E-2,-1.1658899E-2,1.6294298E-1,-2.123001E-2],"split_indices":[1827,99,199,288,591,0,0,0,0,0,0],"split_type":[0,0,0,0,0,0,0,0,0,0,0],"sum_hessian":[2.366042E1,6.7691507E0,1.689127E1,3.2736444E0,3.4955063E0,1.7973402E0,1.5093928E1,2.2735932E0,1.0000513E0,2.299322E0,1.1961844E0],"tree_param":{"num_deleted":"0","num_feature":"2048","num_nodes":"11","size_leaf_vector":"1"}},{"base_weights":[-5.1182663E-1,2.7714625E-1,-8.4878564E-1,-3.360477E-1,1.4296652E-1,-1.0023751E-1,4.714912E-2,6.844416E-2,-8.3232924E-2],"categories":[],"categories_nodes":[],"categories_segments":[],"categories_sizes":[],"default_left":[0,0,0,0,0,0,0,0,0],"id":9,"left_children":[1,3,5,7,-1,-1,-1,-1,-1],"loss_changes":[6.4486217E0,5.956302E0,3.8434992E0,3.5411081E0,0E0,0E0,0E0,0E0,0E0],"parents":[2147483647,0,0,1,1,2,2,3,3],"right_children":[2,4,6,8,-1,-1,-1,-1,-1],"split_conditions":[2.7687925E-1,5.938813E-1,6.665193E-1,2.5705552E-1,1.4296652E-1,-1.0023751E-1,4.714912E-2,6.844416E-2,-8.3232924E-2],"split_indices":[504,1494,113,566,0,0,0,0,0],"split_type":[0,0,0,0,0,0,0,0,0],"sum_hessian":[2.2371632E1,6.748308E0,1.5623323E1,4.8671694E0,1.8811384E0,1.4210932E1,1.412392E0,1.4684657E0,3.3987038E0],"tree_param":{"num_deleted":"0","num_feature":"2048","num_nodes":"9","size_leaf_vector":"1"}},{"base_weights":[-4.8710385E-1,-7.527356E-1,4.6954358E-1,4.6722373E-1,-9.4199824E-1,1.0608555E0,-6.535721E-2,-5.526348E-2,1.2735526E-1,-9.075393E-3,-9.9439666E-2,1.3649912E-1,1.7166967E-2],"categories":[],"categories_nodes":[],"categories_segments":[],"categories_sizes":[],"default_left":[0,0,0,0,0,0,0,0,0,0,0,0,0],"id":10,"left_children":[1,3,5,7,9,11,-1,-1,-1,-1,-1,-1,-1],"loss_changes":[5.971783E0,4.524294E0,4.293337E0,3.207086E0,6.075611E-1,8.2910824E-1,0E0,0E0,0E0,0E0,0E0,0E0,0E0],"parents":[2147483647,0,0,1,1,2,2,3,3,4,4,5,5],"right_children":[2,4,6,8,10,12,-1,-1,-1,-1,-1,-1,-1],"split_conditions":[9.237029E-1,1.3794525E-1,4.9469554E-1,4.930725E-1,1.655911E-1,5.253488E-1,-6.535721E-2,-5.526348E-2,1.2735526E-1,-9.075393E-3,-9.9439666E-2,1.3649912E-1,1.7166967E-2],"split_indices":[1937,1136,1073,104,1628,805,0,0,0,0,0,0,0],"split_type":[0,0,0,0,0,0,0,0,0,0,0,0,0],"sum_hessian":[2.1109365E1,1.6688604E1,4.4207625E0,2.0440838E0,1.464452E1,2.9323418E0,1.4884207E0,1.0414584E0,1.0026255E0,1.007591E0,1.3636929E1,1.7862675E0,1.1460743E0],"tree_param":{"num_deleted":"0","num_feature":"2048","num_nodes":"13","size_leaf_vector":"1"}},{"base_weights":[-4.6398863E-1,2.7987376E-1,-8.103645E-1,-4.540926E-1,1.0431875E0,-9.8208986E-2,4.8086315E-2,-7.662796E-2,3.134298E-2,1.1209658E-2,1.43236E-1],"categories":[],"categories_nodes":[],"categories_segments":[],"categories_sizes":[],"default_left":[0,0,0,0,0,0,0,0,0,0,0],"id":11,"left_children":[1,3,5,7,9,-1,-1,-1,-1,-1,-1],"loss_changes":[5.6175146E0,4.614146E0,3.6944704E0,1.3098792E0,1.2620602E0,0E0,0E0,0E0,0E0,0E0,0E0],"parents":[2147483647,0,0,1,1,2,2,3,3,4,4],"right_children":[2,4,6,8,10,-1,-1,-1,-1,-1,-1],"split_conditions":[2.7687925E-1,6.401083E-1,9.486061E-1,5.5262744E-1,4.308247E-1,-9.8208986E-2,4.8086315E-2,-7.662796E-2,3.134298E-2,1.1209658E-2,1.43236E-1],"split_indices":[504,1439,51,988,70,0,0,0,0,0,0],"split_type":[0,0,0,0,0,0,0,0,0,0,0],"sum_hessian":[1.9922144E1,6.3903937E0,1.3531751E1,3.464346E0,2.9260476E0,1.2154668E1,1.3770828E0,2.4638166E0,1.0005295E0,1.2421811E0,1.6838665E0],"tree_param":{"num_deleted":"0","num_feature":"2048","num_nodes":"11","size_leaf_vector":"1"}},{"base_weights":[-4.4067192E-1,2.0969148E-1,-8.329014E-1,-5.2197254E-1,1.0319428E0,-9.654745E-2,3.4206077E-2,-8.0377005E-2,3.0728718E-2,1.4113395E-1,7.2385333E-3],"categories":[],"categories_nodes":[],"categories_segments":[],"categories_sizes":[],"default_left":[0,0,0,0,0,0,0,0,0,0,0],"id":12,"left_children":[1,3,5,7,9,-1,-1,-1,-1,-1,-1],"loss_changes":[5.2320814E0,5.5064564E0,2.2880125E0,1.423241E0,1.4355874E0,0E0,0E0,0E0,0E0,0E0,0E0],"parents":[2147483647,0,0,1,1,2,2,3,3,4,4],"right_children":[2,4,6,8,10,-1,-1,-1,-1,-1,-1],"split_conditions":[2.770718E-1,6.092906E-1,8.893408E-1,4.869256E-1,4.30063E-1,-9.654745E-2,3.4206077E-2,-8.0377005E-2,3.0728718E-2,1.4113395E-1,7.2385333E-3],"split_indices":[1827,1078,871,314,591,0,0,0,0,0,0],"split_type":[0,0,0,0,0,0,0,0,0,0,0],"sum_hessian":[1.8825922E1,7.257502E0,1.156842E1,4.0335336E0,3.2239685E0,1.0555696E1,1.0127243E0,3.0334504E0,1.0000832E0,1.9730334E0,1.2509351E0],"tree_param":{"num_deleted":"0","num_feature":"2048","num_nodes":"11","size_leaf_vector":"1"}},{"base_weights":[-4.1917688E-1,2.870852E-1,-7.7533954E-1,-5.397677E-1,8.5398275E-1,-9.596663E-2,4.504965E-2,-1.4802619E-2,-6.389681E-2,1.3629372E-1,-2.8899435E-2],"categories":[],"categories_nodes":[],"categories_segments":[],"categories_sizes":[],"default_left":[0,0,0,0,0,0,0,0,0,0,0],"id":13,"left_children":[1,3,5,7,9,-1,-1,-1,-1,-1,-1],"loss_changes":[4.9510217E0,3.7568653E0,3.3169074E0,4.036832E-2,3.0457928E0,0E0,0E0,0E0,0E0,0E0,0E0],"parents":[2147483647,0,0,1,1,2,2,3,3,4,4],"right_children":[2,4,6,8,10,-1,-1,-1,-1,-1,-1],"split_conditions":[2.7687925E-1,3.5137674E-1,6.665193E-1,2.7356753E-1,7.066173E-1,-9.596663E-2,4.504965E-2,-1.4802619E-2,-6.389681E-2,1.3629372E-1,-2.8899435E-2],"split_indices":[504,1625,113,486,666,0,0,0,0,0,0],"split_type":[0,0,0,0,0,0,0,0,0,0,0],"sum_hessian":[1.7797626E1,6.0314174E0,1.1766209E1,2.4726994E0,3.5587182E0,1.0416962E1,1.3492467E0,1.0032134E0,1.469486E0,2.3291361E0,1.2295821E0],"tree_param":{"num_deleted":"0","num_feature":"2048","num_nodes":"11","size_leaf_vector":"1"}},{"base_weights":[-4.0077618E-1,1.4877656E-1,-8.664453E-1,-5.298613E-1,8.5259384E-1,-1.47230495E-2,-9.3135804E-2,-8.079216E-2,3.2024693E-2,1.2922779E-1,-2.62135E-2],"categories":[],"categories_nodes":[],"categories_segments":[],"categories_sizes":[],"default_left":[0,0,0,0,0,0,0,0,0,0,0],"id":14,"left_children":[1,3,5,7,9,-1,-1,-1,-1,-1,-1],"loss_changes":[4.701624E0,4.7741303E0,3.2128668E-1,1.4935632E0,2.7039204E0,0E0,0E0,0E0,0E0,0E0,0E0],"parents":[2147483647,0,0,1,1,2,2,3,3,4,4],"right_children":[2,4,6,8,10,-1,-1,-1,-1,-1,-1],"split_conditions":[3.408796E-1,4.8813605E-1,2.2975466E-1,9.577714E-1,3.004493E-1,-1.47230495E-2,-9.3135804E-2,-8.079216E-2,3.2024693E-2,1.2922779E-1,-2.62135E-2],"split_indices":[1984,99,1245,1607,1386,0,0,0,0,0,0],"split_type":[0,0,0,0,0,0,0,0,0,0,0],"sum_hessian":[1.6868477E1,8.049494E0,8.818984E0,4.223883E0,3.8256106E0,1.000612E0,7.8183713E0,3.2202141E0,1.003669E0,2.629269E0,1.1963416E0],"tree_param":{"num_deleted":"0","num_feature":"2048","num_nodes":"11","size_leaf_vector":"1"}},{"base_weights":[-3.844667E-1,3.4230265E-1,-7.1468973E-1,-4.9215826E-1,1.0157982E0,-9.409214E-2,2.4518983E-1,-6.0560614E-2,-1.1343497E-2,1.2615614E-1,2.8969958E-2,8.787831E-2,-5.349965E-2],"categories":[],"categories_nodes":[],"categories_segments":[],"categories_sizes":[],"default_left":[0,0,0,0,0,0,0,0,0,0,0,0,0],"id":15,"left_children":[1,3,5,7,9,-1,11,-1,-1,-1,-1,-1,-1],"loss_changes":[4.326717E0,3.8663735E0,2.8406682E0,7.519168E-2,2.8427386E-1,0E0,1.9954686E0,0E0,0E0,0E0,0E0,0E0,0E0],"parents":[2147483647,0,0,1,1,2,2,3,3,4,4,6,6],"right_children":[2,4,6,8,10,-1,12,-1,-1,-1,-1,-1,-1],"split_conditions":[2.4088071E-1,4.9015683E-1,9.237029E-1,5.193553E-1,4.038108E-1,-9.409214E-2,1.8522799E-1,-6.0560614E-2,-1.1343497E-2,1.2615614E-1,2.8969958E-2,8.787831E-2,-5.349965E-2],"split_indices":[277,1740,1937,1504,1981,0,1509,0,0,0,0,0,0],"split_type":[0,0,0,0,0,0,0,0,0,0,0,0,0],"sum_hessian":[1.600894E1,4.990046E0,1.1018894E1,2.3489478E0,2.641098E0,8.933201E0,2.0856934E0,1.3465203E0,1.0024275E0,1.4222547E0,1.2188433E0,1.0812383E0,1.0044551E0],"tree_param":{"num_deleted":"0","num_feature":"2048","num_nodes":"13","size_leaf_vector":"1"}},{"base_weights":[-3.6526147E-1,1.5359075E-1,-8.3666354E-1,7.763822E-1,-5.490192E-1,-1.5500194E-2,-9.059401E-2,1.1845564E-1,-2.4162088E-2,-7.592451E-2,1.0314218E-2],"categories":[],"categories_nodes":[],"categories_segments":[],"categories_sizes":[],"default_left":[0,0,0,0,0,0,0,0,0,0,0],"id":16,"left_children":[1,3,5,7,9,-1,-1,-1,-1,-1,-1],"loss_changes":[4.0797944E0,4.1611166E0,2.666211E-1,2.3384302E0,7.084836E-1,0E0,0E0,0E0,0E0,0E0,0E0],"parents":[2147483647,0,0,1,1,2,2,3,3,4,4],"right_children":[2,4,6,8,10,-1,-1,-1,-1,-1,-1],"split_conditions":[3.408796E-1,5.0753915E-1,2.3181732E-1,3.878191E-1,7.064649E-1,-1.5500194E-2,-9.059401E-2,1.1845564E-1,-2.4162088E-2,-7.592451E-2,1.0314218E-2],"split_indices":[1984,1089,569,2029,1897,0,0,0,0,0,0],"split_type":[0,0,0,0,0,0,0,0,0,0,0],"sum_hessian":[1.51548815E1,7.5352907E0,7.6195903E0,3.938881E0,3.59641E0,1.0015962E0,6.6179943E0,2.6947842E0,1.2440969E0,2.5955346E0,1.0008754E0],"tree_param":{"num_deleted":"0","num_feature":"2048","num_nodes":"11","size_leaf_vector":"1"}},{"base_weights":[-3.5114324E-1,2.8902552E-1,-7.1530724E-1,6.871981E-1,-6.2195893E-2,-9.228749E-2,4.261321E-2,1.0196531E-1,-2.6563404E-2],"categories":[],"categories_nodes":[],"categories_segments":[],"categories_sizes":[],"default_left":[0,0,0,0,0,0,0,0,0],"id":17,"left_children":[1,3,5,7,-1,-1,-1,-1,-1],"loss_changes":[3.805222E0,2.7159076E0,2.7925262E0,1.8120589E0,0E0,0E0,0E0,0E0,0E0],"parents":[2147483647,0,0,1,1,2,2,3,3],"right_children":[2,4,6,8,-1,-1,-1,-1,-1],"split_conditions":[2.7687925E-1,4.473335E-1,9.486061E-1,3.8371864E-1,-6.2195893E-2,-9.228749E-2,4.261321E-2,1.0196531E-1,-2.6563404E-2],"split_indices":[504,1334,51,1351,0,0,0,0,0],"split_type":[0,0,0,0,0,0,0,0,0],"sum_hessian":[1.4435744E1,5.3091135E0,9.12663E0,3.8653164E0,1.4437972E0,7.884362E0,1.2422681E0,2.8135169E0,1.0517997E0],"tree_param":{"num_deleted":"0","num_feature":"2048","num_nodes":"9","size_leaf_vector":"1"}},{"base_weights":[-3.3621418E-1,1.5405922E-1,-8.0896807E-1,5.960944E-1,-7.148869E-2,-1.6441373E-2,-8.813529E-2,-3.9438706E-2,1.0414436E0,2.4453064E-2,1.2427999E-1],"categories":[],"categories_nodes":[],"categories_segments":[],"categories_sizes":[],"default_left":[0,0,0,0,0,0,0,0,0,0,0],"id":18,"left_children":[1,3,5,7,-1,-1,-1,-1,9,-1,-1],"loss_changes":[3.5358567E0,3.523929E0,2.1213484E-1,3.0092804E0,0E0,0E0,0E0,0E0,3.9225674E-1,0E0,0E0],"parents":[2147483647,0,0,1,1,2,2,3,3,8,8],"right_children":[2,4,6,8,-1,-1,-1,-1,10,-1,-1],"split_conditions":[3.408796E-1,4.9469554E-1,3.5362127E-1,2.929254E-1,-7.148869E-2,-1.6441373E-2,-8.813529E-2,-3.9438706E-2,3.3020228E-1,2.4453064E-2,1.2427999E-1],"split_indices":[1984,1073,568,1969,0,0,0,0,1361,0,0],"split_type":[0,0,0,0,0,0,0,0,0,0,0],"sum_hessian":[1.3717608E1,7.0649576E0,6.652651E0,4.890931E0,2.1740265E0,1.0019672E0,5.650684E0,1.552505E0,3.338426E0,1.1200386E0,2.2183874E0],"tree_param":{"num_deleted":"0","num_feature":"2048","num_nodes":"11","size_leaf_vector":"1"}},{"base_weights":[-3.2323465E-1,2.3173964E-1,-7.297149E-1,-5.189357E-2,7.5108886E-1,-8.933114E-2,2.3187619E-2,1.0706585E-1,-3.4410139E-3],"categories":[],"categories_nodes":[],"categories_segments":[],"categories_sizes":[],"default_left":[0,0,0,0,0,0,0,0,0],"id":19,"left_children":[1,3,5,-1,7,-1,-1,-1,-1],"loss_changes":[3.3409104E0,3.0031443E0,1.5217957E0,0E0,1.1339941E0,0E0,0E0,0E0,0E0],"parents":[2147483647,0,0,1,1,2,2,4,4],"right_children":[2,4,6,-1,8,-1,-1,-1,-1],"split_conditions":[2.770718E-1,4.8813605E-1,7.486403E-1,-5.189357E-2,3.730168E-1,-8.933114E-2,2.3187619E-2,1.0706585E-1,-3.4410139E-3],"split_indices":[1827,99,551,0,1231,0,0,0,0],"split_type":[0,0,0,0,0,0,0,0,0],"sum_hessian":[1.3060292E1,5.703329E0,7.3569636E0,2.3325794E0,3.3707495E0,6.347982E0,1.0089817E0,2.1379313E0,1.232818E0],"tree_param":{"num_deleted":"0","num_feature":"2048","num_nodes":"9","size_leaf_vector":"1"}},{"base_weights":[-3.076282E-1,4.773395E-1,-5.7747334E-1,-2.288089E-2,8.561483E-2,5.3022295E-2,-7.832012E-1,1.2329533E-2,-9.090963E-2],"categories":[],"categories_nodes":[],"categories_segments":[],"categories_sizes":[],"default_left":[0,0,0,0,0,0,0,0,0],"id":20,"left_children":[1,3,5,-1,-1,-1,7,-1,-1],"loss_changes":[3.1180458E0,1.2606145E0,2.794062E0,0E0,0E0,0E0,1.1628509E0,0E0,0E0],"parents":[2147483647,0,0,1,1,2,2,6,6],"right_children":[2,4,6,-1,-1,-1,8,-1,-1],"split_conditions":[2.0448887E-1,2.9636067E-1,1.22284025E-1,-2.288089E-2,8.561483E-2,5.3022295E-2,1.2498501E-1,1.2329533E-2,-9.090963E-2],"split_indices":[403,581,287,0,0,0,76,0,0],"split_type":[0,0,0,0,0,0,0,0,0],"sum_hessian":[1.2418935E1,2.9803338E0,9.4386015E0,1.1788267E0,1.801507E0,1.231353E0,8.207249E0,1.0033516E0,7.203897E0],"tree_param":{"num_deleted":"0","num_feature":"2048","num_nodes":"9","size_leaf_vector":"1"}},{"base_weights":[-2.8929368E-1,2.8758612E-1,-6.581069E-1,7.109197E-1,-4.517132E-2,-8.812938E-2,3.7383437E-2,-4.5561795E-3,9.9523515E-2],"categories":[],"categories_nodes":[],"categories_segments":[],"categories_sizes":[],"default_left":[0,0,0,0,0,0,0,0,0],"id":21,"left_children":[1,3,5,7,-1,-1,-1,-1,-1],"loss_changes":[2.9139636E0,2.1020257E0,2.1987224E0,9.07145E-1,0E0,0E0,0E0,0E0,0E0],"parents":[2147483647,0,0,1,1,2,2,3,3],"right_children":[2,4,6,8,-1,-1,-1,-1,-1],"split_conditions":[2.7687925E-1,4.6632317E-1,6.665193E-1,3.5178894E-1,-4.517132E-2,-8.812938E-2,3.7383437E-2,-4.5561795E-3,9.9523515E-2],"split_indices":[504,1044,113,609,0,0,0,0,0],"split_type":[0,0,0,0,0,0,0,0,0],"sum_hessian":[1.1806397E1,4.690299E0,7.116099E0,3.0068944E0,1.6834043E0,5.9707403E0,1.1453587E0,1.0507911E0,1.9561033E0],"tree_param":{"num_deleted":"0","num_feature":"2048","num_nodes":"9","size_leaf_vector":"1"}},{"base_weights":[-2.7401316E-1,-6.400125E-1,2.9328173E-1,4.053556E-2,-8.75692E-2,-6.0007986E-2,7.3591954E-1,9.907509E-2,7.272251E-3],"categories":[],"categories_nodes":[],"categories_segments":[],"categories_sizes":[],"default_left":[0,0,0,0,0,0,0,0,0],"id":22,"left_children":[1,3,5,-1,-1,-1,7,-1,-1],"loss_changes":[2.7311068E0,2.2668433E0,2.6123886E0,0E0,0E0,0E0,6.2423754E-1,0E0,0E0],"parents":[2147483647,0,0,1,1,2,2,6,6],"right_children":[2,4,6,-1,-1,-1,8,-1,-1],"split_conditions":[5.789029E-1,1.3737497E-1,5.188867E-1,4.053556E-2,-8.75692E-2,-6.0007986E-2,3.3928117E-1,9.907509E-2,7.272251E-3],"split_indices":[1078,1832,1312,0,0,0,1781,0,0],"split_type":[0,0,0,0,0,0,0,0,0],"sum_hessian":[1.1249716E1,6.760128E0,4.4895873E0,1.1112369E0,5.6488914E0,1.3696257E0,3.1199617E0,1.8971043E0,1.2228575E0],"tree_param":{"num_deleted":"0","num_feature":"2048","num_nodes":"9","size_leaf_vector":"1"}},{"base_weights":[-2.599722E-1,-5.4997164E-1,4.2686194E-1,3.081456E-1,-8.70932E-2,7.77169E-2,-2.9314062E-2,-3.2476466E-2,7.87492E-2],"categories":[],"categories_nodes":[],"categories_segments":[],"categories_sizes":[],"default_left":[0,0,0,0,0,0,0,0,0],"id":23,"left_children":[1,3,5,7,-1,-1,-1,-1,-1],"loss_changes":[2.565496E0,2.6547966E0,1.2460244E0,1.1954118E0,0E0,0E0,0E0,0E0,0E0],"parents":[2147483647,0,0,1,1,2,2,3,3],"right_children":[2,4,6,8,-1,-1,-1,-1,-1],"split_conditions":[9.237029E-1,3.5048977E-1,6.1754686E-1,4.8855045E-1,-8.70932E-2,7.77169E-2,-2.9314062E-2,-3.2476466E-2,7.87492E-2],"split_indices":[1937,88,1689,1710,0,0,0,0,0],"split_type":[0,0,0,0,0,0,0,0,0],"sum_hessian":[1.0701557E1,7.6646194E0,3.0369382E0,2.0972776E0,5.567342E0,1.9895523E0,1.047386E0,1.0428387E0,1.0544388E0],"tree_param":{"num_deleted":"0","num_feature":"2048","num_nodes":"9","size_leaf_vector":"1"}},{"base_weights":[-2.4580161E-1,1.8538918E-1,-7.190875E-1,5.401344E-1,-6.1885566E-2,-7.993641E-2,-1.7766094E-2,-3.138063E-2,8.7171173E-1,2.646753E-2,9.932676E-2],"categories":[],"categories_nodes":[],"categories_segments":[],"categories_sizes":[],"default_left":[0,0,0,0,0,0,0,0,0,0,0],"id":24,"left_children":[1,3,5,7,-1,-1,-1,-1,9,-1,-1],"loss_changes":[2.4158318E0,2.2308443E0,9.8644495E-2,1.730871E0,0E0,0E0,0E0,0E0,3.019905E-2,0E0,0E0],"parents":[2147483647,0,0,1,1,2,2,3,3,8,8],"right_children":[2,4,6,8,-1,-1,-1,-1,10,-1,-1],"split_conditions":[3.408796E-1,4.9469554E-1,1.0365475E0,2.929254E-1,-6.1885566E-2,-7.993641E-2,-1.7766094E-2,-3.138063E-2,4.7398195E-1,2.646753E-2,9.932676E-2],"split_indices":[1984,1073,65,1969,0,0,0,0,2041,0,0],"split_type":[0,0,0,0,0,0,0,0,0,0,0],"sum_hessian":[1.0184634E1,5.6476197E0,4.5370145E0,4.1468687E0,1.500751E0,3.53629E0,1.0007246E0,1.1748272E0,2.9720414E0,1.0259513E0,1.94609E0],"tree_param":{"num_deleted":"0","num_feature":"2048","num_nodes":"11","size_leaf_vector":"1"}},{"base_weights":[-2.3734874E-1,2.8639928E-1,-6.085754E-1,-4.0433314E-2,6.5689933E-1,-8.4066086E-2,3.3745296E-2,6.6361553E-3,9.2024796E-2],"categories":[],"categories_nodes":[],"categories_segments":[],"categories_sizes":[],"default_left":[0,0,0,0,0,0,0,0,0],"id":25,"left_children":[1,3,5,-1,7,-1,-1,-1,-1],"loss_changes":[2.2632241E0,1.5801096E0,1.73441E0,0E0,5.181093E-1,0E0,0E0,0E0,0E0],"parents":[2147483647,0,0,1,1,2,2,4,4],"right_children":[2,4,6,-1,8,-1,-1,-1,-1],"split_conditions":[2.7687925E-1,3.5137674E-1,9.1660506E-1,-4.0433314E-2,6.5751266E-1,-8.4066086E-2,3.3745296E-2,6.6361553E-3,9.2024796E-2],"split_indices":[504,1625,51,0,1666,0,0,0,0],"split_type":[0,0,0,0,0,0,0,0,0],"sum_hessian":[9.743901E0,4.136456E0,5.6074452E0,1.4122487E0,2.7242072E0,4.5922303E0,1.015215E0,1.2263063E0,1.4979008E0],"tree_param":{"num_deleted":"0","num_feature":"2048","num_nodes":"9","size_leaf_vector":"1"}},{"base_weights":[-2.2321056E-1,2.4704306E-1,-6.301026E-1,6.889837E-1,-3.7277646E-2,-8.0929674E-2,1.1465818E-2,1.2130261E-2,8.731657E-2],"categories":[],"categories_nodes":[],"categories_segments":[],"categories_sizes":[],"default_left":[0,0,0,0,0,0,0,0,0],"id":26,"left_children":[1,3,5,7,-1,-1,-1,-1,-1],"loss_changes":[2.1281962E0,1.7635463E0,8.6796856E-1,2.6652253E-1,0E0,0E0,0E0,0E0,0E0],"parents":[2147483647,0,0,1,1,2,2,3,3],"right_children":[2,4,6,8,-1,-1,-1,-1,-1],"split_conditions":[2.770718E-1,2.9169253E-1,6.6747606E-1,5.307028E-1,-3.7277646E-2,-8.0929674E-2,1.1465818E-2,1.2130261E-2,8.731657E-2],"split_indices":[1827,1052,1241,639,0,0,0,0,0],"split_type":[0,0,0,0,0,0,0,0,0],"sum_hessian":[9.308919E0,4.5004773E0,4.808442E0,2.5620847E0,1.9383925E0,3.8060331E0,1.002409E0,1.033931E0,1.5281537E0],"tree_param":{"num_deleted":"0","num_feature":"2048","num_nodes":"9","size_leaf_vector":"1"}},{"base_weights":[-2.1012732E-1,1.9727439E-1,-6.814572E-1,6.172675E-1,-4.1043666E-1,-7.552247E-2,-1.9971188E-2,7.6141703E-4,8.2624964E-2,-5.397257E-2,-6.978047E-3],"categories":[],"categories_nodes":[],"categories_segments":[],"categories_sizes":[],"default_left":[0,0,0,0,0,0,0,0,0,0,0],"id":27,"left_children":[1,3,5,7,9,-1,-1,-1,-1,-1,-1],"loss_changes":[2.0433776E0,1.8122686E0,2.0942926E-2,5.04748E-1,9.872627E-2,0E0,0E0,0E0,0E0,0E0,0E0],"parents":[2147483647,0,0,1,1,2,2,3,3,4,4],"right_children":[2,4,6,8,10,-1,-1,-1,-1,-1,-1],"split_conditions":[3.408796E-1,5.0753915E-1,7.4382514E-1,6.4665943E-1,3.8850287E-1,-7.552247E-2,-1.9971188E-2,7.6141703E-4,8.2624964E-2,-5.397257E-2,-6.978047E-3],"split_indices":[1984,1089,988,2017,373,0,0,0,0,0,0],"split_type":[0,0,0,0,0,0,0,0,0,0,0],"sum_hessian":[8.941348E0,5.1077943E0,3.8335538E0,3.011087E0,2.0967073E0,2.8321898E0,1.001364E0,1.0332556E0,1.9778312E0,1.0962701E0,1.0004373E0],"tree_param":{"num_deleted":"0","num_feature":"2048","num_nodes":"11","size_leaf_vector":"1"}},{"base_weights":[-2.0365985E-1,2.8907928E-1,-5.7866925E-1,-3.674274E-2,6.2535155E-1,-8.0797E-2,2.571318E-2,7.3466124E-3,8.577102E-2],"categories":[],"categories_nodes":[],"categories_segments":[],"categories_sizes":[],"default_left":[0,0,0,0,0,0,0,0,0],"id":28,"left_children":[1,3,5,-1,7,-1,-1,-1,-1],"loss_changes":[1.9459018E0,1.2953291E0,1.3191043E0,0E0,3.9374673E-1,0E0,0E0,0E0,0E0],"parents":[2147483647,0,0,1,1,2,2,4,4],"right_children":[2,4,6,-1,8,-1,-1,-1,-1],"split_conditions":[2.7687925E-1,3.5137674E-1,7.4054253E-1,-3.674274E-2,6.5751266E-1,-8.0797E-2,2.571318E-2,7.3466124E-3,8.577102E-2],"split_indices":[504,1625,639,0,1666,0,0,0,0],"split_type":[0,0,0,0,0,0,0,0,0],"sum_hessian":[8.625518E0,3.8266623E0,4.798856E0,1.2647784E0,2.561884E0,3.7918627E0,1.006993E0,1.1490052E0,1.4128786E0],"tree_param":{"num_deleted":"0","num_feature":"2048","num_nodes":"9","size_leaf_vector":"1"}},{"base_weights":[-1.9133519E-1,-4.856968E-1,4.068348E-1,2.7788961E-2,-8.1257604E-2,6.716031E-2,-1.1372603E-2],"categories":[],"categories_nodes":[],"categories_segments":[],"categories_sizes":[],"default_left":[0,0,0,0,0,0,0],"id":29,"left_children":[1,3,5,-1,-1,-1,-1],"loss_changes":[1.8294357E0,1.8898861E0,5.726573E-1,0E0,0E0,0E0,0E0],"parents":[2147483647,0,0,1,1,2,2],"right_children":[2,4,6,-1,-1,-1,-1],"split_conditions":[9.237029E-1,3.5048977E-1,2.5083128E-1,2.7788961E-2,-8.1257604E-2,6.716031E-2,-1.1372603E-2],"split_indices":[1937,88,1495,0,0,0,0],"split_type":[0,0,0,0,0,0,0],"sum_hessian":[8.267682E0,5.666973E0,2.600709E0,1.7436635E0,3.9233093E0,1.531568E0,1.0691408E0],"tree_param":{"num_deleted":"0","num_feature":"2048","num_nodes":"7","size_leaf_vector":"1"}},{"base_weights":[-1.7938867E-1,1.9844528E-1,-6.424007E-2,4.9456733E-1,-5.3865474E-2,-1.9208709E-2,7.820805E-2],"categories":[],"categories_nodes":[],"categories_segments":[],"categories_sizes":[],"default_left":[0,0,0,0,0,0,0],"id":30,"left_children":[1,3,-1,5,-1,-1,-1],"loss_changes":[1.6926136E0,1.508462E0,0E0,1.0545971E0,0E0,0E0,0E0],"parents":[2147483647,0,0,1,1,3,3],"right_children":[2,4,-1,6,-1,-1,-1],"split_conditions":[3.408796E-1,4.9469554E-1,-6.424007E-2,3.3857882E-1,-5.3865474E-2,-1.9208709E-2,7.820805E-2],"split_indices":[1984,1073,0,1969,0,0,0],"split_type":[0,0,0,0,0,0,0],"sum_hessian":[7.9465947E0,4.690438E0,3.256157E0,3.5808897E0,1.109548E0,1.1548107E0,2.426079E0],"tree_param":{"num_deleted":"0","num_feature":"2048","num_nodes":"7","size_leaf_vector":"1"}},{"base_weights":[-1.7444848E-1,2.4583627E-1,-5.7204735E-1,5.928619E-1,-3.893063E-2,-7.4546196E-2,3.8435732E-3,9.7075645E-3,7.631483E-2],"categories":[],"categories_nodes":[],"categories_segments":[],"categories_sizes":[],"default_left":[0,0,0,0,0,0,0,0,0],"id":31,"left_children":[1,3,5,7,-1,-1,-1,-1,-1],"loss_changes":[1.5859945E0,1.3117416E0,5.310172E-1,2.2712994E-1,0E0,0E0,0E0,0E0,0E0],"parents":[2147483647,0,0,1,1,2,2,3,3],"right_children":[2,4,6,8,-1,-1,-1,-1,-1],"split_conditions":[2.770718E-1,3.1589028E-1,6.629802E-1,4.7700608E-1,-3.893063E-2,-7.4546196E-2,3.8435732E-3,9.7075645E-3,7.631483E-2],"split_indices":[1827,487,1239,416,0,0,0,0,0],"split_type":[0,0,0,0,0,0,0,0,0],"sum_hessian":[7.6494517E0,3.9041936E0,3.7452583E0,2.5677886E0,1.336405E0,2.7445393E0,1.000719E0,1.0578748E0,1.5099137E0],"tree_param":{"num_deleted":"0","num_feature":"2048","num_nodes":"9","size_leaf_vector":"1"}},{"base_weights":[-1.6569306E-1,-4.9532333E-1,3.2839444E-1,2.9536774E-2,-7.8050435E-2,7.000629E-2,-2.1156518E-2],"categories":[],"categories_nodes":[],"categories_segments":[],"categories_sizes":[],"default_left":[0,0,0,0,0,0,0],"id":32,"left_children":[1,3,5,-1,-1,-1,-1],"loss_changes":[1.5266736E0,1.4531988E0,9.413806E-1,0E0,0E0,0E0,0E0],"parents":[2147483647,0,0,1,1,2,2],"right_children":[2,4,6,-1,-1,-1,-1],"split_conditions":[4.3045822E-1,1.4242622E-1,2.4570093E-1,2.9536774E-2,-7.8050435E-2,7.000629E-2,-2.1156518E-2],"split_indices":[2008,421,273,0,0,0,0],"split_type":[0,0,0,0,0,0,0],"sum_hessian":[7.3750477E0,4.4222465E0,2.9528012E0,1.1627347E0,3.2595117E0,1.5733283E0,1.379473E0],"tree_param":{"num_deleted":"0","num_feature":"2048","num_nodes":"7","size_leaf_vector":"1"}},{"base_weights":[-1.5547451E-1,2.8590503E-1,-5.201478E-1,5.819489E-1,-3.3183202E-2,1.6394274E-2,-7.4700885E-2,1.554077E-2,7.122829E-2],"categories":[],"categories_nodes":[],"categories_segments":[],"categories_sizes":[],"default_left":[0,0,0,0,0,0,0,0,0],"id":33,"left_children":[1,3,5,7,-1,-1,-1,-1,-1],"loss_changes":[1.4496987E0,9.7985923E-1,8.643899E-1,7.1174264E-2,0E0,0E0,0E0,0E0,0E0],"parents":[2147483647,0,0,1,1,2,2,3,3],"right_children":[2,4,6,8,-1,-1,-1,-1,-1],"split_conditions":[2.7687925E-1,4.6632317E-1,3.0135724E-1,6.2874234E-1,-3.3183202E-2,1.6394274E-2,-7.4700885E-2,1.554077E-2,7.122829E-2],"split_indices":[504,1044,806,1441,0,0,0,0,0],"split_type":[0,0,0,0,0,0,0,0,0],"sum_hessian":[7.0826993E0,3.3020656E0,3.7806337E0,2.271438E0,1.0306278E0,1.0105879E0,2.7700455E0,1.0447357E0,1.2267021E0],"tree_param":{"num_deleted":"0","num_feature":"2048","num_nodes":"9","size_leaf_vector":"1"}},{"base_weights":[-1.4576507E-1,1.555416E-1,-6.7951016E-2,-4.4430353E-2,4.8695433E-1,7.132181E-2,-9.006447E-3],"categories":[],"categories_nodes":[],"categories_segments":[],"categories_sizes":[],"default_left":[0,0,0,0,0,0,0],"id":34,"left_children":[1,3,-1,-1,5,-1,-1],"loss_changes":[1.3659495E0,1.3738616E0,0E0,0E0,6.1617875E-1,0E0,0E0],"parents":[2147483647,0,0,1,1,4,4],"right_children":[2,4,-1,-1,6,-1,-1],"split_conditions":[4.9469554E-1,3.9481625E-1,-6.7951016E-2,-4.4430353E-2,2.636013E-1,7.132181E-2,-9.006447E-3],"split_indices":[1073,1423,0,0,694,0,0],"split_type":[0,0,0,0,0,0,0],"sum_hessian":[6.8364005E0,4.822574E0,2.0138266E0,1.5950165E0,3.2275574E0,2.1488855E0,1.0786719E0],"tree_param":{"num_deleted":"0","num_feature":"2048","num_nodes":"7","size_leaf_vector":"1"}},{"base_weights":[-1.4240547E-1,-5.26999E-1,2.5319862E-1,-6.967869E-2,5.8641256E-4,-3.2923684E-2,5.8228847E-2],"categories":[],"categories_nodes":[],"categories_segments":[],"categories_sizes":[],"default_left":[0,0,0,0,0,0,0],"id":35,"left_children":[1,3,5,-1,-1,-1,-1],"loss_changes":[1.2893176E0,3.8196862E-1,1.0389918E0,0E0,0E0,0E0,0E0],"parents":[2147483647,0,0,1,1,2,2],"right_children":[2,4,6,-1,-1,-1,-1],"split_conditions":[5.553651E-1,5.2884305E-1,3.590708E-1,-6.967869E-2,5.8641256E-4,-3.2923684E-2,5.8228847E-2],"split_indices":[394,366,1969,0,0,0,0],"split_type":[0,0,0,0,0,0,0],"sum_hessian":[6.5971518E0,3.176715E0,3.4204369E0,2.1758037E0,1.0009112E0,1.234726E0,2.185711E0],"tree_param":{"num_deleted":"0","num_feature":"2048","num_nodes":"7","size_leaf_vector":"1"}},{"base_weights":[-1.3814111E-1,2.9787448E-1,-4.7424582E-1,6.3232265E-2,-1.8960433E-2,1.7472293E-2,-7.2453775E-2],"categories":[],"categories_nodes":[],"categories_segments":[],"categories_sizes":[],"default_left":[0,0,0,0,0,0,0],"id":36,"left_children":[1,3,5,-1,-1,-1,-1],"loss_changes":[1.2256293E0,7.45167E-1,8.679702E-1,0E0,0E0,0E0,0E0],"parents":[2147483647,0,0,1,1,2,2],"right_children":[2,4,6,-1,-1,-1,-1],"split_conditions":[2.2139613E-1,3.0392164E-1,2.0535208E-1,6.3232265E-2,-1.8960433E-2,1.7472293E-2,-7.2453775E-2],"split_indices":[788,318,1495,0,0,0,0],"split_type":[0,0,0,0,0,0,0],"sum_hessian":[6.3994317E0,2.835192E0,3.5642397E0,1.5053067E0,1.3298854E0,1.0760722E0,2.4881675E0],"tree_param":{"num_deleted":"0","num_feature":"2048","num_nodes":"7","size_leaf_vector":"1"}},{"base_weights":[-1.3029215E-1,3.2633224E-1,-4.4140613E-1,-1.7623235E-2,6.1608296E-2,2.416232E-2,-7.299478E-2],"categories":[],"categories_nodes":[],"categories_segments":[],"categories_sizes":[],"default_left":[0,0,0,0,0,0,0],"id":37,"left_children":[1,3,5,-1,-1,-1,-1],"loss_changes":[1.1644521E0,6.1615133E-1,1.1020981E0,0E0,0E0,0E0,0E0],"parents":[2147483647,0,0,1,1,2,2],"right_children":[2,4,6,-1,-1,-1,-1],"split_conditions":[2.4088071E-1,5.227533E-1,2.1181309E-1,-1.7623235E-2,6.1608296E-2,2.416232E-2,-7.299478E-2],"split_indices":[277,1740,1783,0,0,0,0],"split_type":[0,0,0,0,0,0,0],"sum_hessian":[6.182817E0,2.485668E0,3.6971493E0,1.0522861E0,1.4333818E0,1.1462879E0,2.5508611E0],"tree_param":{"num_deleted":"0","num_feature":"2048","num_nodes":"7","size_leaf_vector":"1"}},{"base_weights":[-1.224094E-1,1.5815334E-1,-6.338741E-2,4.488846E-1,-4.0692937E-2,-3.4657542E-3,6.500558E-2],"categories":[],"categories_nodes":[],"categories_segments":[],"categories_sizes":[],"default_left":[0,0,0,0,0,0,0],"id":38,"left_children":[1,3,-1,5,-1,-1,-1],"loss_changes":[1.0996823E0,1.0530491E0,0E0,4.090653E-1,0E0,0E0,0E0],"parents":[2147483647,0,0,1,1,3,3],"right_children":[2,4,-1,6,-1,-1,-1],"split_conditions":[4.9469554E-1,3.9262715E-1,-6.338741E-2,3.7394994E-1,-4.0692937E-2,-3.4657542E-3,6.500558E-2],"split_indices":[1073,697,0,1969,0,0,0],"split_type":[0,0,0,0,0,0,0],"sum_hessian":[5.9647903E0,4.297946E0,1.6668446E0,2.9736521E0,1.3242937E0,1.1168568E0,1.8567953E0],"tree_param":{"num_deleted":"0","num_feature":"2048","num_nodes":"7","size_leaf_vector":"1"}},{"base_weights":[-1.1983791E-1,-4.3179938E-1,3.1066677E-1,-7.125998E-2,2.5231337E-2,6.0499854E-2,-1.6517395E-2],"categories":[],"categories_nodes":[],"categories_segments":[],"categories_sizes":[],"default_left":[0,0,0,0,0,0,0],"id":39,"left_children":[1,3,5,-1,-1,-1,-1],"loss_changes":[1.0446247E0,1.015301E0,5.803284E-1,0E0,0E0,0E0,0E0],"parents":[2147483647,0,0,1,1,2,2],"right_children":[2,4,6,-1,-1,-1,-1],"split_conditions":[4.3045822E-1,5.3711337E-1,2.4570093E-1,-7.125998E-2,2.5231337E-2,6.0499854E-2,-1.6517395E-2],"split_indices":[2008,294,273,0,0,0,0],"split_type":[0,0,0,0,0,0,0],"sum_hessian":[5.7793975E0,3.3493285E0,2.430069E0,2.3451138E0,1.0042146E0,1.3336856E0,1.0963833E0],"tree_param":{"num_deleted":"0","num_feature":"2048","num_nodes":"7","size_leaf_vector":"1"}},{"base_weights":[-1.1218968E-1,2.748952E-1,-4.5657676E-1,-1.7955946E-2,5.645742E-2,-6.585108E-2,5.9764455E-3],"categories":[],"categories_nodes":[],"categories_segments":[],"categories_sizes":[],"default_left":[0,0,0,0,0,0,0],"id":40,"left_children":[1,3,5,-1,-1,-1,-1],"loss_changes":[1.0022084E0,5.911647E-1,4.4141042E-1,0E0,0E0,0E0,0E0],"parents":[2147483647,0,0,1,1,2,2],"right_children":[2,4,6,-1,-1,-1,-1],"split_conditions":[2.7687925E-1,5.1916295E-1,5.078551E-1,-1.7955946E-2,5.645742E-2,-6.585108E-2,5.9764455E-3],"split_indices":[504,1441,2041,0,0,0,0],"split_type":[0,0,0,0,0,0,0],"sum_hessian":[5.576528E0,2.7205093E0,2.856019E0,1.207033E0,1.5134763E0,1.8551537E0,1.0008653E0],"tree_param":{"num_deleted":"0","num_feature":"2048","num_nodes":"7","size_leaf_vector":"1"}},{"base_weights":[-1.0716422E-1,-5.225956E-2,2.0756176E-1,-2.9172167E-2,5.018665E-1,6.1919242E-2,1.5171808E-2],"categories":[],"categories_nodes":[],"categories_segments":[],"categories_sizes":[],"default_left":[0,0,0,0,0,0,0],"id":41,"left_children":[1,-1,3,-1,5,-1,-1],"loss_changes":[9.4853985E-1,0E0,7.887439E-1,0E0,3.414309E-2,0E0,0E0],"parents":[2147483647,0,0,2,2,4,4],"right_children":[2,-1,4,-1,6,-1,-1],"split_conditions":[4.6800002E-1,-5.225956E-2,3.6003184E-1,-2.9172167E-2,2.8835803E-1,6.1919242E-2,1.5171808E-2],"split_indices":[1078,0,1969,0,1073,0,0],"split_type":[0,0,0,0,0,0,0],"sum_hessian":[5.4251466E0,2.053756E0,3.3713908E0,1.253546E0,2.1178446E0,1.0107846E0,1.10706E0],"tree_param":{"num_deleted":"0","num_feature":"2048","num_nodes":"7","size_leaf_vector":"1"}},{"base_weights":[-9.957998E-2,-3.7527946E-1,3.5896476E-2,-6.965455E-2,2.600253E-2],"categories":[],"categories_nodes":[],"categories_segments":[],"categories_sizes":[],"default_left":[0,0,0,0,0],"id":42,"left_children":[1,3,-1,-1,-1],"loss_changes":[9.289674E-1,1.0817146E0,0E0,0E0,0E0],"parents":[2147483647,0,0,1,1],"right_children":[2,4,-1,-1,-1],"split_conditions":[9.237029E-1,5.832952E-1,3.5896476E-2,-6.965455E-2,2.600253E-2],"split_indices":[1937,861,0,0,0],"split_type":[0,0,0,0,0],"sum_hessian":[5.2826447E0,3.4124806E0,1.8701639E0,2.202372E0,1.2101086E0],"tree_param":{"num_deleted":"0","num_feature":"2048","num_nodes":"5","size_leaf_vector":"1"}},{"base_weights":[-9.394957E-2,1.680424E-1,-5.8342E-2,-3.638323E-2,4.413528E-1,1.8309767E-3,6.1367035E-2],"categories":[],"categories_nodes":[],"categories_segments":[],"categories_sizes":[],"default_left":[0,0,0,0,0,0,0],"id":43,"left_children":[1,3,-1,-1,5,-1,-1],"loss_changes":[8.83903E-1,8.536914E-1,0E0,0E0,2.5130057E-1,0E0,0E0],"parents":[2147483647,0,0,1,1,4,4],"right_children":[2,4,-1,-1,6,-1,-1],"split_conditions":[4.9469554E-1,3.9481625E-1,-5.8342E-2,-3.638323E-2,5.1480687E-1,1.8309767E-3,6.1367035E-2],"split_indices":[1073,1423,0,0,327,0,0],"split_type":[0,0,0,0,0,0,0],"sum_hessian":[5.128198E0,3.7680254E0,1.3601729E0,1.1665871E0,2.6014383E0,1.0731324E0,1.5283059E0],"tree_param":{"num_deleted":"0","num_feature":"2048","num_nodes":"7","size_leaf_vector":"1"}},{"base_weights":[-9.214516E-2,2.8363228E-1,-4.1608247E-1,5.59974E-2,-1.5482162E-2,-6.255888E-2,6.5856217E-3],"categories":[],"categories_nodes":[],"categories_segments":[],"categories_sizes":[],"default_left":[0,0,0,0,0,0,0],"id":44,"left_children":[1,3,5,-1,-1,-1,-1],"loss_changes":[8.462428E-1,4.943177E-1,4.065225E-1,0E0,0E0,0E0,0E0],"parents":[2147483647,0,0,1,1,2,2],"right_children":[2,4,6,-1,-1,-1,-1],"split_conditions":[2.2139613E-1,3.0392164E-1,7.4865097E-1,5.59974E-2,-1.5482162E-2,-6.255888E-2,6.5856217E-3],"split_indices":[788,318,212,0,0,0,0],"split_type":[0,0,0,0,0,0,0],"sum_hessian":[4.9824066E0,2.3642385E0,2.6181684E0,1.2802112E0,1.0840272E0,1.6171155E0,1.0010527E0],"tree_param":{"num_deleted":"0","num_feature":"2048","num_nodes":"7","size_leaf_vector":"1"}},{"base_weights":[-8.786233E-2,-3.9216527E-1,3.0372366E-1,1.4309517E-2,-6.4102605E-2,5.1113285E-2,-5.2262377E-3],"categories":[],"categories_nodes":[],"categories_segments":[],"categories_sizes":[],"default_left":[0,0,0,0,0,0,0],"id":45,"left_children":[1,3,5,-1,-1,-1,-1],"loss_changes":[8.159101E-1,5.881781E-1,2.5712234E-1,0E0,0E0,0E0,0E0],"parents":[2147483647,0,0,1,1,2,2],"right_children":[2,4,6,-1,-1,-1,-1],"split_conditions":[4.3045822E-1,1.6412207E-1,3.028097E-1,1.4309517E-2,-6.4102605E-2,5.1113285E-2,-5.2262377E-3],"split_indices":[2008,421,84,0,0,0,0],"split_type":[0,0,0,0,0,0,0],"sum_hessian":[4.8475633E0,2.7269561E0,2.1206071E0,1.000353E0,1.7266032E0,1.0645454E0,1.0560617E0],"tree_param":{"num_deleted":"0","num_feature":"2048","num_nodes":"7","size_leaf_vector":"1"}},{"base_weights":[-8.205393E-2,-4.4896442E-2,2.3754416E-1,5.1750015E-2,-2.1724755E-2],"categories":[],"categories_nodes":[],"categories_segments":[],"categories_sizes":[],"default_left":[0,0,0,0,0],"id":46,"left_children":[1,-1,3,-1,-1],"loss_changes":[7.769812E-1,0E0,5.846852E-1,0E0,0E0],"parents":[2147483647,0,0,2,2],"right_children":[2,-1,4,-1,-1],"split_conditions":[6.495803E-1,-4.4896442E-2,3.3636174E-1,5.1750015E-2,-2.1724755E-2],"split_indices":[2017,0,1781,0,0],"split_type":[0,0,0,0,0],"sum_hessian":[4.716442E0,2.0072577E0,2.7091846E0,1.5915753E0,1.1176094E0],"tree_param":{"num_deleted":"0","num_feature":"2048","num_nodes":"5","size_leaf_vector":"1"}},{"base_weights":[-7.8016266E-2,-4.3366364E-1,2.521577E-1,-5.2353032E-2,-1.2383314E-2,-1.6991345E-2,4.8741356E-2],"categories":[],"categories_nodes":[],"categories_segments":[],"categories_sizes":[],"default_left":[0,0,0,0,0,0,0],"id":47,"left_children":[1,3,5,-1,-1,-1,-1],"loss_changes":[7.6844805E-1,2.06455E-2,4.3462047E-1,0E0,0E0,0E0,0E0],"parents":[2147483647,0,0,1,1,2,2],"right_children":[2,4,6,-1,-1,-1,-1],"split_conditions":[5.553651E-1,6.236508E-1,5.869423E-1,-5.2353032E-2,-1.2383314E-2,-1.6991345E-2,4.8741356E-2],"split_indices":[394,475,799,0,0,0,0],"split_type":[0,0,0,0,0,0,0],"sum_hessian":[4.61289E0,2.0698776E0,2.543012E0,1.0698386E0,1.0000391E0,1.0095446E0,1.5334674E0],"tree_param":{"num_deleted":"0","num_feature":"2048","num_nodes":"7","size_leaf_vector":"1"}},{"base_weights":[-7.746435E-2,2.640598E-1,-4.044487E-1,5.0384194E-2,-1.2439948E-2,-5.54783E-2,-3.5532564E-3],"categories":[],"categories_nodes":[],"categories_segments":[],"categories_sizes":[],"default_left":[0,0,0,0,0,0,0],"id":48,"left_children":[1,3,5,-1,-1,-1,-1],"loss_changes":[7.238932E-1,3.7079036E-1,1.5876222E-1,0E0,0E0,0E0,0E0],"parents":[2147483647,0,0,1,1,2,2],"right_children":[2,4,6,-1,-1,-1,-1],"split_conditions":[2.7687925E-1,3.159294E-1,5.126794E-1,5.0384194E-2,-1.2439948E-2,-5.54783E-2,-3.5532564E-3],"split_indices":[504,1272,364,0,0,0,0],"split_type":[0,0,0,0,0,0,0],"sum_hessian":[4.525904E0,2.3078604E0,2.2180438E0,1.2433552E0,1.0645053E0,1.2179196E0,1.0001242E0],"tree_param":{"num_deleted":"0","num_feature":"2048","num_nodes":"7","size_leaf_vector":"1"}},{"base_weights":[-7.502761E-2,1.6700263E-1,-5.3305306E-2,-2.7255857E-2,4.0258688E-1,2.715051E-3,5.6138586E-2],"categories":[],"categories_nodes":[],"categories_segments":[],"categories_sizes":[],"default_left":[0,0,0,0,0,0,0],"id":49,"left_children":[1,3,-1,-1,5,-1,-1],"loss_changes":[6.912275E-1,5.566304E-1,0E0,0E0,1.76341E-1,0E0,0E0],"parents":[2147483647,0,0,1,1,4,4],"right_children":[2,4,-1,-1,6,-1,-1],"split_conditions":[4.9469554E-1,4.021538E-1,-5.3305306E-2,-2.7255857E-2,5.124364E-1,2.715051E-3,5.6138586E-2],"split_indices":[1073,1423,0,0,978,0,0],"split_type":[0,0,0,0,0,0,0],"sum_hessian":[4.432329E0,3.3156536E0,1.1166754E0,1.1021942E0,2.2134595E0,1.0060071E0,1.2074523E0],"tree_param":{"num_deleted":"0","num_feature":"2048","num_nodes":"7","size_leaf_vector":"1"}},{"base_weights":[-7.312967E-2,2.3819141E-1,-4.159243E-2,-1.7711049E-2,4.8761547E-2],"categories":[],"categories_nodes":[],"categories_segments":[],"categories_sizes":[],"default_left":[0,0,0,0,0],"id":50,"left_children":[1,3,-1,-1,-1],"loss_changes":[6.672385E-1,4.4124037E-1,0E0,0E0,0E0],"parents":[2147483647,0,0,1,1],"right_children":[2,4,-1,-1,-1],"split_conditions":[2.770718E-1,5.2056444E-1,-4.159243E-2,-1.7711049E-2,4.8761547E-2],"split_indices":[1827,99,0,0,0],"split_type":[0,0,0,0,0],"sum_hessian":[4.3239613E0,2.4259224E0,1.8980389E0,1.0190622E0,1.4068604E0],"tree_param":{"num_deleted":"0","num_feature":"2048","num_nodes":"5","size_leaf_vector":"1"}},{"base_weights":[-6.911441E-2,-5.1845174E-2,1.6832085E-1,3.99091E-1,-2.6321892E-2,5.7367715E-3,5.401642E-2],"categories":[],"categories_nodes":[],"categories_segments":[],"categories_sizes":[],"default_left":[0,0,0,0,0,0,0],"id":51,"left_children":[1,-1,3,5,-1,-1,-1],"loss_changes":[6.45223E-1,0E0,5.209827E-1,1.1936173E-1,0E0,0E0,0E0],"parents":[2147483647,0,0,2,2,3,3],"right_children":[2,-1,4,6,-1,-1,-1],"split_conditions":[3.648055E-1,-5.1845174E-2,3.7168524E-1,5.653146E-1,-2.6321892E-2,5.7367715E-3,5.401642E-2],"split_indices":[2031,0,697,861,0,0,0],"split_type":[0,0,0,0,0,0,0],"sum_hessian":[4.2297735E0,1.0531591E0,3.176614E0,2.1187725E0,1.0578417E0,1.0301296E0,1.088643E0],"tree_param":{"num_deleted":"0","num_feature":"2048","num_nodes":"7","size_leaf_vector":"1"}},{"base_weights":[-6.713912E-2,-3.2846662E-1,3.224863E-2,-6.160834E-2,2.0415183E-2],"categories":[],"categories_nodes":[],"categories_segments":[],"categories_sizes":[],"default_left":[0,0,0,0,0],"id":52,"left_children":[1,3,-1,-1,-1],"loss_changes":[6.282677E-1,6.720476E-1,0E0,0E0,0E0],"parents":[2147483647,0,0,1,1],"right_children":[2,4,-1,-1,-1],"split_conditions":[9.237029E-1,5.7698154E-1,3.224863E-2,-6.160834E-2,2.0415183E-2],"split_indices":[1937,861,0,0,0],"split_type":[0,0,0,0,0],"sum_hessian":[4.130059E0,2.5659838E0,1.5640749E0,1.5644602E0,1.0015236E0],"tree_param":{"num_deleted":"0","num_feature":"2048","num_nodes":"5","size_leaf_vector":"1"}},{"base_weights":[-6.397557E-2,-3.464528E-1,2.846065E-2,-5.5796236E-2,6.233429E-3],"categories":[],"categories_nodes":[],"categories_segments":[],"categories_sizes":[],"default_left":[0,0,0,0,0],"id":53,"left_children":[1,3,-1,-1,-1],"loss_changes":[5.936023E-1,3.1386697E-1,0E0,0E0,0E0],"parents":[2147483647,0,0,1,1],"right_children":[2,4,-1,-1,-1],"split_conditions":[4.3045822E-1,5.299394E-1,2.846065E-2,-5.5796236E-2,6.233429E-3],"split_indices":[2008,1680,0,0,0],"split_type":[0,0,0,0,0],"sum_hessian":[4.0270867E0,2.2278404E0,1.7992461E0,1.2276982E0,1.0001422E0],"tree_param":{"num_deleted":"0","num_feature":"2048","num_nodes":"5","size_leaf_vector":"1"}},{"base_weights":[-6.30112E-2,2.5105855E-1,-3.7363272E-2,-8.561042E-3,4.619606E-2],"categories":[],"categories_nodes":[],"categories_segments":[],"categories_sizes":[],"default_left":[0,0,0,0,0],"id":54,"left_children":[1,3,-1,-1,-1],"loss_changes":[5.7730234E-1,2.569965E-1,0E0,0E0,0E0],"parents":[2147483647,0,0,1,1],"right_children":[2,4,-1,-1,-1],"split_conditions":[2.7687925E-1,5.152549E-1,-3.7363272E-2,-8.561042E-3,4.619606E-2],"split_indices":[504,209,0,0,0],"split_type":[0,0,0,0,0],"sum_hessian":[3.9560726E0,2.0624654E0,1.893607E0,1.0231912E0,1.0392743E0],"tree_param":{"num_deleted":"0","num_feature":"2048","num_nodes":"5","size_leaf_vector":"1"}},{"base_weights":[-5.7544593E-2,2.4704106E-1,-3.674484E-2,4.741093E-2,-1.0276708E-2],"categories":[],"categories_nodes":[],"categories_segments":[],"categories_sizes":[],"default_left":[0,0,0,0,0],"id":55,"left_children":[1,3,-1,-1,-1],"loss_changes":[5.518694E-1,2.9190272E-1,0E0,0E0,0E0],"parents":[2147483647,0,0,1,1],"right_children":[2,4,-1,-1,-1],"split_conditions":[5.0753915E-1,2.3020649E-1,-3.674484E-2,4.741093E-2,-1.0276708E-2],"split_indices":[1089,277,0,0,0],"split_type":[0,0,0,0,0],"sum_hessian":[3.8848767E0,2.0615501E0,1.8233266E0,1.0346165E0,1.0269337E0],"tree_param":{"num_deleted":"0","num_feature":"2048","num_nodes":"5","size_leaf_vector":"1"}},{"base_weights":[-5.2518036E-2,-3.1000656E-1,3.1051567E-2,1.4852056E-2,-5.7271015E-2],"categories":[],"categories_nodes":[],"categories_segments":[],"categories_sizes":[],"default_left":[0,0,0,0,0],"id":56,"left_children":[1,3,-1,-1,-1],"loss_changes":[5.4621613E-1,4.8455912E-1,0E0,0E0,0E0],"parents":[2147483647,0,0,1,1],"right_children":[2,4,-1,-1,-1],"split_conditions":[9.237029E-1,4.039869E-1,3.1051567E-2,1.4852056E-2,-5.7271015E-2],"split_indices":[1937,88,0,0,0],"split_type":[0,0,0,0,0],"sum_hessian":[3.813528E0,2.3165429E0,1.4969852E0,1.0021025E0,1.3144404E0],"tree_param":{"num_deleted":"0","num_feature":"2048","num_nodes":"5","size_leaf_vector":"1"}},{"base_weights":[-5.0890833E-2,-3.7633445E-2,2.3339362E-1,4.4206593E-2,-1.0315401E-2],"categories":[],"categories_nodes":[],"categories_segments":[],"categories_sizes":[],"default_left":[0,0,0,0,0],"id":57,"left_children":[1,-1,3,-1,-1],"loss_changes":[5.256411E-1,0E0,2.6632687E-1,0E0,0E0],"parents":[2147483647,0,0,2,2],"right_children":[2,-1,4,-1,-1],"split_conditions":[5.553651E-1,-3.7633445E-2,4.4544956E-1,4.4206593E-2,-1.0315401E-2],"split_indices":[394,0,434,0,0],"split_type":[0,0,0,0,0],"sum_hessian":[3.732098E0,1.5891141E0,2.1429842E0,1.1292653E0,1.0137188E0],"tree_param":{"num_deleted":"0","num_feature":"2048","num_nodes":"5","size_leaf_vector":"1"}},{"base_weights":[-4.726885E-2,2.2276978E-1,-3.822608E-2,4.6316337E-2,-1.3483089E-2],"categories":[],"categories_nodes":[],"categories_segments":[],"categories_sizes":[],"default_left":[0,0,0,0,0],"id":58,"left_children":[1,3,-1,-1,-1],"loss_changes":[5.077109E-1,3.390932E-1,0E0,0E0,0E0],"parents":[2147483647,0,0,1,1],"right_children":[2,4,-1,-1,-1],"split_conditions":[3.791459E-1,5.618013E-1,-3.822608E-2,4.6316337E-2,-1.3483089E-2],"split_indices":[957,346,0,0,0],"split_type":[0,0,0,0,0],"sum_hessian":[3.6711385E0,2.2181094E0,1.453029E0,1.149902E0,1.0682074E0],"tree_param":{"num_deleted":"0","num_feature":"2048","num_nodes":"5","size_leaf_vector":"1"}},{"base_weights":[-4.4342015E-2,-3.7210442E-2,2.2929217E-1,4.4664174E-2,-8.5897185E-3],"categories":[],"categories_nodes":[],"categories_segments":[],"categories_sizes":[],"default_left":[0,0,0,0,0],"id":59,"left_children":[1,-1,3,-1,-1],"loss_changes":[4.9862856E-1,0E0,2.5280952E-1,0E0,0E0],"parents":[2147483647,0,0,2,2],"right_children":[2,-1,4,-1,-1],"split_conditions":[6.495803E-1,-3.7210442E-2,2.3143315E-1,4.4664174E-2,-8.5897185E-3],"split_indices":[2017,0,529,0,0],"split_type":[0,0,0,0,0],"sum_hessian":[3.608337E0,1.4780499E0,2.1302872E0,1.0139943E0,1.1162927E0],"tree_param":{"num_deleted":"0","num_feature":"2048","num_nodes":"5","size_leaf_vector":"1"}},{"base_weights":[-4.0749446E-2,-3.9890677E-2,2.094175E-1,-1.5667742E-2,4.3443117E-2],"categories":[],"categories_nodes":[],"categories_segments":[],"categories_sizes":[],"default_left":[0,0,0,0,0],"id":60,"left_children":[1,-1,3,-1,-1],"loss_changes":[4.9082583E-1,0E0,3.425482E-1,0E0,0E0],"parents":[2147483647,0,0,2,2],"right_children":[2,-1,4,-1,-1],"split_conditions":[4.6800002E-1,-3.9890677E-2,4.2974132E-1,-1.5667742E-2,4.3443117E-2],"split_indices":[1078,0,2008,0,0],"split_type":[0,0,0,0,0],"sum_hessian":[3.545667E0,1.2136108E0,2.332056E0,1.0033364E0,1.3287197E0],"tree_param":{"num_deleted":"0","num_feature":"2048","num_nodes":"5","size_leaf_vector":"1"}},{"base_weights":[-3.999437E-2,3.1320143E-2,-2.799724E-1,-5.307774E-2,1.0816968E-2],"categories":[],"categories_nodes":[],"categories_segments":[],"categories_sizes":[],"default_left":[0,0,0,0,0],"id":61,"left_children":[1,-1,3,-1,-1],"loss_changes":[4.6723533E-1,0E0,3.6837584E-1,0E0,0E0],"parents":[2147483647,0,0,2,2],"right_children":[2,-1,4,-1,-1],"split_conditions":[2.1467765E-1,3.1320143E-2,2.7944326E-1,-5.307774E-2,1.0816968E-2],"split_indices":[1495,0,1169,0,0],"split_type":[0,0,0,0,0],"sum_hessian":[3.4779494E0,1.2836171E0,2.1943324E0,1.1097591E0,1.0845733E0],"tree_param":{"num_deleted":"0","num_feature":"2048","num_nodes":"5","size_leaf_vector":"1"}},{"base_weights":[-3.931905E-2,-3.3325683E-2,2.4718368E-2],"categories":[],"categories_nodes":[],"categories_segments":[],"categories_sizes":[],"default_left":[0,0,0],"id":62,"left_children":[1,-1,-1],"loss_changes":[4.539526E-1,0E0,0E0],"parents":[2147483647,0,0],"right_children":[2,-1,-1],"split_conditions":[3.6003184E-1,-3.3325683E-2,2.4718368E-2],"split_indices":[1969,0,0],"split_type":[0,0,0],"sum_hessian":[3.412296E0,1.6037441E0,1.8085519E0],"tree_param":{"num_deleted":"0","num_feature":"2048","num_nodes":"3","size_leaf_vector":"1"}},{"base_weights":[-3.7769813E-2,-3.5554428E-2,2.2198305E-1,-7.402606E-3,4.0586926E-2],"categories":[],"categories_nodes":[],"categories_segments":[],"categories_sizes":[],"default_left":[0,0,0,0,0],"id":63,"left_children":[1,-1,3,-1,-1],"loss_changes":[4.399948E-1,0E0,1.9456749E-1,0E0,0E0],"parents":[2147483647,0,0,2,2],"right_children":[2,-1,4,-1,-1],"split_conditions":[5.3843534E-1,-3.5554428E-2,3.9724407E-1,-7.402606E-3,4.0586926E-2],"split_indices":[252,0,1625,0,0],"split_type":[0,0,0,0,0],"sum_hessian":[3.374336E0,1.3518009E0,2.0225348E0,1.0039198E0,1.018615E0],"tree_param":{"num_deleted":"0","num_feature":"2048","num_nodes":"5","size_leaf_vector":"1"}},{"base_weights":[-3.4998856E-2,1.9562711E-1,-3.8949963E-2,-1.1868423E-2,4.299832E-2],"categories":[],"categories_nodes":[],"categories_segments":[],"categories_sizes":[],"default_left":[0,0,0,0,0],"id":64,"left_children":[1,3,-1,-1,-1],"loss_changes":[4.295609E-1,2.9295182E-1,0E0,0E0,0E0],"parents":[2147483647,0,0,1,1],"right_children":[2,4,-1,-1,-1],"split_conditions":[3.9262715E-1,4.5201463E-1,-3.8949963E-2,-1.1868423E-2,4.299832E-2],"split_indices":[697,1973,0,0,0],"split_type":[0,0,0,0,0],"sum_hessian":[3.3221242E0,2.2842388E0,1.0378854E0,1.1865059E0,1.0977329E0],"tree_param":{"num_deleted":"0","num_feature":"2048","num_nodes":"5","size_leaf_vector":"1"}},{"base_weights":[-3.3792272E-2,2.2544457E-2,-3.4052107E-2],"categories":[],"categories_nodes":[],"categories_segments":[],"categories_sizes":[],"default_left":[0,0,0],"id":65,"left_children":[1,-1,-1],"loss_changes":[4.159789E-1,0E0,0E0],"parents":[2147483647,0,0],"right_children":[2,-1,-1],"split_conditions":[2.770718E-1,2.2544457E-2,-3.4052107E-2],"split_indices":[1827,0,0],"split_type":[0,0,0],"sum_hessian":[3.2659698E0,1.9136342E0,1.3523355E0],"tree_param":{"num_deleted":"0","num_feature":"2048","num_nodes":"3","size_leaf_vector":"1"}},{"base_weights":[-3.3492442E-2,-3.7855834E-2,1.9664916E-1,4.267672E-2,-1.1149616E-2],"categories":[],"categories_nodes":[],"categories_segments":[],"categories_sizes":[],"default_left":[0,0,0,0,0],"id":66,"left_children":[1,-1,3,-1,-1],"loss_changes":[4.1045475E-1,0E0,2.742373E-1,0E0,0E0],"parents":[2147483647,0,0,2,2],"right_children":[2,-1,4,-1,-1],"split_conditions":[3.9481625E-1,-3.7855834E-2,2.8318313E-1,4.267672E-2,-1.1149616E-2],"split_indices":[1423,0,934,0,0],"split_type":[0,0,0,0,0],"sum_hessian":[3.2311373E0,1.0347612E0,2.196376E0,1.0370038E0,1.1593723E0],"tree_param":{"num_deleted":"0","num_feature":"2048","num_nodes":"5","size_leaf_vector":"1"}},{"base_weights":[-3.208633E-2,-3.3218574E-2,2.2652132E-2],"categories":[],"categories_nodes":[],"categories_segments":[],"categories_sizes":[],"default_left":[0,0,0],"id":67,"left_children":[1,-1,-1],"loss_changes":[3.993926E-1,0E0,0E0],"parents":[2147483647,0,0],"right_children":[2,-1,-1],"split_conditions":[3.1256676E-1,-3.3218574E-2,2.2652132E-2],"split_indices":[581,0,0],"split_type":[0,0,0],"sum_hessian":[3.1767023E0,1.3387007E0,1.8380016E0],"tree_param":{"num_deleted":"0","num_feature":"2048","num_nodes":"3","size_leaf_vector":"1"}},{"base_weights":[-3.176266E-2,2.1474501E-2,-3.4412853E-2],"categories":[],"categories_nodes":[],"categories_segments":[],"categories_sizes":[],"default_left":[0,0,0],"id":68,"left_children":[1,-1,-1],"loss_changes":[3.9292896E-1,0E0,0E0],"parents":[2147483647,0,0],"right_children":[2,-1,-1],"split_conditions":[3.791459E-1,2.1474501E-2,-3.4412853E-2],"split_indices":[957,0,0],"split_type":[0,0,0],"sum_hessian":[3.1432035E0,1.931475E0,1.2117283E0],"tree_param":{"num_deleted":"0","num_feature":"2048","num_nodes":"3","size_leaf_vector":"1"}},{"base_weights":[-3.204005E-2,2.4767295E-2,-3.0370343E-2],"categories":[],"categories_nodes":[],"categories_segments":[],"categories_sizes":[],"default_left":[0,0,0],"id":69,"left_children":[1,-1,-1],"loss_changes":[3.8780943E-1,0E0,0E0],"parents":[2147483647,0,0],"right_children":[2,-1,-1],"split_conditions":[2.2139613E-1,2.4767295E-2,-3.0370343E-2],"split_indices":[788,0,0],"split_type":[0,0,0],"sum_hessian":[3.1136916E0,1.5776273E0,1.5360643E0],"tree_param":{"num_deleted":"0","num_feature":"2048","num_nodes":"3","size_leaf_vector":"1"}},{"base_weights":[-3.0511769E-2,2.3323452E-2,-3.1115493E-2],"categories":[],"categories_nodes":[],"categories_segments":[],"categories_sizes":[],"default_left":[0,0,0],"id":70,"left_children":[1,-1,-1],"loss_changes":[3.7471116E-1,0E0,0E0],"parents":[2147483647,0,0],"right_children":[2,-1,-1],"split_conditions":[5.0753915E-1,2.3323452E-2,-3.1115493E-2],"split_indices":[1089,0,0],"split_type":[0,0,0],"sum_hessian":[3.0819352E0,1.6758823E0,1.4060528E0],"tree_param":{"num_deleted":"0","num_feature":"2048","num_nodes":"3","size_leaf_vector":"1"}},{"base_weights":[-2.967944E-2,2.3533156E-2,-3.1022418E-2],"categories":[],"categories_nodes":[],"categories_segments":[],"categories_sizes":[],"default_left":[0,0,0],"id":71,"left_children":[1,-1,-1],"loss_changes":[3.7417004E-1,0E0,0E0],"parents":[2147483647,0,0],"right_children":[2,-1,-1],"split_conditions":[2.7687925E-1,2.3533156E-2,-3.1022418E-2],"split_indices":[504,0,0],"split_type":[0,0,0],"sum_hessian":[3.0507717E0,1.6516939E0,1.3990778E0],"tree_param":{"num_deleted":"0","num_feature":"2048","num_nodes":"3","size_leaf_vector":"1"}},{"base_weights":[-2.8862886E-2,-3.270101E-2,2.1549184E-2],"categories":[],"categories_nodes":[],"categories_segments":[],"categories_sizes":[],"default_left":[0,0,0],"id":72,"left_children":[1,-1,-1],"loss_changes":[3.6332425E-1,0E0,0E0],"parents":[2147483647,0,0],"right_children":[2,-1,-1],"split_conditions":[6.495803E-1,-3.270101E-2,2.1549184E-2],"split_indices":[2017,0,0],"split_type":[0,0,0],"sum_hessian":[3.019787E0,1.2078184E0,1.8119687E0],"tree_param":{"num_deleted":"0","num_feature":"2048","num_nodes":"3","size_leaf_vector":"1"}},{"base_weights":[-2.9057628E-2,-2.6347024E-2,2.7308116E-2],"categories":[],"categories_nodes":[],"categories_segments":[],"categories_sizes":[],"default_left":[0,0,0],"id":73,"left_children":[1,-1,-1],"loss_changes":[3.545475E-1,0E0,0E0],"parents":[2147483647,0,0],"right_children":[2,-1,-1],"split_conditions":[9.237029E-1,-2.6347024E-2,2.7308116E-2],"split_indices":[1937,0,0],"split_type":[0,0,0],"sum_hessian":[2.9900904E0,1.755826E0,1.2342645E0],"tree_param":{"num_deleted":"0","num_feature":"2048","num_nodes":"3","size_leaf_vector":"1"}},{"base_weights":[-2.6159368E-2,-2.9963199E-2,2.3255859E-2],"categories":[],"categories_nodes":[],"categories_segments":[],"categories_sizes":[],"default_left":[0,0,0],"id":74,"left_children":[1,-1,-1],"loss_changes":[3.498188E-1,0E0,0E0],"parents":[2147483647,0,0],"right_children":[2,-1,-1],"split_conditions":[3.6003184E-1,-2.9963199E-2,2.3255859E-2],"split_indices":[1969,0,0],"split_type":[0,0,0],"sum_hessian":[2.959403E0,1.361799E0,1.5976039E0],"tree_param":{"num_deleted":"0","num_feature":"2048","num_nodes":"3","size_leaf_vector":"1"}},{"base_weights":[-2.5498707E-2,-2.72148E-2,2.5638819E-2],"categories":[],"categories_nodes":[],"categories_segments":[],"categories_sizes":[],"default_left":[0,0,0],"id":75,"left_children":[1,-1,-1],"loss_changes":[3.4303272E-1,0E0,0E0],"parents":[2147483647,0,0],"right_children":[2,-1,-1],"split_conditions":[4.3045822E-1,-2.72148E-2,2.5638819E-2],"split_indices":[2008,0,0],"split_type":[0,0,0],"sum_hessian":[2.9302206E0,1.5812157E0,1.3490049E0],"tree_param":{"num_deleted":"0","num_feature":"2048","num_nodes":"3","size_leaf_vector":"1"}},{"base_weights":[-2.3582766E-2,2.2736236E-2,-2.9923156E-2],"categories":[],"categories_nodes":[],"categories_segments":[],"categories_sizes":[],"default_left":[0,0,0],"id":76,"left_children":[1,-1,-1],"loss_changes":[3.378323E-1,0E0,0E0],"parents":[2147483647,0,0],"right_children":[2,-1,-1],"split_conditions":[5.908946E-1,2.2736236E-2,-2.9923156E-2],"split_indices":[346,0,0],"split_type":[0,0,0],"sum_hessian":[2.9003568E0,1.609905E0,1.2904516E0],"tree_param":{"num_deleted":"0","num_feature":"2048","num_nodes":"3","size_leaf_vector":"1"}},{"base_weights":[-2.329251E-2,2.0818004E-2,-3.2110874E-2],"categories":[],"categories_nodes":[],"categories_segments":[],"categories_sizes":[],"default_left":[0,0,0],"id":77,"left_children":[1,-1,-1],"loss_changes":[3.3393103E-1,0E0,0E0],"parents":[2147483647,0,0],"right_children":[2,-1,-1],"split_conditions":[3.791459E-1,2.0818004E-2,-3.2110874E-2],"split_indices":[957,0,0],"split_type":[0,0,0],"sum_hessian":[2.87434E0,1.7866641E0,1.0876758E0],"tree_param":{"num_deleted":"0","num_feature":"2048","num_nodes":"3","size_leaf_vector":"1"}},{"base_weights":[-2.4116153E-2,2.797919E-2,-2.4466904E-2],"categories":[],"categories_nodes":[],"categories_segments":[],"categories_sizes":[],"default_left":[0,0,0],"id":78,"left_children":[1,-1,-1],"loss_changes":[3.2645866E-1,0E0,0E0],"parents":[2147483647,0,0],"right_children":[2,-1,-1],"split_conditions":[2.1467765E-1,2.797919E-2,-2.4466904E-2],"split_indices":[1495,0,0],"split_type":[0,0,0],"sum_hessian":[2.8491826E0,1.0852219E0,1.7639608E0],"tree_param":{"num_deleted":"0","num_feature":"2048","num_nodes":"3","size_leaf_vector":"1"}},{"base_weights":[-2.0973748E-2,-3.0605702E-2,2.1707004E-2],"categories":[],"categories_nodes":[],"categories_segments":[],"categories_sizes":[],"default_left":[0,0,0],"id":79,"left_children":[1,-1,-1],"loss_changes":[3.257874E-1,0E0,0E0],"parents":[2147483647,0,0],"right_children":[2,-1,-1],"split_conditions":[5.553651E-1,-3.0605702E-2,2.1707004E-2],"split_indices":[394,0,0],"split_type":[0,0,0],"sum_hessian":[2.8217328E0,1.1539887E0,1.667744E0],"tree_param":{"num_deleted":"0","num_feature":"2048","num_nodes":"3","size_leaf_vector":"1"}},{"base_weights":[-2.1420693E-2,2.3052415E-2,-2.8352696E-2],"categories":[],"categories_nodes":[],"categories_segments":[],"categories_sizes":[],"default_left":[0,0,0],"id":80,"left_children":[1,-1,-1],"loss_changes":[3.1604317E-1,0E0,0E0],"parents":[2147483647,0,0],"right_children":[2,-1,-1],"split_conditions":[2.636013E-1,2.3052415E-2,-2.8352696E-2],"split_indices":[694,0,0],"split_type":[0,0,0],"sum_hessian":[2.796144E0,1.487146E0,1.3089981E0],"tree_param":{"num_deleted":"0","num_feature":"2048","num_nodes":"3","size_leaf_vector":"1"}},{"base_weights":[-2.0882022E-2,2.5308762E-2,-2.5228206E-2],"categories":[],"categories_nodes":[],"categories_segments":[],"categories_sizes":[],"default_left":[0,0,0],"id":81,"left_children":[1,-1,-1],"loss_changes":[3.0281642E-1,0E0,0E0],"parents":[2147483647,0,0],"right_children":[2,-1,-1],"split_conditions":[2.4088071E-1,2.5308762E-2,-2.5228206E-2],"split_indices":[277,0,0],"split_type":[0,0,0],"sum_hessian":[2.7693985E0,1.2251455E0,1.5442529E0],"tree_param":{"num_deleted":"0","num_feature":"2048","num_nodes":"3","size_leaf_vector":"1"}},{"base_weights":[-1.8948006E-2,-3.0402219E-2,2.0511365E-2],"categories":[],"categories_nodes":[],"categories_segments":[],"categories_sizes":[],"default_left":[0,0,0],"id":82,"left_children":[1,-1,-1],"loss_changes":[3.0139816E-1,0E0,0E0],"parents":[2147483647,0,0],"right_children":[2,-1,-1],"split_conditions":[5.3843534E-1,-3.0402219E-2,2.0511365E-2],"split_indices":[252,0,0],"split_type":[0,0,0],"sum_hessian":[2.7423422E0,1.0498047E0,1.6925375E0],"tree_param":{"num_deleted":"0","num_feature":"2048","num_nodes":"3","size_leaf_vector":"1"}},{"base_weights":[-1.9896302E-2,-2.475582E-2,2.572358E-2],"categories":[],"categories_nodes":[],"categories_segments":[],"categories_sizes":[],"default_left":[0,0,0],"id":83,"left_children":[1,-1,-1],"loss_changes":[2.982604E-1,0E0,0E0],"parents":[2147483647,0,0],"right_children":[2,-1,-1],"split_conditions":[6.139457E-1,-2.475582E-2,2.572358E-2],"split_indices":[1941,0,0],"split_type":[0,0,0],"sum_hessian":[2.7180305E0,1.5507858E0,1.1672446E0],"tree_param":{"num_deleted":"0","num_feature":"2048","num_nodes":"3","size_leaf_vector":"1"}},{"base_weights":[-1.7795738E-2,2.2141676E-2,-2.7851844E-2],"categories":[],"categories_nodes":[],"categories_segments":[],"categories_sizes":[],"default_left":[0,0,0],"id":84,"left_children":[1,-1,-1],"loss_changes":[2.9207283E-1,0E0,0E0],"parents":[2147483647,0,0],"right_children":[2,-1,-1],"split_conditions":[2.7687925E-1,2.2141676E-2,-2.7851844E-2],"split_indices":[504,0,0],"split_type":[0,0,0],"sum_hessian":[2.6942618E0,1.4837146E0,1.2105471E0],"tree_param":{"num_deleted":"0","num_feature":"2048","num_nodes":"3","size_leaf_vector":"1"}},{"base_weights":[-1.7733794E-2,2.206984E-2,-2.7839983E-2],"categories":[],"categories_nodes":[],"categories_segments":[],"categories_sizes":[],"default_left":[0,0,0],"id":85,"left_children":[1,-1,-1],"loss_changes":[2.8953883E-1,0E0,0E0],"parents":[2147483647,0,0],"right_children":[2,-1,-1],"split_conditions":[5.0753915E-1,2.206984E-2,-2.7839983E-2],"split_indices":[1089,0,0],"split_type":[0,0,0],"sum_hessian":[2.6700263E0,1.4745651E0,1.1954612E0],"tree_param":{"num_deleted":"0","num_feature":"2048","num_nodes":"3","size_leaf_vector":"1"}},{"base_weights":[-1.770457E-2,-2.9405598E-2,2.0361183E-2],"categories":[],"categories_nodes":[],"categories_segments":[],"categories_sizes":[],"default_left":[0,0,0],"id":86,"left_children":[1,-1,-1],"loss_changes":[2.8285918E-1,0E0,0E0],"parents":[2147483647,0,0],"right_children":[2,-1,-1],"split_conditions":[6.495803E-1,-2.9405598E-2,2.0361183E-2],"split_indices":[2017,0,0],"split_type":[0,0,0],"sum_hessian":[2.645878E0,1.0304798E0,1.6153983E0],"tree_param":{"num_deleted":"0","num_feature":"2048","num_nodes":"3","size_leaf_vector":"1"}},{"base_weights":[-1.859708E-2,-2.3891976E-2,2.5277903E-2],"categories":[],"categories_nodes":[],"categories_segments":[],"categories_sizes":[],"default_left":[0,0,0],"id":87,"left_children":[1,-1,-1],"loss_changes":[2.7699575E-1,0E0,0E0],"parents":[2147483647,0,0],"right_children":[2,-1,-1],"split_conditions":[9.237029E-1,-2.3891976E-2,2.5277903E-2],"split_indices":[1937,0,0],"split_type":[0,0,0],"sum_hessian":[2.6226919E0,1.5135124E0,1.1091794E0],"tree_param":{"num_deleted":"0","num_feature":"2048","num_nodes":"3","size_leaf_vector":"1"}},{"base_weights":[-1.6494319E-2,-2.6893089E-2,2.1562137E-2],"categories":[],"categories_nodes":[],"categories_segments":[],"categories_sizes":[],"default_left":[0,0,0],"id":88,"left_children":[1,-1,-1],"loss_changes":[2.6885366E-1,0E0,0E0],"parents":[2147483647,0,0],"right_children":[2,-1,-1],"split_conditions":[3.6003184E-1,-2.6893089E-2,2.1562137E-2],"split_indices":[1969,0,0],"split_type":[0,0,0],"sum_hessian":[2.5987422E0,1.1689011E0,1.4298412E0],"tree_param":{"num_deleted":"0","num_feature":"2048","num_nodes":"3","size_leaf_vector":"1"}},{"base_weights":[-1.6479334E-2,-2.6394734E-2,2.1779168E-2],"categories":[],"categories_nodes":[],"categories_segments":[],"categories_sizes":[],"default_left":[0,0,0],"id":89,"left_children":[1,-1,-1],"loss_changes":[2.6481292E-1,0E0,0E0],"parents":[2147483647,0,0],"right_children":[2,-1,-1],"split_conditions":[3.5892904E-1,-2.6394734E-2,2.1779168E-2],"split_indices":[1625,0,0],"split_type":[0,0,0],"sum_hessian":[2.5761771E0,1.1911997E0,1.3849776E0],"tree_param":{"num_deleted":"0","num_feature":"2048","num_nodes":"3","size_leaf_vector":"1"}},{"base_weights":[-1.6269559E-2,2.2399189E-2,-2.6069326E-2],"categories":[],"categories_nodes":[],"categories_segments":[],"categories_sizes":[],"default_left":[0,0,0],"id":90,"left_children":[1,-1,-1],"loss_changes":[2.6710847E-1,0E0,0E0],"parents":[2147483647,0,0],"right_children":[2,-1,-1],"split_conditions":[2.2139613E-1,2.2399189E-2,-2.6069326E-2],"split_indices":[788,0,0],"split_type":[0,0,0],"sum_hessian":[2.5540779E0,1.3301603E0,1.2239175E0],"tree_param":{"num_deleted":"0","num_feature":"2048","num_nodes":"3","size_leaf_vector":"1"}},{"base_weights":[-1.5817644E-2,-2.8124297E-2,2.0077275E-2],"categories":[],"categories_nodes":[],"categories_segments":[],"categories_sizes":[],"default_left":[0,0,0],"id":91,"left_children":[1,-1,-1],"loss_changes":[2.59516E-1,0E0,0E0],"parents":[2147483647,0,0],"right_children":[2,-1,-1],"split_conditions":[5.553651E-1,-2.8124297E-2,2.0077275E-2],"split_indices":[394,0,0],"split_type":[0,0,0],"sum_hessian":[2.5320077E0,1.0036104E0,1.5283972E0],"tree_param":{"num_deleted":"0","num_feature":"2048","num_nodes":"3","size_leaf_vector":"1"}},{"base_weights":[-1.666586E-2,-2.7625823E-2,1.9983215E-2],"categories":[],"categories_nodes":[],"categories_segments":[],"categories_sizes":[],"default_left":[0,0,0],"id":92,"left_children":[1,-1,-1],"loss_changes":[2.5255448E-1,0E0,0E0],"parents":[2147483647,0,0],"right_children":[2,-1,-1],"split_conditions":[3.1256676E-1,-2.7625823E-2,1.9983215E-2],"split_indices":[581,0,0],"split_type":[0,0,0],"sum_hessian":[2.5114744E0,1.0165484E0,1.4949259E0],"tree_param":{"num_deleted":"0","num_feature":"2048","num_nodes":"3","size_leaf_vector":"1"}},{"base_weights":[-1.7335482E-2,-2.3131134E-2,2.3716887E-2],"categories":[],"categories_nodes":[],"categories_segments":[],"categories_sizes":[],"default_left":[0,0,0],"id":93,"left_children":[1,-1,-1],"loss_changes":[2.4491937E-1,0E0,0E0],"parents":[2147483647,0,0],"right_children":[2,-1,-1],"split_conditions":[6.139457E-1,-2.3131134E-2,2.3716887E-2],"split_indices":[1941,0,0],"split_type":[0,0,0],"sum_hessian":[2.4900339E0,1.402231E0,1.0878028E0],"tree_param":{"num_deleted":"0","num_feature":"2048","num_nodes":"3","size_leaf_vector":"1"}},{"base_weights":[-1.5550512E-2,-2.5620231E-2,2.0981304E-2],"categories":[],"categories_nodes":[],"categories_segments":[],"categories_sizes":[],"default_left":[0,0,0],"id":94,"left_children":[1,-1,-1],"loss_changes":[2.4195953E-1,0E0,0E0],"parents":[2147483647,0,0],"right_children":[2,-1,-1],"split_conditions":[3.5892904E-1,-2.5620231E-2,2.0981304E-2],"split_indices":[1625,0,0],"split_type":[0,0,0],"sum_hessian":[2.4702299E0,1.1284201E0,1.3418099E0],"tree_param":{"num_deleted":"0","num_feature":"2048","num_nodes":"3","size_leaf_vector":"1"}},{"base_weights":[-1.5464861E-2,2.0967415E-2,-2.5892599E-2],"categories":[],"categories_nodes":[],"categories_segments":[],"categories_sizes":[],"default_left":[0,0,0],"id":95,"left_children":[1,-1,-1],"loss_changes":[2.4339166E-1,0E0,0E0],"parents":[2147483647,0,0],"right_children":[2,-1,-1],"split_conditions":[3.1068107E-1,2.0967415E-2,-2.5892599E-2],"split_indices":[403,0,0],"split_type":[0,0,0],"sum_hessian":[2.4499655E0,1.344981E0,1.1049844E0],"tree_param":{"num_deleted":"0","num_feature":"2048","num_nodes":"3","size_leaf_vector":"1"}},{"base_weights":[-1.5481547E-2,1.991347E-2,-2.6221676E-2],"categories":[],"categories_nodes":[],"categories_segments":[],"categories_sizes":[],"default_left":[0,0,0],"id":96,"left_children":[1,-1,-1],"loss_changes":[2.3381747E-1,0E0,0E0],"parents":[2147483647,0,0],"right_children":[2,-1,-1],"split_conditions":[4.6632317E-1,1.991347E-2,-2.6221676E-2],"split_indices":[1044,0,0],"split_type":[0,0,0],"sum_hessian":[2.4294508E0,1.4024699E0,1.0269808E0],"tree_param":{"num_deleted":"0","num_feature":"2048","num_nodes":"3","size_leaf_vector":"1"}},{"base_weights":[-1.5906999E-2,2.2416495E-2,-2.3287904E-2],"categories":[],"categories_nodes":[],"categories_segments":[],"categories_sizes":[],"default_left":[0,0,0],"id":97,"left_children":[1,-1,-1],"loss_changes":[2.2984062E-1,0E0,0E0],"parents":[2147483647,0,0],"right_children":[2,-1,-1],"split_conditions":[2.9169253E-1,2.2416495E-2,-2.3287904E-2],"split_indices":[1052,0,0],"split_type":[0,0,0],"sum_hessian":[2.4102721E0,1.1284882E0,1.2817838E0],"tree_param":{"num_deleted":"0","num_feature":"2048","num_nodes":"3","size_leaf_vector":"1"}},{"base_weights":[-1.4688488E-2,2.0153493E-2,-2.5238657E-2],"categories":[],"categories_nodes":[],"categories_segments":[],"categories_sizes":[],"default_left":[0,0,0],"id":98,"left_children":[1,-1,-1],"loss_changes":[2.2510353E-1,0E0,0E0],"parents":[2147483647,0,0],"right_children":[2,-1,-1],"split_conditions":[2.7687925E-1,2.0153493E-2,-2.5238657E-2],"split_indices":[504,0,0],"split_type":[0,0,0],"sum_hessian":[2.3901315E0,1.3312715E0,1.0588598E0],"tree_param":{"num_deleted":"0","num_feature":"2048","num_nodes":"3","size_leaf_vector":"1"}},{"base_weights":[-1.4843569E-2,2.014495E-2,-2.5403915E-2],"categories":[],"categories_nodes":[],"categories_segments":[],"categories_sizes":[],"default_left":[0,0,0],"id":99,"left_children":[1,-1,-1],"loss_changes":[2.255844E-1,0E0,0E0],"parents":[2147483647,0,0],"right_children":[2,-1,-1],"split_conditions":[5.0753915E-1,2.014495E-2,-2.5403915E-2],"split_indices":[1089,0,0],"split_type":[0,0,0],"sum_hessian":[2.371099E0,1.3280298E0,1.0430691E0],"tree_param":{"num_deleted":"0","num_feature":"2048","num_nodes":"3","size_leaf_vector":"1"}}]},"name":"gbtree"},"learner_model_param":{"base_score":"1.3883498E-1","boost_from_average":"1","num_class":"0","num_feature":"2048","num_target":"1"},"objective":{"name":"binary:logistic","reg_loss_param":{"scale_pos_weight":"1"}}},"version":[2,0,1]}