{"learner":{"attributes":{"scikit_learn":"{\"_estimator_type\": \"classifier\"}"},"feature_names":[],"feature_types":[],"gradient_booster":{"model":{"gbtree_model_param":{"num_parallel_tree":"1","num_trees":"100"},"iteration_indptr":[0,1,2,3,4,5,6,7,8,9,10,11,12,13,14,15,16,17,18,19,20,21,22,23,24,25,26,27,28,29,30,31,32,33,34,35,36,37,38,39,40,41,42,43,44,45,46,47,48,49,50,51,52,53,54,55,56,57,58,59,60,61,62,63,64,65,66,67,68,69,70,71,72,73,74,75,76,77,78,79,80,81,82,83,84,85,86,87,88,89,90,91,92,93,94,95,96,97,98,99,100],"tree_info":[0,0,0,0,0,0,0,0,0,0,0,0,0,0,0,0,0,0,0,0,0,0,0,0,0,0,0,0,0,0,0,0,0,0,0,0,0,0,0,0,0,0,0,0,0,0,0,0,0,0,0,0,0,0,0,0,0,0,0,0,0,0,0,0,0,0,0,0,0,0,0,0,0,0,0,0,0,0,0,0,0,0,0,0,0,0,0,0,0,0,0,0,0,0,0,0,0,0,0,0],"trees":[{"base_weights":[-1.8730225E-2,7.251829E-1,-5.7957405E-1,1.1603035E0,-5.749948E-1,-7.312906E-1,1.825E-1,-5.1104945E-1,1.5449262E0,-1.3014781E-1,8.821576E-1,8.1323105E-1,-9.148915E-1,-1.1803084E-1,1.0393486E-1,1.8922206E0,-2.2860259E-1,1.632709E-1,-3.599566E-2,1.7352478E-1,-8.960498E-2,-1.0486867E0,9.188797E-2,-6.181426E-3,2.1653771E0,-1.04250826E-1,1.0393486E-1,-1.2203382E0,6.022683E-1,2.386147E0,1.997294E-2,7.897895E-2,-1.3357865E0,1.73731E-1,-8.960498E-2,2.5819966E-1,5.841246E-2,-1.454695E0,-3.5821956E-1,-3.599566E-2,-1.4890985E-1,-1.1083863E-1,1.0393486E-1],"categories":[],"categories_nodes":[],"categories_segments":[],"categories_sizes":[],"default_left":[0,0,0,0,0,0,0,0,0,0,0,0,0,0,0,0,0,0,0,0,0,0,0,0,0,0,0,0,0,0,0,0,0,0,0,0,0,0,0,0,0,0,0],"id":0,"left_children":[1,3,5,7,9,11,-1,13,15,-1,17,19,21,-1,-1,23,25,-1,-1,-1,-1,27,-1,-1,29,-1,-1,31,33,35,-1,-1,37,-1,-1,-1,-1,39,41,-1,-1,-1,-1],"loss_changes":[3.1382526E1,1.8964954E1,1.6973263E1,1.6580765E1,1.0441177E1,1.2381176E1,0E0,6.7747912E0,1.2885494E1,0E0,3.8661525E0,9.260387E0,1.0077852E1,0E0,0E0,9.215683E0,5.4209733E0,0E0,0E0,0E0,0E0,1.0678761E1,0E0,0E0,6.0135803E0,0E0,0E0,8.507694E0,8.315445E0,3.2048874E0,0E0,0E0,3.0523834E0,0E0,0E0,0E0,0E0,4.8394775E-1,6.0381603E0,0E0,0E0,0E0,0E0],"parents":[2147483647,0,0,1,1,2,2,3,3,4,4,5,5,7,7,8,8,10,10,11,11,12,12,15,15,16,16,21,21,24,24,27,27,28,28,29,29,32,32,37,37,38,38],"right_children":[2,4,6,8,10,12,-1,14,16,-1,18,20,22,-1,-1,24,26,-1,-1,-1,-1,28,-1,-1,30,-1,-1,32,34,36,-1,-1,38,-1,-1,-1,-1,40,42,-1,-1,-1,-1],"split_conditions":[3.9551604E-1,8.17438E-1,1.2726954E0,2.1336061E-1,5.550231E-1,2.1143353E-1,1.825E-1,3.7970883E-1,6.7581016E-1,-1.3014781E-1,7.3911965E-1,5.155617E-1,7.933723E-1,-1.1803084E-1,1.0393486E-1,1.23009086E-1,4.203871E-1,1.632709E-1,-3.599566E-2,1.7352478E-1,-8.960498E-2,6.820207E-1,9.188797E-2,-6.181426E-3,7.1519125E-1,-1.04250826E-1,1.0393486E-1,2.5379166E-1,3.489872E-1,1.0556821E0,1.997294E-2,7.897895E-2,8.8336974E-1,1.73731E-1,-8.960498E-2,2.5819966E-1,5.841246E-2,2.1633261E-1,5.745607E-1,-3.599566E-2,-1.4890985E-1,-1.1083863E-1,1.0393486E-1],"split_indices":[766,556,570,1137,423,306,0,56,1162,0,65,20,721,0,0,494,384,0,0,0,0,1042,0,0,1036,0,0,135,1038,552,0,0,828,0,0,0,0,1,1145,0,0,0,0],"split_type":[0,0,0,0,0,0,0,0,0,0,0,0,0,0,0,0,0,0,0,0,0,0,0,0,0,0,0,0,0,0,0,0,0,0,0,0,0,0,0,0,0,0,0],"sum_hessian":[7.321096E1,3.1343443E1,4.1867516E1,2.3564777E1,7.7786646E0,4.0037243E1,1.830274E0,4.346901E0,1.9217876E1,5.2620378E0,2.5166268E0,3.8893323E0,3.614791E1,3.2029796E0,1.1439213E0,1.6014898E1,3.2029796E0,1.3727055E0,1.1439213E0,2.5166268E0,1.3727055E0,3.4088852E1,2.0590582E0,2.0590582E0,1.3955839E1,2.0590582E0,1.1439213E0,3.1114658E1,2.9741952E0,1.2354349E1,1.6014898E0,1.3727055E0,2.9741953E1,1.6014898E0,1.3727055E0,1.075286E1,1.6014898E0,2.6081404E1,3.660548E0,1.1439213E0,2.4937483E1,2.5166268E0,1.1439213E0],"tree_param":{"num_deleted":"0","num_feature":"2048","num_nodes":"43","size_leaf_vector":"1"}},{"base_weights":[-1.164234E-2,4.199249E-1,-8.096258E-1,-4.990805E-1,9.2746544E-1,-1.0024841E0,1.4808021E-1,8.303664E-1,-9.0982306E-1,1.5121753E0,3.545394E-2,-1.2074506E0,6.8365496E-1,1.7535752E-1,-8.662245E-2,-1.2126424E0,7.1286194E-2,-1.4915988E-1,1.826519E0,-5.963374E-1,1.5207149E0,5.1832087E-2,-1.3265666E0,1.354794E-1,-3.3628207E-2,1.4757981E-2,-1.3616382E-1,-9.604412E-2,9.533041E-2,-3.5640813E-2,2.0163407E0,-1.1547611E0,5.602842E-1,4.8106764E-2,1.7597213E-1,-1.414505E-1,1.3222885E-2,-4.1216924E-3,2.224864E0,-1.2511936E-1,-3.3082165E-2,1.5616895E-1,-8.412009E-2,2.344464E-1,5.114034E-2],"categories":[],"categories_nodes":[],"categories_segments":[],"categories_sizes":[],"default_left":[0,0,0,0,0,0,0,0,0,0,0,0,0,0,0,0,0,0,0,0,0,0,0,0,0,0,0,0,0,0,0,0,0,0,0,0,0,0,0,0,0,0,0,0,0],"id":1,"left_children":[1,3,5,7,9,11,-1,13,15,17,19,21,23,-1,-1,25,-1,27,29,31,33,-1,35,-1,-1,-1,-1,-1,-1,-1,37,39,41,-1,-1,-1,-1,-1,43,-1,-1,-1,-1,-1,-1],"loss_changes":[2.5701704E1,2.3063223E1,1.3053429E1,1.0524022E1,1.6409426E1,9.379999E0,0E0,8.95152E0,7.8144617E0,1.0217007E1,1.3595582E1,5.298706E0,2.729073E0,0E0,0E0,2.6916714E0,0E0,4.452341E0,7.385063E0,7.238227E0,2.2616863E-1,0E0,2.9148598E0,0E0,0E0,0E0,0E0,0E0,0E0,0E0,6.506546E0,1.5885639E-1,6.9220085E0,0E0,0E0,0E0,0E0,0E0,1.5867996E0,0E0,0E0,0E0,0E0,0E0,0E0],"parents":[2147483647,0,0,1,1,2,2,3,3,4,4,5,5,7,7,8,8,9,9,10,10,11,11,12,12,15,15,17,17,18,18,19,19,20,20,22,22,30,30,31,31,32,32,38,38],"right_children":[2,4,6,8,10,12,-1,14,16,18,20,22,24,-1,-1,26,-1,28,30,32,34,-1,36,-1,-1,-1,-1,-1,-1,-1,38,40,42,-1,-1,-1,-1,-1,44,-1,-1,-1,-1,-1,-1],"split_conditions":[6.027322E-1,3.460715E-1,8.475172E-1,2.0466644E-1,5.887945E-1,7.899038E-1,1.4808021E-1,6.5819407E-1,1.064817E0,2.9154623E-1,6.036471E-1,2.6491547E-1,4.8748517E-1,1.7535752E-1,-8.662245E-2,2.8387207E-1,7.1286194E-2,5.190146E-1,2.1973525E-1,4.4892728E-1,3.2039458E-1,5.1832087E-2,5.85519E-1,1.354794E-1,-3.3628207E-2,1.4757981E-2,-1.3616382E-1,-9.604412E-2,9.533041E-2,-3.5640813E-2,9.759052E-2,4.794414E-1,5.29004E-1,4.8106764E-2,1.7597213E-1,-1.414505E-1,1.3222885E-2,-4.1216924E-3,7.1818525E-1,-1.2511936E-1,-3.3082165E-2,1.5616895E-1,-8.412009E-2,2.344464E-1,5.114034E-2],"split_indices":[839,181,187,1526,1993,1798,0,135,2000,1397,992,890,5,0,0,442,0,595,934,1859,397,0,1992,0,0,0,0,0,0,0,2033,31,1841,0,0,0,0,0,857,0,0,0,0,0,0],"split_type":[0,0,0,0,0,0,0,0,0,0,0,0,0,0,0,0,0,0,0,0,0,0,0,0,0,0,0,0,0,0,0,0,0,0,0,0,0,0,0,0,0,0,0,0,0],"sum_hessian":[7.264383E1,4.745362E1,2.5190208E1,1.6889112E1,3.0564508E1,2.3752518E1,1.4376901E0,3.7452552E0,1.3143858E1,1.8042488E1,1.252202E1,2.1431238E1,2.3212788E0,2.4036882E0,1.341567E0,1.1289709E1,1.8541486E0,2.9542882E0,1.50882E1,9.204965E0,3.3170555E0,1.1673319E0,2.0263906E1,1.2020164E0,1.1192625E0,1.1155006E0,1.0174209E1,1.7761083E0,1.17818E0,1.13686E0,1.395134E1,6.208886E0,2.996078E0,1.1831756E0,2.13388E0,1.9140453E1,1.1234531E0,1.3576236E0,1.2593717E1,5.0941277E0,1.1147585E0,1.6807901E0,1.315288E0,1.1427791E1,1.1659262E0],"tree_param":{"num_deleted":"0","num_feature":"2048","num_nodes":"45","size_leaf_vector":"1"}},{"base_weights":[-5.230391E-3,6.0788804E-1,-4.9476668E-1,9.544111E-1,-5.026587E-1,-6.35931E-1,1.5263446E-1,-4.5594713E-1,1.2565491E0,-1.1864968E-1,7.5210583E-1,6.295303E-1,-8.241925E-1,-1.0941925E-1,9.204747E-2,-6.030379E-2,1.4584614E0,-3.4784246E-2,1.3942479E-1,1.3739619E0,-8.597601E-2,-1.0350896E0,3.0267376E-1,1.6196433E0,-4.1858014E-2,4.6473484E-2,1.5797882E-1,-1.1966465E0,9.64729E-2,-9.12052E-2,9.684395E-1,-2.1067634E-2,1.8117641E0,5.287814E-2,-1.2993612E0,1.3931544E-1,-9.6724E-2,1.6676962E-1,-4.158708E-2,1.9891113E0,1.2533247E-2,-1.3726328E-1,1.2431023E-2,4.4942383E-2,2.0887999E-1],"categories":[],"categories_nodes":[],"categories_segments":[],"categories_sizes":[],"default_left":[0,0,0,0,0,0,0,0,0,0,0,0,0,0,0,0,0,0,0,0,0,0,0,0,0,0,0,0,0,0,0,0,0,0,0,0,0,0,0,0,0,0,0,0,0],"id":2,"left_children":[1,3,5,7,9,11,-1,13,15,-1,17,19,21,-1,-1,-1,23,-1,-1,25,-1,27,29,31,-1,-1,-1,33,35,-1,37,-1,39,-1,41,-1,-1,-1,-1,43,-1,-1,-1,-1,-1],"loss_changes":[2.2069035E1,1.3043491E1,1.263368E1,1.1323236E1,8.116613E0,9.790055E0,0E0,5.5619965E0,8.780754E0,0E0,3.0149806E0,7.397243E0,8.466948E0,0E0,0E0,0E0,6.5094604E0,0E0,0E0,3.741312E-2,0E0,5.4401207E0,5.8832297E0,6.695778E0,0E0,0E0,0E0,5.2173843E0,7.643099E0,0E0,5.028869E0,0E0,4.6420403E0,0E0,2.7175026E0,0E0,0E0,0E0,0E0,1.3222885E0,0E0,0E0,0E0,0E0,0E0],"parents":[2147483647,0,0,1,1,2,2,3,3,4,4,5,5,7,7,8,8,10,10,11,11,12,12,16,16,19,19,21,21,22,22,23,23,27,27,28,28,30,30,32,32,34,34,39,39],"right_children":[2,4,6,8,10,12,-1,14,16,-1,18,20,22,-1,-1,-1,24,-1,-1,26,-1,28,30,32,-1,-1,-1,34,36,-1,38,-1,40,-1,42,-1,-1,-1,-1,44,-1,-1,-1,-1,-1],"split_conditions":[3.9551604E-1,8.17438E-1,1.2726954E0,2.1336061E-1,5.550231E-1,2.2961028E-1,1.5263446E-1,5.7840735E-1,1.0913426E-1,-1.1864968E-1,3.8102448E-1,5.186355E-1,7.106023E-1,-1.0941925E-1,9.204747E-2,-6.030379E-2,5.2952665E-1,-3.4784246E-2,1.3942479E-1,2.9114622E-1,-8.597601E-2,7.68463E-1,2.0539671E-1,2.1191819E-1,-4.1858014E-2,4.6473484E-2,1.5797882E-1,1.6784714E-1,5.0662166E-1,-9.12052E-2,4.651065E-1,-2.1067634E-2,7.749726E-1,5.287814E-2,6.3119537E-1,1.3931544E-1,-9.6724E-2,1.6676962E-1,-4.158708E-2,1.9859788E-1,1.2533247E-2,-1.3726328E-1,1.2431023E-2,4.4942383E-2,2.0887999E-1],"split_indices":[766,556,570,1137,423,306,0,882,1810,0,80,672,1372,0,0,0,1292,0,0,62,0,1968,696,1868,0,0,0,1985,1890,0,399,0,869,0,1103,0,0,0,0,1401,0,0,0,0,0],"split_type":[0,0,0,0,0,0,0,0,0,0,0,0,0,0,0,0,0,0,0,0,0,0,0,0,0,0,0,0,0,0,0,0,0,0,0,0,0,0,0,0,0,0,0,0,0],"sum_hessian":[7.152615E1,3.1647526E1,3.9878624E1,2.422821E1,7.4193153E0,3.791576E1,1.9628665E0,4.1848006E0,2.0043411E1,4.8373823E0,2.581933E0,4.6066623E0,3.3309097E1,2.9991455E0,1.1856549E0,1.7685598E0,1.827485E1,1.1206465E0,1.4612865E0,3.1230326E0,1.4836298E0,2.8126554E1,5.1825423E0,1.6955969E1,1.3188825E0,1.177848E0,1.9451846E0,2.456221E1,3.5643432E0,1.7038487E0,3.4786935E0,1.6015502E0,1.5354418E1,1.1469744E0,2.3415236E1,1.4667026E0,2.0976405E0,2.1752148E0,1.3034788E0,1.3730974E1,1.6234444E0,2.2303213E1,1.1120229E0,1.1699171E0,1.2561057E1],"tree_param":{"num_deleted":"0","num_feature":"2048","num_nodes":"45","size_leaf_vector":"1"}},{"base_weights":[-1.5169475E-3,6.4725417E-1,-4.0157166E-1,-5.5340517E-1,1.0031366E0,-6.284796E-1,6.5120864E-1,6.8885185E-2,-1.1331143E-1,1.2979832E0,-3.5304663E-1,-1.0567205E0,3.2821305E-2,-6.590203E-1,1.5230806E0,-3.791706E-1,1.5483701E0,8.2139455E-2,-9.9645615E-2,6.575198E-2,-1.2009292E0,1.044417E0,-7.7773225E-1,1.0756641E-2,-9.786012E-2,1.7128803E-1,4.405271E-2,-7.262236E-2,1.4220073E-2,-3.567281E-2,1.7370058E0,-1.3166422E-1,1.5975133E-2,1.6853304E-1,-2.0983703E-1,-1.1270046E0,8.6481094E-2,1.870869E-1,6.959032E-3,4.9145184E-2,-7.840969E-2,-1.21818714E-1,-2.5479093E-2],"categories":[],"categories_nodes":[],"categories_segments":[],"categories_sizes":[],"default_left":[0,0,0,0,0,0,0,0,0,0,0,0,0,0,0,0,0,0,0,0,0,0,0,0,0,0,0,0,0,0,0,0,0,0,0,0,0,0,0,0,0,0,0],"id":3,"left_children":[1,3,5,7,9,11,13,-1,-1,15,17,19,21,23,25,27,29,-1,-1,-1,31,33,35,-1,-1,-1,-1,-1,-1,-1,37,-1,-1,-1,39,41,-1,-1,-1,-1,-1,-1,-1],"loss_changes":[1.868463E1,1.22887125E1,1.1046449E1,5.7660418E0,9.070293E0,1.0553119E1,1.0584312E1,0E0,0E0,8.106058E0,4.318922E0,6.369993E0,1.3577604E1,1.0972022E0,3.4217072E-1,6.694664E-1,6.28899E0,0E0,0E0,0E0,3.5444145E0,6.263812E0,6.2619414E0,0E0,0E0,0E0,0E0,0E0,0E0,0E0,3.1118393E0,0E0,0E0,0E0,1.7447957E0,3.285885E-1,0E0,0E0,0E0,0E0,0E0,0E0,0E0],"parents":[2147483647,0,0,1,1,2,2,3,3,4,4,5,5,6,6,9,9,10,10,11,11,12,12,13,13,14,14,15,15,16,16,20,20,21,21,22,22,30,30,34,34,35,35],"right_children":[2,4,6,8,10,12,14,-1,-1,16,18,20,22,24,26,28,30,-1,-1,-1,32,34,36,-1,-1,-1,-1,-1,-1,-1,38,-1,-1,-1,40,42,-1,-1,-1,-1,-1,-1,-1],"split_conditions":[3.4431547E-1,2.582242E-1,6.5240926E-1,3.6449474E-1,7.3831594E-1,5.123941E-1,3.3118457E-1,6.8885185E-2,-1.1331143E-1,1.7083783E-1,6.4562196E-1,1.3444264E-1,3.535587E-1,2.4056914E-1,6.1245745E-1,4.147022E-1,2.3969E-1,8.2139455E-2,-9.9645615E-2,6.575198E-2,8.9342105E-1,4.429733E-1,4.5715693E-1,1.0756641E-2,-9.786012E-2,1.7128803E-1,4.405271E-2,-7.262236E-2,1.4220073E-2,-3.567281E-2,8.479857E-1,-1.3166422E-1,1.5975133E-2,1.6853304E-1,2.863273E-1,6.185626E-1,8.6481094E-2,1.870869E-1,6.959032E-3,4.9145184E-2,-7.840969E-2,-1.21818714E-1,-2.5479093E-2],"split_indices":[12,1705,1505,1676,592,1756,2040,0,0,498,989,803,828,1658,1649,138,1452,0,0,0,1907,142,1626,0,0,0,0,0,0,0,39,0,0,0,438,339,0,0,0,0,0,0,0],"split_type":[0,0,0,0,0,0,0,0,0,0,0,0,0,0,0,0,0,0,0,0,0,0,0,0,0,0,0,0,0,0,0,0,0,0,0,0,0,0,0,0,0,0,0],"sum_hessian":[6.99888E1,2.6460207E1,4.352859E1,5.922875E0,2.0537333E1,3.6141884E1,7.386708E0,1.8246235E0,4.0982513E0,1.6904957E1,3.6323748E0,2.157351E1,1.4568374E1,3.0489495E0,4.3377585E0,2.1291363E0,1.4775821E1,1.187732E0,2.4446428E0,1.3978187E0,2.017569E1,6.3521605E0,8.216213E0,1.092281E0,1.9566684E0,3.1952834E0,1.142475E0,1.0423688E0,1.0867677E0,1.2509494E0,1.3524872E1,1.8624239E1,1.5514506E0,3.9765067E0,2.3756535E0,7.034298E0,1.1819155E0,1.2406813E1,1.1180589E0,1.1344533E0,1.2412003E0,6.009405E0,1.0248928E0],"tree_param":{"num_deleted":"0","num_feature":"2048","num_nodes":"43","size_leaf_vector":"1"}},{"base_weights":[-3.8565398E-4,3.4008908E-1,-6.777287E-1,-4.3706465E-1,7.4396527E-1,-8.6125046E-1,1.2085779E-1,2.374808E-1,-1.0428212E0,1.1836369E0,3.1106187E-2,-1.0571108E0,5.6866825E-1,1.0560975E0,-8.709543E-2,7.808061E-3,-1.200971E-1,-1.2106025E-1,1.4108133E0,-5.2532905E-1,1.2174172E0,4.0573057E-2,-1.182409E0,1.1289771E-1,-3.2169547E-2,-3.482675E-2,1.5442632E-1,7.905837E-2,-8.450469E-2,1.5561604E0,-3.2564707E-2,-1.036156E0,4.682822E-1,3.636618E-2,1.4155775E-1,-1.2691674E-1,1.2448238E-2,1.5009982E-2,1.7026373E0,-2.5149921E-2,-1.1320086E-1,1.2455181E-1,-7.324778E-2,1.7921478E-1,3.762687E-2],"categories":[],"categories_nodes":[],"categories_segments":[],"categories_sizes":[],"default_left":[0,0,0,0,0,0,0,0,0,0,0,0,0,0,0,0,0,0,0,0,0,0,0,0,0,0,0,0,0,0,0,0,0,0,0,0,0,0,0,0,0,0,0,0,0],"id":4,"left_children":[1,3,5,7,9,11,-1,13,15,17,19,21,23,25,-1,-1,-1,27,29,31,33,-1,35,-1,-1,-1,-1,-1,-1,37,-1,39,41,-1,-1,-1,-1,-1,43,-1,-1,-1,-1,-1,-1],"loss_changes":[1.6191662E1,1.4990721E1,9.171231E0,7.0339484E0,9.715725E0,6.7590656E0,0E0,8.789061E0,1.6778212E0,5.8671875E0,9.1531105E0,4.088461E0,2.0090327E0,4.267511E0,0E0,0E0,0E0,3.157088E0,4.6579895E0,5.2958603E0,2.3287916E-1,0E0,2.2431793E0,0E0,0E0,0E0,0E0,0E0,0E0,2.9059334E0,0E0,2.0951366E-1,4.558549E0,0E0,0E0,0E0,0E0,0E0,9.6471024E-1,0E0,0E0,0E0,0E0,0E0,0E0],"parents":[2147483647,0,0,1,1,2,2,3,3,4,4,5,5,7,7,8,8,9,9,10,10,11,11,12,12,13,13,17,17,18,18,19,19,20,20,22,22,29,29,31,31,32,32,38,38],"right_children":[2,4,6,8,10,12,-1,14,16,18,20,22,24,26,-1,-1,-1,28,30,32,34,-1,36,-1,-1,-1,-1,-1,-1,38,-1,40,42,-1,-1,-1,-1,-1,44,-1,-1,-1,-1,-1,-1],"split_conditions":[6.027322E-1,3.460715E-1,8.475172E-1,2.9987824E-1,5.887945E-1,7.899038E-1,1.2085779E-1,5.4174083E-1,2.255182E-1,2.9154623E-1,6.036471E-1,1.9532719E-1,4.5411447E-1,4.9126127E-1,-8.709543E-2,7.808061E-3,-1.200971E-1,2.8631362E-1,7.260097E-1,4.4892728E-1,2.4817815E-1,4.0573057E-2,8.4774727E-1,1.1289771E-1,-3.2169547E-2,-3.482675E-2,1.5442632E-1,7.905837E-2,-8.450469E-2,1.5250143E-1,-3.2564707E-2,2.1276714E-1,5.29004E-1,3.636618E-2,1.4155775E-1,-1.2691674E-1,1.2448238E-2,1.5009982E-2,6.933401E-1,-2.5149921E-2,-1.1320086E-1,1.2455181E-1,-7.324778E-2,1.7921478E-1,3.762687E-2],"split_indices":[839,181,187,459,1993,1798,0,1368,1468,1397,992,1695,127,1430,0,0,0,636,1748,1859,505,0,782,0,0,0,0,0,0,1819,0,1493,1841,0,0,0,0,0,1168,0,0,0,0,0,0],"split_type":[0,0,0,0,0,0,0,0,0,0,0,0,0,0,0,0,0,0,0,0,0,0,0,0,0,0,0,0,0,0,0,0,0,0,0,0,0,0,0,0,0,0,0,0,0],"sum_hessian":[6.821038E1,4.5724373E1,2.2486006E1,1.5608239E1,3.0116135E1,2.0987518E1,1.4984891E0,7.672462E0,7.935777E0,1.8218847E1,1.1897287E1,1.8688427E1,2.299091E0,4.440339E0,3.2321227E0,1.0438291E0,6.8919477E0,2.7711215E0,1.5447726E1,8.4779215E0,3.419366E0,1.2978681E0,1.7390558E1,1.2466038E0,1.0524874E0,1.2192773E0,3.221062E0,1.1858777E0,1.5852437E0,1.4350387E1,1.0973399E0,5.5709915E0,2.9069295E0,1.1782357E0,2.2411304E0,1.633502E1,1.0555384E0,1.5449399E0,1.2805447E1,1.0009493E0,4.570042E0,1.7420496E0,1.16488E0,1.1666931E1,1.1385152E0],"tree_param":{"num_deleted":"0","num_feature":"2048","num_nodes":"45","size_leaf_vector":"1"}},{"base_weights":[3.1356614E-3,4.7777438E-1,-4.2692593E-1,8.824195E-1,-2.3820971E-1,-5.602557E-1,1.2274809E-1,-4.4460747E-1,1.1326727E0,-8.713703E-1,5.7758677E-1,-7.6502556E-1,4.6462402E-1,4.1632153E-2,-9.0267114E-2,-4.776987E-2,1.303082E0,-1.13921545E-1,3.5998747E-2,1.1888306E0,-5.8753323E-2,4.3687385E-1,-9.413814E-1,-8.017417E-2,1.0346179E0,1.4790286E0,-7.016916E-2,3.8045023E-2,1.339723E-1,-7.7863075E-2,1.2441561E-1,-1.2026318E0,-1.9470936E-1,-2.9897714E-2,1.4710204E-1,1.6254665E0,9.211981E-3,-2.7313083E-2,-1.24026835E-1,7.8539777E-1,-8.867392E-1,3.799742E-2,1.7026338E-1,1.1943624E-1,-2.578221E-3,-2.7068183E-2,-9.731861E-2],"categories":[],"categories_nodes":[],"categories_segments":[],"categories_sizes":[],"default_left":[0,0,0,0,0,0,0,0,0,0,0,0,0,0,0,0,0,0,0,0,0,0,0,0,0,0,0,0,0,0,0,0,0,0,0,0,0,0,0,0,0,0,0,0,0,0,0],"id":5,"left_children":[1,3,5,7,9,11,-1,13,15,17,19,21,23,-1,-1,-1,25,-1,-1,27,-1,29,31,-1,33,35,-1,-1,-1,-1,-1,37,39,-1,-1,41,-1,-1,-1,43,45,-1,-1,-1,-1,-1,-1],"loss_changes":[1.3907206E1,9.59247E0,8.573048E0,7.44536E0,6.950043E0,7.442253E0,0E0,1.9668982E0,5.5259895E0,2.85918E0,5.0108466E0,6.4570503E0,5.337638E0,0E0,0E0,0E0,6.8321037E0,0E0,0E0,1.5100956E-2,0E0,5.220227E0,4.679661E0,0E0,3.200467E0,2.9826622E0,0E0,0E0,0E0,0E0,0E0,3.073082E-1,5.934277E0,0E0,0E0,6.880493E-1,0E0,0E0,0E0,1.2669706E0,2.6507378E-3,0E0,0E0,0E0,0E0,0E0,0E0],"parents":[2147483647,0,0,1,1,2,2,3,3,4,4,5,5,7,7,8,8,9,9,10,10,11,11,12,12,16,16,19,19,21,21,22,22,24,24,25,25,31,31,32,32,35,35,39,39,40,40],"right_children":[2,4,6,8,10,12,-1,14,16,18,20,22,24,-1,-1,-1,26,-1,-1,28,-1,30,32,-1,34,36,-1,-1,-1,-1,-1,38,40,-1,-1,42,-1,-1,-1,44,46,-1,-1,-1,-1,-1,-1],"split_conditions":[4.108094E-1,4.1061568E-1,1.2726954E0,2.3120822E-1,4.6375418E-1,7.106023E-1,1.2274809E-1,2.5334004E-1,2.1692131E-1,5.621382E-1,3.2959396E-1,2.105621E-1,2.607144E-1,4.1632153E-2,-9.0267114E-2,-4.776987E-2,5.863572E-1,-1.13921545E-1,3.5998747E-2,3.0394334E-1,-5.8753323E-2,3.9441216E-1,5.15875E-1,-8.017417E-2,1.20120645E-1,8.8819695E-1,-7.016916E-2,3.8045023E-2,1.339723E-1,-7.7863075E-2,1.2441561E-1,2.1954748E-1,4.7070944E-1,-2.9897714E-2,1.4710204E-1,2.2497274E-1,9.211981E-3,-2.7313083E-2,-1.24026835E-1,4.6913198E-1,2.2853693E-1,3.799742E-2,1.7026338E-1,1.1943624E-1,-2.578221E-3,-2.7068183E-2,-9.731861E-2],"split_indices":[766,1206,570,913,575,1372,0,1063,859,1837,1316,306,1841,0,0,0,1141,0,0,566,0,1144,181,0,673,1952,0,0,0,0,0,702,1807,0,0,973,0,0,0,969,741,0,0,0,0,0,0],"split_type":[0,0,0,0,0,0,0,0,0,0,0,0,0,0,0,0,0,0,0,0,0,0,0,0,0,0,0,0,0,0,0,0,0,0,0,0,0,0,0,0,0,0,0,0,0,0,0],"sum_hessian":[6.6131935E1,3.1383976E1,3.474796E1,1.9903097E1,1.148088E1,3.2768482E1,1.979478E0,3.034628E0,1.686847E1,6.4256477E0,5.055232E0,2.7522968E1,5.245514E0,1.0855215E0,1.9491065E0,1.4416456E0,1.5426824E1,5.3391128E0,1.0865349E0,3.3023875E0,1.7528446E0,3.3327045E0,2.4190264E1,1.5019733E0,3.7435408E0,1.4423232E1,1.0035911E0,1.0733632E0,2.2290244E0,1.3442271E0,1.9884776E0,1.7467844E1,6.7224193E0,1.0006318E0,2.742909E0,1.28902025E1,1.5330299E0,1.0010946E0,1.646675E1,2.7262998E0,3.9961193E0,1.0976695E0,1.1792533E1,1.4984596E0,1.2278403E0,1.000109E0,2.9960105E0],"tree_param":{"num_deleted":"0","num_feature":"2048","num_nodes":"47","size_leaf_vector":"1"}},{"base_weights":[3.7864787E-3,3.018435E-1,-6.10811E-1,-4.0002373E-1,6.562735E-1,-7.892232E-1,1.0780332E-1,6.022225E-1,-7.4636143E-1,9.265985E-1,-3.1370747E-1,-9.7970563E-1,5.076962E-1,1.238966E-1,-7.0829146E-2,-1.0904849E0,3.6435297E-1,1.1836916E0,-1.4895444E-1,-9.5330454E-2,9.86924E-2,4.4569798E-2,-1.1021347E0,9.7049125E-2,-2.608542E-2,-1.1538376E-1,-2.9792E-2,1.11616276E-1,-6.970536E-2,1.3687068E0,2.158948E-2,-8.099965E-2,8.625517E-2,-1.1963071E-1,1.6513666E-2,-7.821483E-3,1.4852401E0,9.149369E-2,-7.8243E-2,1.587984E-1,4.7177346E-3],"categories":[],"categories_nodes":[],"categories_segments":[],"categories_sizes":[],"default_left":[0,0,0,0,0,0,0,0,0,0,0,0,0,0,0,0,0,0,0,0,0,0,0,0,0,0,0,0,0,0,0,0,0,0,0,0,0,0,0,0,0],"id":6,"left_children":[1,3,5,7,9,11,-1,13,15,17,19,21,23,-1,-1,25,27,29,31,-1,-1,-1,33,-1,-1,-1,-1,-1,-1,35,37,-1,-1,-1,-1,-1,39,-1,-1,-1,-1],"loss_changes":[1.207996E1,1.1307428E1,7.3404913E0,5.836382E0,8.125597E0,5.45243E0,0E0,4.6651506E0,4.976379E0,6.7078743E0,6.979864E0,3.6027985E0,1.4010553E0,0E0,0E0,1.2807083E-1,3.6374052E0,4.0933456E0,4.3395424E0,0E0,0E0,0E0,2.1915073E0,0E0,0E0,0E0,0E0,0E0,0E0,2.9026966E0,3.3372982E0,0E0,0E0,0E0,0E0,0E0,2.1922302E0,0E0,0E0,0E0,0E0],"parents":[2147483647,0,0,1,1,2,2,3,3,4,4,5,5,7,7,8,8,9,9,10,10,11,11,12,12,15,15,16,16,17,17,18,18,22,22,29,29,30,30,36,36],"right_children":[2,4,6,8,10,12,-1,14,16,18,20,22,24,-1,-1,26,28,30,32,-1,-1,-1,34,-1,-1,-1,-1,-1,-1,36,38,-1,-1,-1,-1,-1,40,-1,-1,-1,-1],"split_conditions":[6.027322E-1,3.460715E-1,8.475172E-1,2.0466644E-1,4.9835694E-1,7.899038E-1,1.0780332E-1,6.5819407E-1,9.964917E-1,7.0630485E-1,3.6443508E-1,2.6491547E-1,3.426198E-1,1.238966E-1,-7.0829146E-2,5.623676E-1,2.615037E-1,7.2150415E-1,4.335728E-1,-9.5330454E-2,9.86924E-2,4.4569798E-2,5.85519E-1,9.7049125E-2,-2.608542E-2,-1.1538376E-1,-2.9792E-2,1.11616276E-1,-6.970536E-2,2.898864E-1,2.7084446E-1,-8.099965E-2,8.625517E-2,-1.1963071E-1,1.6513666E-2,-7.821483E-3,7.443711E-1,9.149369E-2,-7.8243E-2,1.587984E-1,4.7177346E-3],"split_indices":[839,181,187,1526,601,1798,0,135,1174,1122,1740,890,168,0,0,1310,563,1377,1580,0,0,0,1992,0,0,0,0,0,0,503,213,0,0,0,0,0,1172,0,0,0,0],"split_type":[0,0,0,0,0,0,0,0,0,0,0,0,0,0,0,0,0,0,0,0,0,0,0,0,0,0,0,0,0,0,0,0,0,0,0,0,0,0,0,0,0],"sum_hessian":[6.3937542E1,4.339934E1,2.0538198E1,1.4519052E1,2.8880291E1,1.9057608E1,1.4805917E0,3.538979E0,1.0980073E1,2.26208E1,6.25949E0,1.6830284E1,2.227324E0,2.4184935E0,1.1204855E0,8.396781E0,2.5832918E0,1.8175667E1,4.4451337E0,4.37506E0,1.8844299E0,1.1223747E0,1.5707909E1,1.2261952E0,1.0011288E0,7.353186E0,1.0435948E0,1.4819888E0,1.1013029E0,1.5526024E1,2.6496425E0,2.808762E0,1.6363717E0,1.4673503E1,1.0344062E0,1.1817535E0,1.4344271E1,1.1897526E0,1.4598899E0,1.3290468E1,1.0538025E0],"tree_param":{"num_deleted":"0","num_feature":"2048","num_nodes":"41","size_leaf_vector":"1"}},{"base_weights":[6.40492E-3,1.6883095E-1,-1.038058E0,-4.3655503E-1,4.3668005E-1,-1.1020126E-1,-2.776098E-2,-7.829568E-1,6.139863E-1,6.875867E-1,-3.7446502E-1,4.4689178E-1,-1.0950468E0,-6.6515274E-2,1.14177026E-1,9.566718E-1,6.3805794E-3,3.1297368E-1,-1.0451563E-1,-3.4908384E-2,9.3661726E-2,-1.157155E-1,-2.4495918E-2,1.0830332E0,-6.7958854E-2,-7.6421404E-1,8.057294E-1,8.785437E-1,-7.5512685E-2,1.2124268E0,-4.46012E-2,-9.7899966E-2,8.24658E-3,-3.961692E-2,1.2875542E-1,1.1042221E-1,8.804707E-3,1.3149346E0,-3.0036211E-2,9.079125E-3,1.4614269E0,1.9207248E-2,1.5498239E-1],"categories":[],"categories_nodes":[],"categories_segments":[],"categories_sizes":[],"default_left":[0,0,0,0,0,0,0,0,0,0,0,0,0,0,0,0,0,0,0,0,0,0,0,0,0,0,0,0,0,0,0,0,0,0,0,0,0,0,0,0,0,0,0],"id":7,"left_children":[1,3,5,7,9,-1,-1,11,13,15,17,19,21,-1,-1,23,25,27,-1,-1,-1,-1,-1,29,-1,31,33,35,-1,37,-1,-1,-1,-1,-1,-1,-1,39,-1,-1,41,-1,-1],"loss_changes":[1.0781062E1,9.103005E0,1.1006355E-1,6.7978244E0,8.114241E0,0E0,0E0,5.6686726E0,4.043864E0,5.463002E0,4.8305054E0,1.668437E0,3.0009365E-1,0E0,0E0,5.1568184E0,6.4399343E0,4.0421157E0,0E0,0E0,0E0,0E0,0E0,4.544035E0,0E0,1.0495522E0,3.4796286E0,6.3759947E-1,0E0,3.3295937E0,0E0,0E0,0E0,0E0,0E0,0E0,0E0,3.0789375E0,0E0,0E0,1.4896622E0,0E0,0E0],"parents":[2147483647,0,0,1,1,2,2,3,3,4,4,7,7,8,8,9,9,10,10,11,11,12,12,15,15,16,16,17,17,23,23,25,25,26,26,27,27,29,29,37,37,40,40],"right_children":[2,4,6,8,10,-1,-1,12,14,16,18,20,22,-1,-1,24,26,28,-1,-1,-1,-1,-1,30,-1,32,34,36,-1,38,-1,-1,-1,-1,-1,-1,-1,40,-1,-1,42,-1,-1],"split_conditions":[1.054845E0,3.6016935E-1,5.2210855E-1,5.377809E-1,5.3741384E-1,-1.1020126E-1,-2.776098E-2,2.886146E-1,5.8273214E-1,4.7593138E-1,4.176401E-1,3.0246848E-1,7.61348E-1,-6.6515274E-2,1.14177026E-1,9.356518E-1,3.4184006E-1,5.0799316E-1,-1.0451563E-1,-3.4908384E-2,9.3661726E-2,-1.157155E-1,-2.4495918E-2,6.7149585E-1,-6.7958854E-2,7.442012E-1,1.921396E-1,6.2820476E-1,-7.5512685E-2,8.1512684E-1,-4.46012E-2,-9.7899966E-2,8.24658E-3,-3.961692E-2,1.2875542E-1,1.1042221E-1,8.804707E-3,2.3294431E-1,-3.0036211E-2,9.079125E-3,1.960187E-1,1.9207248E-2,1.5498239E-1],"split_indices":[1312,1968,830,529,194,0,0,1807,1189,1206,1631,248,1378,0,0,1361,2011,773,0,0,0,0,0,1564,0,1384,1921,1738,0,1778,0,0,0,0,0,0,0,1547,0,0,60,0,0],"split_type":[0,0,0,0,0,0,0,0,0,0,0,0,0,0,0,0,0,0,0,0,0,0,0,0,0,0,0,0,0,0,0,0,0,0,0,0,0,0,0,0,0,0,0],"sum_hessian":[6.1516552E1,5.3963036E1,7.553517E0,1.6358992E1,3.7604046E1,6.5532217E0,1.0002954E0,1.2493981E1,3.86501E0,2.8836535E1,8.767509E0,2.4413712E0,1.0052609E1,1.0529069E0,2.8121033E0,2.038129E1,8.455246E0,4.593087E0,4.174422E0,1.0393109E0,1.4020602E0,9.031538E0,1.0210718E0,1.9234032E1,1.1472579E0,4.327433E0,4.1278124E0,3.1190104E0,1.4740766E0,1.792428E1,1.3097516E0,3.3271275E0,1.0003057E0,1.2321134E0,2.8956993E0,2.11759E0,1.0014207E0,1.690928E1,1.0149989E0,1.9803665E0,1.4928915E1,1.1785238E0,1.3750391E1],"tree_param":{"num_deleted":"0","num_feature":"2048","num_nodes":"43","size_leaf_vector":"1"}},{"base_weights":[2.1216061E-3,4.9158126E-1,-3.1592202E-1,-4.5007625E-1,7.5738186E-1,2.4514292E-1,-6.3931185E-1,-8.7087E-2,7.215782E-2,9.2268527E-1,-5.8083195E-2,-8.2947604E-2,6.6584516E-1,4.8375264E-1,-8.3091366E-1,-4.134195E-2,1.118317E0,-4.434211E-1,1.0398383E0,-6.4753704E-2,1.0675257E-1,-1.0618509E0,1.655208E-1,1.2646579E0,-1.8986348E-2,1.017149E-2,-7.215824E-2,1.2609522E0,-2.7731022E-2,-1.17210925E-1,-2.1373965E-1,-4.9697316E-1,1.0032518E-1,1.3760484E0,-2.376771E-3,2.694692E-2,1.3984852E-1,3.7548017E-2,-6.578805E-2,-7.158034E-2,-6.5675835E-5,2.9839465E-2,1.4412509E-1],"categories":[],"categories_nodes":[],"categories_segments":[],"categories_sizes":[],"default_left":[0,0,0,0,0,0,0,0,0,0,0,0,0,0,0,0,0,0,0,0,0,0,0,0,0,0,0,0,0,0,0,0,0,0,0,0,0,0,0,0,0,0,0],"id":8,"left_children":[1,3,5,7,9,11,13,-1,-1,15,-1,-1,17,19,21,-1,23,25,27,-1,-1,29,31,33,-1,-1,-1,35,-1,-1,37,39,-1,41,-1,-1,-1,-1,-1,-1,-1,-1,-1],"loss_changes":[9.526029E0,6.372988E0,6.887542E0,3.5532618E0,4.7760344E0,7.0111804E0,5.525326E0,0E0,0E0,5.0226135E0,0E0,0E0,4.9506016E0,3.4003441E0,4.940834E0,0E0,3.2051888E0,5.9345955E-1,2.7937956E0,0E0,0E0,1.3341255E0,3.1411128E0,2.0506496E0,0E0,0E0,0E0,6.276016E-1,0E0,0E0,1.077289E0,3.6092693E-1,0E0,4.8048592E-1,0E0,0E0,0E0,0E0,0E0,0E0,0E0,0E0,0E0],"parents":[2147483647,0,0,1,1,2,2,3,3,4,4,5,5,6,6,9,9,12,12,13,13,14,14,16,16,17,17,18,18,21,21,22,22,23,23,27,27,30,30,31,31,33,33],"right_children":[2,4,6,8,10,12,14,-1,-1,16,-1,-1,18,20,22,-1,24,26,28,-1,-1,30,32,34,-1,-1,-1,36,-1,-1,38,40,-1,42,-1,-1,-1,-1,-1,-1,-1,-1,-1],"split_conditions":[3.4431547E-1,2.582242E-1,2.9500595E-1,7.4456185E-1,6.3460433E-1,3.2904565E-1,1.714106E-1,-8.7087E-2,7.215782E-2,1.8002713E-1,-5.8083195E-2,-8.2947604E-2,2.9164535E-1,3.5816082E-1,1.0080442E0,-4.134195E-2,5.712192E-1,4.0984535E-1,5.8749384E-1,-6.4753704E-2,1.0675257E-1,7.0647806E-1,6.0353637E-1,9.709985E-1,-1.8986348E-2,1.017149E-2,-7.215824E-2,2.608495E-1,-2.7731022E-2,-1.17210925E-1,2.3157375E-1,4.564088E-1,1.0032518E-1,1.22234955E-1,-2.376771E-3,2.694692E-2,1.3984852E-1,3.7548017E-2,-6.578805E-2,-7.158034E-2,-6.5675835E-5,2.9839465E-2,1.4412509E-1],"split_indices":[12,1705,939,1942,48,1649,1393,0,0,982,0,0,552,136,1905,0,801,1392,1193,0,0,1851,2037,1324,0,0,0,1441,0,0,126,29,0,44,0,0,0,0,0,0,0,0,0],"split_type":[0,0,0,0,0,0,0,0,0,0,0,0,0,0,0,0,0,0,0,0,0,0,0,0,0,0,0,0,0,0,0,0,0,0,0,0,0,0,0,0,0,0,0],"sum_hessian":[5.919629E1,2.3100174E1,3.609612E1,4.9324813E0,1.8167692E1,1.3286562E1,2.2809555E1,3.8179882E0,1.1144931E0,1.6446627E1,1.7210659E0,3.4647489E0,9.821813E0,3.1020818E0,1.9707474E1,1.9583626E0,1.4488263E1,2.4296913E0,7.392122E0,1.0187078E0,2.083374E0,1.5946098E1,3.7613752E0,1.3060508E1,1.4277558E0,1.0352185E0,1.3944728E0,6.3660903E0,1.0260313E0,1.3773462E1,2.172636E0,2.3275032E0,1.4338719E0,1.1958619E1,1.1018882E0,1.1359884E0,5.230102E0,1.0002482E0,1.172388E0,1.3083903E0,1.019113E0,1.0004131E0,1.0958206E1],"tree_param":{"num_deleted":"0","num_feature":"2048","num_nodes":"43","size_leaf_vector":"1"}},{"base_weights":[7.5054547E-4,1.5086864E-1,-9.820219E-1,-3.567842E-1,4.364326E-1,-1.04678646E-1,-2.7705401E-2,5.553736E-1,-5.8822477E-1,7.6042366E-1,-1.1541793E-1,1.0735601E-1,-3.892685E-2,5.7474345E-2,-7.501844E-1,8.850905E-1,-6.85798E-2,-5.0386035E-1,7.210763E-1,-8.9721954E-1,4.185368E-2,1.007487E0,-4.593579E-2,-8.7846255E-1,3.2047755E-1,1.1338686E-1,-3.4764882E-2,2.9846499E-2,-1.0263822E0,-3.5220202E-2,1.1083574E0,7.01494E-4,-1.0315045E-1,9.425177E-2,-4.6345335E-2,-1.1188816E-1,-2.4807977E-3,-3.0065805E-2,1.2126528E0,1.3176423E0,-5.571722E-3,1.4208005E-1,2.2558358E-2],"categories":[],"categories_nodes":[],"categories_segments":[],"categories_sizes":[],"default_left":[0,0,0,0,0,0,0,0,0,0,0,0,0,0,0,0,0,0,0,0,0,0,0,0,0,0,0,0,0,0,0,0,0,0,0,0,0,0,0,0,0,0,0],"id":9,"left_children":[1,3,5,7,9,-1,-1,11,13,15,17,-1,-1,-1,19,21,-1,23,25,27,-1,29,-1,31,33,-1,-1,-1,35,-1,37,-1,-1,-1,-1,-1,-1,-1,39,41,-1,-1,-1],"loss_changes":[8.686541E0,7.5595903E0,6.620407E-2,4.3244314E0,6.012297E0,0E0,0E0,2.5456514E0,3.3676004E0,4.395026E0,4.6283073E0,0E0,0E0,0E0,2.80161E0,3.717596E0,0E0,3.2312214E0,2.4119315E0,2.2921743E0,0E0,2.919733E0,0E0,9.3347406E-1,2.2494636E0,0E0,0E0,0E0,1.0682459E0,0E0,2.9229832E0,0E0,0E0,0E0,0E0,0E0,0E0,0E0,2.258442E0,1.3912296E0,0E0,0E0,0E0],"parents":[2147483647,0,0,1,1,2,2,3,3,4,4,7,7,8,8,9,9,10,10,14,14,15,15,17,17,18,18,19,19,21,21,23,23,24,24,28,28,30,30,38,38,39,39],"right_children":[2,4,6,8,10,-1,-1,12,14,16,18,-1,-1,-1,20,22,-1,24,26,28,-1,30,-1,32,34,-1,-1,-1,36,-1,38,-1,-1,-1,-1,-1,-1,-1,40,42,-1,-1,-1],"split_conditions":[1.054845E0,3.460715E-1,7.922199E-1,1.8087439E-1,5.9785277E-1,-1.04678646E-1,-2.7705401E-2,5.5958325E-1,2.0253216E-1,7.7545726E-1,5.965533E-1,1.0735601E-1,-3.892685E-2,5.7474345E-2,6.309752E-1,7.0276743E-1,-6.85798E-2,4.8253876E-1,3.9019108E-1,9.232088E-2,4.185368E-2,1.3037391E-1,-4.593579E-2,2.4310628E-1,4.4323337E-1,1.1338686E-1,-3.4764882E-2,2.9846499E-2,1.1561486E0,-3.5220202E-2,2.6593482E-1,7.01494E-4,-1.0315045E-1,9.425177E-2,-4.6345335E-2,-1.1188816E-1,-2.4807977E-3,-3.0065805E-2,6.327198E-1,7.4353534E-1,-5.571722E-3,1.4208005E-1,2.2558358E-2],"split_indices":[1312,181,1620,1161,1993,0,0,85,1727,436,992,0,0,0,493,1622,0,450,1548,1912,0,1848,0,242,1910,0,0,0,1532,0,269,0,0,0,0,0,0,0,1855,1449,0,0,0],"split_type":[0,0,0,0,0,0,0,0,0,0,0,0,0,0,0,0,0,0,0,0,0,0,0,0,0,0,0,0,0,0,0,0,0,0,0,0,0,0,0,0,0,0,0],"sum_hessian":[5.687483E1,5.0072723E1,6.802102E0,1.7936768E1,3.2135956E1,5.7857056E0,1.0163963E0,3.3467712E0,1.4589995E1,2.0010094E1,1.2125864E1,2.073095E0,1.273676E0,1.4719348E0,1.3118061E1,1.8779285E1,1.2308092E0,8.5521555E0,3.5737083E0,1.1858471E1,1.2595905E0,1.744202E1,1.3372633E0,5.8349385E0,2.7172172E0,2.5340023E0,1.039706E0,1.0283221E0,1.0830149E1,1.0325172E0,1.6409504E1,1.0004795E0,4.834459E0,1.4022508E0,1.3149666E0,9.807284E0,1.0228639E0,1.0011634E0,1.540834E1,1.4194538E1,1.2138026E0,1.269437E1,1.5001678E0],"tree_param":{"num_deleted":"0","num_feature":"2048","num_nodes":"43","size_leaf_vector":"1"}},{"base_weights":[-5.92215E-4,3.7955788E-1,-3.6045542E-1,6.1219615E-1,-4.2616355E-1,-4.7532627E-1,9.265708E-2,-2.981426E-1,8.2026535E-1,-9.521251E-2,4.4145268E-1,-6.699314E-1,4.0133253E-1,-7.682162E-2,7.184287E-2,-3.0931532E-1,9.9061525E-1,-1.6197512E-2,8.274227E-2,3.709147E-1,-8.3779764E-1,-6.6200756E-2,8.3706933E-1,2.1636022E-2,-6.5991014E-2,1.1634932E0,-1.2552278E-1,-6.325912E-2,9.772114E-2,-1.076572E0,-1.8822129E-1,1.1299979E-1,-3.9112493E-3,-9.044922E-3,1.2740048E0,-3.8911074E-2,1.9743899E-2,-1.11351036E-1,-2.9218063E-2,5.551303E-1,-7.580312E-2,1.140198E-2,1.3727657E-1,8.8014685E-2,-8.411662E-3],"categories":[],"categories_nodes":[],"categories_segments":[],"categories_sizes":[],"default_left":[0,0,0,0,0,0,0,0,0,0,0,0,0,0,0,0,0,0,0,0,0,0,0,0,0,0,0,0,0,0,0,0,0,0,0,0,0,0,0,0,0,0,0,0,0],"id":10,"left_children":[1,3,5,7,9,11,-1,13,15,-1,17,19,21,-1,-1,23,25,-1,-1,27,29,-1,31,-1,-1,33,35,-1,-1,37,39,-1,-1,-1,41,-1,-1,-1,-1,43,-1,-1,-1,-1,-1],"loss_changes":[7.7348113E0,5.414761E0,4.734378E0,4.363538E0,3.5004997E0,4.930627E0,0E0,2.8356447E0,3.7636814E0,0E0,8.8647807E-1,4.2832613E0,3.143856E0,0E0,0E0,7.171532E-1,3.2044687E0,0E0,0E0,2.961039E0,2.8816242E0,0E0,1.1750975E0,0E0,0E0,2.0306168E0,3.3463117E-1,0E0,0E0,8.9811325E-2,3.198036E0,0E0,0E0,0E0,1.306284E0,0E0,0E0,0E0,0E0,7.850863E-1,0E0,0E0,0E0,0E0,0E0],"parents":[2147483647,0,0,1,1,2,2,3,3,4,4,5,5,7,7,8,8,10,10,11,11,12,12,15,15,16,16,19,19,20,20,22,22,25,25,26,26,29,29,30,30,34,34,39,39],"right_children":[2,4,6,8,10,12,-1,14,16,-1,18,20,22,-1,-1,24,26,-1,-1,28,30,-1,32,-1,-1,34,36,-1,-1,38,40,-1,-1,-1,42,-1,-1,-1,-1,44,-1,-1,-1,-1,-1],"split_conditions":[4.108094E-1,8.17438E-1,1.2726954E0,3.4270266E-1,5.550231E-1,7.106023E-1,9.265708E-2,6.155253E-1,3.221046E-1,-9.521251E-2,3.4835607E-1,2.105621E-1,2.607144E-1,-7.682162E-2,7.184287E-2,4.095828E-1,7.935607E-1,-1.6197512E-2,8.274227E-2,3.9441216E-1,5.15875E-1,-6.6200756E-2,3.5517645E-1,2.1636022E-2,-6.5991014E-2,1.9356717E-1,4.7411653E-1,-6.325912E-2,9.772114E-2,6.369931E-1,4.7070944E-1,1.1299979E-1,-3.9112493E-3,-9.044922E-3,2.0475152E-1,-3.8911074E-2,1.9743899E-2,-1.11351036E-1,-2.9218063E-2,5.503273E-1,-7.580312E-2,1.140198E-2,1.3727657E-1,8.8014685E-2,-8.411662E-3],"split_indices":[766,556,570,1422,423,1372,0,1037,1415,0,225,306,1841,0,0,271,1676,0,0,1144,181,0,791,0,0,1413,1618,0,0,298,1807,0,0,0,1038,0,0,0,0,592,0,0,0,0,0],"split_type":[0,0,0,0,0,0,0,0,0,0,0,0,0,0,0,0,0,0,0,0,0,0,0,0,0,0,0,0,0,0,0,0,0,0,0,0,0,0,0,0,0,0,0,0,0],"sum_hessian":[5.4540096E1,2.6495846E1,2.804425E1,2.0745987E1,5.749859E0,2.6325317E1,1.7189331E0,3.779057E0,1.696693E1,3.5191162E0,2.2307427E0,2.1736052E1,4.589265E0,2.751186E0,1.0278711E0,2.1165361E0,1.4850394E1,1.0966212E0,1.1341215E0,2.8507204E0,1.8885332E1,1.1830219E0,3.4062428E0,1.0000123E0,1.1165239E0,1.2821978E1,2.0284162E0,1.057327E0,1.7933933E0,1.3328597E1,5.5567346E0,2.3356836E0,1.070559E0,1.0531979E0,1.176878E1,1.0040953E0,1.0243207E0,1.23284445E1,1.000153E0,2.4223692E0,3.1343653E0,1.0924168E0,1.0676363E1,1.3560529E0,1.0663162E0],"tree_param":{"num_deleted":"0","num_feature":"2048","num_nodes":"45","size_leaf_vector":"1"}},{"base_weights":[3.755509E-4,1.4014149E-1,-9.3241245E-2,-3.85062E-1,3.66845E-1,-7.0381474E-1,5.2062684E-1,5.7516414E-1,-3.2148087E-1,6.5319054E-2,-9.276812E-1,-4.111314E-2,1.0138404E-1,8.208605E-1,3.1386927E-2,2.8269923E-1,-9.375115E-2,1.5950345E-2,-1.0700206E-1,9.953163E-1,-2.367961E-1,-5.357287E-1,7.502849E-1,8.384913E-2,-5.4617256E-2,-3.6016281E-3,1.1388481E0,-6.977772E-2,4.0964585E-2,-8.3980896E-2,3.739403E-2,-1.1364179E-2,1.05359785E-1,1.2493838E0,-9.7271325E-3,1.3303421E-1,1.8467613E-2],"categories":[],"categories_nodes":[],"categories_segments":[],"categories_sizes":[],"default_left":[0,0,0,0,0,0,0,0,0,0,0,0,0,0,0,0,0,0,0,0,0,0,0,0,0,0,0,0,0,0,0,0,0,0,0,0,0],"id":11,"left_children":[1,3,-1,5,7,9,11,13,15,-1,17,-1,-1,19,21,23,-1,-1,-1,25,27,29,31,-1,-1,-1,33,-1,-1,-1,-1,-1,-1,35,-1,-1,-1],"loss_changes":[7.065406E0,5.7527843E0,0E0,4.609523E0,4.9787703E0,4.037766E0,2.4393218E0,3.451046E0,3.3947275E0,0E0,1.7352142E0,0E0,0E0,3.5356617E0,4.127737E0,2.7676017E0,0E0,0E0,0E0,2.3420572E0,1.2811878E0,1.8885179E0,1.2849154E0,0E0,0E0,0E0,1.9901733E0,0E0,0E0,0E0,0E0,0E0,0E0,8.4262466E-1,0E0,0E0,0E0],"parents":[2147483647,0,0,1,1,3,3,4,4,5,5,6,6,7,7,8,8,10,10,13,13,14,14,15,15,19,19,20,20,21,21,22,22,26,26,33,33],"right_children":[2,4,-1,6,8,10,12,14,16,-1,18,-1,-1,20,22,24,-1,-1,-1,26,28,30,32,-1,-1,-1,34,-1,-1,-1,-1,-1,-1,36,-1,-1,-1],"split_conditions":[1.054845E0,3.6016935E-1,-9.3241245E-2,5.377809E-1,5.3741384E-1,9.510144E-2,2.8420997E-1,6.333046E-1,4.176401E-1,6.5319054E-2,1.8188159E-1,-4.111314E-2,1.0138404E-1,6.7351395E-1,5.877163E-1,3.8072914E-1,-9.375115E-2,1.5950345E-2,-1.0700206E-1,2.3326282E-1,3.0880782E-1,5.162348E-1,2.7126482E-1,8.384913E-2,-5.4617256E-2,-3.6016281E-3,9.629208E-1,-6.977772E-2,4.0964585E-2,-8.3980896E-2,3.739403E-2,-1.1364179E-2,1.05359785E-1,8.5134274E-1,-9.7271325E-3,1.3303421E-1,1.8467613E-2],"split_indices":[1312,1968,0,529,194,112,1834,1048,1631,0,1537,0,0,1290,1576,1259,0,0,0,1547,208,1949,913,0,0,0,806,0,0,0,0,0,0,108,0,0,0],"split_type":[0,0,0,0,0,0,0,0,0,0,0,0,0,0,0,0,0,0,0,0,0,0,0,0,0,0,0,0,0,0,0,0,0,0,0,0,0],"sum_hessian":[5.219192E1,4.612975E1,6.062172E0,1.3697727E1,3.2432022E1,1.0296737E1,3.4009902E0,2.5023237E1,7.4087834E0,1.1865417E0,9.110195E0,1.234759E0,2.1662312E0,1.6884647E1,8.13859E0,4.013543E0,3.39524E0,1.0407073E0,8.069489E0,1.4544532E1,2.3401153E0,4.692007E0,3.4465828E0,2.3955946E0,1.6179487E0,1.8684002E0,1.2676132E1,1.3196523E0,1.020463E0,3.5740771E0,1.1179299E0,1.0581067E0,2.3884761E0,1.1625803E1,1.050329E0,1.0572407E1,1.0533965E0],"tree_param":{"num_deleted":"0","num_feature":"2048","num_nodes":"37","size_leaf_vector":"1"}},{"base_weights":[6.216772E-4,1.3414276E-1,-9.0092087E-1,-3.1710607E-1,3.8472006E-1,-9.6851505E-2,-2.5910897E-2,3.3912337E-1,-6.174994E-1,5.8365107E-1,-3.229184E-1,8.343186E-1,-4.2544037E-2,-8.17061E-1,5.4005295E-2,7.421505E-1,-3.058162E-1,-7.030593E-1,7.2261356E-2,2.3904283E-2,9.569155E-2,1.6384363E-2,-1.0445376E-1,-2.4657053E-1,8.9230984E-1,-7.865281E-2,3.928202E-2,2.1618418E-2,-9.435316E-2,7.2427E-2,-6.485639E-2,-7.0319705E-2,4.122593E-2,1.5193453E-1,1.1126473E0,-7.1672775E-2,6.91373E-1,1.2339368E0,-1.3120174E-2,8.658414E-2,1.0787369E-2,3.0981204E-2,1.2887554E-1],"categories":[],"categories_nodes":[],"categories_segments":[],"categories_sizes":[],"default_left":[0,0,0,0,0,0,0,0,0,0,0,0,0,0,0,0,0,0,0,0,0,0,0,0,0,0,0,0,0,0,0,0,0,0,0,0,0,0,0,0,0,0,0],"id":12,"left_children":[1,3,5,7,9,-1,-1,11,13,15,17,19,-1,21,-1,23,25,27,-1,-1,-1,29,-1,31,33,-1,-1,-1,-1,-1,-1,-1,-1,35,37,-1,39,41,-1,-1,-1,-1,-1],"loss_changes":[6.2524533E0,5.2370768E0,3.9732456E-2,3.501319E0,4.3465223E0,0E0,0E0,2.5847156E0,3.1694202E0,3.5276294E0,3.3399975E0,5.6753397E-2,0E0,2.0023727E0,0E0,3.2135525E0,1.7360173E0,1.4711144E0,0E0,0E0,0E0,1.9900088E0,0E0,1.3253795E0,2.7218504E0,0E0,0E0,0E0,0E0,0E0,0E0,0E0,0E0,2.942718E0,2.198389E0,0E0,2.8639793E-1,2.2867203E-1,0E0,0E0,0E0,0E0,0E0],"parents":[2147483647,0,0,1,1,2,2,3,3,4,4,7,7,8,8,9,9,10,10,11,11,13,13,15,15,16,16,17,17,21,21,23,23,24,24,33,33,34,34,36,36,37,37],"right_children":[2,4,6,8,10,-1,-1,12,14,16,18,20,-1,22,-1,24,26,28,-1,-1,-1,30,-1,32,34,-1,-1,-1,-1,-1,-1,-1,-1,36,38,-1,40,42,-1,-1,-1,-1,-1],"split_conditions":[1.054845E0,3.460715E-1,4.7333255E-1,3.807741E-1,7.0322156E-1,-9.6851505E-2,-2.5910897E-2,2.8759766E-1,6.588828E-1,6.045802E-1,5.206125E-1,2.0491073E-1,-4.2544037E-2,5.190977E-1,5.4005295E-2,2.9057467E-1,4.7484007E-1,1.3026735E-1,7.2261356E-2,2.3904283E-2,9.569155E-2,2.8832078E-1,-1.0445376E-1,3.8284916E-1,1.7827693E-1,-7.865281E-2,3.928202E-2,2.1618418E-2,-9.435316E-2,7.2427E-2,-6.485639E-2,-7.0319705E-2,4.122593E-2,3.455765E-1,6.5956813E-1,-7.1672775E-2,7.255755E-1,3.0481115E-1,-1.3120174E-2,8.658414E-2,1.0787369E-2,3.0981204E-2,1.2887554E-1],"split_indices":[1312,181,1867,135,1993,0,0,294,1844,688,1961,827,0,942,0,1149,1440,1932,0,0,0,897,0,302,2029,0,0,0,0,0,0,0,0,2025,109,0,345,302,0,0,0,0,0],"split_type":[0,0,0,0,0,0,0,0,0,0,0,0,0,0,0,0,0,0,0,0,0,0,0,0,0,0,0,0,0,0,0,0,0,0,0,0,0,0,0,0,0,0,0],"sum_hessian":[4.9937523E1,4.4237087E1,5.700434E0,1.5699446E1,2.8537642E1,4.69675E0,1.0036839E0,4.889366E0,1.081008E1,2.2412313E1,6.1253276E0,2.912047E0,1.9773191E0,9.471367E0,1.3387128E0,1.9163145E1,3.2491696E0,4.7322903E0,1.393037E0,1.0010796E0,1.9109674E0,2.2297642E0,7.2416024E0,2.4419723E0,1.6721172E1,1.8502563E0,1.3989134E0,1.0022051E0,3.7300854E0,1.0368015E0,1.1929629E0,1.4025443E0,1.039428E0,4.2224607E0,1.2498711E1,1.4917033E0,2.7307575E0,1.1395489E1,1.103222E0,1.7296948E0,1.0010626E0,1.0105939E0,1.0384895E1],"tree_param":{"num_deleted":"0","num_feature":"2048","num_nodes":"43","size_leaf_vector":"1"}},{"base_weights":[5.173774E-4,3.572291E-1,-3.1915787E-1,-3.8803393E-1,5.701734E-1,5.153278E-1,-4.7847688E-1,-9.03326E-2,5.1990476E-2,-1.442945E-1,9.5820034E-1,8.844256E-2,-3.5275266E-2,4.3272537E-1,-6.5347093E-1,-6.173372E-1,7.193593E-2,1.1026766E0,-1.0726306E-2,8.2842395E-2,-3.7637454E-2,-9.7347766E-1,-7.864035E-2,3.2732043E-2,-9.246257E-2,1.0110454E-2,1.1961452E-1,-1.0556076E-1,-3.6170564E-3,8.266152E-2,-4.7058603E-1,3.2891612E-2,-8.993709E-2],"categories":[],"categories_nodes":[],"categories_segments":[],"categories_sizes":[],"default_left":[0,0,0,0,0,0,0,0,0,0,0,0,0,0,0,0,0,0,0,0,0,0,0,0,0,0,0,0,0,0,0,0,0],"id":13,"left_children":[1,3,5,7,9,11,13,-1,-1,15,17,-1,-1,19,21,23,-1,25,-1,-1,-1,27,29,-1,-1,-1,-1,-1,-1,-1,31,-1,-1],"loss_changes":[5.671025E0,3.9512725E0,3.7336197E0,3.191763E0,5.3184657E0,1.8134686E0,3.8772383E0,0E0,0E0,3.4859138E0,2.0024118E0,0E0,0E0,1.6671371E0,3.4753036E0,1.8553061E0,0E0,8.9638424E-1,0E0,0E0,0E0,9.099045E-1,3.2250013E0,0E0,0E0,0E0,0E0,0E0,0E0,0E0,2.426469E0,0E0,0E0],"parents":[2147483647,0,0,1,1,2,2,3,3,4,4,5,5,6,6,9,9,10,10,13,13,14,14,15,15,17,17,21,21,22,22,30,30],"right_children":[2,4,6,8,10,12,14,-1,-1,16,18,-1,-1,20,22,24,-1,26,-1,-1,-1,28,30,-1,-1,-1,-1,-1,-1,-1,32,-1,-1],"split_conditions":[3.9551604E-1,2.7373618E-1,2.2217213E-1,5.7153445E-1,4.3879244E-1,2.9525876E-1,2.2961028E-1,-9.03326E-2,5.1990476E-2,4.4514814E-1,5.661113E-1,8.844256E-2,-3.5275266E-2,2.5481588E-1,4.9599957E-1,1.7973319E-1,7.193593E-2,2.0091476E-1,-1.0726306E-2,8.2842395E-2,-3.7637454E-2,8.967853E-1,5.041469E-1,3.2732043E-2,-9.246257E-2,1.0110454E-2,1.1961452E-1,-1.0556076E-1,-3.6170564E-3,8.266152E-2,3.6661485E-1,3.2891612E-2,-8.993709E-2],"split_indices":[766,759,1185,1573,293,1740,306,0,0,563,452,0,0,375,181,555,0,1423,0,0,0,466,945,0,0,0,0,0,0,0,1807,0,0],"split_type":[0,0,0,0,0,0,0,0,0,0,0,0,0,0,0,0,0,0,0,0,0,0,0,0,0,0,0,0,0,0,0,0,0],"sum_hessian":[4.773208E1,2.2503702E1,2.5228378E1,4.8183155E0,1.7685387E1,3.6861887E0,2.154219E1,3.0770469E0,1.7412688E0,6.4455075E0,1.1239879E1,2.5732455E0,1.112943E0,3.2333233E0,1.8308867E1,4.3487835E0,2.0967243E0,9.866993E0,1.3728858E0,2.1553462E0,1.0779772E0,1.1315855E1,6.993011E0,1.0514021E0,3.2973814E0,1.0198951E0,8.847097E0,1.028816E1,1.027695E0,1.777836E0,5.215175E0,1.9018819E0,3.313293E0],"tree_param":{"num_deleted":"0","num_feature":"2048","num_nodes":"33","size_leaf_vector":"1"}},{"base_weights":[2.1799658E-3,3.7403882E-1,-2.9043418E-1,7.109549E-1,-1.7118476E-1,-4.8007858E-1,5.568288E-1,-6.007076E-2,8.719146E-1,4.3461692E-1,-7.168752E-1,-6.2848717E-1,5.361947E-1,-3.6690857E-2,9.176896E-2,-1.959057E-2,1.0125453E0,-4.420234E-2,8.838957E-2,-8.860844E-2,-2.7738851E-3,-7.7990055E-1,1.9406238E-1,-3.6784012E-3,7.941603E-2,1.1489185E-1,5.667335E-3,-1.08195126E-1,-9.953525E-1,-5.839312E-2,6.743517E-2,-7.3736124E-2,4.2727706E-1,-1.06434E-1,-1.12824375E-2,-2.0857885E-2,8.046848E-2],"categories":[],"categories_nodes":[],"categories_segments":[],"categories_sizes":[],"default_left":[0,0,0,0,0,0,0,0,0,0,0,0,0,0,0,0,0,0,0,0,0,0,0,0,0,0,0,0,0,0,0,0,0,0,0,0,0],"id":14,"left_children":[1,3,5,7,9,11,13,-1,15,17,19,21,23,-1,-1,-1,25,-1,-1,-1,-1,27,29,-1,-1,-1,-1,31,33,-1,-1,-1,35,-1,-1,-1,-1],"loss_changes":[5.174905E0,3.968421E0,4.544491E0,3.2973003E0,3.221955E0,3.6985302E0,2.1139216E0,0E0,2.0167465E0,2.2791266E0,5.5953217E-1,2.6308208E0,5.287521E-1,0E0,0E0,0E0,1.3507977E0,0E0,0E0,0E0,0E0,2.3543653E0,1.8494521E0,0E0,0E0,0E0,0E0,2.0849872E0,6.567259E-1,0E0,0E0,0E0,1.0008545E0,0E0,0E0,0E0,0E0],"parents":[2147483647,0,0,1,1,2,2,3,3,4,4,5,5,6,6,8,8,9,9,10,10,11,11,12,12,16,16,21,21,22,22,27,27,28,28,32,32],"right_children":[2,4,6,8,10,12,14,-1,16,18,20,22,24,-1,-1,-1,26,-1,-1,-1,-1,28,30,-1,-1,-1,-1,32,34,-1,-1,-1,36,-1,-1,-1,-1],"split_conditions":[3.827348E-1,5.680615E-1,9.554024E-1,1.4652517E-1,4.3040723E-1,8.1633973E-1,2.7155006E-1,-6.007076E-2,2.3019077E-1,4.425432E-1,5.9053624E-1,6.851413E-1,4.416333E-1,-3.6690857E-2,9.176896E-2,-1.959057E-2,6.788359E-1,-4.420234E-2,8.838957E-2,-8.860844E-2,-2.7738851E-3,3.853631E-1,3.765747E-1,-3.6784012E-3,7.941603E-2,1.1489185E-1,5.667335E-3,2.575683E-1,6.051306E-1,-5.839312E-2,6.743517E-2,-7.3736124E-2,5.4323125E-1,-1.06434E-1,-1.12824375E-2,-2.0857885E-2,8.046848E-2],"split_indices":[2046,135,228,543,1723,1384,421,0,1313,260,919,607,1264,0,0,0,1609,0,0,0,0,895,1235,0,0,0,0,1214,1792,0,0,0,1033,0,0,0,0],"split_type":[0,0,0,0,0,0,0,0,0,0,0,0,0,0,0,0,0,0,0,0,0,0,0,0,0,0,0,0,0,0,0,0,0,0,0,0,0],"sum_hessian":[4.556022E1,1.9940825E1,2.5619392E1,1.213694E1,7.8038836E0,2.1287868E1,4.3315253E0,1.0279698E0,1.1108971E1,3.7947094E0,4.0091743E0,1.8908234E1,2.3796341E0,1.2120752E0,3.1194499E0,1.2470406E0,9.86193E0,1.2912836E0,2.5034258E0,2.9893782E0,1.0197959E0,1.6012527E1,2.8957064E0,1.0049355E0,1.3746986E0,8.453868E0,1.4080619E0,4.25356E0,1.1758967E1,1.0229294E0,1.8727769E0,1.7823336E0,2.4712265E0,1.0715334E1,1.043634E0,1.0870702E0,1.3841561E0],"tree_param":{"num_deleted":"0","num_feature":"2048","num_nodes":"37","size_leaf_vector":"1"}},{"base_weights":[1.6895671E-3,1.2389972E-1,-8.399822E-2,-2.9433087E-1,3.537669E-1,2.955509E-1,-5.74441E-1,6.2143564E-1,-1.041605E-1,-5.9257925E-2,6.457461E-1,-7.658811E-1,4.613183E-2,8.070963E-1,-1.0219019E-1,-7.522821E-2,2.667217E-1,-1.3634639E-2,9.392565E-2,2.7918161E-3,-9.8778374E-2,-2.1980045E-2,9.189223E-1,4.7826506E-2,-6.986984E-2,-6.283178E-2,6.897949E-1,-2.2838807E-3,1.018151E0,-1.28634265E-2,9.7751714E-2,2.8159714E-1,1.15018465E-1,4.9115013E-2,-6.8565966E-3],"categories":[],"categories_nodes":[],"categories_segments":[],"categories_sizes":[],"default_left":[0,0,0,0,0,0,0,0,0,0,0,0,0,0,0,0,0,0,0,0,0,0,0,0,0,0,0,0,0,0,0,0,0,0,0],"id":15,"left_children":[1,3,-1,5,7,9,11,13,15,-1,17,19,-1,21,23,-1,25,-1,-1,-1,-1,-1,27,-1,-1,-1,29,-1,31,-1,-1,33,-1,-1,-1],"loss_changes":[4.6830792E0,3.924988E0,0E0,2.5891275E0,3.2640755E0,2.0542576E0,2.3892276E0,2.3148708E0,2.7210464E0,0E0,1.1227621E0,1.6202478E0,0E0,1.7334032E0,1.8162348E0,0E0,3.2382731E0,0E0,0E0,0E0,0E0,0E0,1.1651525E0,0E0,0E0,0E0,1.4223897E0,0E0,7.5330544E-1,0E0,0E0,2.543922E-1,0E0,0E0,0E0],"parents":[2147483647,0,0,1,1,3,3,4,4,5,5,6,6,7,7,8,8,10,10,11,11,13,13,14,14,16,16,22,22,26,26,28,28,31,31],"right_children":[2,4,-1,6,8,10,12,14,16,-1,18,20,-1,22,24,-1,26,-1,-1,-1,-1,-1,28,-1,-1,-1,30,-1,32,-1,-1,34,-1,-1,-1],"split_conditions":[1.054845E0,3.460715E-1,-8.399822E-2,3.807741E-1,5.9785277E-1,2.8823832E-1,6.588828E-1,6.027322E-1,4.7416434E-1,-5.9257925E-2,2.1431082E-1,5.190977E-1,4.613183E-2,2.7531615E-1,3.3712542E-1,-7.522821E-2,4.0129343E-1,-1.3634639E-2,9.392565E-2,2.7918161E-3,-9.8778374E-2,-2.1980045E-2,1.3838544E-1,4.7826506E-2,-6.986984E-2,-6.283178E-2,4.387948E-1,-2.2838807E-3,2.8016302E-1,-1.28634265E-2,9.7751714E-2,3.6345667E-1,1.15018465E-1,4.9115013E-2,-6.8565966E-3],"split_indices":[1312,181,0,135,1993,1235,1844,839,95,0,1409,942,0,269,1456,0,1071,0,0,0,0,0,917,0,0,0,1297,0,1180,0,0,1206,0,0,0],"split_type":[0,0,0,0,0,0,0,0,0,0,0,0,0,0,0,0,0,0,0,0,0,0,0,0,0,0,0,0,0,0,0,0,0,0,0],"sum_hessian":[4.351652E1,3.874375E1,4.772773E0,1.36421585E1,2.5101593E1,4.3745995E0,9.267559E0,1.5616399E1,9.485194E0,1.04139E0,3.3332095E0,8.041756E0,1.2258029E0,1.2336E1,3.280398E0,3.0779963E0,6.4071975E0,1.0556828E0,2.2775266E0,1.9478858E0,6.09387E0,1.116612E0,1.1219389E1,1.7630346E0,1.5173632E0,1.9008003E0,4.5063972E0,1.1428317E0,1.0076557E1,1.3159851E0,3.190412E0,2.0079427E0,8.068614E0,1.0042956E0,1.0036472E0],"tree_param":{"num_deleted":"0","num_feature":"2048","num_nodes":"35","size_leaf_vector":"1"}},{"base_weights":[2.1072137E-4,4.0841317E-1,-2.3438925E-1,-1.09218895E-1,7.414903E-1,-3.8356388E-1,5.1629096E-1,4.6635807E-1,-5.444585E-1,-6.069634E-2,1.013721E0,-2.2669328E-2,-8.272442E-1,-3.3682294E-2,8.507948E-2,-2.0401204E-2,8.031688E-2,2.4258934E-2,-8.419582E-2,-6.430979E-2,5.6474205E-2,1.0876854E-1,2.7210355E-2,-3.4861416E-1,5.8026797E-1,-9.745342E-2,7.81558E-3,-7.1627706E-1,3.79659E-1,-2.2220165E-2,8.735611E-2,2.2766681E-2,-9.406259E-2,-3.6859136E-2,7.6206945E-2],"categories":[],"categories_nodes":[],"categories_segments":[],"categories_sizes":[],"default_left":[0,0,0,0,0,0,0,0,0,0,0,0,0,0,0,0,0,0,0,0,0,0,0,0,0,0,0,0,0,0,0,0,0,0,0],"id":16,"left_children":[1,3,5,7,9,11,13,15,17,19,21,23,25,-1,-1,-1,-1,-1,-1,-1,-1,-1,-1,27,29,-1,-1,31,33,-1,-1,-1,-1,-1,-1],"loss_changes":[4.1799407E0,2.8274736E0,3.302044E0,2.0347188E0,2.2062907E0,3.7757156E0,1.7195135E0,9.7657365E-1,1.2600489E0,1.6132998E0,1.093626E-1,2.972501E0,1.489924E0,0E0,0E0,0E0,0E0,0E0,0E0,0E0,0E0,0E0,0E0,2.8891313E0,1.4465929E0,0E0,0E0,1.6630428E0,1.4061854E0,0E0,0E0,0E0,0E0,0E0,0E0],"parents":[2147483647,0,0,1,1,2,2,3,3,4,4,5,5,6,6,7,7,8,8,9,9,10,10,11,11,12,12,23,23,24,24,27,27,28,28],"right_children":[2,4,6,8,10,12,14,16,18,20,22,24,26,-1,-1,-1,-1,-1,-1,-1,-1,-1,-1,28,30,-1,-1,32,34,-1,-1,-1,-1,-1,-1],"split_conditions":[3.2118425E-1,3.6005908E-1,9.554024E-1,3.538214E-1,3.616332E-1,4.3467993E-1,2.7155006E-1,4.075035E-1,3.8327673E-1,4.940289E-1,7.155895E-1,5.629789E-1,1.0721635E0,-3.3682294E-2,8.507948E-2,-2.0401204E-2,8.031688E-2,2.4258934E-2,-8.419582E-2,-6.430979E-2,5.6474205E-2,1.0876854E-1,2.7210355E-2,4.0661216E-1,3.9478055E-1,-9.745342E-2,7.81558E-3,2.7075338E-1,3.195814E-1,-2.2220165E-2,8.735611E-2,2.2766681E-2,-9.406259E-2,-3.6859136E-2,7.6206945E-2],"split_indices":[2046,532,228,183,1087,1352,421,51,1151,958,24,607,1602,0,0,0,0,0,0,0,0,0,0,718,1611,0,0,103,917,0,0,0,0,0,0],"split_type":[0,0,0,0,0,0,0,0,0,0,0,0,0,0,0,0,0,0,0,0,0,0,0,0,0,0,0,0,0,0,0,0,0,0,0],"sum_hessian":[4.1648605E1,1.4929856E1,2.6718748E1,6.1086116E0,8.821245E0,2.2697386E1,4.0213637E0,2.599474E0,3.5091376E0,2.431967E0,6.389278E0,1.3096025E1,9.601359E0,1.1307029E0,2.8906608E0,1.0011405E0,1.5983335E0,1.013213E0,2.4959245E0,1.2446898E0,1.1872773E0,5.38552E0,1.003758E0,8.774424E0,4.321602E0,8.192286E0,1.4090738E0,5.8417397E0,2.932684E0,1.2216036E0,3.0999982E0,1.1189569E0,4.7227826E0,1.0041101E0,1.9285738E0],"tree_param":{"num_deleted":"0","num_feature":"2048","num_nodes":"35","size_leaf_vector":"1"}},{"base_weights":[2.758971E-3,1.1837897E-1,-7.993564E-2,-2.2241472E-1,3.868183E-1,-5.213048E-1,3.139475E-1,5.1557326E-1,-6.122418E-2,-6.930203E-1,3.9506465E-2,6.537566E-1,-4.2351846E-2,6.9230676E-1,-1.874092E-1,-8.754273E-1,1.4440887E-2,-1.2809383E-2,9.466245E-2,8.0025494E-1,-3.837926E-2,5.874842E-2,-7.622241E-2,-9.860217E-2,-6.5524555E-3,9.2152417E-1,-1.659885E-2,-4.5557013E-3,1.01195E0,1.0995934E-1,1.2101216E-2],"categories":[],"categories_nodes":[],"categories_segments":[],"categories_sizes":[],"default_left":[0,0,0,0,0,0,0,0,0,0,0,0,0,0,0,0,0,0,0,0,0,0,0,0,0,0,0,0,0,0,0],"id":17,"left_children":[1,3,-1,5,7,9,11,13,-1,15,-1,17,-1,19,21,23,-1,-1,-1,25,-1,-1,-1,-1,-1,27,-1,-1,29,-1,-1],"loss_changes":[3.8755193E0,3.425446E0,0E0,2.8439345E0,2.989229E0,2.0223227E0,1.9325538E0,2.4846497E0,0E0,1.6114068E0,0E0,1.2469177E0,0E0,2.09134E0,2.4944446E0,6.6309166E-1,0E0,0E0,0E0,1.826623E0,0E0,0E0,0E0,0E0,0E0,1.1692305E0,0E0,0E0,7.874098E-1,0E0,0E0],"parents":[2147483647,0,0,1,1,3,3,4,4,5,5,6,6,7,7,9,9,11,11,13,13,14,14,15,15,19,19,25,25,28,28],"right_children":[2,4,-1,6,8,10,12,14,-1,16,-1,18,-1,20,22,24,-1,-1,-1,26,-1,-1,-1,-1,-1,28,-1,-1,30,-1,-1],"split_conditions":[1.054845E0,3.515898E-1,-7.993564E-2,4.65412E-1,6.371764E-1,7.259094E-1,6.034488E-1,5.24983E-1,-6.122418E-2,1.8670145E0,3.9506465E-2,3.573439E-1,-4.2351846E-2,5.7010245E-1,3.067141E-1,7.546816E-1,1.4440887E-2,-1.2809383E-2,9.466245E-2,7.775649E-1,-3.837926E-2,5.874842E-2,-7.622241E-2,-9.860217E-2,-6.5524555E-3,2.1800661E-1,-1.659885E-2,-4.5557013E-3,2.0458407E0,1.0995934E-1,1.2101216E-2],"split_indices":[1312,270,0,1875,42,985,668,1255,0,617,0,277,0,326,1464,790,0,0,0,634,0,0,0,0,0,1223,0,0,1064,0,0],"split_type":[0,0,0,0,0,0,0,0,0,0,0,0,0,0,0,0,0,0,0,0,0,0,0,0,0,0,0,0,0,0,0],"sum_hessian":[3.9768482E1,3.550331E1,4.2651677E0,1.5718961E1,1.9784351E1,1.0112052E1,5.606909E0,1.7954401E1,1.8299519E0,8.721493E0,1.3905596E0,3.9160044E0,1.6909045E0,1.4359527E1,3.594874E0,7.124315E0,1.5971777E0,1.2204555E0,2.6955488E0,1.3283353E1,1.0761732E0,1.5216012E0,2.0732727E0,6.077024E0,1.0472908E0,1.1843239E1,1.4401145E0,1.0551262E0,1.0788113E1,9.608688E0,1.1794237E0],"tree_param":{"num_deleted":"0","num_feature":"2048","num_nodes":"31","size_leaf_vector":"1"}},{"base_weights":[-1.9858746E-4,3.3047163E-1,-2.6445433E-1,6.4004934E-1,-1.7497398E-1,-7.43954E-1,1.4118991E-2,-2.6887342E-2,8.208098E-1,3.702174E-1,-6.634635E-1,-9.1256574E-2,7.5854673E-3,-4.4904262E-1,5.0168765E-1,-7.043087E-3,9.4474965E-1,-3.8607553E-2,7.684921E-2,-8.0080815E-2,-1.06263785E-2,1.5067434E-1,-8.3650894E-2,7.601612E-1,-2.7677044E-2,8.997162E-3,1.08834125E-1,5.901133E-2,-5.7484966E-2,-3.7942682E-3,9.746823E-2],"categories":[],"categories_nodes":[],"categories_segments":[],"categories_sizes":[],"default_left":[0,0,0,0,0,0,0,0,0,0,0,0,0,0,0,0,0,0,0,0,0,0,0,0,0,0,0,0,0,0,0],"id":18,"left_children":[1,3,5,7,9,11,13,-1,15,17,19,-1,-1,21,23,-1,25,-1,-1,-1,-1,27,-1,29,-1,-1,-1,-1,-1,-1,-1],"loss_changes":[3.5032191E0,2.8984966E0,2.9869614E0,2.0704403E0,2.25621E0,1.2036772E0,3.6297557E0,0E0,1.1311183E0,1.564659E0,2.4703336E-1,0E0,0E0,2.0452151E0,1.7832011E0,0E0,9.490948E-1,0E0,0E0,0E0,0E0,1.642912E0,0E0,1.0873876E0,0E0,0E0,0E0,0E0,0E0,0E0,0E0],"parents":[2147483647,0,0,1,1,2,2,3,3,4,4,5,5,6,6,8,8,9,9,10,10,13,13,14,14,16,16,21,21,23,23],"right_children":[2,4,6,8,10,12,14,-1,16,18,20,-1,-1,22,24,-1,26,-1,-1,-1,-1,28,-1,30,-1,-1,-1,-1,-1,-1,-1],"split_conditions":[3.827348E-1,5.680615E-1,2.6673886E-1,2.1372928E-1,4.3040723E-1,1.0443878E0,3.1243026E-1,-2.6887342E-2,1.7423004E-1,4.425432E-1,3.8129756E-1,-9.1256574E-2,7.5854673E-3,3.9627522E-1,7.8382856E-1,-7.043087E-3,1.7312582E-1,-3.8607553E-2,7.684921E-2,-8.0080815E-2,-1.06263785E-2,4.4090992E-1,-8.3650894E-2,3.3939165E-1,-2.7677044E-2,8.997162E-3,1.08834125E-1,5.901133E-2,-5.7484966E-2,-3.7942682E-3,9.746823E-2],"split_indices":[2046,135,421,543,1723,1470,1289,0,1022,260,1431,0,0,291,1006,0,2006,0,0,0,0,97,0,1682,0,0,0,0,0,0,0],"split_type":[0,0,0,0,0,0,0,0,0,0,0,0,0,0,0,0,0,0,0,0,0,0,0,0,0,0,0,0,0,0,0],"sum_hessian":[3.809093E1,1.6808025E1,2.1282904E1,1.0258529E1,6.549498E0,7.2070484E0,1.4075856E1,1.6208595E0,8.637669E0,3.2095332E0,3.3399649E0,5.8837757E0,1.3232726E0,7.2591276E0,6.8167286E0,1.1072518E0,7.530417E0,1.1177126E0,2.0918205E0,2.3287485E0,1.0112164E0,3.0890508E0,4.170077E0,5.1351833E0,1.6815451E0,1.3170149E0,6.213402E0,2.0400577E0,1.0489933E0,1.2622474E0,3.872936E0],"tree_param":{"num_deleted":"0","num_feature":"2048","num_nodes":"31","size_leaf_vector":"1"}},{"base_weights":[-2.0188247E-3,4.12705E-1,-2.0483474E-1,6.822783E-1,-2.6552933E-1,-5.0991946E-1,1.4843428E-1,-2.6071286E-2,8.280309E-1,-7.311424E-2,3.6391504E-2,3.279988E-1,-8.016033E-1,-2.217265E-1,6.465313E-1,9.753353E-1,-3.752866E-3,7.573324E-2,-3.2418363E-2,2.9580775E-3,-9.176649E-1,4.988576E-2,-5.365541E-1,-1.4482782E-3,8.9309834E-2,2.880956E-2,1.04145244E-1,-9.8774634E-2,-1.6326198E-2,-7.9915635E-2,2.0578824E-2],"categories":[],"categories_nodes":[],"categories_segments":[],"categories_sizes":[],"default_left":[0,0,0,0,0,0,0,0,0,0,0,0,0,0,0,0,0,0,0,0,0,0,0,0,0,0,0,0,0,0,0],"id":19,"left_children":[1,3,5,7,9,11,13,-1,15,-1,-1,17,19,21,23,25,-1,-1,-1,-1,27,-1,29,-1,-1,-1,-1,-1,-1,-1,-1],"loss_changes":[3.2371423E0,2.4924312E0,2.8605866E0,1.4976864E0,1.530783E0,3.7068095E0,2.4939027E0,0E0,1.0970306E0,0E0,0E0,1.4630063E0,1.0634718E0,2.0957487E0,9.403899E-1,2.4597168E-2,0E0,0E0,0E0,0E0,3.387599E-1,0E0,1.3516126E0,0E0,0E0,0E0,0E0,0E0,0E0,0E0,0E0],"parents":[2147483647,0,0,1,1,2,2,3,3,4,4,5,5,6,6,8,8,11,11,12,12,13,13,14,14,15,15,20,20,22,22],"right_children":[2,4,6,8,10,12,14,-1,16,-1,-1,18,20,22,24,26,-1,-1,-1,-1,28,-1,30,-1,-1,-1,-1,-1,-1,-1,-1],"split_conditions":[3.0093783E-1,4.1061568E-1,3.134412E-1,2.4576125E-1,4.298095E-1,2.7619112E-1,4.8824146E-1,-2.6071286E-2,7.3990154E-1,-7.311424E-2,3.6391504E-2,3.2552406E-1,2.2217213E-1,4.6160325E-1,3.1109858E-1,2.530481E-1,-3.752866E-3,7.573324E-2,-3.2418363E-2,2.9580775E-3,9.189169E-1,4.988576E-2,7.445886E-1,-1.4482782E-3,8.9309834E-2,2.880956E-2,1.04145244E-1,-9.8774634E-2,-1.6326198E-2,-7.9915635E-2,2.0578824E-2],"split_indices":[766,1206,1289,1436,506,1908,529,0,573,0,0,774,1185,1179,1579,329,0,0,0,0,1864,0,676,0,0,0,0,0,0,0,0],"split_type":[0,0,0,0,0,0,0,0,0,0,0,0,0,0,0,0,0,0,0,0,0,0,0,0,0,0,0,0,0,0,0],"sum_hessian":[3.6480785E1,1.1641349E1,2.483944E1,8.3260765E0,3.3152723E0,1.3090764E1,1.1748675E1,1.0090413E0,7.3170347E0,1.8127646E0,1.5025076E0,3.348125E0,9.742639E0,7.058215E0,4.6904597E0,6.144511E0,1.1725237E0,1.9217823E0,1.4263427E0,1.2850171E0,8.457622E0,1.9683869E0,5.089828E0,1.5299976E0,3.1604621E0,1.0094421E0,5.135069E0,7.4557037E0,1.0019181E0,3.7032697E0,1.3865583E0],"tree_param":{"num_deleted":"0","num_feature":"2048","num_nodes":"31","size_leaf_vector":"1"}},{"base_weights":[-1.5182242E-4,1.06396385E-1,-7.475661E-2,-2.03978E-1,3.5310927E-1,-4.839742E-1,2.9018348E-1,-2.4965496E-1,5.478394E-1,-6.535458E-1,3.6698576E-2,-3.9341874E-2,6.087003E-1,4.3242253E-2,-6.213731E-1,6.919625E-1,-3.1317677E-2,-8.2848275E-1,1.0906503E-2,-7.1603553E-3,8.36399E-2,-7.156689E-2,-1.8128749E-2,8.6451304E-1,-5.4600816E-2,-9.3730316E-2,-8.278167E-3,8.939167E-3,9.607808E-1,-6.096542E-2,5.3766616E-2,1.0399928E-1,1.8842708E-2],"categories":[],"categories_nodes":[],"categories_segments":[],"categories_sizes":[],"default_left":[0,0,0,0,0,0,0,0,0,0,0,0,0,0,0,0,0,0,0,0,0,0,0,0,0,0,0,0,0,0,0,0,0],"id":20,"left_children":[1,3,-1,5,7,9,11,13,15,17,-1,-1,19,-1,21,23,-1,25,-1,-1,-1,-1,-1,27,29,-1,-1,-1,31,-1,-1,-1,-1],"loss_changes":[2.9433932E0,2.549208E0,0E0,2.2104445E0,2.295299E0,1.6719387E0,1.5537673E0,1.581358E0,1.9803658E0,1.2423532E0,0E0,0E0,7.5853145E-1,0E0,2.6350021E-2,1.6556716E0,0E0,5.018163E-1,0E0,0E0,0E0,0E0,0E0,6.7534065E-1,1.4076009E0,0E0,0E0,0E0,3.5293293E-1,0E0,0E0,0E0,0E0],"parents":[2147483647,0,0,1,1,3,3,4,4,5,5,6,6,7,7,8,8,9,9,12,12,14,14,15,15,17,17,23,23,24,24,28,28],"right_children":[2,4,-1,6,8,10,12,14,16,18,-1,-1,20,-1,22,24,-1,26,-1,-1,-1,-1,-1,28,30,-1,-1,-1,32,-1,-1,-1,-1],"split_conditions":[1.054845E0,3.515898E-1,-7.475661E-2,4.65412E-1,2.720356E-1,7.259094E-1,2.9561487E-1,3.2862395E-1,6.2827575E-1,1.8670145E0,3.6698576E-2,-3.9341874E-2,3.3086208E-1,4.3242253E-2,4.3153805E-1,5.4870677E-1,-3.1317677E-2,7.0272595E-1,1.0906503E-2,-7.1603553E-3,8.36399E-2,-7.156689E-2,-1.8128749E-2,2.2301802E-1,2.6387522E-1,-9.3730316E-2,-8.278167E-3,8.939167E-3,6.440651E-1,-6.096542E-2,5.3766616E-2,1.0399928E-1,1.8842708E-2],"split_indices":[1312,270,0,1875,913,985,1146,1675,872,617,0,0,2031,0,916,98,0,1202,0,0,0,0,0,357,1107,0,0,0,892,0,0,0,0],"split_type":[0,0,0,0,0,0,0,0,0,0,0,0,0,0,0,0,0,0,0,0,0,0,0,0,0,0,0,0,0,0,0,0,0],"sum_hessian":[3.496197E1,3.1350435E1,3.611538E0,1.3960633E1,1.7389803E1,8.924531E0,5.036102E0,4.1773257E0,1.3212477E1,7.6350727E0,1.2894585E0,1.5259476E0,3.5101542E0,1.4159135E0,2.7614121E0,1.1486179E1,1.7262976E0,6.1401854E0,1.4948872E0,1.0521477E0,2.4580066E0,1.7584345E0,1.0029775E0,9.201483E0,2.2846966E0,5.1340327E0,1.006153E0,1.2296062E0,7.971876E0,1.1642461E0,1.1204506E0,6.9160476E0,1.0558288E0],"tree_param":{"num_deleted":"0","num_feature":"2048","num_nodes":"33","size_leaf_vector":"1"}},{"base_weights":[-1.492422E-3,1.8344855E-1,-4.0740597E-1,-2.8907132E-1,4.1246855E-1,5.406502E-2,-5.909117E-1,1.6275096E-1,-7.2666965E-2,6.797677E-1,-5.887727E-2,-9.209396E-2,4.642284E-4,5.638206E-1,-6.031538E-2,1.3846718E-1,9.353844E-1,-5.4687023E-1,4.092013E-1,5.3678937E-2,-4.8883047E-2,-4.590968E-3,7.992604E-2,5.741657E-1,-5.3429145E-2,2.4575453E-2,1.01120286E-1,-7.354678E-2,-3.4376277E-4,7.0478834E-2,-1.8090544E-2,1.5651524E-2,6.8828635E-2],"categories":[],"categories_nodes":[],"categories_segments":[],"categories_sizes":[],"default_left":[0,0,0,0,0,0,0,0,0,0,0,0,0,0,0,0,0,0,0,0,0,0,0,0,0,0,0,0,0,0,0,0,0],"id":21,"left_children":[1,3,5,7,9,-1,11,13,-1,15,17,-1,19,21,-1,23,25,27,29,-1,-1,-1,-1,31,-1,-1,-1,-1,-1,-1,-1,-1,-1],"loss_changes":[2.6688912E0,2.7629173E0,2.2552557E0,1.8113267E0,2.1650417E0,0E0,1.9131374E0,1.8852152E0,0E0,1.3707228E0,1.8281745E0,0E0,1.4458458E0,5.8481085E-1,0E0,1.6702473E0,1.274867E-1,3.937806E-1,8.5261494E-1,0E0,0E0,0E0,0E0,4.9807787E-2,0E0,0E0,0E0,0E0,0E0,0E0,0E0,0E0,0E0],"parents":[2147483647,0,0,1,1,2,2,3,3,4,4,6,6,7,7,9,9,10,10,12,12,13,13,15,15,16,16,17,17,18,18,23,23],"right_children":[2,4,6,8,10,-1,12,14,-1,16,18,-1,20,22,-1,24,26,28,30,-1,-1,-1,-1,32,-1,-1,-1,-1,-1,-1,-1,-1,-1],"split_conditions":[6.027322E-1,3.460715E-1,2.1143353E-1,5.4174083E-1,4.777033E-1,5.406502E-2,4.7852555E-1,3.1961954E-1,-7.2666965E-2,2.4729456E-1,2.8936794E-1,-9.209396E-2,4.6558774E-1,2.1262832E-1,-6.031538E-2,4.6633586E-1,3.4610477E-1,5.7787013E-1,2.8969792E-1,5.3678937E-2,-4.8883047E-2,-4.590968E-3,7.992604E-2,5.604931E-1,-5.3429145E-2,2.4575453E-2,1.01120286E-1,-7.354678E-2,-3.4376277E-4,7.0478834E-2,-1.8090544E-2,1.5651524E-2,6.8828635E-2],"split_indices":[839,181,306,1368,1879,0,529,459,0,360,169,0,1571,1829,0,726,1637,1632,1788,0,0,0,0,503,0,0,0,0,0,0,0,0,0],"split_type":[0,0,0,0,0,0,0,0,0,0,0,0,0,0,0,0,0,0,0,0,0,0,0,0,0,0,0,0,0,0,0,0,0],"sum_hessian":[3.3556435E1,2.3429586E1,1.0126849E1,7.563066E0,1.586652E1,1.3266531E0,8.800197E0,4.0300756E0,3.5329902E0,9.842611E0,6.023908E0,5.290471E0,3.509725E0,2.818175E0,1.2119005E0,3.6515956E0,6.191016E0,2.8668048E0,3.1571033E0,1.628084E0,1.881641E0,1.0093124E0,1.8088627E0,2.305218E0,1.3463776E0,1.0333371E0,5.157679E0,1.8658797E0,1.0009252E0,1.9739851E0,1.1831182E0,1.0036441E0,1.3015738E0],"tree_param":{"num_deleted":"0","num_feature":"2048","num_nodes":"33","size_leaf_vector":"1"}},{"base_weights":[-2.2737446E-4,1.0078924E-1,-7.109081E-2,-2.4823816E-1,2.9268786E-1,-6.5835935E-1,9.856098E-2,-4.8209426E-1,4.1434032E-1,-8.431732E-2,4.37524E-3,5.1445526E-1,-4.528473E-1,-1.1918905E-2,-5.9726875E-2,5.504219E-1,-2.9586515E-1,7.827157E-2,-1.4903048E-2,-6.6252455E-2,3.3824518E-3,6.467005E-1,-3.5756588E-2,-6.613424E-2,2.79038E-2,-1.5591259E-2,7.8193575E-1,2.7198617E-3,8.8244665E-1,1.2205313E-2,9.761038E-1,1.0333549E-1,2.5944281E-2],"categories":[],"categories_nodes":[],"categories_segments":[],"categories_sizes":[],"default_left":[0,0,0,0,0,0,0,0,0,0,0,0,0,0,0,0,0,0,0,0,0,0,0,0,0,0,0,0,0,0,0,0,0],"id":22,"left_children":[1,3,-1,5,7,9,11,13,15,-1,-1,17,19,-1,-1,21,23,-1,-1,-1,-1,25,-1,-1,-1,-1,27,-1,29,-1,31,-1,-1],"loss_changes":[2.4478955E0,2.0723615E0,0E0,1.6483113E0,2.0587578E0,7.1566105E-1,1.8157629E0,6.0006022E-2,1.862323E0,0E0,0E0,9.0024626E-1,3.7949538E-1,0E0,0E0,1.5518527E0,9.15308E-1,0E0,0E0,0E0,0E0,1.643055E0,0E0,0E0,0E0,0E0,8.984299E-1,0E0,6.428013E-1,0E0,1.16874695E-1,0E0,0E0],"parents":[2147483647,0,0,1,1,3,3,4,4,5,5,6,6,7,7,8,8,11,11,12,12,15,15,16,16,21,21,26,26,28,28,30,30],"right_children":[2,4,-1,6,8,10,12,14,16,-1,-1,18,20,-1,-1,22,24,-1,-1,-1,-1,26,-1,-1,-1,-1,28,-1,30,-1,32,-1,-1],"split_conditions":[1.054845E0,3.460715E-1,-7.109081E-2,3.817676E-1,1.9109575E-1,6.3767165E-1,3.7591332E-1,5.2254695E-1,6.045802E-1,-8.431732E-2,4.37524E-3,4.954964E-1,5.8163863E-1,-1.1918905E-2,-5.9726875E-2,7.998539E-1,6.967086E-1,7.827157E-2,-1.4903048E-2,-6.6252455E-2,3.3824518E-3,2.0996816E-1,-3.5756588E-2,-6.613424E-2,2.79038E-2,-1.5591259E-2,2.3513313E-1,2.7198617E-3,2.874948E-1,1.2205313E-2,6.649026E-1,1.0333549E-1,2.5944281E-2],"split_indices":[1312,181,0,1541,1828,1550,1792,89,688,0,0,1752,130,0,0,1377,1372,0,0,0,0,401,0,0,0,0,1670,0,302,0,352,0,0],"split_type":[0,0,0,0,0,0,0,0,0,0,0,0,0,0,0,0,0,0,0,0,0,0,0,0,0,0,0,0,0,0,0,0,0],"sum_hessian":[3.2099663E1,2.8856201E1,3.2434597E0,1.0132856E1,1.8723345E1,4.2309685E0,5.9018884E0,2.138805E0,1.658454E1,3.1902912E0,1.0406771E0,3.4025578E0,2.4993305E0,1.0054795E0,1.1333256E0,1.4106579E1,2.4779613E0,2.2949586E0,1.1075994E0,1.4942232E0,1.0051073E0,1.3014363E1,1.0922153E0,1.4229865E0,1.0549748E0,1.854589E0,1.1159774E1,1.4608486E0,9.698926E0,1.3161795E0,8.382746E0,7.35341E0,1.0293363E0],"tree_param":{"num_deleted":"0","num_feature":"2048","num_nodes":"33","size_leaf_vector":"1"}},{"base_weights":[-5.233356E-3,2.9370707E-1,-2.4254581E-1,-1.2234827E-1,6.2216306E-1,-4.0672925E-1,4.3452004E-1,-6.655273E-1,4.480805E-1,7.8161895E-1,-1.3385589E-2,-5.446545E-1,4.1429885E-2,-1.853624E-2,7.35912E-2,-7.582045E-2,-1.8854026E-2,7.3619716E-2,-1.9719772E-2,9.419152E-2,1.2865244E-2,-6.8454224E-1,1.5879591E-1,-6.811941E-2,-8.89025E-1,5.3470153E-2,-2.9867912E-2,-5.9066918E-2,3.6654636E-2,-2.1844584E-2,-9.499087E-2],"categories":[],"categories_nodes":[],"categories_segments":[],"categories_sizes":[],"default_left":[0,0,0,0,0,0,0,0,0,0,0,0,0,0,0,0,0,0,0,0,0,0,0,0,0,0,0,0,0,0,0],"id":23,"left_children":[1,3,5,7,9,11,13,15,17,19,-1,21,-1,-1,-1,-1,-1,-1,-1,-1,-1,23,25,27,29,-1,-1,-1,-1,-1,-1],"loss_changes":[2.3326607E0,2.0657024E0,2.2130027E0,2.547278E0,1.1052485E0,1.9536276E0,8.946527E-1,3.9198995E-2,9.145254E-1,6.115861E-1,0E0,1.4368296E0,0E0,0E0,0E0,0E0,0E0,0E0,0E0,0E0,0E0,1.3822093E0,6.8428195E-1,1.1100919E0,1.400218E-1,0E0,0E0,0E0,0E0,0E0,0E0],"parents":[2147483647,0,0,1,1,2,2,3,3,4,4,5,5,6,6,7,7,8,8,9,9,11,11,21,21,22,22,23,23,24,24],"right_children":[2,4,6,8,10,12,14,16,18,20,-1,22,-1,-1,-1,-1,-1,-1,-1,-1,-1,24,26,28,30,-1,-1,-1,-1,-1,-1],"split_conditions":[3.827348E-1,2.4011296E-1,9.554024E-1,5.9441817E-1,6.7254454E-1,8.1633973E-1,3.6268747E-1,4.6244898E-1,4.8129976E-1,4.3861365E-1,-1.3385589E-2,6.851413E-1,4.1429885E-2,-1.853624E-2,7.35912E-2,-7.582045E-2,-1.8854026E-2,7.3619716E-2,-1.9719772E-2,9.419152E-2,1.2865244E-2,3.853631E-1,3.9405575E-1,2.575683E-1,2.2467633E-1,5.3470153E-2,-2.9867912E-2,-5.9066918E-2,3.6654636E-2,-2.1844584E-2,-9.499087E-2],"split_indices":[2046,1169,228,430,1237,1384,420,547,659,1376,0,607,0,0,0,0,0,0,0,0,0,895,1759,1214,31,0,0,0,0,0,0],"split_type":[0,0,0,0,0,0,0,0,0,0,0,0,0,0,0,0,0,0,0,0,0,0,0,0,0,0,0,0,0,0,0],"sum_hessian":[3.0876945E1,1.3559068E1,1.7317879E1,6.258688E0,7.3003793E0,1.4259364E1,3.0585136E0,3.1205215E0,3.1381664E0,6.000848E0,1.2995317E0,1.2496659E1,1.7627057E0,1.1265275E0,1.9319861E0,2.1191974E0,1.0013243E0,2.072083E0,1.0660834E0,4.4627686E0,1.5380789E0,1.044621E1,2.0504484E0,2.934164E0,7.5120463E0,1.0329044E0,1.0175442E0,1.1694099E0,1.764754E0,1.0071481E0,6.504898E0],"tree_param":{"num_deleted":"0","num_feature":"2048","num_nodes":"31","size_leaf_vector":"1"}},{"base_weights":[-4.126244E-3,2.4223118E-1,-2.8219944E-1,6.06056E-1,-5.435919E-2,-5.255094E-1,1.6407229E-1,-1.7349448E-2,7.665159E-1,-6.449598E-2,2.3455134E-1,2.2282884E-1,-7.7112275E-1,6.029817E-1,-4.100657E-1,9.152302E-2,4.541286E-3,5.785749E-1,-3.9501962E-1,5.697426E-2,-2.5773078E-2,-7.570825E-3,-9.1550104E-2,7.730379E-2,7.3191994E-3,-6.000325E-2,3.218271E-4,8.044634E-2,-1.5269615E-2,4.638384E-3,-6.127475E-2],"categories":[],"categories_nodes":[],"categories_segments":[],"categories_sizes":[],"default_left":[0,0,0,0,0,0,0,0,0,0,0,0,0,0,0,0,0,0,0,0,0,0,0,0,0,0,0,0,0,0,0],"id":24,"left_children":[1,3,5,7,9,11,13,-1,15,-1,17,19,21,23,25,-1,-1,27,29,-1,-1,-1,-1,-1,-1,-1,-1,-1,-1,-1,-1],"loss_changes":[2.1677876E0,1.8444748E0,1.6995709E0,1.0863588E0,1.8859411E0,1.9829528E0,1.760396E0,0E0,6.560483E-1,0E0,1.8659518E0,6.8211085E-1,6.980605E-1,2.8648603E-1,2.5290936E-1,0E0,0E0,9.973959E-1,3.4226763E-1,0E0,0E0,0E0,0E0,0E0,0E0,0E0,0E0,0E0,0E0,0E0,0E0],"parents":[2147483647,0,0,1,1,2,2,3,3,4,4,5,5,6,6,8,8,10,10,11,11,12,12,13,13,14,14,17,17,18,18],"right_children":[2,4,6,8,10,12,14,-1,16,-1,18,20,22,24,26,-1,-1,28,30,-1,-1,-1,-1,-1,-1,-1,-1,-1,-1,-1,-1],"split_conditions":[4.019614E-1,3.0093783E-1,6.102983E-1,3.534781E-1,2.7730978E-1,6.602244E-1,4.1477948E-1,-1.7349448E-2,1.0368537E0,-6.449598E-2,5.583485E-1,2.889776E-1,2.1800621E-1,5.709505E-1,4.1942024E-1,9.152302E-2,4.541286E-3,5.6904787E-1,6.559116E-1,5.697426E-2,-2.5773078E-2,-7.570825E-3,-9.1550104E-2,7.730379E-2,7.3191994E-3,-6.000325E-2,3.218271E-4,8.044634E-2,-1.5269615E-2,4.638384E-3,-6.127475E-2],"split_indices":[1206,766,972,293,292,617,1458,0,1678,0,53,639,892,1213,1130,0,0,1777,1207,0,0,0,0,0,0,0,0,0,0,0,0],"split_type":[0,0,0,0,0,0,0,0,0,0,0,0,0,0,0,0,0,0,0,0,0,0,0,0,0,0,0,0,0,0,0],"sum_hessian":[2.9646198E1,1.5787894E1,1.3858303E1,6.621701E0,9.166193E0,8.853674E0,5.004629E0,1.1164593E0,5.505242E0,2.6061757E0,6.5600176E0,2.2107365E0,6.642937E0,2.807869E0,2.1967604E0,4.340819E0,1.164423E0,4.294388E0,2.2656295E0,1.1761198E0,1.0346167E0,1.4041351E0,5.2388024E0,1.7780081E0,1.0298607E0,1.195419E0,1.0013415E0,3.2044492E0,1.0899388E0,1.0083493E0,1.2572802E0],"tree_param":{"num_deleted":"0","num_feature":"2048","num_nodes":"31","size_leaf_vector":"1"}},{"base_weights":[-4.642668E-3,3.4800723E-1,-1.9041967E-1,-3.133472E-1,5.6478333E-1,-4.8576057E-1,1.3936749E-1,-6.081766E-2,1.7262923E-2,7.537294E-1,-2.314774E-2,4.0224344E-2,-6.19757E-1,-4.7636694E-1,3.761451E-1,9.111115E-2,1.8492902E-2,1.2050973E-2,-7.716048E-1,-8.931761E-3,-6.0807694E-2,5.6618744E-1,-4.6744976E-2,5.805069E-3,-9.016672E-2,-1.1128337E-2,7.6380104E-1,1.2547979E-2,9.1896564E-2],"categories":[],"categories_nodes":[],"categories_segments":[],"categories_sizes":[],"default_left":[0,0,0,0,0,0,0,0,0,0,0,0,0,0,0,0,0,0,0,0,0,0,0,0,0,0,0,0,0],"id":25,"left_children":[1,3,5,7,9,11,13,-1,-1,15,-1,-1,17,19,21,-1,-1,-1,23,-1,-1,25,-1,-1,-1,-1,27,-1,-1],"loss_changes":[1.9967401E0,1.6852773E0,2.010412E0,5.692606E-1,1.4202545E0,1.527878E0,1.6663239E0,0E0,0E0,4.516325E-1,0E0,0E0,1.1867266E0,1.1260587E-1,1.5353703E0,0E0,0E0,0E0,9.3815327E-1,0E0,0E0,1.0115752E0,0E0,0E0,0E0,0E0,4.2798042E-1,0E0,0E0],"parents":[2147483647,0,0,1,1,2,2,3,3,4,4,5,5,6,6,9,9,12,12,13,13,14,14,18,18,21,21,26,26],"right_children":[2,4,6,8,10,12,14,-1,-1,16,-1,-1,18,20,22,-1,-1,-1,24,-1,-1,26,-1,-1,-1,-1,28,-1,-1],"split_conditions":[3.296212E-1,3.9015365E-1,3.134412E-1,4.8734277E-1,3.05536E-1,1.8073452E-1,3.2450086E-1,-6.081766E-2,1.7262923E-2,4.7390395E-1,-2.314774E-2,4.0224344E-2,2.6305768E-1,3.5712168E-1,5.355273E-1,9.111115E-2,1.8492902E-2,1.2050973E-2,1.7912029E-1,-8.931761E-3,-6.0807694E-2,4.4838402E-1,-4.6744976E-2,5.805069E-3,-9.016672E-2,-1.1128337E-2,2.7913105E-1,1.2547979E-2,9.1896564E-2],"split_indices":[1011,1428,1289,719,1906,1905,1453,0,0,2046,0,0,1507,1627,125,0,0,0,1318,0,0,1417,0,0,0,0,553,0,0],"split_type":[0,0,0,0,0,0,0,0,0,0,0,0,0,0,0,0,0,0,0,0,0,0,0,0,0,0,0,0,0],"sum_hessian":[2.8466457E1,9.520666E0,1.8945791E1,2.2403066E0,7.2803597E0,9.745372E0,9.200419E0,1.2378699E0,1.0024368E0,5.927279E0,1.3530804E0,1.0152614E0,8.73011E0,2.2742949E0,6.926124E0,4.1713033E0,1.7559761E0,1.5210893E0,7.2090206E0,1.0035E0,1.270795E0,5.9210815E0,1.0050427E0,1.0520116E0,6.157009E0,1.435766E0,4.4853153E0,1.23078E0,3.2545354E0],"tree_param":{"num_deleted":"0","num_feature":"2048","num_nodes":"29","size_leaf_vector":"1"}},{"base_weights":[-4.883743E-3,-2.4895862E-1,2.6045302E-1,1.9422564E-1,-5.364496E-1,4.338992E-1,-4.2229775E-1,-4.162791E-2,5.0537E-1,-7.264295E-1,3.653447E-2,-2.4868642E-1,6.0299796E-1,3.319223E-3,-6.318384E-2,7.893506E-2,-1.770539E-2,1.0770195E-2,-8.933914E-2,1.803155E-2,-5.56761E-2,7.1405035E-1,-9.98192E-3,1.5214843E-3,8.437875E-1,1.8987518E-2,9.36842E-2],"categories":[],"categories_nodes":[],"categories_segments":[],"categories_sizes":[],"default_left":[0,0,0,0,0,0,0,0,0,0,0,0,0,0,0,0,0,0,0,0,0,0,0,0,0,0,0],"id":26,"left_children":[1,3,5,7,9,11,13,-1,15,17,-1,19,21,-1,-1,-1,-1,-1,-1,-1,-1,23,-1,-1,25,-1,-1],"loss_changes":[1.9025767E0,2.0525484E0,1.8511741E0,1.4927431E0,1.8999779E0,1.5032885E0,3.41668E-1,0E0,1.0939071E0,1.2403564E0,0E0,5.016347E-1,8.274903E-1,0E0,0E0,0E0,0E0,0E0,0E0,0E0,0E0,7.568617E-1,0E0,0E0,2.5669527E-1,0E0,0E0],"parents":[2147483647,0,0,1,1,2,2,3,3,4,4,5,5,6,6,8,8,9,9,11,11,12,12,21,21,24,24],"right_children":[2,4,6,8,10,12,14,-1,16,18,-1,20,22,-1,-1,-1,-1,-1,-1,-1,-1,24,-1,-1,26,-1,-1],"split_conditions":[5.0707126E-1,2.6583654E-1,6.441793E-1,3.7405995E-1,6.5240926E-1,3.133118E-1,3.8219848E-1,-4.162791E-2,3.7210488E-1,1.679839E-1,3.653447E-2,4.8589572E-1,4.0734908E-1,3.319223E-3,-6.318384E-2,7.893506E-2,-1.770539E-2,1.0770195E-2,-8.933914E-2,1.803155E-2,-5.56761E-2,2.3718776E-1,-9.98192E-3,1.5214843E-3,2.5139305E-1,1.8987518E-2,9.36842E-2],"split_indices":[1756,1964,42,1528,1505,1729,1253,0,459,242,0,1245,894,0,0,0,0,0,0,0,0,1775,0,0,459,0,0],"split_type":[0,0,0,0,0,0,0,0,0,0,0,0,0,0,0,0,0,0,0,0,0,0,0,0,0,0,0],"sum_hessian":[2.7376726E1,1.42918415E1,1.3084886E1,5.7509007E0,8.54094E0,1.0724831E1,2.3600545E0,1.8274047E0,3.923496E0,7.215353E0,1.3255877E0,2.0359278E0,8.688903E0,1.0087891E0,1.3512655E0,2.6599224E0,1.2635736E0,1.262568E0,5.952785E0,1.0242853E0,1.0116423E0,7.489501E0,1.1994023E0,1.3476408E0,6.14186E0,1.1439024E0,4.9979577E0],"tree_param":{"num_deleted":"0","num_feature":"2048","num_nodes":"27","size_leaf_vector":"1"}},{"base_weights":[-5.2580745E-3,2.1825173E-1,-2.7676174E-1,5.0609565E-1,-1.08244E-1,-5.733728E-1,1.47108E-1,-1.1308598E-2,7.114558E-1,-6.2932426E-1,3.925404E-1,2.3164712E-2,-7.766669E-1,-5.11324E-2,4.1706195E-1,8.399278E-2,6.546806E-3,-7.599006E-2,-1.05776135E-2,6.2267226E-1,-2.150555E-2,-1.3748872E-2,-8.751186E-2,-1.5807237E-2,6.5143056E-2,1.710382E-2,7.2765246E-2],"categories":[],"categories_nodes":[],"categories_segments":[],"categories_sizes":[],"default_left":[0,0,0,0,0,0,0,0,0,0,0,0,0,0,0,0,0,0,0,0,0,0,0,0,0,0,0],"id":27,"left_children":[1,3,5,7,9,11,13,-1,15,17,19,-1,21,-1,23,-1,-1,-1,-1,25,-1,-1,-1,-1,-1,-1,-1],"loss_changes":[1.7188284E0,1.5160199E0,1.6911762E0,1.1535869E0,2.363042E0,1.4438548E0,1.2899308E0,0E0,4.8235822E-1,2.1755064E-1,7.982048E-1,0E0,2.8215647E-1,0E0,7.5628966E-1,0E0,0E0,0E0,0E0,5.1086426E-2,0E0,0E0,0E0,0E0,0E0,0E0,0E0],"parents":[2147483647,0,0,1,1,2,2,3,3,4,4,5,5,6,6,8,8,9,9,10,10,12,12,14,14,19,19],"right_children":[2,4,6,8,10,12,14,-1,16,18,20,-1,22,-1,24,-1,-1,-1,-1,26,-1,-1,-1,-1,-1,-1,-1],"split_conditions":[4.1455835E-1,5.420018E-1,4.7852555E-1,4.2954612E-1,5.074845E-1,1.7509538E-1,2.6626578E-1,-1.1308598E-2,5.5788326E-1,7.5418144E-1,4.3778893E-1,2.3164712E-2,3.703141E-1,-5.11324E-2,5.1790464E-1,8.399278E-2,6.546806E-3,-7.599006E-2,-1.05776135E-2,4.305383E-1,-2.150555E-2,-1.3748872E-2,-8.751186E-2,-1.5807237E-2,6.5143056E-2,1.710382E-2,7.2765246E-2],"split_indices":[1206,135,529,4,256,1477,335,0,1410,434,1126,0,1439,0,1089,0,0,0,0,1277,0,0,0,0,0,0,0],"split_type":[0,0,0,0,0,0,0,0,0,0,0,0,0,0,0,0,0,0,0,0,0,0,0,0,0,0,0],"sum_hessian":[2.6328983E1,1.4548428E1,1.1780557E1,7.4395323E0,7.108895E0,6.723175E0,5.057381E0,1.964798E0,5.4747343E0,3.358061E0,3.750834E0,1.3273929E0,5.395782E0,1.210585E0,3.8467963E0,4.3161335E0,1.158601E0,2.3263984E0,1.0316627E0,2.7024472E0,1.0483868E0,1.0400401E0,4.355742E0,1.2079816E0,2.6388147E0,1.0055829E0,1.6968641E0],"tree_param":{"num_deleted":"0","num_feature":"2048","num_nodes":"27","size_leaf_vector":"1"}},{"base_weights":[-5.817621E-3,-3.9989078E-1,1.4248699E-1,7.01794E-2,-6.882986E-1,4.2922497E-1,-1.9071998E-1,4.3375492E-2,-4.4146102E-2,-7.870521E-2,-1.6103951E-2,6.0278726E-1,-1.6055988E-1,-5.35243E-1,1.5066E-1,8.0085725E-1,-5.6338715E-3,3.708779E-2,-5.5458903E-2,1.0673205E-2,-7.258012E-2,4.232631E-1,-4.010171E-2,1.4318029E-2,9.0257935E-2,6.976764E-2,-1.7626543E-2],"categories":[],"categories_nodes":[],"categories_segments":[],"categories_sizes":[],"default_left":[0,0,0,0,0,0,0,0,0,0,0,0,0,0,0,0,0,0,0,0,0,0,0,0,0,0,0],"id":28,"left_children":[1,3,5,7,9,11,13,-1,-1,-1,-1,15,17,19,21,23,-1,-1,-1,-1,-1,25,-1,-1,-1,-1,-1],"loss_changes":[1.5995387E0,1.0623575E0,1.984555E0,8.893656E-1,1.1944318E-1,1.223944E0,1.2453929E0,0E0,0E0,0E0,0E0,1.1832757E0,8.953069E-1,7.073114E-1,1.0351729E0,3.236332E-1,0E0,0E0,0E0,0E0,0E0,8.3665884E-1,0E0,0E0,0E0,0E0,0E0],"parents":[2147483647,0,0,1,1,2,2,3,3,4,4,5,5,6,6,11,11,12,12,13,13,14,14,15,15,21,21],"right_children":[2,4,6,8,10,12,14,-1,-1,-1,-1,16,18,20,22,24,-1,-1,-1,-1,-1,26,-1,-1,-1,-1,-1],"split_conditions":[2.7521297E-1,3.7215894E-1,5.458105E-1,3.090052E-1,1.1997534E0,7.193895E-1,3.8166377E-1,4.3375492E-2,-4.4146102E-2,-7.870521E-2,-1.6103951E-2,6.616073E-1,4.0992722E-1,3.9791214E-1,4.9193433E-1,4.27524E-1,-5.6338715E-3,3.708779E-2,-5.5458903E-2,1.0673205E-2,-7.258012E-2,2.9612345E-1,-4.010171E-2,1.4318029E-2,9.0257935E-2,6.976764E-2,-1.7626543E-2],"split_indices":[913,940,1993,1520,843,1312,379,0,0,0,0,413,2032,1234,636,1930,0,0,0,0,0,1292,0,0,0,0,0],"split_type":[0,0,0,0,0,0,0,0,0,0,0,0,0,0,0,0,0,0,0,0,0,0,0,0,0,0,0],"sum_hessian":[2.5394318E1,6.4798164E0,1.8914501E1,2.7516394E0,3.7281768E0,1.0011252E1,8.903249E0,1.6975645E0,1.054075E0,2.7250605E0,1.0031163E0,7.71796E0,2.2932928E0,4.1485863E0,4.754662E0,5.769249E0,1.9487112E0,1.001414E0,1.2918788E0,1.0502567E0,3.0983298E0,3.338006E0,1.4166561E0,1.0952904E0,4.6739583E0,2.1775844E0,1.1604216E0],"tree_param":{"num_deleted":"0","num_feature":"2048","num_nodes":"27","size_leaf_vector":"1"}},{"base_weights":[-7.921593E-3,8.413871E-2,-6.358E-2,-2.8940964E-1,2.4356435E-1,-5.4128885E-1,3.4373835E-2,4.0697473E-1,-2.8465876E-1,2.4097292E-2,-7.6715164E-2,5.960508E-1,-2.220972E-2,-5.9486132E-2,2.5771648E-2,7.123133E-1,-1.4986922E-2,-4.0229186E-1,4.5165896E-2,5.2159066E-5,8.1227547E-1,4.3516974E-3,-6.1636847E-2,1.983258E-2,8.942353E-2],"categories":[],"categories_nodes":[],"categories_segments":[],"categories_sizes":[],"default_left":[0,0,0,0,0,0,0,0,0,0,0,0,0,0,0,0,0,0,0,0,0,0,0,0,0],"id":29,"left_children":[1,3,-1,5,7,9,-1,11,13,-1,-1,15,17,-1,-1,19,-1,21,-1,-1,23,-1,-1,-1,-1],"loss_changes":[1.5274148E0,1.4474579E0,0E0,1.3619236E0,1.5615234E0,1.1854604E0,0E0,1.0846317E0,9.1807306E-1,0E0,0E0,9.046967E-1,1.082563E0,0E0,0E0,5.7834244E-1,0E0,3.4219068E-1,0E0,0E0,1.8152046E-1,0E0,0E0,0E0,0E0],"parents":[2147483647,0,0,1,1,3,3,4,4,5,5,7,7,8,8,11,11,12,12,15,15,17,17,20,20],"right_children":[2,4,-1,6,8,10,-1,12,14,-1,-1,16,18,-1,-1,20,-1,22,-1,-1,24,-1,-1,-1,-1],"split_conditions":[1.054845E0,3.6016935E-1,-6.358E-2,5.377809E-1,5.3741384E-1,2.886146E-1,3.4373835E-2,6.333046E-1,2.2571613E-1,2.4097292E-2,-7.6715164E-2,6.7351395E-1,5.877163E-1,-5.9486132E-2,2.5771648E-2,2.351067E-1,-1.4986922E-2,3.972882E-1,4.5165896E-2,5.2159066E-5,2.2466145E-1,4.3516974E-3,-6.1636847E-2,1.983258E-2,8.942353E-2],"split_indices":[1312,1968,0,529,194,1807,0,1048,1951,0,0,1290,1576,0,0,1547,0,1748,0,0,1634,0,0,0,0],"split_type":[0,0,0,0,0,0,0,0,0,0,0,0,0,0,0,0,0,0,0,0,0,0,0,0,0],"sum_hessian":[2.4499159E1,2.212165E1,2.3775084E0,6.373246E0,1.57484045E1,4.6632094E0,1.7100369E0,1.2202878E1,3.545526E0,1.0297691E0,3.6334405E0,8.201105E0,4.0017734E0,2.1939573E0,1.3515686E0,7.1341915E0,1.0669135E0,2.3044558E0,1.6973175E0,1.0023153E0,6.1318765E0,1.0060682E0,1.2983875E0,1.1249355E0,5.006941E0],"tree_param":{"num_deleted":"0","num_feature":"2048","num_nodes":"25","size_leaf_vector":"1"}},{"base_weights":[-8.800604E-3,-3.246264E-1,1.7336573E-1,1.8662277E-1,-5.2956414E-1,3.5864496E-1,-3.117219E-1,5.150485E-2,-2.2426149E-2,-7.2884244E-1,5.7770787E-3,5.0356114E-1,-2.8606579E-2,-6.2778726E-2,2.8799204E-2,-1.7770635E-2,-8.172136E-2,-2.3744704E-2,6.2837815E-1,7.6327705E-1,6.2760324E-3,6.9442736E-3,8.8395216E-2],"categories":[],"categories_nodes":[],"categories_segments":[],"categories_sizes":[],"default_left":[0,0,0,0,0,0,0,0,0,0,0,0,0,0,0,0,0,0,0,0,0,0,0],"id":30,"left_children":[1,3,5,7,9,11,13,-1,-1,15,-1,17,-1,-1,-1,-1,-1,-1,19,21,-1,-1,-1],"loss_changes":[1.473441E0,1.0793735E0,1.5744138E0,5.766676E-1,8.5452914E-1,1.2876995E0,1.1347537E0,0E0,0E0,1.107769E-1,0E0,1.1070933E0,0E0,0E0,0E0,0E0,0E0,0E0,6.4932513E-1,5.488777E-1,0E0,0E0,0E0],"parents":[2147483647,0,0,1,1,2,2,3,3,4,4,5,5,6,6,9,9,11,11,18,18,19,19],"right_children":[2,4,6,8,10,12,14,-1,-1,16,-1,18,-1,-1,-1,-1,-1,-1,20,22,-1,-1,-1],"split_conditions":[3.4867543E-1,3.807741E-1,6.027322E-1,6.808089E-1,8.092228E-1,6.7614925E-1,7.383502E-1,5.150485E-2,-2.2426149E-2,2.6767188E-1,5.7770787E-3,1.9452018E-1,-2.8606579E-2,-6.2778726E-2,2.8799204E-2,-1.7770635E-2,-8.172136E-2,-2.3744704E-2,5.5293745E-1,2.8965968E-1,6.2760324E-3,6.9442736E-3,8.8395216E-2],"split_indices":[181,135,839,1678,599,1162,1786,0,0,1877,0,403,0,0,0,0,0,0,1700,1465,0,0,0],"split_type":[0,0,0,0,0,0,0,0,0,0,0,0,0,0,0,0,0,0,0,0,0,0,0],"sum_hessian":[2.3632235E1,8.358642E0,1.5273594E1,2.4174085E0,5.9412327E0,1.1240821E1,4.0327725E0,1.2026225E0,1.2147859E0,4.2562037E0,1.6850291E0,9.356606E0,1.8842156E0,2.610276E0,1.4224967E0,1.0042152E0,3.2519884E0,1.2187605E0,8.137845E0,6.2885737E0,1.849271E0,1.1651092E0,5.1234646E0],"tree_param":{"num_deleted":"0","num_feature":"2048","num_nodes":"23","size_leaf_vector":"1"}},{"base_weights":[-1.0172331E-2,1.8904369E-1,-2.86916E-1,-4.348654E-1,3.4837016E-1,-6.3379043E-1,8.985761E-2,-6.1966814E-2,3.4729662E-4,7.167141E-1,8.3885424E-2,-8.094783E-2,-7.239321E-3,-2.9845005E-1,5.200478E-2,8.400505E-2,1.8517062E-2,-3.1279364E-1,3.537729E-1,1.9302858E-2,-5.82569E-2,2.0984685E-2,-6.5253384E-2,6.1667558E-2,-1.1752408E-2],"categories":[],"categories_nodes":[],"categories_segments":[],"categories_sizes":[],"default_left":[0,0,0,0,0,0,0,0,0,0,0,0,0,0,0,0,0,0,0,0,0,0,0,0,0],"id":31,"left_children":[1,3,5,7,9,11,13,-1,-1,15,17,-1,-1,19,-1,-1,-1,21,23,-1,-1,-1,-1,-1,-1],"loss_changes":[1.3711313E0,1.5920079E0,1.4154971E0,2.7697527E-1,1.11855E0,4.8745704E-1,1.1338563E0,0E0,0E0,1.6725683E-1,9.8583305E-1,0E0,0E0,6.311441E-1,0E0,0E0,0E0,8.1888E-1,7.333975E-1,0E0,0E0,0E0,0E0,0E0,0E0],"parents":[2147483647,0,0,1,1,2,2,3,3,4,4,5,5,6,6,9,9,10,10,13,13,17,17,18,18],"right_children":[2,4,6,8,10,12,14,-1,-1,16,18,-1,-1,20,-1,-1,-1,22,24,-1,-1,-1,-1,-1,-1],"split_conditions":[4.4418466E-1,1.8278643E-1,5.074581E-1,4.4099382E-1,3.0167535E-1,5.262988E-1,5.025696E-1,-6.1966814E-2,3.4729662E-4,4.8972479E-1,3.7969184E-1,-8.094783E-2,-7.239321E-3,4.90084E-1,5.200478E-2,8.400505E-2,1.8517062E-2,3.1164923E-1,4.222486E-1,1.9302858E-2,-5.82569E-2,2.0984685E-2,-6.5253384E-2,6.1667558E-2,-1.1752408E-2],"split_indices":[1458,1693,771,1465,366,1121,986,0,0,46,347,0,0,882,0,0,0,940,1306,0,0,0,0,0,0],"split_type":[0,0,0,0,0,0,0,0,0,0,0,0,0,0,0,0,0,0,0,0,0,0,0,0,0],"sum_hessian":[2.288626E1,1.3491326E1,9.394934E0,2.392622E0,1.1098703E1,4.536385E0,4.8585486E0,1.3920574E0,1.0005647E0,3.9239824E0,7.1747217E0,3.1185448E0,1.41784E0,2.7145338E0,2.1440148E0,2.7138724E0,1.21011E0,2.8406186E0,4.334103E0,1.1118406E0,1.6026932E0,1.269701E0,1.5709176E0,2.5841353E0,1.7499677E0],"tree_param":{"num_deleted":"0","num_feature":"2048","num_nodes":"25","size_leaf_vector":"1"}},{"base_weights":[-1.0898225E-2,2.204268E-1,-2.3639455E-1,-1.257665E-1,4.8202163E-1,-6.0324615E-1,3.0132098E-2,-5.3242534E-1,3.592923E-1,-1.7340962E-2,6.6121215E-1,-7.986675E-2,6.5211826E-3,3.0822453E-1,-4.570258E-1,-8.397899E-3,-6.726797E-2,-3.7796162E-3,5.68227E-2,7.509354E-3,7.73102E-2,-3.9305426E-2,5.627467E-1,-6.063318E-2,-5.685469E-3,7.41451E-2,2.5951965E-3],"categories":[],"categories_nodes":[],"categories_segments":[],"categories_sizes":[],"default_left":[0,0,0,0,0,0,0,0,0,0,0,0,0,0,0,0,0,0,0,0,0,0,0,0,0,0,0],"id":32,"left_children":[1,3,5,7,9,11,13,15,17,-1,19,-1,-1,21,23,-1,-1,-1,-1,-1,-1,-1,25,-1,-1,-1,-1],"loss_changes":[1.2577355E0,1.1407044E0,1.2097051E0,1.3602692E0,9.368069E-1,7.281766E-1,1.2261196E0,1.716075E-1,2.9523695E-1,0E0,3.1608295E-1,0E0,0E0,1.2380266E0,1.6352469E-1,0E0,0E0,0E0,0E0,0E0,0E0,0E0,4.2116642E-1,0E0,0E0,0E0,0E0],"parents":[2147483647,0,0,1,1,2,2,3,3,4,4,5,5,6,6,7,7,8,8,10,10,13,13,14,14,22,22],"right_children":[2,4,6,8,10,12,14,16,18,-1,20,-1,-1,22,24,-1,-1,-1,-1,-1,-1,-1,26,-1,-1,-1,-1],"split_conditions":[4.108094E-1,4.0758565E-1,3.1209642E-1,5.3183365E-1,3.4395808E-1,6.538725E-1,5.136847E-1,3.2841244E-1,4.9193865E-1,-1.7340962E-2,1.6930395E-1,-7.986675E-2,6.5211826E-3,3.3395392E-1,3.0182108E-1,-8.397899E-3,-6.726797E-2,-3.7796162E-3,5.68227E-2,7.509354E-3,7.73102E-2,-3.9305426E-2,3.8850006E-1,-6.063318E-2,-5.685469E-3,7.41451E-2,2.5951965E-3],"split_indices":[766,1789,56,463,1871,1084,48,600,1127,0,793,0,0,1037,169,0,0,0,0,0,0,0,965,0,0,0,0],"split_type":[0,0,0,0,0,0,0,0,0,0,0,0,0,0,0,0,0,0,0,0,0,0,0,0,0,0,0],"sum_hessian":[2.2112726E1,1.092639E1,1.11863365E1,4.926248E0,6.000141E0,4.175605E0,7.010731E0,2.626564E0,2.2996843E0,1.2951369E0,4.705004E0,3.0802994E0,1.0953054E0,4.696851E0,2.3138807E0,1.006658E0,1.619906E0,1.0752435E0,1.2244409E0,1.0220867E0,3.6829174E0,1.1057959E0,3.591055E0,1.3099501E0,1.0039306E0,2.408114E0,1.1829408E0],"tree_param":{"num_deleted":"0","num_feature":"2048","num_nodes":"27","size_leaf_vector":"1"}},{"base_weights":[-1.2750902E-2,2.9733503E-1,-1.7762467E-1,-2.8809637E-2,4.9339086E-1,-4.3963277E-1,1.1345286E-1,6.766797E-1,-2.2907903E-2,-6.295594E-1,1.4542124E-2,-4.360151E-2,3.3653206E-1,8.1662014E-2,6.310021E-3,-4.094606E-3,-8.174781E-2,-1.8531231E-2,5.948573E-1,7.5693004E-2,6.857009E-3],"categories":[],"categories_nodes":[],"categories_segments":[],"categories_sizes":[],"default_left":[0,0,0,0,0,0,0,0,0,0,0,0,0,0,0,0,0,0,0,0,0],"id":33,"left_children":[1,3,5,-1,7,9,11,13,-1,15,-1,-1,17,-1,-1,-1,-1,-1,19,-1,-1],"loss_changes":[1.1951815E0,1.0753404E0,1.2101743E0,0E0,1.0103722E0,1.0040452E0,1.1275889E0,4.1258645E-1,0E0,6.7301273E-1,0E0,0E0,9.5355284E-1,0E0,0E0,0E0,0E0,0E0,3.2527554E-1,0E0,0E0],"parents":[2147483647,0,0,1,1,2,2,4,4,5,5,6,6,7,7,9,9,12,12,18,18],"right_children":[2,4,6,-1,8,10,12,14,-1,16,-1,-1,18,-1,-1,-1,-1,-1,20,-1,-1],"split_conditions":[3.296212E-1,3.9015365E-1,3.134412E-1,-2.8809637E-2,4.549947E-1,7.330528E-1,3.2450086E-1,3.9894852E-1,-2.2907903E-2,2.6243013E-1,1.4542124E-2,-4.360151E-2,3.5762656E-1,8.1662014E-2,6.310021E-3,-4.094606E-3,-8.174781E-2,-1.8531231E-2,4.9177015E-1,7.5693004E-2,6.857009E-3],"split_indices":[1011,1428,1289,0,1944,1846,1453,385,0,350,0,0,1142,0,0,0,0,0,1746,0,0],"split_type":[0,0,0,0,0,0,0,0,0,0,0,0,0,0,0,0,0,0,0,0,0],"sum_hessian":[2.1344578E1,7.1304994E0,1.4214079E1,1.6710899E0,5.459409E0,7.2119823E0,7.0020967E0,4.405201E0,1.0542083E0,5.387094E0,1.8248882E0,1.7462832E0,5.255813E0,3.31763E0,1.0875713E0,1.5983888E0,3.7887053E0,1.8338604E0,3.421953E0,2.281201E0,1.140752E0],"tree_param":{"num_deleted":"0","num_feature":"2048","num_nodes":"21","size_leaf_vector":"1"}},{"base_weights":[-1.2470543E-2,1.9486244E-1,-2.5953218E-1,4.5873365E-1,-1.0089063E-1,-5.266591E-1,1.173186E-1,-3.1358462E-3,6.568415E-1,3.2134953E-1,-4.9088222E-1,1.7971233E-2,-7.146647E-1,-4.1153308E-2,3.7322113E-1,7.818768E-2,1.2770483E-2,-1.0396618E-2,5.5813868E-2,1.8696878E-3,-6.868875E-2,-8.001949E-2,-1.818317E-2,-1.2263621E-2,6.1146062E-2],"categories":[],"categories_nodes":[],"categories_segments":[],"categories_sizes":[],"default_left":[0,0,0,0,0,0,0,0,0,0,0,0,0,0,0,0,0,0,0,0,0,0,0,0,0],"id":34,"left_children":[1,3,5,7,9,11,13,-1,15,17,19,-1,21,-1,23,-1,-1,-1,-1,-1,-1,-1,-1,-1,-1],"loss_changes":[1.1614343E0,1.0110497E0,1.101069E0,6.724293E-1,1.2525963E0,9.549507E-1,8.4383655E-1,0E0,2.1948004E-1,4.4039887E-1,3.9758188E-1,0E0,8.766818E-2,0E0,5.429735E-1,0E0,0E0,0E0,0E0,0E0,0E0,0E0,0E0,0E0,0E0],"parents":[2147483647,0,0,1,1,2,2,3,3,4,4,5,5,6,6,8,8,9,9,10,10,12,12,14,14],"right_children":[2,4,6,8,10,12,14,-1,16,18,20,-1,22,-1,24,-1,-1,-1,-1,-1,-1,-1,-1,-1,-1],"split_conditions":[4.1455835E-1,3.7756956E-1,4.7852555E-1,3.3581194E-1,2.4269E-1,1.7509538E-1,3.378844E-1,-3.1358462E-3,3.8655618E-1,7.7328986E-1,3.1713337E-1,1.7971233E-2,5.8389777E-1,-4.1153308E-2,2.6777393E-1,7.818768E-2,1.2770483E-2,-1.0396618E-2,5.5813868E-2,1.8696878E-3,-6.868875E-2,-8.001949E-2,-1.818317E-2,-1.2263621E-2,6.1146062E-2],"split_indices":[1206,1011,529,750,1018,1477,1323,0,1631,666,1092,0,1917,0,1203,0,0,0,0,0,0,0,0,0,0],"split_type":[0,0,0,0,0,0,0,0,0,0,0,0,0,0,0,0,0,0,0,0,0,0,0,0,0],"sum_hessian":[2.0686329E1,1.1362365E1,9.323964E0,5.7136083E0,5.648757E0,5.223683E0,4.100281E0,1.887039E0,3.826569E0,2.7967505E0,2.8520062E0,1.1073354E0,4.1163473E0,1.1387537E0,2.9615273E0,2.7088258E0,1.1177433E0,1.2008114E0,1.5959392E0,1.043556E0,1.8084502E0,3.1146164E0,1.0017308E0,1.1185937E0,1.8429337E0],"tree_param":{"num_deleted":"0","num_feature":"2048","num_nodes":"25","size_leaf_vector":"1"}},{"base_weights":[-1.2011649E-2,-2.2962151E-1,2.2179782E-1,3.0667633E-1,-4.104977E-1,3.7287438E-1,-3.499944E-2,5.537938E-2,-7.759025E-3,-5.679889E-1,3.8260553E-2,-2.1989172E-2,5.218126E-1,-6.05337E-4,-7.352359E-1,5.6284245E-2,6.90825E-1,-8.85871E-3,-8.479886E-2,4.2878546E-2,-3.408761E-2,7.956624E-2,1.2980744E-2],"categories":[],"categories_nodes":[],"categories_segments":[],"categories_sizes":[],"default_left":[0,0,0,0,0,0,0,0,0,0,0,0,0,0,0,0,0,0,0,0,0,0,0],"id":35,"left_children":[1,3,5,7,9,11,-1,-1,-1,13,-1,-1,15,-1,17,19,21,-1,-1,-1,-1,-1,-1],"loss_changes":[1.12126E0,1.2304821E0,1.0504587E0,3.700358E-1,1.3343371E0,9.0119064E-1,0E0,0E0,0E0,7.345972E-1,0E0,0E0,5.4458547E-1,0E0,3.66122E-1,5.994445E-1,2.1148658E-1,0E0,0E0,0E0,0E0,0E0,0E0],"parents":[2147483647,0,0,1,1,2,2,3,3,4,4,5,5,9,9,12,12,14,14,15,15,16,16],"right_children":[2,4,6,8,10,12,-1,-1,-1,14,-1,-1,16,-1,18,20,22,-1,-1,-1,-1,-1,-1],"split_conditions":[5.0707126E-1,5.7082146E-1,6.441793E-1,3.1346238E-1,6.932594E-1,3.133118E-1,-3.499944E-2,5.537938E-2,-7.759025E-3,1.6979022E-1,3.8260553E-2,-2.1989172E-2,3.2501635E-1,-6.05337E-4,2.8100228E-1,3.320953E-1,5.2123374E-1,-8.85871E-3,-8.479886E-2,4.2878546E-2,-3.408761E-2,7.956624E-2,1.2980744E-2],"split_indices":[1756,617,42,364,165,1729,0,0,0,456,0,0,1450,0,143,423,1267,0,0,0,0,0,0],"split_type":[0,0,0,0,0,0,0,0,0,0,0,0,0,0,0,0,0,0,0,0,0,0,0],"sum_hessian":[2.0036682E1,1.0387136E1,9.649547E0,2.4442956E0,7.9428406E0,7.90801E0,1.7415364E0,1.2191216E0,1.2251742E0,6.863713E0,1.079128E0,1.4923085E0,6.4157014E0,1.8119413E0,5.051771E0,2.0639014E0,4.3518E0,1.0151944E0,4.0365767E0,1.0239236E0,1.0399777E0,3.3142223E0,1.0375775E0],"tree_param":{"num_deleted":"0","num_feature":"2048","num_nodes":"23","size_leaf_vector":"1"}},{"base_weights":[-9.576172E-3,-3.665223E-1,1.2712915E-1,-5.4121464E-1,2.2836942E-2,3.9150244E-1,-1.8284242E-1,8.5991167E-4,-7.259186E-2,5.455139E-1,-1.3546673E-2,-3.99827E-1,2.588019E-1,7.257894E-1,-5.627981E-3,1.4466578E-2,-6.320384E-1,-1.8010905E-2,5.573466E-2,8.092524E-2,1.8639313E-2,-7.2587065E-2,-1.6915416E-2],"categories":[],"categories_nodes":[],"categories_segments":[],"categories_sizes":[],"default_left":[0,0,0,0,0,0,0,0,0,0,0,0,0,0,0,0,0,0,0,0,0,0,0],"id":36,"left_children":[1,3,5,7,-1,9,11,-1,-1,13,-1,15,17,19,-1,-1,21,-1,-1,-1,-1,-1,-1],"loss_changes":[1.0420442E0,7.374537E-1,1.3412215E0,5.00069E-1,0E0,7.7835846E-1,8.5221756E-1,0E0,0E0,7.911351E-1,0E0,8.035432E-1,5.172195E-1,9.197879E-2,0E0,0E0,5.6793094E-2,0E0,0E0,0E0,0E0,0E0,0E0],"parents":[2147483647,0,0,1,1,2,2,3,3,5,5,6,6,9,9,11,11,12,12,13,13,16,16],"right_children":[2,4,6,8,-1,10,12,-1,-1,14,-1,16,18,20,-1,-1,22,-1,-1,-1,-1,-1,-1],"split_conditions":[2.7521297E-1,6.1329687E-1,5.458105E-1,3.1164923E-1,2.2836942E-2,7.193895E-1,4.8765045E-1,8.5991167E-4,-7.259186E-2,6.616073E-1,-1.3546673E-2,1.5730399E-1,2.7950758E-1,6.965584E-1,-5.627981E-3,1.4466578E-2,5.717438E-1,-1.8010905E-2,5.573466E-2,8.092524E-2,1.8639313E-2,-7.2587065E-2,-1.6915416E-2],"split_indices":[913,1321,1993,940,0,1312,1345,0,0,413,0,1906,1319,1497,0,0,348,0,0,0,0,0,0],"split_type":[0,0,0,0,0,0,0,0,0,0,0,0,0,0,0,0,0,0,0,0,0,0,0],"sum_hessian":[1.9400023E1,4.9068413E0,1.4493181E1,3.8627572E0,1.0440843E0,7.679956E0,6.8132253E0,1.211096E0,2.6516612E0,5.9158144E0,1.7641418E0,4.632107E0,2.1811185E0,4.393606E0,1.5222081E0,1.497576E0,3.1345308E0,1.0435841E0,1.1375343E0,3.3716106E0,1.0219957E0,2.1338305E0,1.0007002E0],"tree_param":{"num_deleted":"0","num_feature":"2048","num_nodes":"23","size_leaf_vector":"1"}},{"base_weights":[-9.219189E-3,1.716205E-1,-2.750555E-1,3.7534678E-1,-2.4764387E-1,2.9781157E-2,-4.7842E-1,-1.886709E-2,5.0713557E-1,-5.2378643E-2,2.3041116E-2,-6.7634386E-1,1.220546E-2,6.614649E-1,2.1708014E-3,-7.9787835E-2,-1.0549563E-2,1.1715365E-2,7.630005E-2],"categories":[],"categories_nodes":[],"categories_segments":[],"categories_sizes":[],"default_left":[0,0,0,0,0,0,0,0,0,0,0,0,0,0,0,0,0,0,0],"id":37,"left_children":[1,3,5,7,9,-1,11,-1,13,-1,-1,15,-1,17,-1,-1,-1,-1,-1],"loss_changes":[1.000531E0,1.1536176E0,1.1225674E0,7.464143E-1,7.3629034E-1,0E0,8.660388E-1,0E0,5.3758323E-1,0E0,0E0,2.7041435E-1,0E0,2.176919E-1,0E0,0E0,0E0,0E0,0E0],"parents":[2147483647,0,0,1,1,2,2,3,3,4,4,6,6,8,8,11,11,13,13],"right_children":[2,4,6,8,10,-1,12,-1,14,-1,-1,16,-1,18,-1,-1,-1,-1,-1],"split_conditions":[4.4985807E-1,3.410792E-1,2.9196352E-1,1.8990168E-1,4.73382E-1,2.9781157E-2,5.505921E-1,-1.886709E-2,6.712537E-1,-5.2378643E-2,2.3041116E-2,6.0804087E-1,1.220546E-2,2.0291251E-1,2.1708014E-3,-7.9787835E-2,-1.0549563E-2,1.1715365E-2,7.630005E-2],"split_indices":[1458,459,615,1693,921,0,1938,0,873,0,0,966,0,609,0,0,0,0,0],"split_type":[0,0,0,0,0,0,0,0,0,0,0,0,0,0,0,0,0,0,0],"sum_hessian":[1.8830482E1,1.1417765E1,7.412717E0,7.754498E0,3.663267E0,1.8203797E0,5.592337E0,1.3869861E0,6.3675117E0,2.2613595E0,1.4019076E0,4.1109633E0,1.4813737E0,4.5563064E0,1.8112057E0,3.0614662E0,1.0494974E0,1.0549189E0,3.5013874E0],"tree_param":{"num_deleted":"0","num_feature":"2048","num_nodes":"19","size_leaf_vector":"1"}},{"base_weights":[-9.012551E-3,-2.9542178E-1,1.5767178E-1,-4.5755646E-1,2.3079054E-2,3.222606E-1,-2.7304217E-1,-6.4463216E-1,6.63144E-3,4.6307775E-1,-2.678968E-2,-5.6768905E-2,2.6032476E-2,-1.2688093E-2,-7.550912E-2,-1.4790706E-2,5.714644E-1,6.9069237E-1,6.5923682E-3,9.676575E-3,7.957786E-2],"categories":[],"categories_nodes":[],"categories_segments":[],"categories_sizes":[],"default_left":[0,0,0,0,0,0,0,0,0,0,0,0,0,0,0,0,0,0,0,0,0],"id":38,"left_children":[1,3,5,7,-1,9,11,13,-1,15,-1,-1,-1,-1,-1,-1,17,19,-1,-1,-1],"loss_changes":[9.69304E-1,7.4193335E-1,1.0003332E0,6.3439035E-1,0E0,9.359994E-1,7.920469E-1,1.639334E-1,0E0,6.311581E-1,0E0,0E0,0E0,0E0,0E0,0E0,3.8943315E-1,2.8085923E-1,0E0,0E0,0E0],"parents":[2147483647,0,0,1,1,2,2,3,3,5,5,6,6,7,7,9,9,16,16,17,17],"right_children":[2,4,6,8,-1,10,12,14,-1,16,-1,-1,-1,-1,-1,-1,18,20,-1,-1,-1],"split_conditions":[3.4867543E-1,1.1058697E0,6.027322E-1,4.5007533E-1,2.3079054E-2,6.7614925E-1,7.383502E-1,2.8674197E-1,6.63144E-3,1.9788575E-1,-2.678968E-2,-5.6768905E-2,2.6032476E-2,-1.2688093E-2,-7.550912E-2,-1.4790706E-2,5.5293745E-1,2.9219094E-1,6.5923682E-3,9.676575E-3,7.957786E-2],"split_indices":[181,1544,839,555,0,1162,1786,1054,0,403,0,0,0,0,0,0,1700,1465,0,0,0],"split_type":[0,0,0,0,0,0,0,0,0,0,0,0,0,0,0,0,0,0,0,0,0],"sum_hessian":[1.8328146E1,6.4584394E0,1.1869706E1,5.0369453E0,1.4214942E0,8.770162E0,3.0995448E0,3.5416832E0,1.495262E0,7.254501E0,1.5156611E0,1.9551275E0,1.1444172E0,1.000542E0,2.5411413E0,1.0380878E0,6.216413E0,4.7337494E0,1.4826634E0,1.0004165E0,3.7333329E0],"tree_param":{"num_deleted":"0","num_feature":"2048","num_nodes":"21","size_leaf_vector":"1"}},{"base_weights":[-1.01851E-2,2.2886963E-1,-2.0468554E-1,4.6662518E-1,-1.6725986E-1,-3.4944496E-1,3.268407E-2,-6.6020894E-3,6.777065E-2,2.5837714E-2,-5.2332856E-2,-4.6792197E-1,2.826337E-2,-6.092674E-1,1.2669745E-2,-7.427663E-1,6.393421E-3,-8.211475E-2,-1.9047325E-2],"categories":[],"categories_nodes":[],"categories_segments":[],"categories_sizes":[],"default_left":[0,0,0,0,0,0,0,0,0,0,0,0,0,0,0,0,0,0,0],"id":39,"left_children":[1,3,5,7,9,11,-1,-1,-1,-1,-1,13,-1,15,-1,17,-1,-1,-1],"loss_changes":[9.2187256E-1,9.176584E-1,9.532436E-1,7.0077145E-1,7.5354326E-1,8.102517E-1,0E0,0E0,0E0,0E0,0E0,7.496598E-1,0E0,6.439309E-1,0E0,8.6775064E-2,0E0,0E0,0E0],"parents":[2147483647,0,0,1,1,2,2,3,3,4,4,5,5,11,11,13,13,15,15],"right_children":[2,4,6,8,10,12,-1,-1,-1,-1,-1,14,-1,16,-1,18,-1,-1,-1],"split_conditions":[3.827348E-1,5.680615E-1,9.554024E-1,4.4793448E-1,4.3040723E-1,8.1633973E-1,3.268407E-2,-6.6020894E-3,6.777065E-2,2.5837714E-2,-5.2332856E-2,6.5464497E-1,2.826337E-2,4.1413432E-1,1.2669745E-2,6.4360595E-1,6.393421E-3,-8.211475E-2,-1.9047325E-2],"split_indices":[2046,135,228,246,1723,1384,0,0,0,0,0,50,0,1103,0,1756,0,0,0],"split_type":[0,0,0,0,0,0,0,0,0,0,0,0,0,0,0,0,0,0,0],"sum_hessian":[1.7819286E1,7.9147706E0,9.904515E0,4.834912E0,3.0798583E0,8.053684E0,1.8508315E0,1.5672683E0,3.2676437E0,1.5278547E0,1.5520037E0,7.0011044E0,1.0525796E0,5.6366067E0,1.3644978E0,4.6175847E0,1.0190217E0,3.6174078E0,1.0001769E0],"tree_param":{"num_deleted":"0","num_feature":"2048","num_nodes":"19","size_leaf_vector":"1"}},{"base_weights":[-9.060835E-3,-3.1417903E-1,1.3807042E-1,-5.5823284E-1,3.0532453E-2,2.8156513E-1,-3.8067302E-1,1.7335544E-3,-7.1340814E-2,-3.4293123E-2,3.9017642E-1,8.408599E-4,-5.7485964E-2,5.349211E-1,-9.649765E-2,6.499529E-1,-5.4402505E-3,2.5870452E-2,-3.9735463E-2,4.517995E-3,7.5513385E-2],"categories":[],"categories_nodes":[],"categories_segments":[],"categories_sizes":[],"default_left":[0,0,0,0,0,0,0,0,0,0,0,0,0,0,0,0,0,0,0,0,0],"id":40,"left_children":[1,3,5,7,-1,9,11,-1,-1,-1,13,-1,-1,15,17,19,-1,-1,-1,-1,-1],"loss_changes":[8.652471E-1,1.1171043E0,1.0783026E0,4.4512427E-1,0E0,8.659423E-1,2.5053972E-1,0E0,0E0,0E0,7.3229647E-1,0E0,0E0,5.506053E-1,4.300434E-1,3.753116E-1,0E0,0E0,0E0,0E0,0E0],"parents":[2147483647,0,0,1,1,2,2,3,3,5,5,6,6,10,10,13,13,14,14,15,15],"right_children":[2,4,6,8,-1,10,12,-1,-1,-1,14,-1,-1,16,18,20,-1,-1,-1,-1,-1],"split_conditions":[3.6177394E-1,5.68537E-1,5.184461E-1,3.1597602E-1,3.0532453E-2,1.6298379E-1,3.532356E-1,1.7335544E-3,-7.1340814E-2,-3.4293123E-2,6.369211E-1,8.408599E-4,-5.7485964E-2,5.901012E-1,3.8151863E-1,2.4476314E-1,-5.4402505E-3,2.5870452E-2,-3.9735463E-2,4.517995E-3,7.5513385E-2],"split_indices":[1968,529,1569,1807,0,861,1253,0,0,0,806,0,0,1869,930,725,0,0,0,0,0],"split_type":[0,0,0,0,0,0,0,0,0,0,0,0,0,0,0,0,0,0,0,0,0],"sum_hessian":[1.7307505E1,5.2613153E0,1.2046189E1,3.845343E0,1.4159725E0,9.79415E0,2.2520387E0,1.0051976E0,2.8401453E0,1.1313964E0,8.662754E0,1.06828E0,1.1837587E0,6.6005177E0,2.062236E0,5.4364767E0,1.164041E0,1.0099555E0,1.0522805E0,1.0172142E0,4.4192624E0],"tree_param":{"num_deleted":"0","num_feature":"2048","num_nodes":"21","size_leaf_vector":"1"}},{"base_weights":[-1.2277251E-2,1.6213223E-1,-2.689631E-1,3.5503012E-1,-2.3728783E-1,2.6737342E-2,-4.6459323E-1,-1.9492235E-2,4.7510633E-1,-4.859757E-2,2.0131039E-2,-6.4682955E-1,9.702359E-3,-7.0363292E-3,5.9029406E-1,-7.574894E-2,-1.2570131E-2,6.943368E-2,9.522793E-3],"categories":[],"categories_nodes":[],"categories_segments":[],"categories_sizes":[],"default_left":[0,0,0,0,0,0,0,0,0,0,0,0,0,0,0,0,0,0,0],"id":41,"left_children":[1,3,5,7,9,-1,11,-1,13,-1,-1,15,-1,-1,17,-1,-1,-1,-1],"loss_changes":[8.398004E-1,9.482057E-1,9.186274E-1,6.184008E-1,5.61529E-1,0E0,6.6793776E-1,0E0,4.704342E-1,0E0,0E0,1.6975701E-1,0E0,0E0,2.29666E-1,0E0,0E0,0E0,0E0],"parents":[2147483647,0,0,1,1,2,2,3,3,4,4,6,6,8,8,11,11,14,14],"right_children":[2,4,6,8,10,-1,12,-1,14,-1,-1,16,-1,-1,18,-1,-1,-1,-1],"split_conditions":[4.4985807E-1,3.410792E-1,2.9196352E-1,2.2250712E-1,4.73382E-1,2.6737342E-2,5.505921E-1,-1.9492235E-2,3.1898013E-1,-4.859757E-2,2.0131039E-2,5.973882E-1,9.702359E-3,-7.0363292E-3,4.2437068E-1,-7.574894E-2,-1.2570131E-2,6.943368E-2,9.522793E-3],"split_indices":[1458,459,615,1423,921,0,1938,0,1586,0,0,966,0,0,642,0,0,0,0],"split_type":[0,0,0,0,0,0,0,0,0,0,0,0,0,0,0,0,0,0,0],"sum_hessian":[1.6784687E1,1.021339E1,6.5712953E0,6.962178E0,3.2512126E0,1.6582725E0,4.913023E0,1.1359898E0,5.8261886E0,2.0058584E0,1.2453542E0,3.5948274E0,1.3181956E0,1.0836627E0,4.7425256E0,2.5910666E0,1.0037608E0,3.5863144E0,1.1562111E0],"tree_param":{"num_deleted":"0","num_feature":"2048","num_nodes":"19","size_leaf_vector":"1"}},{"base_weights":[-1.3066843E-2,-2.8809172E-1,1.4866231E-1,-4.4306654E-1,2.1193378E-2,3.1189263E-1,-2.513126E-1,-6.2216496E-1,5.967281E-3,4.6197173E-1,-2.2635205E-2,2.2707371E-2,-5.0621927E-2,-1.7075738E-2,-7.12716E-2,-1.4978728E-2,5.923026E-1,7.123981E-2,-6.3309964E-4],"categories":[],"categories_nodes":[],"categories_segments":[],"categories_sizes":[],"default_left":[0,0,0,0,0,0,0,0,0,0,0,0,0,0,0,0,0,0,0],"id":42,"left_children":[1,3,5,7,-1,9,11,13,-1,15,-1,-1,-1,-1,-1,-1,17,-1,-1],"loss_changes":[8.1513274E-1,6.185105E-1,8.352809E-1,5.31598E-1,0E0,8.056877E-1,5.922097E-1,4.7388196E-2,0E0,6.560755E-1,0E0,0E0,0E0,0E0,0E0,0E0,4.4075584E-1,0E0,0E0],"parents":[2147483647,0,0,1,1,2,2,3,3,5,5,6,6,7,7,9,9,16,16],"right_children":[2,4,6,8,-1,10,12,14,-1,16,-1,-1,-1,-1,-1,-1,18,-1,-1],"split_conditions":[3.4867543E-1,1.1058697E0,4.548686E-1,4.5007533E-1,2.1193378E-2,6.6885424E-1,3.6657485E-1,3.1444228E-1,5.967281E-3,2.4445406E-1,-2.2635205E-2,2.2707371E-2,-5.0621927E-2,-1.7075738E-2,-7.12716E-2,-1.4978728E-2,5.547038E-1,7.123981E-2,-6.3309964E-4],"split_indices":[181,1544,601,555,0,53,1677,1680,0,697,0,0,0,0,0,0,1013,0,0],"split_type":[0,0,0,0,0,0,0,0,0,0,0,0,0,0,0,0,0,0,0],"sum_hessian":[1.6363134E1,5.7699146E0,1.059322E1,4.491698E0,1.2782168E0,7.679447E0,2.913773E0,3.1367102E0,1.3549875E0,